{"learner":{"attributes":{"best_iteration":"168","best_score":"0.8977837707207716","scikit_learn":"{\"_estimator_type\": \"classifier\"}"},"feature_names":["type_1buy","type_2buy","type_3buy","type_quasi2buy","type_sub1buy","type_2b3bbuy","confidence","confidence_sq","pivot_width_pct","price_above_zg_pct","price_above_zd_pct","stop_loss_dist_pct","macd_hist_last","macd_hist_prev","macd_below_zero","macd_area_10","ma5_dist_pct","ma5_slope","ma10_dist_pct","ma10_slope","ma20_dist_pct","ma20_slope","ma60_dist_pct","ma60_slope","ma_bullish_align","ma_bearish_align","atr_14_pct","volatility_20","rsi_14","vol_ratio_5","vol_ratio_20","vol_shrink","weekly_up","weekly_down","env_bull","env_bear","conf_x_weekly_up","conf_x_env_bull","weekly_up_x_rsi","ret_3d","ret_10d","ret_20d","dist_from_high20_pct","dist_from_low20_pct"],"feature_types":["int","int","int","int","int","int","float","float","float","float","float","float","float","float","int","float","float","float","float","float","float","float","float","float","int","int","float","float","float","float","float","float","int","int","int","int","float","float","float","float","float","float","float","float"],"gradient_booster":{"model":{"cats":{"enc":[],"feature_segments":[],"sorted_idx":[]},"gbtree_model_param":{"num_parallel_tree":"1","num_trees":"597"},"iteration_indptr":[0,3,6,9,12,15,18,21,24,27,30,33,36,39,42,45,48,51,54,57,60,63,66,69,72,75,78,81,84,87,90,93,96,99,102,105,108,111,114,117,120,123,126,129,132,135,138,141,144,147,150,153,156,159,162,165,168,171,174,177,180,183,186,189,192,195,198,201,204,207,210,213,216,219,222,225,228,231,234,237,240,243,246,249,252,255,258,261,264,267,270,273,276,279,282,285,288,291,294,297,300,303,306,309,312,315,318,321,324,327,330,333,336,339,342,345,348,351,354,357,360,363,366,369,372,375,378,381,384,387,390,393,396,399,402,405,408,411,414,417,420,423,426,429,432,435,438,441,444,447,450,453,456,459,462,465,468,471,474,477,480,483,486,489,492,495,498,501,504,507,510,513,516,519,522,525,528,531,534,537,540,543,546,549,552,555,558,561,564,567,570,573,576,579,582,585,588,591,594,597],"tree_info":[0,1,2,0,1,2,0,1,2,0,1,2,0,1,2,0,1,2,0,1,2,0,1,2,0,1,2,0,1,2,0,1,2,0,1,2,0,1,2,0,1,2,0,1,2,0,1,2,0,1,2,0,1,2,0,1,2,0,1,2,0,1,2,0,1,2,0,1,2,0,1,2,0,1,2,0,1,2,0,1,2,0,1,2,0,1,2,0,1,2,0,1,2,0,1,2,0,1,2,0,1,2,0,1,2,0,1,2,0,1,2,0,1,2,0,1,2,0,1,2,0,1,2,0,1,2,0,1,2,0,1,2,0,1,2,0,1,2,0,1,2,0,1,2,0,1,2,0,1,2,0,1,2,0,1,2,0,1,2,0,1,2,0,1,2,0,1,2,0,1,2,0,1,2,0,1,2,0,1,2,0,1,2,0,1,2,0,1,2,0,1,2,0,1,2,0,1,2,0,1,2,0,1,2,0,1,2,0,1,2,0,1,2,0,1,2,0,1,2,0,1,2,0,1,2,0,1,2,0,1,2,0,1,2,0,1,2,0,1,2,0,1,2,0,1,2,0,1,2,0,1,2,0,1,2,0,1,2,0,1,2,0,1,2,0,1,2,0,1,2,0,1,2,0,1,2,0,1,2,0,1,2,0,1,2,0,1,2,0,1,2,0,1,2,0,1,2,0,1,2,0,1,2,0,1,2,0,1,2,0,1,2,0,1,2,0,1,2,0,1,2,0,1,2,0,1,2,0,1,2,0,1,2,0,1,2,0,1,2,0,1,2,0,1,2,0,1,2,0,1,2,0,1,2,0,1,2,0,1,2,0,1,2,0,1,2,0,1,2,0,1,2,0,1,2,0,1,2,0,1,2,0,1,2,0,1,2,0,1,2,0,1,2,0,1,2,0,1,2,0,1,2,0,1,2,0,1,2,0,1,2,0,1,2,0,1,2,0,1,2,0,1,2,0,1,2,0,1,2,0,1,2,0,1,2,0,1,2,0,1,2,0,1,2,0,1,2,0,1,2,0,1,2,0,1,2,0,1,2,0,1,2,0,1,2,0,1,2,0,1,2,0,1,2,0,1,2,0,1,2,0,1,2,0,1,2,0,1,2,0,1,2,0,1,2,0,1,2,0,1,2,0,1,2,0,1,2,0,1,2,0,1,2,0,1,2,0,1,2,0,1,2,0,1,2,0,1,2,0,1,2,0,1,2,0,1,2,0,1,2,0,1,2,0,1,2,0,1,2,0,1,2,0,1,2,0,1,2,0,1,2,0,1,2,0,1,2,0,1,2,0,1,2,0,1,2,0,1,2,0,1,2,0,1,2,0,1,2,0,1,2,0,1,2,0,1,2],"trees":[{"base_weights":[3.878409E-3,3.7251055E-1,-1.4628142E-1,6.2037456E-1,1.9285268E-1,-8.090093E-2,-4.6848482E-1,7.809125E-1,2.354827E-1,1.6196642E-2,3.345325E-1,-2.0935532E-1,2.5194533E-2,-3.6395723E-1,-6.072102E-1,9.293123E-1,6.083406E-1,3.7770817E-1,-1.1984371E-1,-7.5430445E-2,9.849493E-2,4.377871E-1,1.693187E-1,-5.0401E-1,-1.7147705E-1,3.0671996E-1,-5.2752864E-2,-5.305862E-1,-3.1839347E-1,-5.455389E-1,-3.4361076E-2,5.3372215E-2,3.835321E-2,4.0911034E-2,2.6491811E-2,2.5414083E-2,9.226109E-3,4.0756757E-3,-1.1799929E-2,1.379295E-2,-4.774465E-3,1.6192354E-2,-2.0763103E-3,8.402651E-3,2.9271776E-2,1.14730345E-2,-5.4364717E-3,-2.9040098E-2,-1.4457531E-2,-6.4914E-3,-1.46243945E-2,8.432155E-3,2.422453E-2,-6.8574294E-4,-1.2312773E-2,-2.874784E-2,-2.0074151E-2,-1.0104746E-2,-1.8254748E-2,-3.1530097E-2,-2.304874E-2],"categories":[],"categories_nodes":[],"categories_segments":[],"categories_sizes":[],"default_left":[0,0,0,0,0,0,0,0,0,0,0,0,0,0,0,0,0,0,0,0,0,0,0,0,0,0,0,0,0,0,0,0,0,0,0,0,0,0,0,0,0,0,0,0,0,0,0,0,0,0,0,0,0,0,0,0,0,0,0,0,0],"id":0,"left_children":[1,3,5,7,9,11,13,15,17,19,21,23,25,27,29,31,33,35,37,39,41,43,45,47,49,51,53,55,57,59,-1,-1,-1,-1,-1,-1,-1,-1,-1,-1,-1,-1,-1,-1,-1,-1,-1,-1,-1,-1,-1,-1,-1,-1,-1,-1,-1,-1,-1,-1,-1],"loss_changes":[1.6468254E3,3.8312488E2,4.4514032E2,2.2305078E2,1.2494476E2,2.3956873E2,5.1169495E1,6.419507E1,5.40565E1,1.6796883E1,4.7043488E1,8.8476135E1,2.1130635E2,1.5047333E1,6.7351074E0,2.9075684E1,1.8601074E1,1.8966583E1,7.212506E0,7.421347E0,3.712671E1,6.75553E1,1.793872E1,1.4494705E1,3.5381256E1,5.0999557E1,5.689463E1,1.9466095E0,8.492157E0,5.6186523E0,0E0,0E0,0E0,0E0,0E0,0E0,0E0,0E0,0E0,0E0,0E0,0E0,0E0,0E0,0E0,0E0,0E0,0E0,0E0,0E0,0E0,0E0,0E0,0E0,0E0,0E0,0E0,0E0,0E0,0E0,0E0],"parents":[2147483647,0,0,1,1,2,2,3,3,4,4,5,5,6,6,7,7,8,8,9,9,10,10,11,11,12,12,13,13,14,14,15,15,16,16,17,17,18,18,19,19,20,20,21,21,22,22,23,23,24,24,25,25,26,26,27,27,28,28,29,29],"right_children":[2,4,6,8,10,12,14,16,18,20,22,24,26,28,30,32,34,36,38,40,42,44,46,48,50,52,54,56,58,60,-1,-1,-1,-1,-1,-1,-1,-1,-1,-1,-1,-1,-1,-1,-1,-1,-1,-1,-1,-1,-1,-1,-1,-1,-1,-1,-1,-1,-1,-1,-1],"split_conditions":[2.614227E-1,7.0870247E0,7.140244E0,4.9448624E0,-8.229333E0,-2.4045262E0,8.615592E0,1.9084455E-1,6.1199517E0,-2.2239263E0,4.452096E0,-7.894737E0,4.2763157E0,-1.0081113E1,1.0426562E1,3.9923275E0,3.8772213E0,2.1820322E-1,6.487458E0,6.8340623E-1,4.3320847E0,-2.1429768E0,5.9338374E0,-1.704871E0,5.148488E-1,-1.4865502E0,5.305216E-1,-1.1870448E1,4.878049E0,-3.3184159E0,-3.4361076E-2,5.3372215E-2,3.835321E-2,4.0911034E-2,2.6491811E-2,2.5414083E-2,9.226109E-3,4.0756757E-3,-1.1799929E-2,1.379295E-2,-4.774465E-3,1.6192354E-2,-2.0763103E-3,8.402651E-3,2.9271776E-2,1.14730345E-2,-5.4364717E-3,-2.9040098E-2,-1.4457531E-2,-6.4914E-3,-1.46243945E-2,8.432155E-3,2.422453E-2,-6.8574294E-4,-1.2312773E-2,-2.874784E-2,-2.0074151E-2,-1.0104746E-2,-1.8254748E-2,-3.1530097E-2,-2.304874E-2],"split_indices":[27,42,11,11,22,16,11,27,11,16,11,16,11,40,11,11,42,27,11,30,11,16,11,19,27,16,27,22,43,20,0,0,0,0,0,0,0,0,0,0,0,0,0,0,0,0,0,0,0,0,0,0,0,0,0,0,0,0,0,0,0],"split_type":[0,0,0,0,0,0,0,0,0,0,0,0,0,0,0,0,0,0,0,0,0,0,0,0,0,0,0,0,0,0,0,0,0,0,0,0,0,0,0,0,0,0,0,0,0,0,0,0,0,0,0,0,0,0,0,0,0,0,0,0,0],"sum_hessian":[2.974714E4,8.609794E3,2.1137348E4,3.616087E3,4.993707E3,1.757382E4,3.5635264E3,2.5502976E3,1.0657894E3,2.2238914E3,2.7698157E3,7.9494727E3,9.624348E3,2.0361746E3,1.5273518E3,1.3670195E3,1.183278E3,7.6146747E2,3.0432196E2,1.0512137E3,1.1726775E3,1.7022596E3,1.0675562E3,9.028071E2,7.0466655E3,2.0865269E3,7.537821E3,4.3285272E2,1.6033218E3,8.70564E2,6.567878E2,7.331995E2,6.3382007E2,3.1757257E2,8.6570544E2,4.5228693E2,3.091805E2,1.108633E2,1.9345866E2,5.5210808E1,9.960029E2,4.4919513E2,7.234824E2,6.037854E2,1.0984742E3,8.7851434E2,1.890418E2,6.6252966E2,2.4027744E2,5.24591E3,1.8007556E3,1.1766527E3,9.098741E2,6.2745977E3,1.2632233E3,3.1713086E2,1.1572185E2,4.628874E2,1.1404344E3,4.2799417E2,4.4256982E2],"tree_param":{"num_deleted":"0","num_feature":"44","num_nodes":"61","size_leaf_vector":"1"}},{"base_weights":[-1.311328E-3,1.9781915E-2,-4.017951E-1,-3.5292363E-1,3.9162256E-2,-2.7393022E-1,-5.5281585E-1,3.1192353E-1,-3.788608E-1,8.388496E-2,-4.52578E-2,-1.6719592E-1,-4.0658787E-1,-6.6860515E-1,-4.5539734E-1,3.131611E-2,-3.7219902E-3,-4.7519687E-1,-2.7078515E-1,-5.1373407E-2,1.0810815E-1,-1.6061272E-2,-1.8481879E-1,8.0939464E-2,-2.3220767E-1,-2.4684884E-1,-4.6974584E-1,-2.0230725E-2,-6.857887E-1,-3.7627196E-1,-5.5331147E-1,-3.0306453E-2,-2.1426398E-2,-1.457423E-2,6.5415674E-3,6.222444E-3,-4.5962348E-3,6.5410803E-3,2.6061123E-3,-2.0200338E-3,6.571638E-3,-3.379546E-3,-1.1076952E-2,1.5233725E-2,-5.8030966E-3,-2.166002E-2,-9.093102E-3,-2.8364299E-2,-7.843007E-3,-2.5102029E-2,-1.3039112E-2,-2.9964596E-2,-3.697867E-2,-2.1485724E-2,-2.5573967E-3,-1.9321833E-2,-3.2118943E-2],"categories":[],"categories_nodes":[],"categories_segments":[],"categories_sizes":[],"default_left":[0,0,0,0,0,0,0,0,0,0,0,0,0,0,0,0,0,0,0,0,0,0,0,0,0,0,0,0,0,0,0,0,0,0,0,0,0,0,0,0,0,0,0,0,0,0,0,0,0,0,0,0,0,0,0,0,0],"id":1,"left_children":[1,3,5,7,9,11,13,15,17,19,21,23,25,27,29,-1,-1,31,33,35,37,39,41,43,45,47,49,-1,51,53,55,-1,-1,-1,-1,-1,-1,-1,-1,-1,-1,-1,-1,-1,-1,-1,-1,-1,-1,-1,-1,-1,-1,-1,-1,-1,-1],"loss_changes":[2.5681152E2,2.0849661E2,2.8980377E1,2.4792847E1,1.0363421E2,1.1498409E1,7.1604767E0,6.752155E0,1.3964233E1,5.880847E1,3.8681152E1,7.5093155E0,3.385479E0,7.8790283E-1,2.4706268E0,0E0,0E0,3.824585E0,5.5099983E0,1.9440105E1,1.93069E1,2.8215574E1,6.9919853E0,4.338064E0,3.4726696E0,2.8374543E0,1.4087524E0,0E0,4.234314E-1,3.6543846E0,1.9032478E0,0E0,0E0,0E0,0E0,0E0,0E0,0E0,0E0,0E0,0E0,0E0,0E0,0E0,0E0,0E0,0E0,0E0,0E0,0E0,0E0,0E0,0E0,0E0,0E0,0E0,0E0],"parents":[2147483647,0,0,1,1,2,2,3,3,4,4,5,5,6,6,7,7,8,8,9,9,10,10,11,11,12,12,13,13,14,14,17,17,18,18,19,19,20,20,21,21,22,22,23,23,24,24,25,25,26,26,28,28,29,29,30,30],"right_children":[2,4,6,8,10,12,14,16,18,20,22,24,26,28,30,-1,-1,32,34,36,38,40,42,44,46,48,50,-1,52,54,56,-1,-1,-1,-1,-1,-1,-1,-1,-1,-1,-1,-1,-1,-1,-1,-1,-1,-1,-1,-1,-1,-1,-1,-1,-1,-1],"split_conditions":[8.769828E0,1.7884077E0,1.0426562E1,-3.8686278E0,3.9859743E0,1.1801242E1,-6.126608E0,-7.5E0,1.5704979E0,2.246544E0,6.3311687E0,3.8474214E0,8.9017063E-1,5.179588E0,1.2174096E1,3.131611E-2,-3.7219902E-3,3.4008265E0,4.5823053E-1,-2.033746E0,-1.7570376E0,5.7575756E1,6.374291E-1,8.496918E-1,-1.8850073E1,-1.788575E1,1.6929171E0,-2.0230725E-2,1.2174096E1,9.20163E0,1.943734E0,-3.0306453E-2,-2.1426398E-2,-1.457423E-2,6.5415674E-3,6.222444E-3,-4.5962348E-3,6.5410803E-3,2.6061123E-3,-2.0200338E-3,6.571638E-3,-3.379546E-3,-1.1076952E-2,1.5233725E-2,-5.8030966E-3,-2.166002E-2,-9.093102E-3,-2.8364299E-2,-7.843007E-3,-2.5102029E-2,-1.3039112E-2,-2.9964596E-2,-3.697867E-2,-2.1485724E-2,-2.5573967E-3,-1.9321833E-2,-3.2118943E-2],"split_indices":[11,26,11,18,26,8,17,41,26,26,26,26,31,26,11,0,0,11,16,16,20,28,6,6,22,22,29,0,11,22,16,0,0,0,0,0,0,0,0,0,0,0,0,0,0,0,0,0,0,0,0,0,0,0,0,0,0],"split_type":[0,0,0,0,0,0,0,0,0,0,0,0,0,0,0,0,0,0,0,0,0,0,0,0,0,0,0,0,0,0,0,0,0,0,0,0,0,0,0,0,0,0,0,0,0,0,0,0,0,0,0,0,0,0,0,0,0],"sum_hessian":[3.038893E4,2.8869326E4,1.5196038E3,1.4251906E3,2.7444135E4,8.258912E2,6.9371265E2,5.260167E1,1.3725889E3,1.7941666E4,9.50247E3,4.60377E2,3.6551416E2,3.1201334E2,3.816993E2,2.8773563E1,2.3828108E1,7.220366E2,6.505523E2,2.7235977E3,1.5218068E4,7.8610273E3,1.6414419E3,9.486284E1,3.6551416E2,1.065521E2,2.5896207E2,2.202976E1,2.8998358E2,2.1625131E2,1.6544798E2,1.8388106E2,5.381556E2,6.1953076E2,3.1021498E1,5.089324E2,2.2146653E3,1.0822007E4,4.396061E3,6.7496484E3,1.1113789E3,3.9383813E2,1.2476038E3,4.4509106E1,5.0353737E1,7.013556E1,2.953786E2,2.1130585E1,8.542152E1,2.2164636E2,3.7315716E1,1.19590126E2,1.7039345E2,1.8478023E2,3.1471085E1,6.114382E1,1.0430417E2],"tree_param":{"num_deleted":"0","num_feature":"44","num_nodes":"57","size_leaf_vector":"1"}},{"base_weights":[1.232486E-3,-3.214682E-1,3.0433673E-1,-5.2110744E-1,-1.8639639E-1,1.9389813E-1,6.195067E-1,-6.083412E-1,-4.4702426E-1,-1.958773E-1,6.3737905E-1,1.715567E-1,8.563208E-1,9.056446E-1,5.202724E-1,-3.1514275E-1,-6.180007E-1,-4.0519908E-1,-5.154967E-1,-3.0794463E-1,-1.3443966E-1,7.0443624E-3,7.7597797E-1,5.9003454E-2,2.4659923E-1,6.900448E-1,1.153636E0,7.016189E-1,1.2327477E0,4.823709E-1,9.38799E-1,-2.5883744E-2,-4.887126E-3,-3.188316E-2,-2.79428E-2,-2.0637292E-2,5.83091E-3,-2.6473204E-2,-1.6509545E-3,-2.0572059E-2,-1.3421985E-2,-1.0734523E-2,-2.6802195E-3,1.9698555E-2,4.770071E-2,-3.925646E-3,5.3802463E-3,7.7325003E-3,1.7257733E-2,1.5330434E-2,3.742858E-2,6.12947E-2,3.743322E-2,4.2115465E-2,1.7883277E-2,6.750268E-2,2.8399691E-2,1.9796057E-2,2.9035857E-2,4.1059203E-2,6.49579E-2],"categories":[],"categories_nodes":[],"categories_segments":[],"categories_sizes":[],"default_left":[0,0,0,0,0,0,0,0,0,0,0,0,0,0,0,0,0,0,0,0,0,0,0,0,0,0,0,0,0,0,0,0,0,0,0,0,0,0,0,0,0,0,0,0,0,0,0,0,0,0,0,0,0,0,0,0,0,0,0,0,0],"id":2,"left_children":[1,3,5,7,9,11,13,15,17,19,21,23,25,27,29,31,33,35,37,39,41,-1,43,45,47,49,51,53,55,57,59,-1,-1,-1,-1,-1,-1,-1,-1,-1,-1,-1,-1,-1,-1,-1,-1,-1,-1,-1,-1,-1,-1,-1,-1,-1,-1,-1,-1,-1,-1],"loss_changes":[2.919959E3,3.8960046E2,5.3547974E2,3.7079346E1,6.747589E1,1.6832141E2,1.1239868E2,7.0929565E0,8.556152E0,5.858029E1,6.414921E0,9.3099884E1,1.6795227E1,6.677234E1,4.613501E1,3.7193289E0,2.2335815E0,7.894745E0,7.8904724E0,1.2038483E1,3.569516E1,0E0,4.3474617E0,2.9534477E1,5.9789825E1,4.8826675E0,2.047943E0,3.0064728E1,2.9008667E1,2.2636963E1,8.339706E0,0E0,0E0,0E0,0E0,0E0,0E0,0E0,0E0,0E0,0E0,0E0,0E0,0E0,0E0,0E0,0E0,0E0,0E0,0E0,0E0,0E0,0E0,0E0,0E0,0E0,0E0,0E0,0E0,0E0,0E0],"parents":[2147483647,0,0,1,1,2,2,3,3,4,4,5,5,6,6,7,7,8,8,9,9,10,10,11,11,12,12,13,13,14,14,15,15,16,16,17,17,18,18,19,19,20,20,22,22,23,23,24,24,25,25,26,26,27,27,28,28,29,29,30,30],"right_children":[2,4,6,8,10,12,14,16,18,20,22,24,26,28,30,32,34,36,38,40,42,-1,44,46,48,50,52,54,56,58,60,-1,-1,-1,-1,-1,-1,-1,-1,-1,-1,-1,-1,-1,-1,-1,-1,-1,-1,-1,-1,-1,-1,-1,-1,-1,-1,-1,-1,-1,-1],"split_conditions":[3.3934505E0,2.4687576E0,5.4187193E0,2.0395658E0,2.2103546E0,1.7354877E0,-9.162204E0,-6.071536E0,-1.1058452E0,2.8024254E0,8.379228E-1,3.9535685E0,3.1102097E0,5.4545455E0,7.556675E-1,-9.172818E-1,1.9163764E0,6.5893836E0,1.2133768E0,7.729989E-1,8.85979E-1,7.0443624E-3,2.8988404E0,7.4556744E-1,8.943776E-1,5.5144033E0,5.9192464E-2,-1.5853659E1,2.9184115E-1,6.3311687E0,3.1102097E0,-2.5883744E-2,-4.887126E-3,-3.188316E-2,-2.79428E-2,-2.0637292E-2,5.83091E-3,-2.6473204E-2,-1.6509545E-3,-2.0572059E-2,-1.3421985E-2,-1.0734523E-2,-2.6802195E-3,1.9698555E-2,4.770071E-2,-3.925646E-3,5.3802463E-3,7.7325003E-3,1.7257733E-2,1.5330434E-2,3.742858E-2,6.12947E-2,3.743322E-2,4.2115465E-2,1.7883277E-2,6.750268E-2,2.8399691E-2,1.9796057E-2,2.9035857E-2,4.1059203E-2,6.49579E-2],"split_indices":[26,26,26,26,16,16,17,20,17,26,31,26,16,43,16,23,26,41,16,31,31,0,26,31,31,43,23,41,21,26,16,0,0,0,0,0,0,0,0,0,0,0,0,0,0,0,0,0,0,0,0,0,0,0,0,0,0,0,0,0,0],"split_type":[0,0,0,0,0,0,0,0,0,0,0,0,0,0,0,0,0,0,0,0,0,0,0,0,0,0,0,0,0,0,0,0,0,0,0,0,0,0,0,0,0,0,0,0,0,0,0,0,0,0,0,0,0,0,0,0,0,0,0,0,0],"sum_hessian":[2.984982E4,1.44571875E4,1.5392632E4,5.8318345E3,8.625354E3,1.1400755E4,3.991877E3,2.6720037E3,3.159831E3,8.528583E3,9.6770096E1,1.1030907E4,3.6984735E2,1.0242606E3,2.9676165E3,8.7490776E1,2.584513E3,1.969868E3,1.1899629E3,3.0166643E3,5.511919E3,2.209363E1,7.467647E1,4.414749E3,6.616158E3,2.4082057E2,1.290268E2,6.3408716E2,3.901735E2,2.7245864E3,2.4302992E2,4.3745388E1,4.3745388E1,1.9261227E3,6.583902E2,1.9424719E3,2.7396101E1,1.1559387E3,3.402419E1,8.280693E2,2.188595E3,2.7634712E3,2.7484475E3,2.562861E1,4.904786E1,1.15152E3,3.2632292E3,3.4258381E3,3.19032E3,3.3582317E1,2.0723825E2,1.06491295E2,2.2535503E1,4.480588E2,1.8602837E2,3.3007883E2,6.0094673E1,1.4550864E3,1.2695E3,1.8735397E2,5.567595E1],"tree_param":{"num_deleted":"0","num_feature":"44","num_nodes":"61","size_leaf_vector":"1"}},{"base_weights":[-1.5615014E-3,5.624359E-1,-1.4062214E-1,8.592272E-1,4.0909183E-1,2.3778573E-2,-2.737678E-1,1.0634199E0,7.46567E-1,3.279388E-1,6.1777335E-1,1.8306093E-1,-4.09851E-2,-2.1924701E-1,-5.400723E-1,1.1994828E0,9.9276114E-1,3.363703E-1,8.03337E-1,2.3035482E-1,5.1268065E-1,7.166321E-1,3.814268E-1,2.924377E-1,5.49487E-2,-9.743681E-3,-3.4573576E-1,-4.5645407E-1,-1.8439834E-1,-4.670523E-1,-6.585303E-1,4.226332E-2,6.286886E-2,2.9575376E-2,5.0428916E-2,-2.7306322E-3,3.0869564E-2,4.624452E-2,3.55574E-2,2.3354745E-2,7.341797E-3,3.8805608E-2,2.3029327E-2,2.943948E-2,4.283562E-2,2.5852133E-2,1.9314753E-4,1.0176548E-2,2.713613E-2,-5.4456773E-3,6.977418E-3,-2.6010743E-3,4.974522E-3,-1.4138669E-2,-3.0461563E-2,-2.8506575E-2,-1.81662E-2,-6.841853E-3,-1.3333303E-2,-2.8381815E-2,-1.7903952E-2,-3.4819633E-2,-3.0363102E-2],"categories":[],"categories_nodes":[],"categories_segments":[],"categories_sizes":[],"default_left":[0,0,0,0,0,0,0,0,0,0,0,0,0,0,0,0,0,0,0,0,0,0,0,0,0,0,0,0,0,0,0,0,0,0,0,0,0,0,0,0,0,0,0,0,0,0,0,0,0,0,0,0,0,0,0,0,0,0,0,0,0,0,0],"id":3,"left_children":[1,3,5,7,9,11,13,15,17,19,21,23,25,27,29,31,33,35,37,39,41,43,45,47,49,51,53,55,57,59,61,-1,-1,-1,-1,-1,-1,-1,-1,-1,-1,-1,-1,-1,-1,-1,-1,-1,-1,-1,-1,-1,-1,-1,-1,-1,-1,-1,-1,-1,-1,-1,-1],"loss_changes":[2.3366743E3,2.6740918E2,5.2324316E2,4.458606E1,6.5362305E1,1.1037728E2,1.9142218E2,4.5913696E0,2.9597656E1,5.0219727E1,2.4754852E1,4.324736E1,7.232564E1,9.0391174E1,1.8712524E1,2.7871704E0,1.8081055E0,1.7834513E1,1.1448059E1,3.6117386E1,1.2489059E1,1.26311035E1,1.6493805E1,3.678636E1,1.9813683E1,3.186187E1,1.1283447E1,1.4354553E1,3.728714E1,1.4785797E1,7.5598145E-1,0E0,0E0,0E0,0E0,0E0,0E0,0E0,0E0,0E0,0E0,0E0,0E0,0E0,0E0,0E0,0E0,0E0,0E0,0E0,0E0,0E0,0E0,0E0,0E0,0E0,0E0,0E0,0E0,0E0,0E0,0E0,0E0],"parents":[2147483647,0,0,1,1,2,2,3,3,4,4,5,5,6,6,7,7,8,8,9,9,10,10,11,11,12,12,13,13,14,14,15,15,16,16,17,17,18,18,19,19,20,20,21,21,22,22,23,23,24,24,25,25,26,26,27,27,28,28,29,29,30,30],"right_children":[2,4,6,8,10,12,14,16,18,20,22,24,26,28,30,32,34,36,38,40,42,44,46,48,50,52,54,56,58,60,62,-1,-1,-1,-1,-1,-1,-1,-1,-1,-1,-1,-1,-1,-1,-1,-1,-1,-1,-1,-1,-1,-1,-1,-1,-1,-1,-1,-1,-1,-1,-1,-1],"split_conditions":[2.4687576E0,1.9163764E0,3.638814E0,1.5704979E0,-5.1993066E-1,7.14246E-1,7.7406015E0,3.5036345E0,-2.119353E0,-4.1175118E-1,1.0281216E0,4.4923077E0,7.002718E0,-6.632252E0,9.756219E0,-1.8867924E0,-1.9219898E0,-1.6310186E0,3.9659328E0,7.411342E-1,3.428256E0,6.117767E-1,5.583535E0,-5.896159E-1,-1.1732852E0,-8.861622E-1,8.769828E0,-1.5273252E1,4.8068624E0,-2.103572E0,-1.3048136E-1,4.226332E-2,6.286886E-2,2.9575376E-2,5.0428916E-2,-2.7306322E-3,3.0869564E-2,4.624452E-2,3.55574E-2,2.3354745E-2,7.341797E-3,3.8805608E-2,2.3029327E-2,2.943948E-2,4.283562E-2,2.5852133E-2,1.9314753E-4,1.0176548E-2,2.713613E-2,-5.4456773E-3,6.977418E-3,-2.6010743E-3,4.974522E-3,-1.4138669E-2,-3.0461563E-2,-2.8506575E-2,-1.81662E-2,-6.841853E-3,-1.3333303E-2,-2.8381815E-2,-1.7903952E-2,-3.4819633E-2,-3.0363102E-2],"split_indices":[26,26,26,26,17,30,11,11,16,23,30,11,11,16,11,16,16,19,11,30,11,17,11,17,16,17,11,20,26,19,13,0,0,0,0,0,0,0,0,0,0,0,0,0,0,0,0,0,0,0,0,0,0,0,0,0,0,0,0,0,0,0,0],"split_type":[0,0,0,0,0,0,0,0,0,0,0,0,0,0,0,0,0,0,0,0,0,0,0,0,0,0,0,0,0,0,0,0,0,0,0,0,0,0,0,0,0,0,0,0,0,0,0,0,0,0,0,0,0,0,0,0,0,0,0,0,0,0,0],"sum_hessian":[2.979124E4,5.89134E3,2.38999E4,2.0041603E3,3.8871794E3,1.0694574E4,1.3205326E4,7.0746686E2,1.2966935E3,2.8022449E3,1.0849346E3,3.0915186E3,7.6030557E3,1.0964118E4,2.2412083E3,2.3265839E2,4.7480844E2,1.5933255E2,1.1373608E3,1.836582E3,9.656628E2,7.6221967E2,3.2271487E2,1.665824E3,1.4256946E3,6.898103E3,7.049527E2,1.4013766E3,9.562741E3,1.3921562E3,8.4905194E2,3.6457104E1,1.9620128E2,2.0670652E1,4.541378E2,6.6838005E1,9.249454E1,4.8377448E2,6.535864E2,4.7653284E2,1.3600492E3,1.5535759E2,8.103052E2,4.033446E2,3.5887503E2,2.3663498E2,8.607991E1,1.2317855E3,4.3403854E2,4.8448798E2,9.412066E2,4.9751465E3,1.9229564E3,5.7211444E2,1.3283829E2,6.2664465E2,7.747319E2,6.063618E3,3.4991233E3,7.1970685E2,6.7244946E2,4.7527728E2,3.737747E2],"tree_param":{"num_deleted":"0","num_feature":"44","num_nodes":"63","size_leaf_vector":"1"}},{"base_weights":[1.4256825E-3,2.3558836E-2,-3.646771E-1,-3.180021E-1,4.1342765E-2,-2.500097E-1,-5.3763175E-1,2.7823818E-1,-3.5425043E-1,7.7E-2,-4.2958356E-2,-5.227907E-1,-2.199924E-1,-4.2994747E-1,-6.468349E-1,3.7594456E-2,2.322906E-2,-4.561531E-1,-2.483531E-1,-4.3310445E-2,9.706612E-2,-6.674938E-2,9.663601E-2,-6.0979974E-1,-9.16993E-3,-1.06052555E-1,-2.7782848E-1,6.096197E-3,-4.6456063E-1,-5.611546E-1,-3.485347E-2,-1.5376933E-2,1.2793175E-2,-2.8627334E-2,-1.9579211E-2,-1.3636308E-2,5.5558686E-3,-6.531503E-3,2.6919725E-3,6.172096E-3,2.0482927E-3,3.6442638E-3,-4.541266E-3,9.01358E-3,-4.8808665E-3,-2.258286E-2,-3.431204E-2,5.04238E-3,-9.581574E-3,5.013547E-3,-1.5072196E-2,-1.9834938E-2,-2.7206464E-2,-3.2203615E-2,-1.901797E-2],"categories":[],"categories_nodes":[],"categories_segments":[],"categories_sizes":[],"default_left":[0,0,0,0,0,0,0,0,0,0,0,0,0,0,0,0,0,0,0,0,0,0,0,0,0,0,0,0,0,0,0,0,0,0,0,0,0,0,0,0,0,0,0,0,0,0,0,0,0,0,0,0,0,0,0],"id":4,"left_children":[1,3,5,7,9,11,13,15,17,19,21,23,25,27,29,-1,31,33,35,37,39,41,43,45,-1,47,49,-1,51,53,-1,-1,-1,-1,-1,-1,-1,-1,-1,-1,-1,-1,-1,-1,-1,-1,-1,-1,-1,-1,-1,-1,-1,-1,-1],"loss_changes":[2.4598065E2,1.7389848E2,3.396231E1,3.0782425E1,8.183124E1,8.228546E0,7.457321E0,9.689066E0,1.4111771E1,4.6201447E1,2.6871738E1,2.678564E0,6.0990868E0,6.8730927E0,6.1494446E-1,0E0,4.335311E0,4.568924E0,5.8573685E0,2.3220665E1,2.4223267E1,2.3257933E1,1.9171785E1,2.7314568E-1,0E0,5.7378154E0,5.6572037E0,0E0,1.2789459E0,1.4359589E0,0E0,0E0,0E0,0E0,0E0,0E0,0E0,0E0,0E0,0E0,0E0,0E0,0E0,0E0,0E0,0E0,0E0,0E0,0E0,0E0,0E0,0E0,0E0,0E0,0E0],"parents":[2147483647,0,0,1,1,2,2,3,3,4,4,5,5,6,6,7,7,8,8,9,9,10,10,11,11,12,12,13,13,14,14,16,16,17,17,18,18,19,19,20,20,21,21,22,22,23,23,25,25,26,26,28,28,29,29],"right_children":[2,4,6,8,10,12,14,16,18,20,22,24,26,28,30,-1,32,34,36,38,40,42,44,46,-1,48,50,-1,52,54,-1,-1,-1,-1,-1,-1,-1,-1,-1,-1,-1,-1,-1,-1,-1,-1,-1,-1,-1,-1,-1,-1,-1,-1,-1],"split_conditions":[8.4966135E0,1.7884077E0,1.0426562E1,-2.3598182E0,4.1733227E0,-2.056933E1,1.9020685E1,-1.9303662E0,1.5704979E0,2.246544E0,5.8139534E1,2.9545454E1,1.3366287E0,8.6146903E-1,9.467456E0,3.7594456E-2,1.6137567E0,1.2995764E0,5.345055E0,1E0,3.4698522E0,6.2607706E-1,6.3537235E0,-1.8709908E1,-9.16993E-3,1.0747571E0,2.368421E1,6.096197E-3,1.2174096E1,-4.662496E0,-3.485347E-2,-1.5376933E-2,1.2793175E-2,-2.8627334E-2,-1.9579211E-2,-1.3636308E-2,5.5558686E-3,-6.531503E-3,2.6919725E-3,6.172096E-3,2.0482927E-3,3.6442638E-3,-4.541266E-3,9.01358E-3,-4.8808665E-3,-2.258286E-2,-3.431204E-2,5.04238E-3,-9.581574E-3,5.013547E-3,-1.5072196E-2,-1.9834938E-2,-2.7206464E-2,-3.2203615E-2,-1.901797E-2],"split_indices":[11,26,11,16,26,41,42,19,26,26,28,28,15,30,43,0,26,26,11,25,26,31,11,40,0,30,28,0,11,19,0,0,0,0,0,0,0,0,0,0,0,0,0,0,0,0,0,0,0,0,0,0,0,0,0],"split_type":[0,0,0,0,0,0,0,0,0,0,0,0,0,0,0,0,0,0,0,0,0,0,0,0,0,0,0,0,0,0,0,0,0,0,0,0,0,0,0,0,0,0,0,0,0,0,0,0,0,0,0,0,0,0,0],"sum_hessian":[3.0362035E4,2.8632947E4,1.7290872E3,1.4152308E3,2.7217717E4,1.0426464E3,6.8644086E2,8.021763E1,1.3350132E3,1.9129096E4,8.08862E3,1.0025897E2,9.423873E2,3.5027502E2,3.3616583E2,2.677642E1,5.3441208E1,6.7684766E2,6.581655E2,2.7327341E3,1.6396361E4,6.9127056E3,1.1759147E3,7.83804E1,2.1878572E1,3.198925E2,6.224949E2,2.010821E1,3.301668E2,1.3246677E2,2.0369907E2,2.1512003E1,3.1929205E1,2.3618884E2,4.406588E2,6.1723376E2,4.093175E1,1.439992E3,1.2927422E3,1.1149166E4,5.247196E3,1.01494116E3,5.8977646E3,8.2279755E2,3.5311713E2,2.977032E1,4.8610077E1,9.283793E1,2.2705455E2,3.581019E1,5.866847E2,1.8439415E2,1.4577266E2,8.74225E1,4.5044266E1],"tree_param":{"num_deleted":"0","num_feature":"44","num_nodes":"55","size_leaf_vector":"1"}},{"base_weights":[-2.260546E-3,-3.0164105E-1,2.9830667E-1,-4.6077427E-1,-1.3102423E-1,2.0426366E-1,8.727618E-1,-5.660423E-1,-3.6550197E-1,-1.6474733E-1,2.8249997E-1,1.2895648E-1,4.5392E-1,7.211376E-1,1.1882443E0,-6.387615E-1,-5.2255225E-1,-4.6297982E-1,-2.7838504E-1,-2.6947096E-1,-1.0107451E-1,1.6618629E-1,8.005042E-1,2.704389E-1,8.30104E-2,3.895934E-1,7.311627E-1,9.762044E-1,6.4744174E-1,1.2354885E0,9.361011E-1,-2.0832326E-2,-3.218817E-2,-2.8968727E-2,-2.277266E-2,-2.1764128E-2,-2.8005494E-2,-1.4450437E-2,3.0130256E-2,-1.623563E-2,-8.689637E-3,-2.777919E-3,-9.148671E-3,6.1247554E-3,2.2804469E-2,2.2358235E-2,5.050957E-2,1.5810033E-2,5.2743177E-3,-1.5992309E-4,8.456768E-3,1.3459369E-2,2.3677832E-2,4.3730285E-2,2.227757E-2,5.291121E-2,1.8900229E-2,2.72018E-2,3.6548145E-2,6.65304E-2,5.7903804E-2,3.2291774E-2,5.3192552E-2],"categories":[],"categories_nodes":[],"categories_segments":[],"categories_sizes":[],"default_left":[0,0,0,0,0,0,0,0,0,0,0,0,0,0,0,0,0,0,0,0,0,0,0,0,0,0,0,0,0,0,0,0,0,0,0,0,0,0,0,0,0,0,0,0,0,0,0,0,0,0,0,0,0,0,0,0,0,0,0,0,0,0,0],"id":5,"left_children":[1,3,5,7,9,11,13,15,17,19,21,23,25,27,29,31,33,35,37,39,41,43,45,47,49,51,53,55,57,59,61,-1,-1,-1,-1,-1,-1,-1,-1,-1,-1,-1,-1,-1,-1,-1,-1,-1,-1,-1,-1,-1,-1,-1,-1,-1,-1,-1,-1,-1,-1,-1,-1],"loss_changes":[2.681604E3,4.0515942E2,8.028817E2,7.696741E1,1.0056208E2,2.4008899E2,9.83656E1,1.0860107E1,3.4132996E1,4.4332672E1,3.235882E1,6.3742767E1,5.2148926E1,2.5356384E1,5.8843384E0,9.002075E-1,8.181152E0,4.5804443E0,2.0308182E1,1.3126038E1,1.540316E1,5.451123E0,6.363594E0,1.8027176E1,5.5105564E1,2.3992981E1,2.190039E1,1.4518646E1,8.68457E0,1.3441162E0,2.837822E0,0E0,0E0,0E0,0E0,0E0,0E0,0E0,0E0,0E0,0E0,0E0,0E0,0E0,0E0,0E0,0E0,0E0,0E0,0E0,0E0,0E0,0E0,0E0,0E0,0E0,0E0,0E0,0E0,0E0,0E0,0E0,0E0],"parents":[2147483647,0,0,1,1,2,2,3,3,4,4,5,5,6,6,7,7,8,8,9,9,10,10,11,11,12,12,13,13,14,14,15,15,16,16,17,17,18,18,19,19,20,20,21,21,22,22,23,23,24,24,25,25,26,26,27,27,28,28,29,29,30,30],"right_children":[2,4,6,8,10,12,14,16,18,20,22,24,26,28,30,32,34,36,38,40,42,44,46,48,50,52,54,56,58,60,62,-1,-1,-1,-1,-1,-1,-1,-1,-1,-1,-1,-1,-1,-1,-1,-1,-1,-1,-1,-1,-1,-1,-1,-1,-1,-1,-1,-1,-1,-1,-1,-1],"split_conditions":[3.4591002E0,2.6898391E0,7.990765E0,2.2007723E0,6.909789E0,5.4187193E0,1.0426562E1,1.7884077E0,8.580579E-1,7.6179E-1,8.615592E0,-1.4901157E1,1.204245E0,-1.7684944E1,1.0673978E0,-2.9375E0,9.2702353E-1,-6.43915E-2,8.078534E0,3.177966E0,-2.8696313E0,1.9719282E0,8.407469E-1,-5.2941175E0,7.9161805E-1,6.1065617E0,-1.0578089E0,-3.4391534E0,1.0461799E0,-4.952919E0,2.1236377E0,-2.0832326E-2,-3.218817E-2,-2.8968727E-2,-2.277266E-2,-2.1764128E-2,-2.8005494E-2,-1.4450437E-2,3.0130256E-2,-1.623563E-2,-8.689637E-3,-2.777919E-3,-9.148671E-3,6.1247554E-3,2.2804469E-2,2.2358235E-2,5.050957E-2,1.5810033E-2,5.2743177E-3,-1.5992309E-4,8.456768E-3,1.3459369E-2,2.3677832E-2,4.3730285E-2,2.227757E-2,5.291121E-2,1.8900229E-2,2.72018E-2,3.6548145E-2,6.65304E-2,5.7903804E-2,3.2291774E-2,5.3192552E-2],"split_indices":[26,26,11,26,11,26,11,26,30,30,11,22,30,22,21,16,30,40,11,26,40,30,6,40,30,26,19,40,30,19,21,0,0,0,0,0,0,0,0,0,0,0,0,0,0,0,0,0,0,0,0,0,0,0,0,0,0,0,0,0,0,0,0],"split_type":[0,0,0,0,0,0,0,0,0,0,0,0,0,0,0,0,0,0,0,0,0,0,0,0,0,0,0,0,0,0,0,0,0,0,0,0,0,0,0,0,0,0,0,0,0,0,0,0,0,0,0,0,0,0,0,0,0,0,0,0,0,0,0],"sum_hessian":[2.9797902E4,1.4928752E4,1.486915E4,7.7223984E3,7.206354E3,1.2779435E4,2.0897163E3,3.6642231E3,4.058175E3,6.6642656E3,5.42088E2,9.820286E3,2.959148E3,1.4151453E3,6.7457104E2,1.3618906E3,2.3023325E3,1.911061E3,2.147114E3,2.5168218E3,4.1474443E3,4.446196E2,9.746844E1,2.4044736E3,7.4158125E3,2.4053755E3,5.5377264E2,3.1249457E2,1.1026508E3,5.62527E2,1.120441E2,3.365839E1,1.3282323E3,1.2388175E3,1.0635149E3,1.4950258E3,4.1603525E2,2.1227512E3,2.4362911E1,1.5919807E3,9.24841E2,2.6690518E3,1.4783922E3,3.888412E2,5.5778404E1,3.8405205E1,5.906323E1,1.8802577E3,5.242159E2,3.705662E3,3.7101506E3,9.917969E2,1.4135785E3,3.6610815E2,1.8766449E2,2.7350598E2,3.8988583E1,4.9878314E2,6.038676E2,2.4034296E2,3.22184E2,3.749622E1,7.454788E1],"tree_param":{"num_deleted":"0","num_feature":"44","num_nodes":"63","size_leaf_vector":"1"}},{"base_weights":[-2.3832312E-3,2.727777E-1,-1.6833869E-1,4.9895513E-1,1.3166523E-1,-1.04221046E-1,-4.624913E-1,6.123659E-1,-1.380356E-2,-7.1227364E-3,2.2503279E-1,-2.1282203E-1,1.0206336E-2,-3.6015975E-1,-5.8589035E-1,8.033934E-1,4.567499E-1,1.6626225E-1,-3.1660128E-1,6.3668184E-2,-1.204527E-1,4.5840874E-1,6.25853E-2,-5.349138E-1,-1.805695E-1,1.3966663E-1,-5.7194095E-2,-4.8710266E-1,-3.111238E-1,-5.040616E-1,-6.428576E-1,4.749157E-2,3.3409886E-2,1.3775739E-2,2.766481E-2,-2.088525E-3,1.2209303E-2,-1.1363949E-2,-2.7406802E-2,2.4501825E-4,1.1387787E-2,2.0460922E-3,-9.122143E-3,1.30775785E-2,2.7117401E-2,-1.2010903E-2,5.5494066E-3,-2.8427783E-2,-1.4305693E-2,-1.267917E-2,-5.8918907E-3,-6.2876344E-3,1.3312881E-2,-5.1842805E-4,-1.0123524E-2,-2.8654192E-2,-2.1028034E-2,-1.10239545E-2,-2.0391336E-2,-2.970915E-2,-1.9634109E-2,-3.0111236E-2,-3.3923637E-2],"categories":[],"categories_nodes":[],"categories_segments":[],"categories_sizes":[],"default_left":[0,0,0,0,0,0,0,0,0,0,0,0,0,0,0,0,0,0,0,0,0,0,0,0,0,0,0,0,0,0,0,0,0,0,0,0,0,0,0,0,0,0,0,0,0,0,0,0,0,0,0,0,0,0,0,0,0,0,0,0,0,0,0],"id":6,"left_children":[1,3,5,7,9,11,13,15,17,19,21,23,25,27,29,31,33,35,37,39,41,43,45,47,49,51,53,55,57,59,61,-1,-1,-1,-1,-1,-1,-1,-1,-1,-1,-1,-1,-1,-1,-1,-1,-1,-1,-1,-1,-1,-1,-1,-1,-1,-1,-1,-1,-1,-1,-1,-1],"loss_changes":[1.3587303E3,3.570459E2,3.4988507E2,2.5016516E2,8.940398E1,1.8945355E2,4.142804E1,1.0387305E2,4.2631214E1,2.227735E1,1.5617581E2,8.095862E1,6.479384E1,1.0942993E1,6.2869263E0,2.99693E1,3.3630035E1,7.992976E0,5.6920033E0,1.641542E1,1.0724647E1,2.7577057E1,3.567899E1,5.5323486E0,3.2455673E1,8.551224E1,3.3159252E1,2.319809E0,1.1294762E1,5.725479E0,4.026184E-1,0E0,0E0,0E0,0E0,0E0,0E0,0E0,0E0,0E0,0E0,0E0,0E0,0E0,0E0,0E0,0E0,0E0,0E0,0E0,0E0,0E0,0E0,0E0,0E0,0E0,0E0,0E0,0E0,0E0,0E0,0E0,0E0],"parents":[2147483647,0,0,1,1,2,2,3,3,4,4,5,5,6,6,7,7,8,8,9,9,10,10,11,11,12,12,13,13,14,14,15,15,16,16,17,17,18,18,19,19,20,20,21,21,22,22,23,23,24,24,25,25,26,26,27,27,28,28,29,29,30,30],"right_children":[2,4,6,8,10,12,14,16,18,20,22,24,26,28,30,32,34,36,38,40,42,44,46,48,50,52,54,56,58,60,62,-1,-1,-1,-1,-1,-1,-1,-1,-1,-1,-1,-1,-1,-1,-1,-1,-1,-1,-1,-1,-1,-1,-1,-1,-1,-1,-1,-1,-1,-1,-1,-1],"split_conditions":[2.886386E-1,7.0870247E0,7.1886363E0,5.566138E0,-2.097902E0,-3.4571064E0,8.615592E0,1.8892363E-1,6.487458E0,9.787234E0,4.3320847E0,-1.2237066E1,4.662857E0,-8.695652E0,9.756219E0,3.9923275E0,-1.5676267E0,-1.0377417E0,1.194616E0,-3.8409781E0,-5.414313E0,-1.056132E0,-2.9633982E0,-5.6419693E-2,-1.1007997E0,-1.9748298E0,4.9984697E-1,-6.207675E0,-1.0091465E0,-1.9031142E0,1.7391304E1,4.749157E-2,3.3409886E-2,1.3775739E-2,2.766481E-2,-2.088525E-3,1.2209303E-2,-1.1363949E-2,-2.7406802E-2,2.4501825E-4,1.1387787E-2,2.0460922E-3,-9.122143E-3,1.30775785E-2,2.7117401E-2,-1.2010903E-2,5.5494066E-3,-2.8427783E-2,-1.4305693E-2,-1.267917E-2,-5.8918907E-3,-6.2876344E-3,1.3312881E-2,-5.1842805E-4,-1.0123524E-2,-2.8654192E-2,-2.1028034E-2,-1.10239545E-2,-2.0391336E-2,-2.970915E-2,-1.9634109E-2,-3.0111236E-2,-3.3923637E-2],"split_indices":[27,42,11,11,16,39,11,27,11,8,11,18,11,40,11,11,18,18,31,18,39,23,21,13,23,16,27,39,18,19,42,0,0,0,0,0,0,0,0,0,0,0,0,0,0,0,0,0,0,0,0,0,0,0,0,0,0,0,0,0,0,0,0],"split_type":[0,0,0,0,0,0,0,0,0,0,0,0,0,0,0,0,0,0,0,0,0,0,0,0,0,0,0,0,0,0,0,0,0,0,0,0,0,0,0,0,0,0,0,0,0,0,0,0,0,0,0,0,0,0,0,0,0,0,0,0,0,0,0],"sum_hessian":[2.9752107E4,1.119243E4,1.8559678E4,4.298116E3,6.8943135E3,1.5240381E4,3.3192961E3,3.5197292E3,7.783871E2,2.7724287E3,4.121885E3,7.8194956E3,7.4208853E3,1.8186427E3,1.5006534E3,1.5767053E3,1.943024E3,4.881268E2,2.9026028E2,1.7058019E3,1.0666268E3,1.6900109E3,2.431874E3,7.0904065E2,7.110455E3,2.5412E3,4.8796855E3,5.0188855E2,1.3167542E3,6.2343005E2,8.772234E2,7.518342E2,8.2487103E2,6.780509E2,1.2649731E3,1.3250586E2,3.5562094E2,2.12224E2,7.8036285E1,1.2580103E3,4.4779163E2,2.9526578E2,7.713611E2,5.0775754E2,1.1822533E3,3.3376938E2,2.0981045E3,6.2218E2,8.686067E1,3.2823503E3,3.8281047E3,8.2011676E2,1.7210833E3,3.692501E3,1.1871846E3,2.1266833E2,2.892202E2,6.832739E2,6.3348016E2,3.400138E2,2.834163E2,4.249184E2,4.5230496E2],"tree_param":{"num_deleted":"0","num_feature":"44","num_nodes":"63","size_leaf_vector":"1"}},{"base_weights":[1.4180422E-3,2.2855064E-2,-3.5803097E-1,-3.3885366E-1,4.1498262E-2,-2.6521245E-1,-5.4220504E-1,3.7465665E-1,-3.6912173E-1,7.983805E-2,-3.215664E-2,-6.218523E-1,-2.3250647E-1,-6.2466484E-1,-4.373878E-1,3.0241972E-2,3.9093606E-3,-4.7258565E-1,-2.5950763E-1,-4.12495E-2,1.0157435E-1,-4.9633786E-2,1.190215E-1,-3.5144366E-2,-2.2587331E-2,-1.7505433E-1,-3.2212803E-1,-5.119717E-1,-3.43727E-2,-9.784373E-3,-4.7635087E-1,-2.4240253E-2,-3.6683187E-3,-1.4204693E-2,-2.8479637E-3,-6.3281744E-3,2.6913816E-3,6.2545124E-3,2.0629037E-3,4.2806016E-3,-3.5874413E-3,8.973775E-3,-5.531175E-3,-7.7496465E-5,-1.0941653E-2,-1.8566944E-2,-2.6510397E-3,-2.9561544E-2,-7.976775E-3,-2.1259954E-2,-3.2394517E-2],"categories":[],"categories_nodes":[],"categories_segments":[],"categories_sizes":[],"default_left":[0,0,0,0,0,0,0,0,0,0,0,0,0,0,0,0,0,0,0,0,0,0,0,0,0,0,0,0,0,0,0,0,0,0,0,0,0,0,0,0,0,0,0,0,0,0,0,0,0,0,0],"id":7,"left_children":[1,3,5,7,9,11,13,15,17,19,21,23,25,27,29,-1,-1,31,33,35,37,39,41,-1,-1,43,45,47,-1,-1,49,-1,-1,-1,-1,-1,-1,-1,-1,-1,-1,-1,-1,-1,-1,-1,-1,-1,-1,-1,-1],"loss_changes":[2.33641E2,1.9298068E2,2.879515E1,3.0498383E1,7.688663E1,1.2889946E1,4.3016357E0,3.7201767E0,1.4941269E1,4.7145027E1,2.4615788E1,5.9145355E-1,5.199787E0,1.4559479E0,2.1451645E0,0E0,0E0,3.2007751E0,3.184887E0,2.2125658E1,2.149321E1,2.4996077E1,1.3439098E1,0E0,0E0,4.830433E0,5.2530785E0,3.0455036E0,0E0,0E0,1.298027E0,0E0,0E0,0E0,0E0,0E0,0E0,0E0,0E0,0E0,0E0,0E0,0E0,0E0,0E0,0E0,0E0,0E0,0E0,0E0,0E0],"parents":[2147483647,0,0,1,1,2,2,3,3,4,4,5,5,6,6,7,7,8,8,9,9,10,10,11,11,12,12,13,13,14,14,17,17,18,18,19,19,20,20,21,21,22,22,25,25,26,26,27,27,30,30],"right_children":[2,4,6,8,10,12,14,16,18,20,22,24,26,28,30,-1,-1,32,34,36,38,40,42,-1,-1,44,46,48,-1,-1,50,-1,-1,-1,-1,-1,-1,-1,-1,-1,-1,-1,-1,-1,-1,-1,-1,-1,-1,-1,-1],"split_conditions":[8.4966135E0,1.7884077E0,1.08295965E1,-3.8686278E0,3.9859743E0,-2.2143864E1,-1.4545155E-1,-7.5E0,1.5704979E0,2.246544E0,6.0377357E1,-3.3130905E1,1.26498E1,1.2174096E1,3.9379401E0,3.0241972E-2,3.9093606E-3,5.166253E0,2.7985075E0,1E0,-1.7148118E0,6.2607706E-1,1.7719568E1,-3.5144366E-2,-2.2587331E-2,3.8012729E0,3.18496E1,-8.376963E-1,-3.43727E-2,-9.784373E-3,1.4229353E1,-2.4240253E-2,-3.6683187E-3,-1.4204693E-2,-2.8479637E-3,-6.3281744E-3,2.6913816E-3,6.2545124E-3,2.0629037E-3,4.2806016E-3,-3.5874413E-3,8.973775E-3,-5.531175E-3,-7.7496465E-5,-1.0941653E-2,-1.8566944E-2,-2.6510397E-3,-2.9561544E-2,-7.976775E-3,-2.1259954E-2,-3.2394517E-2],"split_indices":[11,26,11,18,26,41,13,41,26,26,28,9,8,11,26,0,0,11,41,25,20,31,41,0,0,26,8,41,0,0,11,0,0,0,0,0,0,0,0,0,0,0,0,0,0,0,0,0,0,0,0],"split_type":[0,0,0,0,0,0,0,0,0,0,0,0,0,0,0,0,0,0,0,0,0,0,0,0,0,0,0,0,0,0,0,0,0,0,0,0,0,0,0,0,0,0,0,0,0,0,0,0,0,0,0],"sum_hessian":[3.0326875E4,2.862187E4,1.705006E3,1.4011311E3,2.7220738E4,1.1368243E3,5.681815E2,5.6055607E1,1.3450754E3,1.7903809E4,9.316929E3,9.27125E1,1.0441119E3,3.1277432E2,2.5540721E2,3.0297451E1,2.5758158E1,6.884557E2,6.5661975E2,2.7231672E3,1.5180642E4,8.353537E3,9.633913E2,5.881863E1,3.3893867E1,6.403045E2,4.038074E2,1.17966125E2,1.9480821E2,3.7423553E1,2.1798364E2,6.6721094E2,2.1244791E1,5.8412476E2,7.2494995E1,1.4361223E3,1.287045E3,1.091875E4,4.261891E3,1.1721057E3,7.1814316E3,7.635781E2,1.9981319E2,1.3024342E2,5.1006107E2,3.4027017E2,6.353723E1,9.501456E1,2.2951569E1,1.7283081E2,4.5152832E1],"tree_param":{"num_deleted":"0","num_feature":"44","num_nodes":"51","size_leaf_vector":"1"}},{"base_weights":[1.1489593E-3,-8.952803E-2,6.299019E-1,-2.9366395E-1,3.8264323E-2,4.200527E-1,9.2984545E-1,-3.890511E-1,-1.1375134E-1,-6.639109E-3,3.7304026E-1,6.1367404E-1,3.6033612E-1,7.7472377E-1,1.1113517E0,-2.246623E-1,-4.6598917E-1,1.0323619E-1,-1.7250262E-1,-9.239533E-2,7.868446E-2,5.848174E-1,2.2610854E-1,8.053776E-1,4.5818412E-1,1.9781335E-1,4.5818076E-1,1.0222842E0,7.2084093E-1,1.007393E0,6.0379606E-2,-1.54897915E-2,2.2169603E-4,-2.6502026E-2,-1.851891E-2,-5.691306E-3,9.220666E-3,-1.371252E-2,-3.792429E-4,1.2955137E-3,-1.3701931E-2,8.036756E-3,-1.1610197E-3,3.663426E-2,1.3655131E-2,9.693218E-3,4.659646E-2,2.4202928E-2,4.5007017E-2,1.9538233E-2,3.7978813E-2,6.300896E-3,2.0595325E-2,1.9641621E-2,2.825339E-2,5.6423664E-2,3.8898613E-2,2.3690145E-2,3.767882E-2,5.1804025E-2,3.184654E-2],"categories":[],"categories_nodes":[],"categories_segments":[],"categories_sizes":[],"default_left":[0,0,0,0,0,0,0,0,0,0,0,0,0,0,0,0,0,0,0,0,0,0,0,0,0,0,0,0,0,0,0,0,0,0,0,0,0,0,0,0,0,0,0,0,0,0,0,0,0,0,0,0,0,0,0,0,0,0,0,0,0],"id":8,"left_children":[1,3,5,7,9,11,13,15,17,19,21,23,25,27,29,31,33,35,37,39,41,43,45,47,49,51,53,55,57,59,-1,-1,-1,-1,-1,-1,-1,-1,-1,-1,-1,-1,-1,-1,-1,-1,-1,-1,-1,-1,-1,-1,-1,-1,-1,-1,-1,-1,-1,-1,-1],"loss_changes":[1.7008242E3,6.8015765E2,2.3581372E2,1.7209424E2,2.4110666E2,2.508902E1,4.1864136E1,8.265491E1,4.4414463E1,1.0346536E2,5.8662354E1,1.4672836E1,2.6728394E1,9.740509E0,4.8201294E0,4.091667E1,2.6871033E1,1.3117479E1,4.5924713E1,1.5163E2,5.9288086E1,3.5241577E1,2.5058598E1,6.07312E0,5.2333527E0,9.672913E0,6.8637695E0,2.0832825E0,4.8389587E0,2.4016724E0,0E0,0E0,0E0,0E0,0E0,0E0,0E0,0E0,0E0,0E0,0E0,0E0,0E0,0E0,0E0,0E0,0E0,0E0,0E0,0E0,0E0,0E0,0E0,0E0,0E0,0E0,0E0,0E0,0E0,0E0,0E0],"parents":[2147483647,0,0,1,1,2,2,3,3,4,4,5,5,6,6,7,7,8,8,9,9,10,10,11,11,12,12,13,13,14,14,15,15,16,16,17,17,18,18,19,19,20,20,21,21,22,22,23,23,24,24,25,25,26,26,27,27,28,28,29,29],"right_children":[2,4,6,8,10,12,14,16,18,20,22,24,26,28,30,32,34,36,38,40,42,44,46,48,50,52,54,56,58,60,-1,-1,-1,-1,-1,-1,-1,-1,-1,-1,-1,-1,-1,-1,-1,-1,-1,-1,-1,-1,-1,-1,-1,-1,-1,-1,-1,-1,-1,-1,-1],"split_conditions":[7.1886363E0,9.9009905E0,8.769828E0,5.05291E0,2.887372E1,-9.236641E0,1.0426562E1,-1.7346374E0,-1.2223974E0,4.534271E0,-1.0839433E1,-1.8520408E0,5.1603904E0,-4.3171864E0,1.2174096E1,9.6944466E-2,4.3700566E0,2.8985507E0,6.094716E0,-2.542373E0,-3.1937544E0,-1.4502777E0,3.975171E0,2.0676968E1,3.691983E1,1.1292957E0,1.25E1,-3.6791008E0,5.811851E-1,2.5719783E0,6.0379606E-2,-1.54897915E-2,2.2169603E-4,-2.6502026E-2,-1.851891E-2,-5.691306E-3,9.220666E-3,-1.371252E-2,-3.792429E-4,1.2955137E-3,-1.3701931E-2,8.036756E-3,-1.1610197E-3,3.663426E-2,1.3655131E-2,9.693218E-3,4.659646E-2,2.4202928E-2,4.5007017E-2,1.9538233E-2,3.7978813E-2,6.300896E-3,2.0595325E-2,1.9641621E-2,2.825339E-2,5.6423664E-2,3.8898613E-2,2.3690145E-2,3.767882E-2,5.1804025E-2,3.184654E-2],"split_indices":[11,42,11,11,42,40,11,16,16,11,18,23,43,21,11,13,11,43,11,16,18,23,21,42,42,31,42,18,15,30,0,0,0,0,0,0,0,0,0,0,0,0,0,0,0,0,0,0,0,0,0,0,0,0,0,0,0,0,0,0,0],"split_type":[0,0,0,0,0,0,0,0,0,0,0,0,0,0,0,0,0,0,0,0,0,0,0,0,0,0,0,0,0,0,0,0,0,0,0,0,0,0,0,0,0,0,0,0,0,0,0,0,0,0,0,0,0,0,0,0,0,0,0,0,0],"sum_hessian":[2.982712E4,2.6068553E4,3.7585657E3,1.0036244E4,1.603231E4,2.2139146E3,1.5446511E3,6.5569727E3,3.4792708E3,1.4136991E4,1.8953191E3,5.177924E2,1.6961221E3,8.377147E2,7.0693634E2,2.0931494E3,4.463823E3,7.4035614E2,2.7389148E3,7.051726E3,7.0852646E3,7.739581E2,1.121361E3,2.2850854E2,2.8928387E2,6.398647E2,1.0562574E3,1.4425879E2,6.9345593E2,3.4910876E2,3.578276E2,1.5263087E3,5.668407E2,2.6677488E3,1.7960747E3,2.0068108E2,5.3967505E2,1.6925011E3,1.0464137E3,4.270502E3,2.7812244E3,3.9255938E3,3.159671E3,5.231329E2,2.5082524E2,1.074471E3,4.6889965E1,5.4610226E1,1.7389832E2,2.3975957E2,4.9524296E1,4.81659E2,1.5820567E2,6.610128E2,3.952446E2,9.619914E1,4.805965E1,8.456968E1,6.088863E2,3.2101535E2,2.809342E1],"tree_param":{"num_deleted":"0","num_feature":"44","num_nodes":"61","size_leaf_vector":"1"}},{"base_weights":[-3.8977136E-4,5.1387453E-1,-1.338657E-1,7.830095E-1,3.7522444E-1,1.6461153E-2,-2.6171494E-1,9.774436E-1,6.764264E-1,2.7709576E-1,5.324274E-1,1.304499E-1,-5.8940474E-2,-2.0821105E-1,-5.213623E-1,1.1130319E0,9.2705816E-1,2.5930852E-1,7.2797304E-1,2.1254507E-1,5.4400855E-1,5.714883E-1,-2.2044683E-2,3.0389824E-3,2.227493E-1,-2.9018048E-2,-3.6038116E-1,-4.2008632E-1,-1.7536226E-1,-4.5542434E-1,-6.308307E-1,4.1419975E-2,5.83173E-2,2.9797638E-2,4.710064E-2,4.3209097E-3,4.2800546E-2,3.7415605E-2,3.6151924E-3,1.5370565E-2,4.2784754E-3,2.2575209E-2,3.484611E-2,2.5214253E-2,3.49081E-2,1.2280791E-2,-1.2074337E-2,6.8455054E-3,-3.705383E-3,1.7660952E-3,1.354419E-2,3.0463755E-3,-4.4343523E-3,-1.46205565E-2,-2.973086E-2,-2.5612772E-2,-1.486959E-2,-6.902086E-3,-1.2845258E-2,-2.7148813E-2,-1.7763656E-2,-2.9032359E-2,-3.3400774E-2],"categories":[],"categories_nodes":[],"categories_segments":[],"categories_sizes":[],"default_left":[0,0,0,0,0,0,0,0,0,0,0,0,0,0,0,0,0,0,0,0,0,0,0,0,0,0,0,0,0,0,0,0,0,0,0,0,0,0,0,0,0,0,0,0,0,0,0,0,0,0,0,0,0,0,0,0,0,0,0,0,0,0,0],"id":9,"left_children":[1,3,5,7,9,11,13,15,17,19,21,23,25,27,29,31,33,35,37,39,41,43,45,47,49,51,53,55,57,59,61,-1,-1,-1,-1,-1,-1,-1,-1,-1,-1,-1,-1,-1,-1,-1,-1,-1,-1,-1,-1,-1,-1,-1,-1,-1,-1,-1,-1,-1,-1,-1,-1],"loss_changes":[2.046255E3,2.2855017E2,4.5495166E2,4.192163E1,6.220941E1,9.3529E1,1.773927E2,3.064331E0,2.8618958E1,4.27847E1,3.3850403E1,5.0906204E1,5.8965263E1,7.36084E1,1.5115356E1,1.0430298E0,1.5528259E0,1.5341511E1,1.5801392E1,2.4188736E1,6.1686554E0,1.1616943E1,6.1716757E0,1.885088E1,2.2583595E1,3.1993423E1,8.963562E0,1.5692154E1,2.7830444E1,1.1539001E1,6.910095E-1,0E0,0E0,0E0,0E0,0E0,0E0,0E0,0E0,0E0,0E0,0E0,0E0,0E0,0E0,0E0,0E0,0E0,0E0,0E0,0E0,0E0,0E0,0E0,0E0,0E0,0E0,0E0,0E0,0E0,0E0,0E0,0E0],"parents":[2147483647,0,0,1,1,2,2,3,3,4,4,5,5,6,6,7,7,8,8,9,9,10,10,11,11,12,12,13,13,14,14,15,15,16,16,17,17,18,18,19,19,20,20,21,21,22,22,23,23,24,24,25,25,26,26,27,27,28,28,29,29,30,30],"right_children":[2,4,6,8,10,12,14,16,18,20,22,24,26,28,30,32,34,36,38,40,42,44,46,48,50,52,54,56,58,60,62,-1,-1,-1,-1,-1,-1,-1,-1,-1,-1,-1,-1,-1,-1,-1,-1,-1,-1,-1,-1,-1,-1,-1,-1,-1,-1,-1,-1,-1,-1,-1,-1],"split_conditions":[2.4826427E0,1.9163764E0,3.6693978E0,1.5704979E0,-1.0751792E0,9.2733E-1,7.7406015E0,3.386454E0,-2.2031167E0,-1.511559E-1,6.094716E0,-7.697116E0,7.1886363E0,-6.444168E0,9.756219E0,-1.8691589E0,-1.9426457E0,-3.6007062E-1,5.8817763E0,2.2785459E0,2.621028E-1,6.117767E-1,1.2998859E0,4.1096907E0,-2.2031167E0,2.9237227E0,8.769828E0,-1.2828794E0,4.9821734E0,-1.9549981E0,1.634349E1,4.1419975E-2,5.83173E-2,2.9797638E-2,4.710064E-2,4.3209097E-3,4.2800546E-2,3.7415605E-2,3.6151924E-3,1.5370565E-2,4.2784754E-3,2.2575209E-2,3.484611E-2,2.5214253E-2,3.49081E-2,1.2280791E-2,-1.2074337E-2,6.8455054E-3,-3.705383E-3,1.7660952E-3,1.354419E-2,3.0463755E-3,-4.4343523E-3,-1.46205565E-2,-2.973086E-2,-2.5612772E-2,-1.486959E-2,-6.902086E-3,-1.2845258E-2,-2.7148813E-2,-1.7763656E-2,-2.9032359E-2,-3.3400774E-2],"split_indices":[26,26,26,26,17,29,11,11,16,23,11,22,11,16,11,16,16,21,11,26,23,17,29,11,16,26,11,23,26,19,42,0,0,0,0,0,0,0,0,0,0,0,0,0,0,0,0,0,0,0,0,0,0,0,0,0,0,0,0,0,0,0,0],"split_type":[0,0,0,0,0,0,0,0,0,0,0,0,0,0,0,0,0,0,0,0,0,0,0,0,0,0,0,0,0,0,0,0,0,0,0,0,0,0,0,0,0,0,0,0,0,0,0,0,0,0,0,0,0,0,0,0,0,0,0,0,0,0,0],"sum_hessian":[2.9808684E4,6.141306E3,2.3667377E4,2.0852314E3,4.0560747E3,1.0877366E4,1.2790012E4,7.333272E2,1.3519043E3,2.5005847E3,1.55549E3,4.331205E3,6.546161E3,1.0607637E4,2.182375E3,1.8903247E2,5.4429474E2,1.5011246E2,1.2017919E3,2.0163826E3,4.8420206E2,1.4534158E3,1.0207422E2,1.8210824E3,2.5101226E3,5.9571353E3,5.890255E2,1.4206498E3,9.186987E3,1.3679572E3,8.1441785E2,3.4326973E1,1.547055E2,2.674709E1,5.1754767E2,1.1798077E2,3.2131687E1,1.1651322E3,3.6659657E1,1.1519951E3,8.6438745E2,3.06203E2,1.7799907E2,9.55534E2,4.978817E2,4.5493736E1,5.6580482E1,6.6629816E2,1.1547843E3,5.142967E2,1.9958258E3,2.3744644E3,3.5826711E3,4.5982187E2,1.2920363E2,8.075894E2,6.1306036E2,6.3069272E3,2.88006E3,7.252854E2,6.426717E2,3.5952036E2,4.5489746E2],"tree_param":{"num_deleted":"0","num_feature":"44","num_nodes":"63","size_leaf_vector":"1"}},{"base_weights":[2.0770587E-3,2.3132658E-2,-3.4862372E-1,-2.4488801E-1,4.292496E-2,-2.5285926E-1,-5.425373E-1,-4.136599E-1,-1.5554863E-1,7.7289484E-2,-3.615954E-2,-4.733018E-1,-2.1060848E-1,-3.234954E-2,-4.5583934E-1,-3.1607708E-1,-4.864613E-1,4.8255417E-2,-2.145891E-1,-2.07955E-2,9.081181E-2,-1.8847223E-1,-1.604891E-2,-8.423637E-3,-5.150021E-1,-9.172268E-2,-2.7268293E-1,-2.737673E-1,-4.904977E-1,-2.3161558E-2,-1.1458396E-2,-2.5639141E-2,-5.5984138E-3,1.523178E-2,-9.414122E-3,-2.0389289E-2,-8.277285E-3,-9.503703E-3,6.122947E-4,5.837255E-3,1.7882597E-3,-5.7680025E-3,-1.5575657E-2,2.0547109E-3,-3.074938E-3,-2.7537316E-2,-1.3634321E-2,-7.109625E-4,-1.5293211E-2,1.2482043E-2,-1.4725468E-2,-5.3587905E-3,-2.3550369E-2,-2.0587377E-2,-2.9367978E-2],"categories":[],"categories_nodes":[],"categories_segments":[],"categories_sizes":[],"default_left":[0,0,0,0,0,0,0,0,0,0,0,0,0,0,0,0,0,0,0,0,0,0,0,0,0,0,0,0,0,0,0,0,0,0,0,0,0,0,0,0,0,0,0,0,0,0,0,0,0,0,0,0,0,0,0],"id":10,"left_children":[1,3,5,7,9,11,13,15,17,19,21,23,25,-1,27,29,31,33,35,37,39,41,43,-1,45,47,49,51,53,-1,-1,-1,-1,-1,-1,-1,-1,-1,-1,-1,-1,-1,-1,-1,-1,-1,-1,-1,-1,-1,-1,-1,-1,-1,-1],"loss_changes":[2.2367517E2,1.5160661E2,3.1493637E1,2.942083E1,7.235866E1,1.0442642E1,4.4550476E0,4.4292374E0,1.5548908E1,2.4632462E1,2.465164E1,2.0632935E0,7.048889E0,0E0,1.6331558E0,3.4798717E0,3.580536E0,1.768464E1,9.257706E0,1.2612836E1,2.3250061E1,8.308693E0,1.8512955E1,0E0,9.953842E-1,5.508358E0,7.3639946E0,1.6054287E0,1.4341354E0,0E0,0E0,0E0,0E0,0E0,0E0,0E0,0E0,0E0,0E0,0E0,0E0,0E0,0E0,0E0,0E0,0E0,0E0,0E0,0E0,0E0,0E0,0E0,0E0,0E0,0E0],"parents":[2147483647,0,0,1,1,2,2,3,3,4,4,5,5,6,6,7,7,8,8,9,9,10,10,11,11,12,12,14,14,15,15,16,16,17,17,18,18,19,19,20,20,21,21,22,22,24,24,25,25,26,26,27,27,28,28],"right_children":[2,4,6,8,10,12,14,16,18,20,22,24,26,-1,28,30,32,34,36,38,40,42,44,-1,46,48,50,52,54,-1,-1,-1,-1,-1,-1,-1,-1,-1,-1,-1,-1,-1,-1,-1,-1,-1,-1,-1,-1,-1,-1,-1,-1,-1,-1],"split_conditions":[8.4966135E0,1.9163764E0,1.08295965E1,1.5704979E0,4.1733227E0,-1.9630962E1,-7.2646875E0,-7.236118E-1,-6.9743953E0,2.2634213E0,-2.1789007E1,4.6992483E0,1.3366287E0,-3.234954E-2,9.8720706E-1,3.468208E0,1.6139095E0,-2.398524E0,6.98482E-1,7.9451656E-1,3.4698522E0,1.0897545E0,5.0049214E0,-8.423637E-3,-1.8556701E0,-6.929187E-1,2.368421E1,1.2174096E1,5.368421E1,-2.3161558E-2,-1.1458396E-2,-2.5639141E-2,-5.5984138E-3,1.523178E-2,-9.414122E-3,-2.0389289E-2,-8.277285E-3,-9.503703E-3,6.122947E-4,5.837255E-3,1.7882597E-3,-5.7680025E-3,-1.5575657E-2,2.0547109E-3,-3.074938E-3,-2.7537316E-2,-1.3634321E-2,-7.109625E-4,-1.5293211E-2,1.2482043E-2,-1.4725468E-2,-5.3587905E-3,-2.3550369E-2,-2.0587377E-2,-2.9367978E-2],"split_indices":[11,26,11,26,26,22,17,17,22,26,22,26,15,0,29,8,30,39,30,29,26,31,11,0,39,17,28,11,28,0,0,0,0,0,0,0,0,0,0,0,0,0,0,0,0,0,0,0,0,0,0,0,0,0,0],"split_type":[0,0,0,0,0,0,0,0,0,0,0,0,0,0,0,0,0,0,0,0,0,0,0,0,0,0,0,0,0,0,0,0,0,0,0,0,0,0,0,0,0,0,0,0,0,0,0,0,0,0,0,0,0,0,0],"sum_hessian":[3.0296662E4,2.8582574E4,1.7140876E3,1.9636964E3,2.6618879E4,1.1504325E3,5.6365515E2,6.7702954E2,1.2866669E3,1.8557615E4,8.0612627E3,1.8180937E2,9.686231E2,2.5020628E2,3.1344888E2,2.938771E2,3.831524E2,2.8831345E2,9.9835345E2,2.2465479E3,1.6311067E4,9.3760254E2,7.12366E3,2.3365305E1,1.5844406E2,3.3464502E2,6.339781E2,5.3182518E1,2.6026636E2,1.058523E2,1.8802481E2,3.5697427E2,2.6178123E1,1.3855225E2,1.497612E2,1.9907744E2,7.9927606E2,3.6671384E2,1.8798339E3,1.1083941E4,5.2271265E3,5.909725E2,3.4663007E2,3.153976E3,3.969684E3,1.3569318E2,2.2750881E1,2.4757478E2,8.707024E1,2.4433966E1,6.095441E2,3.063601E1,2.2546509E1,1.4903761E2,1.1122875E2],"tree_param":{"num_deleted":"0","num_feature":"44","num_nodes":"55","size_leaf_vector":"1"}},{"base_weights":[-7.592127E-5,-2.9539025E-1,2.688782E-1,-4.3978852E-1,-1.314828E-1,1.4066781E-1,4.7135282E-1,-5.446213E-1,-3.4646723E-1,-2.3482068E-1,-3.822673E-2,9.908541E-2,4.3416718E-1,3.7312326E-1,7.624213E-1,-3.1439978E-1,-5.568759E-1,-4.2442578E-1,-2.3716588E-1,-1.7497668E-1,-3.3102205E-1,-5.5903994E-2,6.3625836E-1,-1.8423881E-2,1.4625044E-1,9.427827E-2,5.499723E-1,2.8698775E-1,5.307451E-1,9.318642E-1,6.1815554E-1,-3.220499E-2,-1.1078952E-2,-2.9541804E-2,-2.4794647E-2,-2.6769776E-2,-1.9537244E-2,-1.2249207E-2,1.673626E-2,-5.730733E-3,-1.3129899E-2,-0E0,-1.737289E-2,-8.964245E-3,-5.429035E-4,1.5286741E-2,3.9315786E-2,2.3795587E-3,-6.5896E-3,2.980108E-3,1.0247214E-2,-1.5621555E-2,9.374789E-3,2.3077974E-2,4.10015E-2,1.7273871E-2,7.6626837E-3,2.1146E-2,3.1375386E-2,3.9153922E-2,5.523054E-2,2.8196996E-2,4.9751654E-2],"categories":[],"categories_nodes":[],"categories_segments":[],"categories_sizes":[],"default_left":[0,0,0,0,0,0,0,0,0,0,0,0,0,0,0,0,0,0,0,0,0,0,0,0,0,0,0,0,0,0,0,0,0,0,0,0,0,0,0,0,0,0,0,0,0,0,0,0,0,0,0,0,0,0,0,0,0,0,0,0,0,0,0],"id":11,"left_children":[1,3,5,7,9,11,13,15,17,19,21,23,25,27,29,31,33,35,37,39,41,43,45,47,49,51,53,55,57,59,61,-1,-1,-1,-1,-1,-1,-1,-1,-1,-1,-1,-1,-1,-1,-1,-1,-1,-1,-1,-1,-1,-1,-1,-1,-1,-1,-1,-1,-1,-1,-1,-1],"loss_changes":[2.3573357E3,3.3462695E2,4.0299646E2,7.310547E1,6.381131E1,1.159321E2,1.7149463E2,9.544434E0,3.3659485E1,1.7906647E1,4.1514065E1,4.622609E1,4.6220108E1,6.0773987E1,3.591565E1,5.215269E0,6.2938232E0,8.180023E0,7.539833E0,1.0151375E1,6.511841E0,1.8853947E1,3.8296928E0,1.7893843E1,3.018512E1,1.1512378E1,2.0163849E1,2.264E1,1.5974579E1,1.6166504E1,1.5695709E1,0E0,0E0,0E0,0E0,0E0,0E0,0E0,0E0,0E0,0E0,0E0,0E0,0E0,0E0,0E0,0E0,0E0,0E0,0E0,0E0,0E0,0E0,0E0,0E0,0E0,0E0,0E0,0E0,0E0,0E0,0E0,0E0],"parents":[2147483647,0,0,1,1,2,2,3,3,4,4,5,5,6,6,7,7,8,8,9,9,10,10,11,11,12,12,13,13,14,14,15,15,16,16,17,17,18,18,19,19,20,20,21,21,22,22,23,23,24,24,25,25,26,26,27,27,28,28,29,29,30,30],"right_children":[2,4,6,8,10,12,14,16,18,20,22,24,26,28,30,32,34,36,38,40,42,44,46,48,50,52,54,56,58,60,62,-1,-1,-1,-1,-1,-1,-1,-1,-1,-1,-1,-1,-1,-1,-1,-1,-1,-1,-1,-1,-1,-1,-1,-1,-1,-1,-1,-1,-1,-1,-1,-1],"split_conditions":[3.4065933E0,2.6898391E0,4.8657503E0,2.2007723E0,8.517814E-1,1.4417943E0,1.204245E0,-6.071536E0,9.490718E-1,-1.2409464E1,2.2103546E0,6.582048E-1,-5.609493E0,6.3311687E0,-7.043889E0,9.020098E-1,1.980198E0,6.1079854E-1,2.2103546E0,-4.148784E0,-2.2702956E0,-6.4664087E0,1.5194366E0,-3.2258065E0,3.861103E0,1.4168766E1,1.2133768E0,-1.4E0,7.2644466E-1,5.702406E0,1.943734E0,-3.220499E-2,-1.1078952E-2,-2.9541804E-2,-2.4794647E-2,-2.6769776E-2,-1.9537244E-2,-1.2249207E-2,1.673626E-2,-5.730733E-3,-1.3129899E-2,-0E0,-1.737289E-2,-8.964245E-3,-5.429035E-4,1.5286741E-2,3.9315786E-2,2.3795587E-3,-6.5896E-3,2.980108E-3,1.0247214E-2,-1.5621555E-2,9.374789E-3,2.3077974E-2,4.10015E-2,1.7273871E-2,7.6626837E-3,2.1146E-2,3.1375386E-2,3.9153922E-2,5.523054E-2,2.8196996E-2,4.9751654E-2],"split_indices":[26,26,26,26,30,30,30,20,30,10,16,30,16,26,17,29,26,30,16,41,23,20,30,40,26,28,16,40,30,43,16,0,0,0,0,0,0,0,0,0,0,0,0,0,0,0,0,0,0,0,0,0,0,0,0,0,0,0,0,0,0,0,0],"split_type":[0,0,0,0,0,0,0,0,0,0,0,0,0,0,0,0,0,0,0,0,0,0,0,0,0,0,0,0,0,0,0,0,0,0,0,0,0,0,0,0,0,0,0,0,0,0,0,0,0,0,0,0,0,0,0,0,0,0,0,0,0,0,0],"sum_hessian":[2.9676578E4,1.4145392E4,1.5531187E4,7.5182563E3,6.627135E3,9.511728E3,6.019459E3,3.5363215E3,3.981935E3,3.1415422E3,3.4855928E3,8.333712E3,1.1780154E3,4.5036733E3,1.5157859E3,1.8156969E2,3.3547517E3,2.320615E3,1.6613198E3,1.940637E3,1.2009053E3,3.3982031E3,8.73897E1,2.3859385E3,5.9477734E3,3.004984E2,8.7751697E2,2.915786E3,1.5878873E3,6.9266364E2,8.2312225E2,3.745737E1,1.441123E2,2.1443154E3,1.2104364E3,5.3375415E2,1.786861E3,1.6401053E3,2.1214537E1,1.1524575E3,7.881793E2,5.7125362E1,1.1437799E3,9.064698E2,2.4917332E3,2.9125494E1,5.826421E1,1.507321E3,8.7861755E2,2.4044998E3,3.5432737E3,5.497383E1,2.455246E2,6.6470636E2,2.1281064E2,2.0258804E3,8.8990546E2,7.5580115E2,8.320862E2,3.7722186E2,3.1544177E2,7.233413E2,9.978092E1],"tree_param":{"num_deleted":"0","num_feature":"44","num_nodes":"63","size_leaf_vector":"1"}},{"base_weights":[2.3127699E-3,4.147258E-1,-1.5207344E-1,6.9791394E-1,2.820597E-1,-1.0485822E-1,-4.7408643E-1,4.607759E-2,7.320301E-1,4.7941974E-1,2.0214342E-1,-1.1598533E-2,-2.1532726E-1,-3.7239447E-1,-5.7598865E-1,-1.2997045E-1,3.7280616E-1,8.3954555E-1,6.0482216E-1,4.2028275E-1,8.269036E-1,1.1308254E-1,3.63942E-1,1.5199448E-1,-5.5657163E-2,-4.949515E-1,-1.9001701E-1,-5.3746367E-1,-3.2546273E-1,-5.1856154E-1,-3.2093666E-2,6.9213733E-3,-1.4863445E-2,5.0894064E-3,3.3529826E-2,4.282516E-2,1.8758211E-2,3.1220714E-2,4.7993427E-3,2.626248E-2,1.3714989E-2,4.375784E-2,1.6039995E-2,2.4336171E-3,1.7967306E-2,2.3844866E-2,9.089342E-3,1.2490138E-2,1.4566286E-3,-5.3527053E-3,2.9386515E-3,-2.6621377E-2,-1.1892459E-2,-1.0374079E-2,-2.827865E-4,-1.3454288E-2,-2.8526379E-2,-1.2407603E-2,-2.044452E-2,-3.1606015E-2,-2.3118531E-2],"categories":[],"categories_nodes":[],"categories_segments":[],"categories_sizes":[],"default_left":[0,0,0,0,0,0,0,0,0,0,0,0,0,0,0,0,0,0,0,0,0,0,0,0,0,0,0,0,0,0,0,0,0,0,0,0,0,0,0,0,0,0,0,0,0,0,0,0,0,0,0,0,0,0,0,0,0,0,0,0,0],"id":12,"left_children":[1,3,5,7,9,11,13,15,17,19,21,23,25,27,29,31,33,35,37,39,41,43,45,47,49,51,53,55,57,59,-1,-1,-1,-1,-1,-1,-1,-1,-1,-1,-1,-1,-1,-1,-1,-1,-1,-1,-1,-1,-1,-1,-1,-1,-1,-1,-1,-1,-1,-1,-1],"loss_changes":[1.8936272E3,3.0385974E2,3.2880765E2,5.7232544E1,8.677542E1,1.9440077E2,2.8153076E1,7.619181E0,3.251306E1,3.1882782E1,5.6503815E1,7.377811E1,6.0862946E1,1.0331177E1,4.4820557E0,3.9292753E0,3.4902678E0,9.707581E0,1.1034088E1,2.0486526E1,4.9336243E0,4.0166653E1,2.843071E1,2.6027664E1,4.746389E1,6.5496063E0,2.5472382E1,2.302948E0,6.7262115E0,4.100586E0,0E0,0E0,0E0,0E0,0E0,0E0,0E0,0E0,0E0,0E0,0E0,0E0,0E0,0E0,0E0,0E0,0E0,0E0,0E0,0E0,0E0,0E0,0E0,0E0,0E0,0E0,0E0,0E0,0E0,0E0,0E0],"parents":[2147483647,0,0,1,1,2,2,3,3,4,4,5,5,6,6,7,7,8,8,9,9,10,10,11,11,12,12,13,13,14,14,15,15,16,16,17,17,18,18,19,19,20,20,21,21,22,22,23,23,24,24,25,25,26,26,27,27,28,28,29,29],"right_children":[2,4,6,8,10,12,14,16,18,20,22,24,26,28,30,32,34,36,38,40,42,44,46,48,50,52,54,56,58,60,-1,-1,-1,-1,-1,-1,-1,-1,-1,-1,-1,-1,-1,-1,-1,-1,-1,-1,-1,-1,-1,-1,-1,-1,-1,-1,-1,-1,-1,-1,-1],"split_conditions":[2.6898391E0,2.0017369E0,7.529183E0,-3.9580908E0,7.32203E-1,3.9060068E0,8.769828E0,2.368421E1,1.756602E0,6.117767E-1,-1.0751792E0,6.3827765E-1,-1.2237066E1,-1.0081113E1,1.0426562E1,1.0801122E0,3.5531777E-1,5.425E0,5.9846153E0,4.3320847E0,6.664839E-1,-2.2373085E-1,4.8050385E0,4.56092E0,-2.022472E0,-5.785458E-2,-1.1434721E-1,-5.485051E1,-1.0091465E0,-3.8280022E0,-3.2093666E-2,6.9213733E-3,-1.4863445E-2,5.0894064E-3,3.3529826E-2,4.282516E-2,1.8758211E-2,3.1220714E-2,4.7993427E-3,2.626248E-2,1.3714989E-2,4.375784E-2,1.6039995E-2,2.4336171E-3,1.7967306E-2,2.3844866E-2,9.089342E-3,1.2490138E-2,1.4566286E-3,-5.3527053E-3,2.9386515E-3,-2.6621377E-2,-1.1892459E-2,-1.0374079E-2,-2.827865E-4,-1.3454288E-2,-2.8526379E-2,-1.2407603E-2,-2.044452E-2,-3.1606015E-2,-2.3118531E-2],"split_indices":[26,26,11,18,30,26,11,28,26,17,17,30,18,40,11,29,15,11,11,11,23,23,11,11,40,13,18,9,18,19,0,0,0,0,0,0,0,0,0,0,0,0,0,0,0,0,0,0,0,0,0,0,0,0,0,0,0,0,0,0,0],"split_type":[0,0,0,0,0,0,0,0,0,0,0,0,0,0,0,0,0,0,0,0,0,0,0,0,0,0,0,0,0,0,0,0,0,0,0,0,0,0,0,0,0,0,0,0,0,0,0,0,0,0,0,0,0,0,0,0,0,0,0,0,0],"sum_hessian":[2.9737055E4,8.099518E3,2.1637537E4,2.5813938E3,5.518124E3,1.8872902E4,2.764634E3,1.2885368E2,2.45254E3,1.5875455E3,3.9305786E3,1.0235446E4,8.637456E3,1.3882212E3,1.3764127E3,8.3924576E1,4.49291E1,1.3237457E3,1.1287943E3,1.3599846E3,2.2756093E2,2.5375737E3,1.3930049E3,2.16997E3,8.0654766E3,7.1396216E2,7.9234937E3,3.0290356E2,1.0853176E3,7.4413983E2,6.322729E2,3.1865673E1,5.2058907E1,2.4927235E1,2.0001865E1,1.2754728E3,4.8273026E1,1.0862363E3,4.255806E1,7.880688E2,5.7191583E2,2.0639383E2,2.1167097E1,2.013541E3,5.240328E2,8.57648E2,5.353568E2,1.2063988E3,9.635712E2,5.5669126E3,2.4985642E3,6.210515E2,9.291063E1,7.236689E3,6.868051E2,3.5391247E1,2.6751233E2,5.6764856E2,5.17669E2,2.400594E2,5.0408044E2],"tree_param":{"num_deleted":"0","num_feature":"44","num_nodes":"61","size_leaf_vector":"1"}},{"base_weights":[2.2636235E-3,2.161236E-2,-3.7660113E-1,-2.4518083E-1,4.0965617E-2,-2.5941548E-1,-5.1366943E-1,2.9149282E-1,-2.756936E-1,8.330012E-2,-2.2698654E-2,-2.9027551E-2,-2.302057E-1,-4.3056494E-1,-6.00078E-1,5.1492963E-2,4.9951574E-1,-4.308078E-1,-1.8912517E-1,1.521725E-1,4.8310537E-2,1.2485269E-3,-1.21580906E-1,-5.2617773E-2,-2.669031E-1,-4.5707455E-1,-3.9394243E-5,-6.1485523E-1,-1.7435582E-2,-9.028424E-3,1.4316628E-2,1.0726333E-2,4.0383987E-2,-2.7406415E-2,-1.8527994E-2,-1.0286974E-2,1.0621327E-2,9.071777E-3,2.9464678E-3,-2.8526315E-3,3.983109E-3,2.3311886E-3,-2.4691492E-3,-5.086064E-3,-1.6747845E-2,1.2024394E-2,-1.2934416E-2,1.8703539E-3,-1.43869985E-2,-1.4708023E-2,-2.5293458E-2,-3.158351E-2,-2.240132E-2],"categories":[],"categories_nodes":[],"categories_segments":[],"categories_sizes":[],"default_left":[0,0,0,0,0,0,0,0,0,0,0,0,0,0,0,0,0,0,0,0,0,0,0,0,0,0,0,0,0,0,0,0,0,0,0,0,0,0,0,0,0,0,0,0,0,0,0,0,0,0,0,0,0],"id":13,"left_children":[1,3,5,7,9,11,13,15,17,19,21,-1,23,25,27,29,31,33,35,37,39,41,43,45,47,49,-1,51,-1,-1,-1,-1,-1,-1,-1,-1,-1,-1,-1,-1,-1,-1,-1,-1,-1,-1,-1,-1,-1,-1,-1,-1,-1],"loss_changes":[2.213739E2,1.4837326E2,2.3213821E1,3.1941124E1,7.224385E1,7.09317E0,4.2459717E0,5.089615E0,2.446083E1,3.8742386E1,2.5367313E1,0E0,4.6830215E0,3.8959427E0,6.9444275E-1,2.869159E0,4.4175625E0,4.155876E0,7.9659996E0,1.4726418E1,3.5287434E1,1.979693E1,8.710602E0,7.833987E0,3.902607E0,2.2341843E0,0E0,2.1413422E-1,0E0,0E0,0E0,0E0,0E0,0E0,0E0,0E0,0E0,0E0,0E0,0E0,0E0,0E0,0E0,0E0,0E0,0E0,0E0,0E0,0E0,0E0,0E0,0E0,0E0],"parents":[2147483647,0,0,1,1,2,2,3,3,4,4,5,5,6,6,7,7,8,8,9,9,10,10,12,12,13,13,14,14,15,15,16,16,17,17,18,18,19,19,20,20,21,21,22,22,23,23,24,24,25,25,27,27],"right_children":[2,4,6,8,10,12,14,16,18,20,22,-1,24,26,28,30,32,34,36,38,40,42,44,46,48,50,-1,52,-1,-1,-1,-1,-1,-1,-1,-1,-1,-1,-1,-1,-1,-1,-1,-1,-1,-1,-1,-1,-1,-1,-1,-1,-1],"split_conditions":[8.769828E0,1.9163764E0,1.0426562E1,-3.8686278E0,3.81534E0,-2.2143864E1,1.9020685E1,-7.81602E-2,1.5704979E0,-2.0773542E0,5.979644E0,-2.9027551E-2,3.7872903E0,1.8930129E0,2.5719783E0,1.1449535E0,-2.879885E0,1.2995764E0,5.7873564E0,4.662857E0,4.083799E0,8.969719E-1,1.5375606E0,8.508741E-1,6.510549E-1,-7.5891726E-2,-3.9394243E-5,9.6871805E-1,-1.7435582E-2,-9.028424E-3,1.4316628E-2,1.0726333E-2,4.0383987E-2,-2.7406415E-2,-1.8527994E-2,-1.0286974E-2,1.0621327E-2,9.071777E-3,2.9464678E-3,-2.8526315E-3,3.983109E-3,2.3311886E-3,-2.4691492E-3,-5.086064E-3,-1.6747845E-2,1.2024394E-2,-1.2934416E-2,1.8703539E-3,-1.43869985E-2,-1.4708023E-2,-2.5293458E-2,-3.158351E-2,-2.240132E-2],"split_indices":[11,26,11,18,26,41,42,12,26,16,26,0,26,23,30,30,16,26,11,11,11,31,30,6,31,16,0,6,0,0,0,0,0,0,0,0,0,0,0,0,0,0,0,0,0,0,0,0,0,0,0,0,0],"split_type":[0,0,0,0,0,0,0,0,0,0,0,0,0,0,0,0,0,0,0,0,0,0,0,0,0,0,0,0,0,0,0,0,0,0,0,0,0,0,0,0,0,0,0,0,0,0,0,0,0,0,0,0,0],"sum_hessian":[3.0205316E4,2.8739523E4,1.4657936E3,1.941889E3,2.6797633E4,7.933349E2,6.724587E2,1.0342437E2,1.8384647E3,1.6096623E4,1.070101E4,6.3212288E1,7.301226E2,3.4853748E2,3.2392117E2,4.933659E1,5.4087784E1,6.555565E2,1.1829082E3,5.4191E3,1.0677523E4,8.614274E3,2.0867358E3,1.26595604E2,6.0352704E2,3.277599E2,2.07776E1,3.0313577E2,2.0785423E1,2.4561075E1,2.4775513E1,2.9759506E1,2.4328278E1,2.1717876E2,4.3837772E2,1.1370903E3,4.5817867E1,4.121928E3,1.2971718E3,2.4468403E3,8.230684E3,4.5450938E3,4.0691804E3,1.9119376E3,1.7479819E2,5.175727E1,7.483833E1,3.798511E1,5.6554193E2,7.891664E1,2.4884323E2,2.7049396E2,3.264179E1],"tree_param":{"num_deleted":"0","num_feature":"44","num_nodes":"53","size_leaf_vector":"1"}},{"base_weights":[-7.1829243E-4,-2.897804E-1,2.562043E-1,-4.3551412E-1,-1.2508392E-1,1.6618593E-1,5.0684565E-1,-5.3439885E-1,-3.4620443E-1,-2.2449316E-1,-3.447446E-2,1.02520235E-1,3.6710736E-1,4.0474033E-1,7.795175E-1,-3.0090532E-1,-5.464375E-1,-4.3743542E-1,-2.6641557E-1,-1.6388695E-1,-3.2187337E-1,-7.4504696E-2,2.9483116E-1,1.756969E-1,3.476638E-3,3.113343E-1,7.12149E-1,3.633615E-1,5.996526E-1,9.368343E-1,6.0000736E-1,-3.0482337E-2,-1.0577385E-2,-2.9153842E-2,-2.407665E-2,-2.0849511E-2,-2.7545258E-2,-9.790905E-3,-1.767972E-2,-4.8263427E-3,-1.31209595E-2,5.176786E-3,-1.6662827E-2,-9.577302E-3,-1.3913531E-3,8.706483E-3,4.3829903E-2,1.342039E-2,4.6771606E-3,-5.273191E-3,4.0724385E-3,9.377331E-3,2.0652536E-2,3.0500105E-2,4.518698E-2,2.657774E-2,1.565022E-2,3.5883363E-2,2.629208E-2,4.830196E-2,1.3490329E-2,2.8563539E-2,4.7215503E-2],"categories":[],"categories_nodes":[],"categories_segments":[],"categories_sizes":[],"default_left":[0,0,0,0,0,0,0,0,0,0,0,0,0,0,0,0,0,0,0,0,0,0,0,0,0,0,0,0,0,0,0,0,0,0,0,0,0,0,0,0,0,0,0,0,0,0,0,0,0,0,0,0,0,0,0,0,0,0,0,0,0,0,0],"id":14,"left_children":[1,3,5,7,9,11,13,15,17,19,21,23,25,27,29,31,33,35,37,39,41,43,45,47,49,51,53,55,57,59,61,-1,-1,-1,-1,-1,-1,-1,-1,-1,-1,-1,-1,-1,-1,-1,-1,-1,-1,-1,-1,-1,-1,-1,-1,-1,-1,-1,-1,-1,-1,-1,-1],"loss_changes":[2.214924E3,3.3666003E2,3.559839E2,6.529285E1,5.930764E1,1.4848895E2,1.1541504E2,9.504028E0,2.8197357E1,1.8365707E1,4.5482204E1,6.3936462E1,5.324353E1,2.3984985E1,3.0879211E1,4.5306683E0,7.340576E0,3.6932983E0,1.2677444E1,1.2771782E1,5.9203033E0,1.6768347E1,2.5809803E1,3.8544205E1,3.1888771E1,3.0095474E1,6.448227E0,2.0847961E1,3.7924042E0,1.1073547E1,4.1760864E0,0E0,0E0,0E0,0E0,0E0,0E0,0E0,0E0,0E0,0E0,0E0,0E0,0E0,0E0,0E0,0E0,0E0,0E0,0E0,0E0,0E0,0E0,0E0,0E0,0E0,0E0,0E0,0E0,0E0,0E0,0E0,0E0],"parents":[2147483647,0,0,1,1,2,2,3,3,4,4,5,5,6,6,7,7,8,8,9,9,10,10,11,11,12,12,13,13,14,14,15,15,16,16,17,17,18,18,19,19,20,20,21,21,22,22,23,23,24,24,25,25,26,26,27,27,28,28,29,29,30,30],"right_children":[2,4,6,8,10,12,14,16,18,20,22,24,26,28,30,32,34,36,38,40,42,44,46,48,50,52,54,56,58,60,62,-1,-1,-1,-1,-1,-1,-1,-1,-1,-1,-1,-1,-1,-1,-1,-1,-1,-1,-1,-1,-1,-1,-1,-1,-1,-1,-1,-1,-1,-1,-1,-1],"split_conditions":[3.3934505E0,2.6898391E0,5.4187193E0,2.2007723E0,8.580579E-1,1.1766608E0,1.1835121E0,-6.071536E0,8.580579E-1,-1.2409464E1,7.556675E-1,-3.7E0,1.2133768E0,7.942058E0,-1.3340431E-1,8.4147793E-1,1.980198E0,1.0263929E0,-1.6306156E0,-4.148784E0,-2.7266967E0,-6.52366E0,1.9719282E0,-1.243874E0,7.2324044E-1,4.0669856E0,3.1102097E0,-3.4385371E0,-1.9206771E0,-9.892153E0,2.1708684E0,-3.0482337E-2,-1.0577385E-2,-2.9153842E-2,-2.407665E-2,-2.0849511E-2,-2.7545258E-2,-9.790905E-3,-1.767972E-2,-4.8263427E-3,-1.31209595E-2,5.176786E-3,-1.6662827E-2,-9.577302E-3,-1.3913531E-3,8.706483E-3,4.3829903E-2,1.342039E-2,4.6771606E-3,-5.273191E-3,4.0724385E-3,9.377331E-3,2.0652536E-2,3.0500105E-2,4.518698E-2,2.657774E-2,1.565022E-2,3.5883363E-2,2.629208E-2,4.830196E-2,1.3490329E-2,2.8563539E-2,4.7215503E-2],"split_indices":[26,26,26,26,30,30,30,20,30,10,16,40,16,26,13,30,26,40,17,41,23,20,30,23,30,26,16,21,21,9,39,0,0,0,0,0,0,0,0,0,0,0,0,0,0,0,0,0,0,0,0,0,0,0,0,0,0,0,0,0,0,0,0],"split_type":[0,0,0,0,0,0,0,0,0,0,0,0,0,0,0,0,0,0,0,0,0,0,0,0,0,0,0,0,0,0,0,0,0,0,0,0,0,0,0,0,0,0,0,0,0,0,0,0,0,0,0,0,0,0,0,0,0,0,0,0,0,0,0],"sum_hessian":[2.9820875E4,1.4033007E4,1.5787867E4,7.443157E3,6.5898496E3,1.161839E4,4.1694775E3,3.5276199E3,3.9155374E3,3.1402273E3,3.4496226E3,8.825217E3,2.7931733E3,3.0367783E3,1.1326992E3,1.7568893E2,3.3519312E3,1.8224777E3,2.0930598E3,1.9393306E3,1.2008966E3,3.0773137E3,3.723088E2,5.073539E3,3.7516775E3,2.4074607E3,3.8571246E2,2.5093743E3,5.2740405E2,5.996995E2,5.329997E2,3.697249E1,1.3871645E2,2.132855E3,1.219076E3,1.5516698E3,2.7080777E2,1.1604723E3,9.325875E2,1.1548403E3,7.8449023E2,3.0521957E1,1.1703746E3,8.748186E2,2.202495E3,3.1023572E2,6.20731E1,2.380874E3,2.6926648E3,1.5637527E3,2.1879248E3,1.0887258E3,1.318735E3,2.5635565E2,1.2935681E2,5.739776E2,1.9353966E3,1.9685817E2,3.3054587E2,5.736124E2,2.6087086E1,4.961584E2,3.684132E1],"tree_param":{"num_deleted":"0","num_feature":"44","num_nodes":"63","size_leaf_vector":"1"}},{"base_weights":[-1.4317401E-3,4.1643202E-1,-1.4080176E-1,6.8172157E-1,2.8070515E-1,-5.8344677E-2,-3.235846E-1,4.925075E-2,7.141505E-1,4.644641E-1,2.0697132E-1,-2.754478E-2,-3.5827455E-1,-2.8082004E-1,-5.809124E-1,-9.4485395E-2,2.8768862E-2,8.7156516E-1,6.4094144E-1,4.0027317E-1,7.092986E-1,1.5427375E-1,4.0380314E-1,7.8086644E-2,-8.17627E-2,-3.1137493E-1,-5.892132E-1,-4.9452057E-1,-2.4802588E-1,-6.3535684E-1,-4.870163E-1,1.4300321E-2,-1.0407015E-2,5.0188746E-2,3.9839238E-2,4.1286495E-2,3.0397464E-2,2.6439479E-2,1.2992305E-2,4.207467E-2,2.1728953E-2,1.3217835E-3,1.3082107E-2,2.1965077E-2,-3.7812584E-3,1.2204836E-2,6.3681504E-4,-6.589055E-3,8.0747086E-5,-1.4543953E-2,-2.9934391E-2,-1.9836599E-2,-3.1851016E-2,-2.8252626E-2,-1.5548335E-2,-1.049395E-2,-1.879604E-2,-3.283177E-2,-2.7494473E-2,-1.9140763E-2,-3.0335799E-2],"categories":[],"categories_nodes":[],"categories_segments":[],"categories_sizes":[],"default_left":[0,0,0,0,0,0,0,0,0,0,0,0,0,0,0,0,0,0,0,0,0,0,0,0,0,0,0,0,0,0,0,0,0,0,0,0,0,0,0,0,0,0,0,0,0,0,0,0,0,0,0,0,0,0,0,0,0,0,0,0,0],"id":15,"left_children":[1,3,5,7,9,11,13,15,17,19,21,23,25,27,29,31,-1,33,35,37,39,41,43,45,47,49,51,53,55,57,59,-1,-1,-1,-1,-1,-1,-1,-1,-1,-1,-1,-1,-1,-1,-1,-1,-1,-1,-1,-1,-1,-1,-1,-1,-1,-1,-1,-1,-1,-1],"loss_changes":[1.7324797E3,2.67422E2,3.361321E2,5.141223E1,6.6453094E1,1.4195123E2,7.589154E1,9.604657E0,2.6442627E1,2.148584E1,3.628842E1,7.988393E1,1.5046127E1,4.136389E1,4.3524475E0,4.3505387E0,0E0,5.9022827E0,8.960266E0,1.9846985E1,9.726212E0,3.806884E1,1.2738495E1,5.1258133E1,3.8469826E1,6.589226E0,1.615181E0,9.779053E0,2.494867E1,3.408203E-1,4.06485E0,0E0,0E0,0E0,0E0,0E0,0E0,0E0,0E0,0E0,0E0,0E0,0E0,0E0,0E0,0E0,0E0,0E0,0E0,0E0,0E0,0E0,0E0,0E0,0E0,0E0,0E0,0E0,0E0,0E0,0E0],"parents":[2147483647,0,0,1,1,2,2,3,3,4,4,5,5,6,6,7,7,8,8,9,9,10,10,11,11,12,12,13,13,14,14,15,15,17,17,18,18,19,19,20,20,21,21,22,22,23,23,24,24,25,25,26,26,27,27,28,28,29,29,30,30],"right_children":[2,4,6,8,10,12,14,16,18,20,22,24,26,28,30,32,-1,34,36,38,40,42,44,46,48,50,52,54,56,58,60,-1,-1,-1,-1,-1,-1,-1,-1,-1,-1,-1,-1,-1,-1,-1,-1,-1,-1,-1,-1,-1,-1,-1,-1,-1,-1,-1,-1,-1,-1],"split_conditions":[2.6146266E0,1.980198E0,4.549936E0,-3.9276087E0,7.32203E-1,7.1886363E0,8.769828E0,-6.8892546E0,1.5704979E0,-5.357559E-1,-9.860312E-2,3.1293464E0,2.2103546E0,-7.894737E0,-1.2468529E0,-5.1282053E0,2.8768862E-2,3.5300546E0,7.2715473E-1,2.352438E0,9.672281E-1,-2.5169287E0,6.2605042E0,7.0468247E-1,-2.398524E0,9.756219E0,1.394792E0,-1.774877E0,6.8691664E0,-4.945408E0,1.0426562E1,1.4300321E-2,-1.0407015E-2,5.0188746E-2,3.9839238E-2,4.1286495E-2,3.0397464E-2,2.6439479E-2,1.2992305E-2,4.207467E-2,2.1728953E-2,1.3217835E-3,1.3082107E-2,2.1965077E-2,-3.7812584E-3,1.2204836E-2,6.3681504E-4,-6.589055E-3,8.0747086E-5,-1.4543953E-2,-2.9934391E-2,-1.9836599E-2,-3.1851016E-2,-2.8252626E-2,-1.5548335E-2,-1.049395E-2,-1.879604E-2,-3.283177E-2,-2.7494473E-2,-1.9140763E-2,-3.0335799E-2],"split_indices":[26,26,26,18,30,11,11,22,26,20,23,26,16,16,19,39,0,11,31,26,7,18,11,30,39,11,29,19,11,20,11,0,0,0,0,0,0,0,0,0,0,0,0,0,0,0,0,0,0,0,0,0,0,0,0,0,0,0,0,0,0],"split_type":[0,0,0,0,0,0,0,0,0,0,0,0,0,0,0,0,0,0,0,0,0,0,0,0,0,0,0,0,0,0,0,0,0,0,0,0,0,0,0,0,0,0,0,0,0,0,0,0,0,0,0,0,0,0,0,0,0,0,0,0,0],"sum_hessian":[2.9746371E4,7.4387754E3,2.2307596E4,2.5151655E3,4.92361E3,1.5374787E4,6.932809E3,1.2315629E2,2.3920093E3,1.4068374E3,3.5167725E3,1.3945068E4,1.4297189E3,5.9482085E3,9.846009E2,9.739795E1,2.5758339E1,7.5325806E2,1.6387512E3,1.118387E3,2.8845047E2,2.7769849E3,7.397875E2,4.728432E3,9.216636E3,1.1920273E3,2.3769157E2,7.877408E2,5.160468E3,6.164059E2,3.6819498E2,2.147384E1,7.592411E1,2.6443512E2,4.8882294E2,2.4188031E2,1.3968708E3,5.810487E2,5.3733826E2,1.9216046E2,9.629003E1,1.2693575E3,1.5076274E3,6.892928E2,5.0494724E1,1.3335753E3,3.3948567E3,5.7617056E3,3.4549304E3,1.116122E3,7.590537E1,5.0897793E1,1.867938E2,5.660317E2,2.2170912E2,3.979144E3,1.1813235E3,4.836331E2,1.3277283E2,2.0110074E2,1.6709424E2],"tree_param":{"num_deleted":"0","num_feature":"44","num_nodes":"61","size_leaf_vector":"1"}},{"base_weights":[1.6015399E-3,2.0937327E-2,-3.291224E-1,-3.105014E-1,3.585865E-2,-2.2200106E-1,-4.9208155E-1,3.4329048E-1,-3.3712488E-1,6.992016E-2,-3.0583598E-2,-4.4489998E-1,-1.6340812E-1,-3.1156002E-2,-4.0152258E-1,2.950406E-2,1.6032843E-3,-4.1926813E-1,-2.3583138E-1,-3.6533855E-2,9.055472E-2,-1.3687387E-1,-8.657971E-3,7.9493405E-4,-4.967955E-1,1.2018927E-1,-1.9151126E-1,-2.6336432E-1,-4.7946844E-1,-2.6366025E-2,-1.8021025E-2,-1.3455691E-2,6.823882E-3,2.2477028E-3,-4.9322397E-3,6.938132E-3,3.126854E-3,-5.1836255E-3,-1.4622971E-2,-6.372185E-3,4.2438E-4,-2.763466E-2,-1.5758982E-2,1.907394E-2,-4.2807735E-3,-3.6168217E-3,-1.2686491E-2,-7.2435387E-3,-2.3437439E-2,-2.7135981E-2,-1.985701E-2],"categories":[],"categories_nodes":[],"categories_segments":[],"categories_sizes":[],"default_left":[0,0,0,0,0,0,0,0,0,0,0,0,0,0,0,0,0,0,0,0,0,0,0,0,0,0,0,0,0,0,0,0,0,0,0,0,0,0,0,0,0,0,0,0,0,0,0,0,0,0,0],"id":16,"left_children":[1,3,5,7,9,11,13,15,17,19,21,23,25,-1,27,-1,-1,29,31,33,35,37,39,-1,41,43,45,47,49,-1,-1,-1,-1,-1,-1,-1,-1,-1,-1,-1,-1,-1,-1,-1,-1,-1,-1,-1,-1,-1,-1],"loss_changes":[1.9357028E2,1.4144025E2,2.887941E1,2.1616837E1,6.1968605E1,1.2989933E1,7.265625E0,3.5842795E0,9.579254E0,3.9777367E1,2.1589764E1,5.1089287E0,6.4618454E0,0E0,3.9274635E0,0E0,0E0,3.6784286E0,6.7121525E0,1.4889819E1,2.0428574E1,8.061892E0,1.5695432E1,0E0,1.4776917E0,4.024457E0,5.344763E0,3.3557854E0,7.9302216E-1,0E0,0E0,0E0,0E0,0E0,0E0,0E0,0E0,0E0,0E0,0E0,0E0,0E0,0E0,0E0,0E0,0E0,0E0,0E0,0E0,0E0,0E0],"parents":[2147483647,0,0,1,1,2,2,3,3,4,4,5,5,6,6,7,7,8,8,9,9,10,10,11,11,12,12,14,14,17,17,18,18,19,19,20,20,21,21,22,22,24,24,25,25,26,26,27,27,28,28],"right_children":[2,4,6,8,10,12,14,16,18,20,22,24,26,-1,28,-1,-1,30,32,34,36,38,40,-1,42,44,46,48,50,-1,-1,-1,-1,-1,-1,-1,-1,-1,-1,-1,-1,-1,-1,-1,-1,-1,-1,-1,-1,-1,-1],"split_conditions":[8.4966135E0,1.756602E0,1.0426562E1,-3.8686278E0,3.9859743E0,-1.788575E1,-7.043889E0,-8.677521E0,1.5704979E0,2.2634213E0,-1.9102823E1,4.4358506E0,-1.3784021E1,-3.1156002E-2,1.3800687E0,2.950406E-2,1.6032843E-3,3.5300546E0,3.4338357E0,-4.6822743E0,1.9541206E0,1.5539241E0,-6.264723E-1,7.9493405E-4,-1.4067797E1,-4.104903E0,1.3366287E0,1.2174096E1,2.095921E0,-2.6366025E-2,-1.8021025E-2,-1.3455691E-2,6.823882E-3,2.2477028E-3,-4.9322397E-3,6.938132E-3,3.126854E-3,-5.1836255E-3,-1.4622971E-2,-6.372185E-3,4.2438E-4,-2.763466E-2,-1.5758982E-2,1.907394E-2,-4.2807735E-3,-3.6168217E-3,-1.2686491E-2,-7.2435387E-3,-2.3437439E-2,-2.7135981E-2,-1.985701E-2],"split_indices":[11,26,11,18,26,22,17,22,26,26,22,26,41,0,30,0,0,11,41,41,43,30,12,0,10,39,15,11,30,0,0,0,0,0,0,0,0,0,0,0,0,0,0,0,0,0,0,0,0,0,0],"split_type":[0,0,0,0,0,0,0,0,0,0,0,0,0,0,0,0,0,0,0,0,0,0,0,0,0,0,0,0,0,0,0,0,0,0,0,0,0,0,0,0,0,0,0,0,0,0,0,0,0,0,0],"sum_hessian":[3.0276441E4,2.8606E4,1.6704412E3,1.2304998E3,2.73755E4,1.0107769E3,6.596642E2,4.7155346E1,1.1833444E3,1.8099666E4,9.275833E3,2.0762566E2,8.0315125E2,2.6507382E2,3.9459036E2,2.519218E1,2.1963165E1,6.497507E2,5.3359375E2,2.9369658E3,1.51627E4,1.5833141E3,7.6925195E3,2.0731352E1,1.8689432E2,7.132792E1,7.3182336E2,1.4561798E2,2.489724E2,2.2368835E2,4.260623E2,4.906823E2,4.291141E1,1.269115E3,1.6678508E3,5.568434E3,9.594267E3,1.3079811E3,2.7533313E2,9.7054315E2,6.721976E3,1.3972406E2,4.7170258E1,3.1291569E1,4.003635E1,2.5323317E2,4.7859018E2,9.458208E1,5.10359E1,1.3468164E2,1.14290764E2],"tree_param":{"num_deleted":"0","num_feature":"44","num_nodes":"51","size_leaf_vector":"1"}},{"base_weights":[-5.3455075E-4,-3.077465E-1,2.2315446E-1,-4.706866E-1,-1.8998069E-1,1.403421E-1,6.6277164E-1,-5.6228495E-1,-4.1191778E-1,-2.2244836E-1,1.0380665E-1,5.0911397E-2,2.990162E-1,5.4092705E-1,9.257329E-1,-1.698239E-1,-5.700562E-1,-4.8319867E-1,-3.1589922E-1,-2.9113004E-1,-1.5809923E-1,2.4768462E-2,5.132871E-1,-8.663967E-2,1.0160703E-1,2.5864956E-1,5.4860085E-1,7.080609E-1,4.8105115E-1,1.0408391E0,8.2155544E-1,-5.7469093E-4,-1.5119408E-2,-3.011618E-2,-2.6800608E-2,-2.6893044E-2,-2.2345284E-2,-1.7041529E-2,-0E0,-1.9053936E-2,-1.1301998E-2,-6.3222433E-3,-1.357872E-2,-1.1098543E-2,3.5707583E-3,5.6633777E-3,3.422391E-2,4.579609E-3,-5.9326114E-3,1.0410955E-3,7.898626E-3,9.728405E-3,2.0969694E-2,3.4887116E-2,1.4808548E-2,2.3882117E-2,4.047879E-2,2.0413032E-2,3.0362904E-2,5.302159E-2,3.3206638E-2,3.632385E-2,4.892647E-2],"categories":[],"categories_nodes":[],"categories_segments":[],"categories_sizes":[],"default_left":[0,0,0,0,0,0,0,0,0,0,0,0,0,0,0,0,0,0,0,0,0,0,0,0,0,0,0,0,0,0,0,0,0,0,0,0,0,0,0,0,0,0,0,0,0,0,0,0,0,0,0,0,0,0,0,0,0,0,0,0,0,0,0],"id":17,"left_children":[1,3,5,7,9,11,13,15,17,19,21,23,25,27,29,31,33,35,37,39,41,43,45,47,49,51,53,55,57,59,61,-1,-1,-1,-1,-1,-1,-1,-1,-1,-1,-1,-1,-1,-1,-1,-1,-1,-1,-1,-1,-1,-1,-1,-1,-1,-1,-1,-1,-1,-1,-1,-1],"loss_changes":[2.0359266E3,2.392677E2,6.2380914E2,2.7640259E1,6.9205444E1,2.046456E2,8.599805E1,5.930847E0,2.148639E1,2.8696198E1,2.3234806E1,6.437901E1,5.201056E1,1.7870605E1,8.628357E0,8.1901526E-1,1.4850464E0,3.0735474E0,1.0799973E1,1.8220184E1,1.1993759E1,6.980244E0,7.6883087E0,1.4202658E1,3.0677422E1,4.58938E1,2.6667099E1,1.0546509E1,1.2060303E1,1.5574951E0,5.4310303E0,0E0,0E0,0E0,0E0,0E0,0E0,0E0,0E0,0E0,0E0,0E0,0E0,0E0,0E0,0E0,0E0,0E0,0E0,0E0,0E0,0E0,0E0,0E0,0E0,0E0,0E0,0E0,0E0,0E0,0E0,0E0,0E0],"parents":[2147483647,0,0,1,1,2,2,3,3,4,4,5,5,6,6,7,7,8,8,9,9,10,10,11,11,12,12,13,13,14,14,15,15,16,16,17,17,18,18,19,19,20,20,21,21,22,22,23,23,24,24,25,25,26,26,27,27,28,28,29,29,30,30],"right_children":[2,4,6,8,10,12,14,16,18,20,22,24,26,28,30,32,34,36,38,40,42,44,46,48,50,52,54,56,58,60,62,-1,-1,-1,-1,-1,-1,-1,-1,-1,-1,-1,-1,-1,-1,-1,-1,-1,-1,-1,-1,-1,-1,-1,-1,-1,-1,-1,-1,-1,-1,-1,-1],"split_conditions":[3.241123E0,2.4403276E0,7.6705613E0,1.9595449E0,6.453713E0,4.674286E0,1.0061925E1,-4.6685143E0,9.490718E-1,8.3818555E-1,1.7586125E0,7.4325764E-1,1.3162596E0,-1.603742E1,-9.935205E0,1.0782466E0,3.9540985E0,3.9297125E0,6.3537235E0,2.789828E0,-3.2077348E0,8.644995E-1,-5.82273E-1,-1.4901157E1,3.6989796E0,6.3311687E0,-2.0303156E0,4.8657503E0,8.769828E0,1.9787169E0,1.2174096E1,-5.7469093E-4,-1.5119408E-2,-3.011618E-2,-2.6800608E-2,-2.6893044E-2,-2.2345284E-2,-1.7041529E-2,-0E0,-1.9053936E-2,-1.1301998E-2,-6.3222433E-3,-1.357872E-2,-1.1098543E-2,3.5707583E-3,5.6633777E-3,3.422391E-2,4.579609E-3,-5.9326114E-3,1.0410955E-3,7.898626E-3,9.728405E-3,2.0969694E-2,3.4887116E-2,1.4808548E-2,2.3882117E-2,4.047879E-2,2.0413032E-2,3.0362904E-2,5.302159E-2,3.3206638E-2,3.632385E-2,4.892647E-2],"split_indices":[26,26,11,26,11,26,11,18,30,30,29,31,30,22,41,31,11,11,11,26,22,30,18,22,26,26,19,26,11,29,11,0,0,0,0,0,0,0,0,0,0,0,0,0,0,0,0,0,0,0,0,0,0,0,0,0,0,0,0,0,0,0,0],"split_type":[0,0,0,0,0,0,0,0,0,0,0,0,0,0,0,0,0,0,0,0,0,0,0,0,0,0,0,0,0,0,0,0,0,0,0,0,0,0,0,0,0,0,0,0,0,0,0,0,0,0,0,0,0,0,0,0,0,0,0,0,0,0,0],"sum_hessian":[2.962319E4,1.2481528E4,1.714166E4,5.2338335E3,7.247695E3,1.4426517E4,2.7151438E3,2.0392151E3,3.1946184E3,6.5273726E3,7.203223E2,9.228475E3,5.1980415E3,1.8590764E3,8.5606744E2,4.0760662E1,1.9984543E3,1.828828E3,1.3657905E3,3.1533337E3,3.3740388E3,6.05523E2,1.1479929E2,2.4839185E3,6.744556E3,4.477696E3,7.2034576E2,4.851842E2,1.3738922E3,3.99382E2,4.566855E2,2.0005524E1,2.0755136E1,1.010128E3,9.883264E2,7.1926935E2,1.1095587E3,1.2660458E3,9.974476E1,1.3195204E3,1.8338135E3,2.6419814E3,7.320575E2,9.4696625E1,5.108264E2,3.550231E1,7.929698E1,3.7683383E2,2.1070847E3,2.7741472E3,3.9704092E3,3.204691E3,1.2730048E3,4.5065182E2,2.6969394E2,1.5160303E2,3.3358118E2,8.763751E2,4.975171E2,3.765442E2,2.28378E1,2.9046695E2,1.6621855E2],"tree_param":{"num_deleted":"0","num_feature":"44","num_nodes":"63","size_leaf_vector":"1"}},{"base_weights":[-1.476901E-3,4.0942103E-1,-1.3674575E-1,6.4630693E-1,2.862967E-1,-2.1761073E-2,-2.615827E-1,8.898421E-2,6.74429E-1,1.9554943E-1,4.5597914E-1,9.806467E-2,-8.7768026E-2,-2.100167E-1,-4.9178416E-1,-6.1847597E-2,2.802868E-2,8.2689285E-1,6.027899E-1,3.8353235E-1,1.24245636E-1,4.8226187E-1,-5.9931103E-2,-6.538722E-2,1.7813115E-1,-5.8423515E-2,-3.5035405E-1,-4.468013E-1,-1.8058515E-1,-4.2585912E-1,-5.9951574E-1,-1.1242199E-2,1.7424619E-2,4.2312536E-2,1.9935694E-2,3.1049443E-2,5.392053E-3,2.3777377E-2,1.2080789E-2,1.2960697E-2,2.1853398E-3,2.8237877E-2,1.9151663E-2,6.8521956E-3,-1.2581619E-2,3.4720537E-3,-8.605572E-3,6.6636465E-3,1.687092E-2,-5.5143833E-3,2.4088498E-3,-1.3921951E-2,-2.8156588E-2,-1.4672117E-2,-2.6495472E-2,-7.958753E-3,-1.8062487E-2,-2.7122546E-2,-1.722676E-2,-3.2455202E-2,-2.7980795E-2],"categories":[],"categories_nodes":[],"categories_segments":[],"categories_sizes":[],"default_left":[0,0,0,0,0,0,0,0,0,0,0,0,0,0,0,0,0,0,0,0,0,0,0,0,0,0,0,0,0,0,0,0,0,0,0,0,0,0,0,0,0,0,0,0,0,0,0,0,0,0,0,0,0,0,0,0,0,0,0,0,0],"id":18,"left_children":[1,3,5,7,9,11,13,15,17,19,21,23,25,27,29,31,-1,33,35,37,39,41,43,45,47,49,51,53,55,57,59,-1,-1,-1,-1,-1,-1,-1,-1,-1,-1,-1,-1,-1,-1,-1,-1,-1,-1,-1,-1,-1,-1,-1,-1,-1,-1,-1,-1,-1,-1],"loss_changes":[1.655164E3,2.1464465E2,3.2153946E2,3.9262573E1,7.4511566E1,9.227347E1,1.27208435E2,8.911285E0,2.516858E1,4.228235E1,2.30466E1,5.4259533E1,5.7859814E1,6.093219E1,1.3360016E1,6.402258E0,0E0,5.560364E0,1.4512695E1,1.1039108E1,2.4916782E1,1.2655731E1,3.2049432E0,1.9643425E1,1.9717072E1,3.744867E1,1.1153587E1,1.1949387E1,3.0024887E1,1.1154297E1,6.789551E-1,0E0,0E0,0E0,0E0,0E0,0E0,0E0,0E0,0E0,0E0,0E0,0E0,0E0,0E0,0E0,0E0,0E0,0E0,0E0,0E0,0E0,0E0,0E0,0E0,0E0,0E0,0E0,0E0,0E0,0E0],"parents":[2147483647,0,0,1,1,2,2,3,3,4,4,5,5,6,6,7,7,8,8,9,9,10,10,11,11,12,12,13,13,14,14,15,15,17,17,18,18,19,19,20,20,21,21,22,22,23,23,24,24,25,25,26,26,27,27,28,28,29,29,30,30],"right_children":[2,4,6,8,10,12,14,16,18,20,22,24,26,28,30,32,-1,34,36,38,40,42,44,46,48,50,52,54,56,58,60,-1,-1,-1,-1,-1,-1,-1,-1,-1,-1,-1,-1,-1,-1,-1,-1,-1,-1,-1,-1,-1,-1,-1,-1,-1,-1,-1,-1,-1,-1],"split_conditions":[2.601601E0,1.980198E0,3.9060068E0,-3.9580908E0,-9.823183E-1,7.5598085E-1,7.7406015E0,-7.0342836E0,1.5704979E0,7.292956E-1,6.3537235E0,-9.3638315E0,7.1886363E0,-1.0839433E1,9.756219E0,3.776E0,2.802868E-2,4.130081E0,5.8817763E0,4.319728E0,2.246544E0,4.3320847E0,9.221311E-1,4.356643E0,5.970149E-1,-2.3971376E0,8.769828E0,1.0677066E0,7.426705E-1,-7.122507E0,-3.0016627E0,-1.1242199E-2,1.7424619E-2,4.2312536E-2,1.9935694E-2,3.1049443E-2,5.392053E-3,2.3777377E-2,1.2080789E-2,1.2960697E-2,2.1853398E-3,2.8237877E-2,1.9151663E-2,6.8521956E-3,-1.2581619E-2,3.4720537E-3,-8.605572E-3,6.6636465E-3,1.687092E-2,-5.5143833E-3,2.4088498E-3,-1.3921951E-2,-2.8156588E-2,-1.4672117E-2,-2.6495472E-2,-7.958753E-3,-1.8062487E-2,-2.7122546E-2,-1.722676E-2,-3.2455202E-2,-2.7980795E-2],"split_indices":[26,26,26,18,17,30,11,22,26,30,11,22,11,18,11,11,0,41,11,11,26,11,39,11,40,40,11,29,27,40,21,0,0,0,0,0,0,0,0,0,0,0,0,0,0,0,0,0,0,0,0,0,0,0,0,0,0,0,0,0,0],"split_type":[0,0,0,0,0,0,0,0,0,0,0,0,0,0,0,0,0,0,0,0,0,0,0,0,0,0,0,0,0,0,0,0,0,0,0,0,0,0,0,0,0,0,0,0,0,0,0,0,0,0,0,0,0,0,0,0,0,0,0,0,0],"sum_hessian":[2.9776914E4,7.3737144E3,2.2403201E4,2.5190916E3,4.8546226E3,1.1663532E4,1.0739668E4,1.2164707E2,2.3974446E3,3.165891E3,1.6887316E3,4.1415E3,7.522032E3,8.777265E3,1.9624036E3,9.283437E1,2.88127E1,7.6044476E2,1.6369998E3,8.6804175E2,2.297849E3,1.6073325E3,8.1399055E1,1.3609542E3,2.780546E3,6.7682607E3,7.5377124E2,9.6726855E2,7.809996E3,1.2231797E3,7.392239E2,6.7276215E1,2.5558157E1,7.257042E2,3.4740593E1,1.5781847E3,5.881503E1,5.236103E2,3.444315E2,8.5657544E2,1.4412738E3,8.727237E2,7.346089E2,3.9843666E1,4.1555386E1,6.007088E2,7.602455E2,2.1726877E3,6.078582E2,4.5542935E3,2.2139675E3,5.666549E2,1.8711633E2,3.431881E2,6.2408044E2,6.9860283E3,8.239676E2,4.9810153E2,7.250782E2,3.171491E2,4.2207474E2],"tree_param":{"num_deleted":"0","num_feature":"44","num_nodes":"61","size_leaf_vector":"1"}},{"base_weights":[1.3796455E-3,-2.204272E-1,1.1049436E-2,-4.1520163E-1,-1.2597936E-1,4.1306175E-2,-4.4235136E-2,-4.773735E-1,5.64087E-2,-4.1313763E-3,-2.5213414E-1,7.3266104E-2,-3.8727537E-2,-2.76527E-1,-2.6694722E-2,-5.0580335E-1,-4.291712E-3,1.1888968E-2,-8.837732E-3,-4.100439E-2,2.291698E-1,-4.573711E-1,-1.7384449E-1,9.666755E-2,1.6750885E-2,-1.5609756E-2,-1.3938808E-1,1.4391544E-1,-3.244685E-1,-1.7582683E-2,-4.210653E-1,-7.2789765E-3,-2.6637036E-2,-4.424933E-3,8.302869E-3,2.7267432E-2,-4.3378808E-3,-2.5299946E-2,-1.029031E-2,-2.4141988E-3,-1.5001915E-2,2.8314363E-4,6.276712E-3,7.059996E-3,-4.5384365E-4,-1.5355096E-3,7.1772053E-3,7.389077E-3,-8.215743E-3,1.6393904E-2,-1.5463223E-2,-2.7278319E-2,-1.4313474E-2,-4.0530977E-3,4.0570826E-6,-2.350659E-2,-1.1563633E-2],"categories":[],"categories_nodes":[],"categories_segments":[],"categories_sizes":[],"default_left":[0,0,0,0,0,0,0,0,0,0,0,0,0,0,0,0,0,0,0,0,0,0,0,0,0,0,0,0,0,0,0,0,0,0,0,0,0,0,0,0,0,0,0,0,0,0,0,0,0,0,0,0,0,0,0,0,0],"id":19,"left_children":[1,3,5,7,9,11,13,15,17,19,21,23,25,27,29,31,-1,-1,-1,33,35,37,39,41,43,45,47,49,51,53,55,-1,-1,-1,-1,-1,-1,-1,-1,-1,-1,-1,-1,-1,-1,-1,-1,-1,-1,-1,-1,-1,-1,-1,-1,-1,-1],"loss_changes":[6.4777016E1,2.3021763E1,4.8443176E1,1.2164955E1,1.3050959E1,4.78925E1,4.1657364E1,3.8610916E0,2.1387777E0,3.7268472E0,6.4708366E0,1.7669868E1,1.2394848E1,1.4580334E1,3.412926E1,3.0274506E0,0E0,0E0,0E0,3.7285633E0,6.054886E0,1.0934982E0,4.752433E0,2.4821259E1,1.26351185E1,1.0430916E1,7.1675014E0,6.334386E0,5.0508423E0,1.04575205E1,1.6945686E0,0E0,0E0,0E0,0E0,0E0,0E0,0E0,0E0,0E0,0E0,0E0,0E0,0E0,0E0,0E0,0E0,0E0,0E0,0E0,0E0,0E0,0E0,0E0,0E0,0E0,0E0],"parents":[2147483647,0,0,1,1,2,2,3,3,4,4,5,5,6,6,7,7,8,8,9,9,10,10,11,11,12,12,13,13,14,14,15,15,19,19,20,20,21,21,22,22,23,23,24,24,25,25,26,26,27,27,28,28,29,29,30,30],"right_children":[2,4,6,8,10,12,14,16,18,20,22,24,26,28,30,32,-1,-1,-1,34,36,38,40,42,44,46,48,50,52,54,56,-1,-1,-1,-1,-1,-1,-1,-1,-1,-1,-1,-1,-1,-1,-1,-1,-1,-1,-1,-1,-1,-1,-1,-1,-1,-1],"split_conditions":[-9.427728E0,-4.7224364E0,-1.8184923E0,-1.2828794E0,5.9406334E-1,2.3337226E0,1.5488575E-1,9.9381506E-1,-9.38114E0,-1.4412811E1,-2.9522667E0,-3.6714163E-1,8.980578E0,-1.4997432E0,3.1102097E0,1.003861E1,-4.291712E-3,1.1888968E-2,-8.837732E-3,-1.5792136E-1,-3.681565E0,-2.1766593E-1,-5.7377048E0,-5.0646424E0,-8.5203705E0,5.8139534E1,1.5754717E1,-1.9689119E0,1.0421889E-1,2.2972971E-1,7.4917965E-2,-7.2789765E-3,-2.6637036E-2,-4.424933E-3,8.302869E-3,2.7267432E-2,-4.3378808E-3,-2.5299946E-2,-1.029031E-2,-2.4141988E-3,-1.5001915E-2,2.8314363E-4,6.276712E-3,7.059996E-3,-4.5384365E-4,-1.5355096E-3,7.1772053E-3,7.389077E-3,-8.215743E-3,1.6393904E-2,-1.5463223E-2,-2.7278319E-2,-1.4313474E-2,-4.0530977E-3,4.0570826E-6,-2.350659E-2,-1.1563633E-2],"split_indices":[17,21,18,23,27,15,27,27,18,9,23,23,15,21,16,28,0,0,0,13,16,12,16,17,22,28,28,40,27,27,23,0,0,0,0,0,0,0,0,0,0,0,0,0,0,0,0,0,0,0,0,0,0,0,0,0,0],"split_type":[0,0,0,0,0,0,0,0,0,0,0,0,0,0,0,0,0,0,0,0,0,0,0,0,0,0,0,0,0,0,0,0,0,0,0,0,0,0,0,0,0,0,0,0,0,0,0,0,0,0,0,0,0,0,0,0,0],"sum_hessian":[3.0217848E4,1.2601018E3,2.8957744E4,4.0914124E2,8.5096063E2,1.871771E4,1.0240034E4,3.618453E2,4.729592E1,4.3446365E2,4.16497E2,1.3378063E4,5.3396475E3,7.165846E2,9.523449E3,3.3646582E2,2.5379494E1,2.7068348E1,2.0227573E1,3.769765E2,5.748713E1,1.1229559E2,3.0420142E2,9.4574E3,3.9206633E3,4.345399E3,9.942483E2,7.261177E1,6.4397284E2,9.310404E3,2.1304538E2,2.459512E1,3.118707E2,3.0812573E2,6.885077E1,2.8504114E1,2.8983013E1,9.21674E1,2.0128197E1,1.5431732E2,1.4988408E2,2.2795732E3,7.177827E3,6.740155E2,3.2466477E3,3.9710913E3,3.7430783E2,7.817812E1,9.160702E2,5.2255413E1,2.0356352E1,9.11622E1,5.528106E2,2.0280499E3,7.282354E3,1.6668376E2,4.6361618E1],"tree_param":{"num_deleted":"0","num_feature":"44","num_nodes":"57","size_leaf_vector":"1"}},{"base_weights":[8.9098106E-4,-2.8912607E-1,2.2335391E-1,-4.7573242E-1,-1.8460521E-1,1.5038349E-1,6.7623425E-1,-5.3844917E-1,-4.048263E-1,-2.0485832E-1,2.4492072E-1,9.3574435E-2,3.3627096E-1,5.68992E-1,9.0271395E-1,-3.1089783E-1,-5.481904E-1,-4.1868493E-1,-2.3704568E-2,-2.8815046E-1,-1.356782E-1,1.5401126E-1,6.2504494E-1,-5.22851E-4,1.4611524E-1,5.5252826E-1,2.9505503E-1,7.8390926E-1,5.0690126E-1,1.0050961E0,8.330694E-1,-2.5559327E-2,-8.849556E-3,-2.7652577E-2,-6.9927895E-3,-1.7745052E-2,-2.3655644E-2,-1.7547937E-2,7.2640306E-3,-1.8737873E-2,-1.19679E-2,-3.8922564E-3,-1.1063447E-2,-1.3034167E-2,9.712768E-3,1.610305E-2,4.0339362E-2,-2.8786447E-3,6.178891E-3,1.6051974E-3,9.436906E-3,1.7158302E-2,3.258793E-2,6.6545284E-3,1.6304884E-2,4.1707136E-2,1.7797295E-2,2.4695475E-2,4.4218417E-2,5.14637E-2,3.65366E-2,3.8893178E-2,4.7518723E-2],"categories":[],"categories_nodes":[],"categories_segments":[],"categories_sizes":[],"default_left":[0,0,0,0,0,0,0,0,0,0,0,0,0,0,0,0,0,0,0,0,0,0,0,0,0,0,0,0,0,0,0,0,0,0,0,0,0,0,0,0,0,0,0,0,0,0,0,0,0,0,0,0,0,0,0,0,0,0,0,0,0,0,0],"id":20,"left_children":[1,3,5,7,9,11,13,15,17,19,21,23,25,27,29,31,33,35,37,39,41,43,45,47,49,51,53,55,57,59,61,-1,-1,-1,-1,-1,-1,-1,-1,-1,-1,-1,-1,-1,-1,-1,-1,-1,-1,-1,-1,-1,-1,-1,-1,-1,-1,-1,-1,-1,-1,-1,-1],"loss_changes":[1.913884E3,2.5088684E2,5.544668E2,2.0035522E1,7.189542E1,1.5257138E2,5.5496826E1,4.995056E0,1.1393127E1,4.5298706E1,1.25561905E1,5.480123E1,2.9743439E1,2.0297607E1,3.6900024E0,2.5355473E0,4.396118E0,6.8717346E0,4.456921E0,1.4852081E1,2.1259903E1,5.1135674E0,3.2879124E0,2.810218E1,3.450003E1,1.0665802E1,1.4151291E1,6.8801727E0,5.1243896E0,4.6520996E-1,1.4818115E0,0E0,0E0,0E0,0E0,0E0,0E0,0E0,0E0,0E0,0E0,0E0,0E0,0E0,0E0,0E0,0E0,0E0,0E0,0E0,0E0,0E0,0E0,0E0,0E0,0E0,0E0,0E0,0E0,0E0,0E0,0E0,0E0],"parents":[2147483647,0,0,1,1,2,2,3,3,4,4,5,5,6,6,7,7,8,8,9,9,10,10,11,11,12,12,13,13,14,14,15,15,16,16,17,17,18,18,19,19,20,20,21,21,22,22,23,23,24,24,25,25,26,26,27,27,28,28,29,29,30,30],"right_children":[2,4,6,8,10,12,14,16,18,20,22,24,26,28,30,32,34,36,38,40,42,44,46,48,50,52,54,56,58,60,62,-1,-1,-1,-1,-1,-1,-1,-1,-1,-1,-1,-1,-1,-1,-1,-1,-1,-1,-1,-1,-1,-1,-1,-1,-1,-1,-1,-1,-1,-1,-1,-1],"split_conditions":[3.2891233E0,2.3672292E0,7.990765E0,2.0395658E0,7.140244E0,5.292963E0,1.0426562E1,-5.915101E0,6.3537235E0,2.8024254E0,8.769828E0,7.6669207E0,-1.7260159E1,-1.7305458E1,-4.471819E0,-1.0437552E1,6.453713E0,-4.973357E0,-3.1889157E0,9.0974563E-1,-3.1847134E0,-1.2864408E1,1.6664002E0,5.719626E0,7.482496E-1,1.0935335E0,6.349144E-1,-2.8696313E0,1.1087769E1,9.834776E-1,1.2987941E1,-2.5559327E-2,-8.849556E-3,-2.7652577E-2,-6.9927895E-3,-1.7745052E-2,-2.3655644E-2,-1.7547937E-2,7.2640306E-3,-1.8737873E-2,-1.19679E-2,-3.8922564E-3,-1.1063447E-2,-1.3034167E-2,9.712768E-3,1.610305E-2,4.0339362E-2,-2.8786447E-3,6.178891E-3,1.6051974E-3,9.436906E-3,1.7158302E-2,3.258793E-2,6.6545284E-3,1.6304884E-2,4.1707136E-2,1.7797295E-2,2.4695475E-2,4.4218417E-2,5.14637E-2,3.65366E-2,3.8893178E-2,4.7518723E-2],"split_indices":[26,26,11,26,11,26,11,20,11,26,11,8,20,22,19,22,11,41,41,29,40,22,29,11,31,29,31,40,19,6,11,0,0,0,0,0,0,0,0,0,0,0,0,0,0,0,0,0,0,0,0,0,0,0,0,0,0,0,0,0,0,0,0],"split_type":[0,0,0,0,0,0,0,0,0,0,0,0,0,0,0,0,0,0,0,0,0,0,0,0,0,0,0,0,0,0,0,0,0,0,0,0,0,0,0,0,0,0,0,0,0,0,0,0,0,0,0,0,0,0,0,0,0,0,0,0,0,0,0],"sum_hessian":[2.9661523E4,1.2875214E4,1.678631E4,4.6198755E3,8.255339E3,1.4459035E4,2.3272744E3,2.4447622E3,2.1751135E3,7.8848027E3,3.705357E2,1.1077096E4,3.3819397E3,1.5835747E3,7.436998E2,1.0323141E2,2.3415308E3,2.0981467E3,7.696686E1,3.5740479E3,4.310755E3,3.0114792E2,6.938781E1,3.9681206E3,7.108975E3,5.3762054E2,2.844319E3,3.5032437E2,1.2332504E3,2.9176566E2,4.5193414E2,3.907133E1,6.416007E1,2.312974E3,2.8556692E1,9.729296E2,1.125217E3,2.6062622E1,5.090424E1,1.2828529E3,2.2911948E3,2.575624E3,1.735131E3,2.5473251E1,2.7567465E2,2.7987766E1,4.1400047E1,2.7200898E3,1.2480308E3,1.9364683E3,5.172507E3,1.7567464E2,3.619459E2,4.5978302E2,2.3845361E3,3.118313E2,3.8493095E1,1.1960759E3,3.717437E1,2.636736E2,2.8092043E1,3.1625198E2,1.3568217E2],"tree_param":{"num_deleted":"0","num_feature":"44","num_nodes":"63","size_leaf_vector":"1"}},{"base_weights":[-1.5090182E-3,3.937206E-1,-1.2780227E-1,6.243073E-1,2.7523807E-1,-2.4520606E-2,-2.6586333E-1,5.383134E-3,6.5589076E-1,1.9216417E-1,4.258298E-1,8.729191E-2,-8.876352E-2,-2.1077351E-1,-3.973652E-1,-1.10300496E-1,2.5546689E-2,7.674849E-1,5.6750906E-1,1.13124944E-1,3.957023E-1,5.112703E-1,2.3960578E-1,2.0497426E-1,9.270265E-3,-1.6672114E-2,-1.3207985E-1,-1.305177E-1,-2.870809E-1,-4.7730374E-1,-3.1510347E-1,1.3905182E-2,-1.4336797E-2,3.9612785E-2,2.0215817E-2,3.589683E-2,2.6461331E-2,1.4676364E-2,2.400805E-3,1.5279579E-2,2.6502898E-2,2.1174224E-2,3.14587E-2,2.1072773E-2,8.343462E-3,6.9028134E-3,1.9862512E-2,-2.1739972E-3,9.045367E-3,2.348951E-2,-1.4984702E-3,-4.7781724E-3,-1.1784502E-2,-8.43698E-3,5.485873E-4,-1.2072447E-2,-1.8503862E-2,-1.6710592E-2,-2.6577337E-2,-1.0801571E-2,-1.8502578E-2],"categories":[],"categories_nodes":[],"categories_segments":[],"categories_sizes":[],"default_left":[0,0,0,0,0,0,0,0,0,0,0,0,0,0,0,0,0,0,0,0,0,0,0,0,0,0,0,0,0,0,0,0,0,0,0,0,0,0,0,0,0,0,0,0,0,0,0,0,0,0,0,0,0,0,0,0,0,0,0,0,0],"id":21,"left_children":[1,3,5,7,9,11,13,15,17,19,21,23,25,27,29,31,-1,33,35,37,39,41,43,45,47,49,51,53,55,57,59,-1,-1,-1,-1,-1,-1,-1,-1,-1,-1,-1,-1,-1,-1,-1,-1,-1,-1,-1,-1,-1,-1,-1,-1,-1,-1,-1,-1,-1,-1],"loss_changes":[1.480339E3,1.9577148E2,3.204298E2,4.7479126E1,5.9144226E1,9.238957E1,6.942804E1,7.1878953E0,2.1935059E1,4.9109367E1,2.6487549E1,4.3038536E1,2.5477936E1,4.139688E1,1.8270447E1,6.880807E0,0E0,8.446289E0,6.6664734E0,2.585891E1,9.947052E0,1.1328644E1,6.836521E0,2.3866562E1,2.5609695E1,1.9789974E1,1.9200333E1,1.793338E1,1.2901581E1,1.069519E1,7.4045563E0,0E0,0E0,0E0,0E0,0E0,0E0,0E0,0E0,0E0,0E0,0E0,0E0,0E0,0E0,0E0,0E0,0E0,0E0,0E0,0E0,0E0,0E0,0E0,0E0,0E0,0E0,0E0,0E0,0E0,0E0],"parents":[2147483647,0,0,1,1,2,2,3,3,4,4,5,5,6,6,7,7,8,8,9,9,10,10,11,11,12,12,13,13,14,14,15,15,17,17,18,18,19,19,20,20,21,21,22,22,23,23,24,24,25,25,26,26,27,27,28,28,29,29,30,30],"right_children":[2,4,6,8,10,12,14,16,18,20,22,24,26,28,30,32,-1,34,36,38,40,42,44,46,48,50,52,54,56,58,60,-1,-1,-1,-1,-1,-1,-1,-1,-1,-1,-1,-1,-1,-1,-1,-1,-1,-1,-1,-1,-1,-1,-1,-1,-1,-1,-1,-1,-1,-1],"split_conditions":[2.5767336E0,1.9595449E0,4.0498977E0,-3.8686278E0,-9.823183E-1,7.5886583E-1,1.0894567E0,-7.842387E-1,1.656222E0,-3.0840144E-1,1.0281216E0,3.1400437E0,3.0695205E0,4.9821734E0,-4.4802055E0,1.0235372E0,2.5546689E-2,3.275109E0,6.9579303E-1,7.411342E-1,1.2703021E-1,4.5515394E-1,2.2346368E0,-5.896159E-1,4.251225E-2,6.9423425E-1,1.3122898E0,2.7425438E-1,6.410962E0,4.722712E0,8.502025E0,1.3905182E-2,-1.4336797E-2,3.9612785E-2,2.0215817E-2,3.589683E-2,2.6461331E-2,1.4676364E-2,2.400805E-3,1.5279579E-2,2.6502898E-2,2.1174224E-2,3.14587E-2,2.1072773E-2,8.343462E-3,6.9028134E-3,1.9862512E-2,-2.1739972E-3,9.045367E-3,2.348951E-2,-1.4984702E-3,-4.7781724E-3,-1.1784502E-2,-8.43698E-3,5.485873E-4,-1.2072447E-2,-1.8503862E-2,-1.6710592E-2,-2.6577337E-2,-1.0801571E-2,-1.8502578E-2],"split_indices":[26,26,26,18,17,30,30,21,26,23,30,26,26,26,17,29,0,41,30,30,23,17,43,17,23,29,29,40,26,26,8,0,0,0,0,0,0,0,0,0,0,0,0,0,0,0,0,0,0,0,0,0,0,0,0,0,0,0,0,0,0],"split_type":[0,0,0,0,0,0,0,0,0,0,0,0,0,0,0,0,0,0,0,0,0,0,0,0,0,0,0,0,0,0,0,0,0,0,0,0,0,0,0,0,0,0,0,0,0,0,0,0,0,0,0,0,0,0,0,0,0,0,0,0,0],"sum_hessian":[2.965535E4,7.1802593E3,2.2475092E4,2.434407E3,4.7458525E3,1.2858805E4,9.616287E3,1.18588264E2,2.3158186E3,3.0616406E3,1.6842118E3,4.690866E3,8.167938E3,6.780972E3,2.8353145E3,9.7137665E1,2.1450598E1,1.01740985E3,1.2984088E3,2.207663E3,8.5397754E2,1.1519838E3,5.322279E2,1.8681206E3,2.8227456E3,3.0682092E3,5.0997285E3,3.3082393E3,3.4727332E3,1.4330759E3,1.4022385E3,2.9718222E1,6.741945E1,9.502713E2,6.713857E1,2.5693842E2,1.0414705E3,5.832556E2,1.6244076E3,5.1498413E2,3.3899344E2,6.6525134E2,4.8673248E2,1.4921992E2,3.83008E2,1.3884976E3,4.7962308E2,2.1591245E3,6.6362134E2,7.986665E1,2.9883425E3,3.7743198E3,1.3254088E3,2.6055122E3,7.0272687E2,2.2460903E3,1.2266428E3,3.978869E2,1.035189E3,5.041989E2,8.980397E2],"tree_param":{"num_deleted":"0","num_feature":"44","num_nodes":"61","size_leaf_vector":"1"}},{"base_weights":[3.7662783E-3,2.0301867E-2,-3.330731E-1,-2.535497E-1,2.5659673E-2,-2.3519585E-1,-4.9556407E-1,-3.4660926E-1,3.505778E-2,4.47173E-2,-2.6621534E-2,-1.4714813E-1,-3.5216182E-1,-6.110527E-1,-4.0892434E-1,-4.0909153E-1,-1.349288E-1,2.8994113E-1,-1.4904122E-1,8.226874E-2,6.4474135E-3,-8.961096E-3,-1.3153411E-1,-4.06966E-1,-1.01596765E-1,-3.8353E-1,-1.3772123E-1,-4.6910414E-1,-3.251595E-2,-2.9936305E-1,-4.9441275E-1,-1.3232261E-2,-2.5843455E-2,7.1850107E-3,-1.1993638E-2,2.9020173E-2,-1.5277792E-3,7.425149E-3,-1.313927E-2,5.854694E-3,-1.5773965E-3,-9.469107E-3,1.8099558E-3,-1.2302463E-3,4.3060617E-3,-5.060499E-3,-1.9095236E-2,-1.2653518E-2,-2.9486898E-2,-1.5063043E-3,-1.390238E-2,-2.6786527E-2,-1.6656414E-2,8.621164E-3,-1.8859709E-2,-2.8161962E-2,-1.4977667E-2,-2.9806872E-3,-1.883427E-2,-1.7814655E-2,-2.8124878E-2],"categories":[],"categories_nodes":[],"categories_segments":[],"categories_sizes":[],"default_left":[0,0,0,0,0,0,0,0,0,0,0,0,0,0,0,0,0,0,0,0,0,0,0,0,0,0,0,0,0,0,0,0,0,0,0,0,0,0,0,0,0,0,0,0,0,0,0,0,0,0,0,0,0,0,0,0,0,0,0,0,0],"id":22,"left_children":[1,3,5,7,9,11,13,15,17,19,21,23,25,27,29,31,33,35,37,39,41,43,45,47,49,51,53,55,-1,57,59,-1,-1,-1,-1,-1,-1,-1,-1,-1,-1,-1,-1,-1,-1,-1,-1,-1,-1,-1,-1,-1,-1,-1,-1,-1,-1,-1,-1,-1,-1],"loss_changes":[1.6843149E2,4.2273388E1,2.2183228E1,1.492635E1,2.8186922E1,8.954067E0,4.722275E0,5.345497E0,6.4565177E0,2.9775112E1,1.3966482E1,5.865444E0,2.3642616E0,5.618439E-1,2.5061836E0,4.6478157E0,2.9475455E0,5.5208583E0,2.7643955E0,4.1488426E1,5.982708E1,9.613175E0,8.095676E0,1.7125788E0,5.425437E0,2.080574E0,3.962585E0,4.4935036E-1,0E0,2.472929E0,1.1124725E0,0E0,0E0,0E0,0E0,0E0,0E0,0E0,0E0,0E0,0E0,0E0,0E0,0E0,0E0,0E0,0E0,0E0,0E0,0E0,0E0,0E0,0E0,0E0,0E0,0E0,0E0,0E0,0E0,0E0,0E0],"parents":[2147483647,0,0,1,1,2,2,3,3,4,4,5,5,6,6,7,7,8,8,9,9,10,10,11,11,12,12,13,13,14,14,15,15,16,16,17,17,18,18,19,19,20,20,21,21,22,22,23,23,24,24,25,25,26,26,27,27,29,29,30,30],"right_children":[2,4,6,8,10,12,14,16,18,20,22,24,26,28,30,32,34,36,38,40,42,44,46,48,50,52,54,56,-1,58,60,-1,-1,-1,-1,-1,-1,-1,-1,-1,-1,-1,-1,-1,-1,-1,-1,-1,-1,-1,-1,-1,-1,-1,-1,-1,-1,-1,-1,-1,-1],"split_conditions":[8.769828E0,1.36226E-1,1.08295965E1,6.6666665E0,2.5146914E0,1.2064965E1,-7.2646875E0,4.5195823E0,9.978588E-1,-1.6283739E0,6.9559546E0,-8.691935E0,3.2954544E1,1.0176305E0,1.2174096E1,-6.243838E-1,8.335809E-1,-1.0276281E0,2.4665062E-1,5.098777E0,3.86572E0,3.1026254E0,3.5779816E1,-2.9375E0,7.039778E-2,4.034232E-1,9.949178E-1,9.0353113E-1,-3.251595E-2,1.0617671E0,1.3516155E0,-1.3232261E-2,-2.5843455E-2,7.1850107E-3,-1.1993638E-2,2.9020173E-2,-1.5277792E-3,7.425149E-3,-1.313927E-2,5.854694E-3,-1.5773965E-3,-9.469107E-3,1.8099558E-3,-1.2302463E-3,4.3060617E-3,-5.060499E-3,-1.9095236E-2,-1.2653518E-2,-2.9486898E-2,-1.5063043E-3,-1.390238E-2,-2.6786527E-2,-1.6656414E-2,8.621164E-3,-1.8859709E-2,-2.8161962E-2,-1.4977667E-2,-2.9806872E-3,-1.883427E-2,-1.7814655E-2,-2.8124878E-2],"split_indices":[11,27,11,42,15,8,17,11,29,16,11,17,8,31,11,17,6,16,15,11,11,19,42,16,13,27,31,31,0,29,15,0,0,0,0,0,0,0,0,0,0,0,0,0,0,0,0,0,0,0,0,0,0,0,0,0,0,0,0,0,0],"split_type":[0,0,0,0,0,0,0,0,0,0,0,0,0,0,0,0,0,0,0,0,0,0,0,0,0,0,0,0,0,0,0,0,0,0,0,0,0,0,0,0,0,0,0,0,0,0,0,0,0,0,0,0,0,0,0,0,0,0,0,0,0],"sum_hessian":[3.0247836E4,2.883435E4,1.4134872E3,5.512584E2,2.8283092E4,8.851903E2,5.282969E2,4.1714447E2,1.3411395E2,2.073044E4,7.5526514E3,5.079335E2,3.7725677E2,2.2156659E2,3.0673032E2,3.202668E2,9.687767E1,5.6338215E1,7.777574E1,1.0459928E4,1.0270512E4,6.4674834E3,1.0851678E3,7.333728E1,4.3459622E2,3.272688E2,4.9987988E1,5.3321556E1,1.6824503E2,1.3842198E2,1.6830833E2,1.398607E2,1.804061E2,2.5832357E1,7.104531E1,2.9243128E1,2.7095089E1,2.0896288E1,5.687945E1,8.010594E3,2.4493335E3,1.3526201E3,8.917892E3,5.5564927E3,9.1099054E2,9.705259E2,1.14642E2,4.234967E1,3.0987608E1,3.113676E2,1.2322861E2,7.6834854E1,2.5043393E2,2.1599287E1,2.83887E1,3.1287905E1,2.2033651E1,3.503472E1,1.0338725E2,5.962921E1,1.0867912E2],"tree_param":{"num_deleted":"0","num_feature":"44","num_nodes":"61","size_leaf_vector":"1"}},{"base_weights":[-2.263935E-3,-2.875289E-1,2.1366255E-1,-4.4794044E-1,-1.7245632E-1,1.3996859E-1,6.3296515E-1,-5.309762E-1,-3.7844878E-1,-2.0599549E-1,1.07009105E-1,6.8339385E-2,2.910343E-1,4.9337804E-1,8.115376E-1,-2.9391253E-1,-5.396091E-1,-3.928095E-1,-3.4713987E-2,-2.780215E-1,-1.381026E-1,5.8726344E-2,6.0106236E-1,-5.3453654E-2,1.13355726E-1,2.431682E-1,4.9797466E-1,6.938329E-1,4.3855932E-1,6.9675463E-1,8.973717E-1,-2.2587448E-3,-2.184128E-2,-2.9125748E-2,-2.5105178E-2,-2.2114469E-2,-1.5980834E-2,-5.2649328E-3,1.1680169E-2,-1.850122E-2,-1.0753965E-2,-2.1191682E-3,-9.123605E-3,-3.2768452E-3,6.617234E-3,1.177656E-2,3.7575472E-2,-7.5840303E-3,3.3108212E-4,1.0343748E-3,8.043E-3,8.478179E-3,1.7803097E-2,3.0330434E-2,1.6818218E-2,9.482609E-3,3.929774E-2,-6.585452E-4,2.297662E-2,4.414328E-2,3.096121E-2,4.1949764E-2,4.8933893E-2],"categories":[],"categories_nodes":[],"categories_segments":[],"categories_sizes":[],"default_left":[0,0,0,0,0,0,0,0,0,0,0,0,0,0,0,0,0,0,0,0,0,0,0,0,0,0,0,0,0,0,0,0,0,0,0,0,0,0,0,0,0,0,0,0,0,0,0,0,0,0,0,0,0,0,0,0,0,0,0,0,0,0,0],"id":23,"left_children":[1,3,5,7,9,11,13,15,17,19,21,23,25,27,29,31,33,35,37,39,41,43,45,47,49,51,53,55,57,59,61,-1,-1,-1,-1,-1,-1,-1,-1,-1,-1,-1,-1,-1,-1,-1,-1,-1,-1,-1,-1,-1,-1,-1,-1,-1,-1,-1,-1,-1,-1,-1,-1],"loss_changes":[1.8231757E3,2.351532E2,5.2026544E2,3.0243896E1,6.968198E1,1.5496402E2,6.188794E1,4.550232E0,1.423645E1,3.229892E1,1.881134E1,5.333438E1,4.531421E1,1.4892212E1,9.595703E0,3.0440311E0,3.0993042E0,9.733459E0,2.2597456E0,1.838713E1,1.4465233E1,6.6814046E0,3.4067001E0,1.5514749E1,3.1220306E1,3.0932388E1,1.46636505E1,1.3562286E1,1.0689224E1,5.79097E0,1.3666077E0,0E0,0E0,0E0,0E0,0E0,0E0,0E0,0E0,0E0,0E0,0E0,0E0,0E0,0E0,0E0,0E0,0E0,0E0,0E0,0E0,0E0,0E0,0E0,0E0,0E0,0E0,0E0,0E0,0E0,0E0,0E0,0E0],"parents":[2147483647,0,0,1,1,2,2,3,3,4,4,5,5,6,6,7,7,8,8,9,9,10,10,11,11,12,12,13,13,14,14,15,15,16,16,17,17,18,18,19,19,20,20,21,21,22,22,23,23,24,24,25,25,26,26,27,27,28,28,29,29,30,30],"right_children":[2,4,6,8,10,12,14,16,18,20,22,24,26,28,30,32,34,36,38,40,42,44,46,48,50,52,54,56,58,60,62,-1,-1,-1,-1,-1,-1,-1,-1,-1,-1,-1,-1,-1,-1,-1,-1,-1,-1,-1,-1,-1,-1,-1,-1,-1,-1,-1,-1,-1,-1,-1,-1],"split_conditions":[3.2891233E0,2.4687576E0,7.822331E0,2.0395658E0,6.453713E0,4.8657503E0,9.509999E0,-6.071536E0,6.3537235E0,8.3818555E-1,8.920897E0,7.4325764E-1,1.197162E0,-1.7305458E1,1.08295965E1,1.174318E1,3.9417477E0,9.490718E-1,5.7575756E1,2.814919E0,-3.292804E1,8.9905226E-1,1.4035088E0,4.3990383E0,3.6829317E0,6.1065617E0,-5.5249605E-2,4.414847E0,2.368421E1,-1.5595009E1,1.2987941E1,-2.2587448E-3,-2.184128E-2,-2.9125748E-2,-2.5105178E-2,-2.2114469E-2,-1.5980834E-2,-5.2649328E-3,1.1680169E-2,-1.850122E-2,-1.0753965E-2,-2.1191682E-3,-9.123605E-3,-3.2768452E-3,6.617234E-3,1.177656E-2,3.7575472E-2,-7.5840303E-3,3.3108212E-4,1.0343748E-3,8.043E-3,8.478179E-3,1.7803097E-2,3.0330434E-2,1.6818218E-2,9.482609E-3,3.929774E-2,-6.585452E-4,2.297662E-2,4.414328E-2,3.096121E-2,4.1949764E-2,4.8933893E-2],"split_indices":[26,26,11,26,11,26,11,20,11,30,11,31,30,22,11,42,11,30,28,26,9,31,39,11,26,26,13,26,28,22,11,0,0,0,0,0,0,0,0,0,0,0,0,0,0,0,0,0,0,0,0,0,0,0,0,0,0,0,0,0,0,0,0],"split_type":[0,0,0,0,0,0,0,0,0,0,0,0,0,0,0,0,0,0,0,0,0,0,0,0,0,0,0,0,0,0,0,0,0,0,0,0,0,0,0,0,0,0,0,0,0,0,0,0,0,0,0,0,0,0,0,0,0,0,0,0,0,0,0],"sum_hessian":[2.959557E4,1.2750736E4,1.6844834E4,5.323576E3,7.4271606E3,1.4328946E4,2.5158872E3,2.4195774E3,2.9039988E3,6.6323145E3,7.9484625E2,9.722457E3,4.6064893E3,1.4158811E3,1.1000061E3,8.7676476E1,2.331901E3,2.7867754E3,1.172232E2,3.214517E3,3.4177974E3,7.259808E2,6.886543E1,2.622495E3,7.099962E3,3.7445823E3,8.619072E2,2.9951517E2,1.116366E3,4.7748615E2,6.2251996E2,3.322411E1,5.445237E1,1.0749934E3,1.2569075E3,1.65659E3,1.1301855E3,9.412026E1,2.3102938E1,1.3015466E3,1.9129706E3,1.0848555E3,2.332942E3,2.6913882E2,4.5684198E2,2.1589226E1,4.7276207E1,9.9562555E2,1.6268695E3,2.4083235E3,4.691638E3,2.2700654E3,1.4745167E3,5.122239E2,3.4968335E2,4.7315872E1,2.5219928E2,4.9133026E1,1.0672329E3,1.3507625E2,3.4240988E2,3.7366983E2,2.4885014E2],"tree_param":{"num_deleted":"0","num_feature":"44","num_nodes":"63","size_leaf_vector":"1"}},{"base_weights":[2.1716172E-3,4.2223305E-1,-1.10288545E-1,6.778719E-1,3.3772433E-1,4.068566E-4,-2.418798E-1,1.2208474E-1,6.991213E-1,2.607132E-1,4.564105E-1,1.17791444E-1,-6.651161E-2,-1.9145642E-1,-4.7358847E-1,-5.3913007E-3,2.6240855E-2,7.261906E-1,3.7757966E-1,2.0211908E-1,4.934782E-1,4.885809E-1,-9.419835E-2,-3.6612157E-2,2.0140709E-1,-3.803086E-2,-3.584346E-1,-4.614695E-1,-1.6875422E-1,-4.1320533E-1,-5.9548265E-1,4.391657E-2,3.4557205E-2,-4.4220854E-3,2.8999424E-2,1.6547117E-2,6.5209954E-3,3.282343E-2,1.9871844E-2,3.174969E-2,2.2250405E-2,5.221913E-3,-1.31015675E-2,4.764949E-3,-7.011063E-3,1.6124936E-2,7.1249055E-3,-4.313107E-3,3.0021274E-3,-1.480146E-2,-2.7566845E-2,-2.5794094E-2,-1.5146543E-2,-7.608549E-3,-1.9164724E-2,-2.5358668E-2,-1.5012801E-2,-3.0732194E-2,-2.5908912E-2],"categories":[],"categories_nodes":[],"categories_segments":[],"categories_sizes":[],"default_left":[0,0,0,0,0,0,0,0,0,0,0,0,0,0,0,0,0,0,0,0,0,0,0,0,0,0,0,0,0,0,0,0,0,0,0,0,0,0,0,0,0,0,0,0,0,0,0,0,0,0,0,0,0,0,0,0,0,0,0],"id":24,"left_children":[1,3,5,7,9,11,13,15,17,19,21,23,25,27,29,-1,-1,31,33,35,37,39,41,43,45,47,49,51,53,55,57,-1,-1,-1,-1,-1,-1,-1,-1,-1,-1,-1,-1,-1,-1,-1,-1,-1,-1,-1,-1,-1,-1,-1,-1,-1,-1,-1,-1],"loss_changes":[1.3999277E3,1.3465771E2,3.405353E2,1.8046448E1,4.27016E1,9.9750984E1,1.2451288E2,5.6632814E0,1.2379883E1,3.870778E1,3.2905487E1,5.9579494E1,6.712911E1,5.3544464E1,1.346582E1,0E0,0E0,6.115967E0,1.1473732E1,2.0971306E1,8.372009E0,1.0510529E1,3.506356E0,2.2175308E1,2.1184608E1,3.487262E1,8.228706E0,5.459076E0,2.8613052E1,1.3209351E1,2.2480774E-1,0E0,0E0,0E0,0E0,0E0,0E0,0E0,0E0,0E0,0E0,0E0,0E0,0E0,0E0,0E0,0E0,0E0,0E0,0E0,0E0,0E0,0E0,0E0,0E0,0E0,0E0,0E0,0E0],"parents":[2147483647,0,0,1,1,2,2,3,3,