{"learner":{"attributes":{"best_iteration":"282","best_score":"0.8498815152020577","scikit_learn":"{\"_estimator_type\": \"classifier\"}"},"feature_names":["type_1buy","type_2buy","type_3buy","type_quasi2buy","type_sub1buy","type_2b3bbuy","confidence","confidence_sq","pivot_width_pct","price_above_zg_pct","price_above_zd_pct","stop_loss_dist_pct","macd_hist_last","macd_hist_prev","macd_below_zero","macd_area_10","ma5_dist_pct","ma5_slope","ma10_dist_pct","ma10_slope","ma20_dist_pct","ma20_slope","ma60_dist_pct","ma60_slope","ma_bullish_align","ma_bearish_align","atr_14_pct","volatility_20","rsi_14","vol_ratio_5","vol_ratio_20","vol_shrink","weekly_up","weekly_down","env_bull","env_bear","conf_x_weekly_up","conf_x_env_bull","weekly_up_x_rsi","ret_3d","ret_10d","ret_20d","dist_from_high20_pct","dist_from_low20_pct"],"feature_types":["int","int","int","int","int","int","float","float","float","float","float","float","float","float","int","float","float","float","float","float","float","float","float","float","int","int","float","float","float","float","float","float","int","int","int","int","float","float","float","float","float","float","float","float"],"gradient_booster":{"model":{"cats":{"enc":[],"feature_segments":[],"sorted_idx":[]},"gbtree_model_param":{"num_parallel_tree":"1","num_trees":"900"},"iteration_indptr":[0,3,6,9,12,15,18,21,24,27,30,33,36,39,42,45,48,51,54,57,60,63,66,69,72,75,78,81,84,87,90,93,96,99,102,105,108,111,114,117,120,123,126,129,132,135,138,141,144,147,150,153,156,159,162,165,168,171,174,177,180,183,186,189,192,195,198,201,204,207,210,213,216,219,222,225,228,231,234,237,240,243,246,249,252,255,258,261,264,267,270,273,276,279,282,285,288,291,294,297,300,303,306,309,312,315,318,321,324,327,330,333,336,339,342,345,348,351,354,357,360,363,366,369,372,375,378,381,384,387,390,393,396,399,402,405,408,411,414,417,420,423,426,429,432,435,438,441,444,447,450,453,456,459,462,465,468,471,474,477,480,483,486,489,492,495,498,501,504,507,510,513,516,519,522,525,528,531,534,537,540,543,546,549,552,555,558,561,564,567,570,573,576,579,582,585,588,591,594,597,600,603,606,609,612,615,618,621,624,627,630,633,636,639,642,645,648,651,654,657,660,663,666,669,672,675,678,681,684,687,690,693,696,699,702,705,708,711,714,717,720,723,726,729,732,735,738,741,744,747,750,753,756,759,762,765,768,771,774,777,780,783,786,789,792,795,798,801,804,807,810,813,816,819,822,825,828,831,834,837,840,843,846,849,852,855,858,861,864,867,870,873,876,879,882,885,888,891,894,897,900],"tree_info":[0,1,2,0,1,2,0,1,2,0,1,2,0,1,2,0,1,2,0,1,2,0,1,2,0,1,2,0,1,2,0,1,2,0,1,2,0,1,2,0,1,2,0,1,2,0,1,2,0,1,2,0,1,2,0,1,2,0,1,2,0,1,2,0,1,2,0,1,2,0,1,2,0,1,2,0,1,2,0,1,2,0,1,2,0,1,2,0,1,2,0,1,2,0,1,2,0,1,2,0,1,2,0,1,2,0,1,2,0,1,2,0,1,2,0,1,2,0,1,2,0,1,2,0,1,2,0,1,2,0,1,2,0,1,2,0,1,2,0,1,2,0,1,2,0,1,2,0,1,2,0,1,2,0,1,2,0,1,2,0,1,2,0,1,2,0,1,2,0,1,2,0,1,2,0,1,2,0,1,2,0,1,2,0,1,2,0,1,2,0,1,2,0,1,2,0,1,2,0,1,2,0,1,2,0,1,2,0,1,2,0,1,2,0,1,2,0,1,2,0,1,2,0,1,2,0,1,2,0,1,2,0,1,2,0,1,2,0,1,2,0,1,2,0,1,2,0,1,2,0,1,2,0,1,2,0,1,2,0,1,2,0,1,2,0,1,2,0,1,2,0,1,2,0,1,2,0,1,2,0,1,2,0,1,2,0,1,2,0,1,2,0,1,2,0,1,2,0,1,2,0,1,2,0,1,2,0,1,2,0,1,2,0,1,2,0,1,2,0,1,2,0,1,2,0,1,2,0,1,2,0,1,2,0,1,2,0,1,2,0,1,2,0,1,2,0,1,2,0,1,2,0,1,2,0,1,2,0,1,2,0,1,2,0,1,2,0,1,2,0,1,2,0,1,2,0,1,2,0,1,2,0,1,2,0,1,2,0,1,2,0,1,2,0,1,2,0,1,2,0,1,2,0,1,2,0,1,2,0,1,2,0,1,2,0,1,2,0,1,2,0,1,2,0,1,2,0,1,2,0,1,2,0,1,2,0,1,2,0,1,2,0,1,2,0,1,2,0,1,2,0,1,2,0,1,2,0,1,2,0,1,2,0,1,2,0,1,2,0,1,2,0,1,2,0,1,2,0,1,2,0,1,2,0,1,2,0,1,2,0,1,2,0,1,2,0,1,2,0,1,2,0,1,2,0,1,2,0,1,2,0,1,2,0,1,2,0,1,2,0,1,2,0,1,2,0,1,2,0,1,2,0,1,2,0,1,2,0,1,2,0,1,2,0,1,2,0,1,2,0,1,2,0,1,2,0,1,2,0,1,2,0,1,2,0,1,2,0,1,2,0,1,2,0,1,2,0,1,2,0,1,2,0,1,2,0,1,2,0,1,2,0,1,2,0,1,2,0,1,2,0,1,2,0,1,2,0,1,2,0,1,2,0,1,2,0,1,2,0,1,2,0,1,2,0,1,2,0,1,2,0,1,2,0,1,2,0,1,2,0,1,2,0,1,2,0,1,2,0,1,2,0,1,2,0,1,2,0,1,2,0,1,2,0,1,2,0,1,2,0,1,2,0,1,2,0,1,2,0,1,2,0,1,2,0,1,2,0,1,2,0,1,2,0,1,2,0,1,2,0,1,2,0,1,2,0,1,2,0,1,2,0,1,2,0,1,2,0,1,2,0,1,2,0,1,2,0,1,2,0,1,2,0,1,2,0,1,2,0,1,2,0,1,2,0,1,2,0,1,2,0,1,2,0,1,2,0,1,2,0,1,2,0,1,2,0,1,2,0,1,2,0,1,2,0,1,2,0,1,2,0,1,2,0,1,2,0,1,2,0,1,2,0,1,2,0,1,2,0,1,2,0,1,2,0,1,2,0,1,2,0,1,2,0,1,2,0,1,2,0,1,2,0,1,2,0,1,2,0,1,2,0,1,2,0,1,2,0,1,2,0,1,2,0,1,2,0,1,2,0,1,2,0,1,2,0,1,2,0,1,2,0,1,2,0,1,2,0,1,2,0,1,2,0,1,2,0,1,2,0,1,2,0,1,2,0,1,2,0,1,2,0,1,2,0,1,2,0,1,2],"trees":[{"base_weights":[1.197408E-4,7.106342E-1,-2.0338401E-1,1.0597348E0,5.060003E-1,2.1241942E-2,-3.4758854E-1,4.93796E-1,1.1366168E0,3.033346E-2,6.036488E-1,1.2804615E-1,-2.0684399E-1,-2.758692E-1,-5.3615534E-1,-5.475817E-2,6.24174E-1,1.2221586E0,7.019253E-1,-4.0859815E-2,3.7807116E-1,7.4079466E-1,3.1697184E-1,-1.7915586E-1,2.224879E-1,-1.3170089E-1,-3.8200945E-1,-1.8935038E-1,-3.9603308E-1,-4.4485882E-1,-5.9219074E-1,1.968716E-2,-6.71869E-3,6.767188E-3,3.5587225E-2,6.993001E-2,5.3866148E-2,4.0733527E-2,8.025597E-3,-4.4629644E-3,2.1353127E-2,2.375631E-2,-2.3146503E-2,4.0660188E-2,2.848087E-2,1.9627498E-2,-3.2715693E-3,-1.031565E-2,4.350565E-3,1.7344706E-2,7.098651E-3,-1.6034905E-2,-3.580846E-3,4.54656E-3,-1.9857159E-2,-1.5795697E-2,-6.234137E-3,-1.5170755E-2,-2.1497915E-2,-2.6289025E-2,-1.89322E-2,-3.2820385E-2,-2.7562832E-2],"categories":[],"categories_nodes":[],"categories_segments":[],"categories_sizes":[],"default_left":[0,0,0,0,0,0,0,0,0,0,0,0,0,0,0,0,0,0,0,0,0,0,0,0,0,0,0,0,0,0,0,0,0,0,0,0,0,0,0,0,0,0,0,0,0,0,0,0,0,0,0,0,0,0,0,0,0,0,0,0,0,0,0],"id":0,"left_children":[1,3,5,7,9,11,13,15,17,19,21,23,25,27,29,31,33,35,37,39,41,43,45,47,49,51,53,55,57,59,61,-1,-1,-1,-1,-1,-1,-1,-1,-1,-1,-1,-1,-1,-1,-1,-1,-1,-1,-1,-1,-1,-1,-1,-1,-1,-1,-1,-1,-1,-1,-1,-1],"loss_changes":[1.2305659E4,1.3525342E3,2.1430234E3,3.0344043E2,5.548718E2,6.301482E2,5.445122E2,6.026042E1,2.274585E2,5.0524105E1,3.8920898E2,5.1123337E2,1.08404724E2,3.0327734E2,5.618091E1,5.827991E0,2.87659E1,1.2876074E2,6.1695984E1,3.8305344E1,2.8641151E1,8.212427E1,9.290875E1,2.9998901E1,1.3482147E2,6.5477905E1,1.7829285E1,1.3879938E2,3.804834E1,2.2179993E1,1.7280273E1,0E0,0E0,0E0,0E0,0E0,0E0,0E0,0E0,0E0,0E0,0E0,0E0,0E0,0E0,0E0,0E0,0E0,0E0,0E0,0E0,0E0,0E0,0E0,0E0,0E0,0E0,0E0,0E0,0E0,0E0,0E0,0E0],"parents":[2147483647,0,0,1,1,2,2,3,3,4,4,5,5,6,6,7,7,8,8,9,9,10,10,11,11,12,12,13,13,14,14,15,15,16,16,17,17,18,18,19,19,20,20,21,21,22,22,23,23,24,24,25,25,26,26,27,27,28,28,29,29,30,30],"right_children":[2,4,6,8,10,12,14,16,18,20,22,24,26,28,30,32,34,36,38,40,42,44,46,48,50,52,54,56,58,60,62,-1,-1,-1,-1,-1,-1,-1,-1,-1,-1,-1,-1,-1,-1,-1,-1,-1,-1,-1,-1,-1,-1,-1,-1,-1,-1,-1,-1,-1,-1,-1,-1],"split_conditions":[1.9872189E-1,1.3595288E-1,3.2148775E-1,-5.215242E0,-7.433964E0,4.813084E0,6.3352437E0,-5.0486236E0,4.231746E0,-3.3402922E0,4.1975307E0,-9.047411E0,6.3352437E0,4.9054947E-1,7.4918647E0,2.3255815E-1,-1.7445654E0,9.840221E-2,5.620702E0,-9.9297154E-1,5.5304346E0,1.7996036E-1,5.852941E0,-2.4242425E0,2.3812222E-1,-2.070198E0,2.596054E0,-9.278226E0,5.4037386E-1,-4.7292666E0,-3.1229124E0,1.968716E-2,-6.71869E-3,6.767188E-3,3.5587225E-2,6.993001E-2,5.3866148E-2,4.0733527E-2,8.025597E-3,-4.4629644E-3,2.1353127E-2,2.375631E-2,-2.3146503E-2,4.0660188E-2,2.848087E-2,1.9627498E-2,-3.2715693E-3,-1.031565E-2,4.350565E-3,1.7344706E-2,7.098651E-3,-1.6034905E-2,-3.580846E-3,4.54656E-3,-1.9857159E-2,-1.5795697E-2,-6.234137E-3,-1.5170755E-2,-2.1497915E-2,-2.6289025E-2,-1.89322E-2,-3.2820385E-2,-2.7562832E-2],"split_indices":[27,27,27,22,22,11,11,20,11,40,11,22,11,27,11,43,21,27,11,21,11,27,11,40,27,21,43,22,30,40,19,0,0,0,0,0,0,0,0,0,0,0,0,0,0,0,0,0,0,0,0,0,0,0,0,0,0,0,0,0,0,0,0],"split_type":[0,0,0,0,0,0,0,0,0,0,0,0,0,0,0,0,0,0,0,0,0,0,0,0,0,0,0,0,0,0,0,0,0,0,0,0,0,0,0,0,0,0,0,0,0,0,0,0,0,0,0,0,0,0,0,0,0,0,0,0,0,0,0],"sum_hessian":[8.510218E4,1.8947164E4,6.6155016E4,6.9992905E3,1.1947873E4,2.5865098E4,4.0289914E4,8.3876526E2,6.1605254E3,2.0356749E3,9.912198E3,1.7617166E4,8.247933E3,2.9191861E4,1.1098054E4,1.609439E2,6.778214E2,5.1448984E3,1.0156267E3,1.690353E3,3.4532193E2,6.7026055E3,3.2095925E3,4.1416523E3,1.3475514E4,5.7745254E3,2.473407E3,1.6975158E4,1.2216702E4,4.22743E3,6.870624E3,2.2991983E1,1.379519E2,1.0390608E2,5.739153E2,2.3129053E3,2.8319934E3,8.396496E2,1.7597711E2,1.5333884E3,1.5696451E2,3.1039178E2,3.493013E1,4.705398E3,1.9972075E3,2.6803347E3,5.292578E2,3.7591895E3,3.8246283E2,5.291694E3,8.18382E3,1.3905729E3,4.383952E3,7.605041E1,2.3973564E3,5.7373843E3,1.1237774E4,3.2807793E3,8.935923E3,1.8963966E3,2.3310334E3,2.663975E3,4.206649E3],"tree_param":{"num_deleted":"0","num_feature":"44","num_nodes":"63","size_leaf_vector":"1"}},{"base_weights":[-1.3921569E-3,-3.9847314E-1,3.954545E-2,-5.908899E-1,-2.8191277E-1,1.204994E-1,-1.6738787E-1,-6.7939436E-1,-4.4389474E-1,1.4226675E-1,-3.1818685E-1,-5.13821E-2,1.3631737E-1,-1.03220046E-1,-4.6291992E-1,-6.893048E-1,-3.4993538E-3,-5.157293E-1,-3.231374E-1,6.781474E-1,-1.0996537E-1,-3.4025398E-1,2.84841E-1,-1.0764794E-1,1.4873151E-1,1.7513643E-1,4.5982E-2,-5.776445E-2,-2.6012373E-1,-6.218784E-1,-3.9721504E-1,-1.0744841E-2,-3.489092E-2,-1.004371E-2,-2.7136711E-2,-2.9876626E-3,-2.3081524E-2,4.874167E-2,1.6806332E-2,1.3961866E-2,-8.41695E-3,-1.783765E-2,-8.638771E-4,2.3538953E-2,-8.4969506E-4,8.576038E-3,-7.7684387E-3,5.1232628E-3,2.0435225E-2,1.1719369E-2,6.8913857E-3,3.38328E-3,-1.02878455E-2,-4.2472836E-3,3.156342E-3,-1.1520619E-2,-1.7713344E-2,-3.468819E-2,-2.522999E-2,-1.8251676E-2,-3.0718395E-2],"categories":[],"categories_nodes":[],"categories_segments":[],"categories_sizes":[],"default_left":[0,0,0,0,0,0,0,0,0,0,0,0,0,0,0,0,0,0,0,0,0,0,0,0,0,0,0,0,0,0,0,0,0,0,0,0,0,0,0,0,0,0,0,0,0,0,0,0,0,0,0,0,0,0,0,0,0,0,0,0,0],"id":1,"left_children":[1,3,5,7,9,11,13,15,17,19,21,23,25,27,29,31,-1,33,35,37,39,41,43,45,47,49,51,53,55,57,59,-1,-1,-1,-1,-1,-1,-1,-1,-1,-1,-1,-1,-1,-1,-1,-1,-1,-1,-1,-1,-1,-1,-1,-1,-1,-1,-1,-1,-1,-1],"loss_changes":[1.4106907E3,1.8148535E2,1.3178555E3,3.910327E1,7.7875854E1,1.5376935E2,4.1931177E2,1.1280579E1,9.595505E0,5.4128944E1,6.2130737E1,5.367246E1,1.8153448E2,1.2955743E2,4.0631287E1,7.161194E0,0E0,5.8115234E0,1.57438545E1,1.2244492E1,6.2324495E0,2.386267E1,9.357744E0,4.9611786E1,1.2412436E1,7.993787E1,8.49716E1,4.6335155E1,1.1177704E1,8.932831E0,1.9010315E1,0E0,0E0,0E0,0E0,0E0,0E0,0E0,0E0,0E0,0E0,0E0,0E0,0E0,0E0,0E0,0E0,0E0,0E0,0E0,0E0,0E0,0E0,0E0,0E0,0E0,0E0,0E0,0E0,0E0,0E0],"parents":[2147483647,0,0,1,1,2,2,3,3,4,4,5,5,6,6,7,7,8,8,9,9,10,10,11,11,12,12,13,13,14,14,15,15,17,17,18,18,19,19,20,20,21,21,22,22,23,23,24,24,25,25,26,26,27,27,28,28,29,29,30,30],"right_children":[2,4,6,8,10,12,14,16,18,20,22,24,26,28,30,32,-1,34,36,38,40,42,44,46,48,50,52,54,56,58,60,-1,-1,-1,-1,-1,-1,-1,-1,-1,-1,-1,-1,-1,-1,-1,-1,-1,-1,-1,-1,-1,-1,-1,-1,-1,-1,-1,-1,-1,-1],"split_conditions":[1.469183E0,1.058431E0,4.5015535E0,9.3141116E-2,-6.444595E0,1.7471232E0,8.441795E0,4.833111E0,7.55287E-2,-3.0630631E0,5.383764E0,4.3976946E0,3.4674063E0,6.911639E0,-1.5061781E1,-4.9801526E0,-3.4993538E-3,-1.5930966E0,-2.6812178E-1,-2.7827973E0,-3.5236514E0,6.2685585E-1,-2.6496387E0,-6.7951055E0,6.329114E-1,-6.0214257E0,7.8989897E0,5.8974358E1,1.4398751E1,-9.983E0,3.001933E0,-1.0744841E-2,-3.489092E-2,-1.004371E-2,-2.7136711E-2,-2.9876626E-3,-2.3081524E-2,4.874167E-2,1.6806332E-2,1.3961866E-2,-8.41695E-3,-1.783765E-2,-8.638771E-4,2.3538953E-2,-8.4969506E-4,8.576038E-3,-7.7684387E-3,5.1232628E-3,2.0435225E-2,1.1719369E-2,6.8913857E-3,3.38328E-3,-1.02878455E-2,-4.2472836E-3,3.156342E-3,-1.1520619E-2,-1.7713344E-2,-3.468819E-2,-2.522999E-2,-1.8251676E-2,-3.0718395E-2],"split_indices":[26,26,26,27,22,26,11,11,41,39,11,11,26,26,22,22,0,19,17,17,17,18,9,22,17,22,11,28,22,17,16,0,0,0,0,0,0,0,0,0,0,0,0,0,0,0,0,0,0,0,0,0,0,0,0,0,0,0,0,0,0],"split_type":[0,0,0,0,0,0,0,0,0,0,0,0,0,0,0,0,0,0,0,0,0,0,0,0,0,0,0,0,0,0,0,0,0,0,0,0,0,0,0,0,0,0,0,0,0,0,0,0,0,0,0,0,0,0,0,0,0,0,0,0,0],"sum_hessian":[8.677474E4,8.109277E3,7.866546E4,3.0562422E3,5.053035E3,5.6545867E4,2.2119598E4,1.9034176E3,1.1528246E3,3.9729352E2,4.655741E3,4.763931E3,5.1781938E4,1.8175842E4,3.9437556E3,1.8724421E3,3.0975428E1,7.187197E2,4.341049E2,1.2659522E2,2.706983E2,4.492335E3,1.634066E2,3.7197449E3,1.0441862E3,3.621566E4,1.5566274E4,1.4095615E4,4.080227E3,1.1487843E3,2.7949712E3,3.4117863E1,1.8383242E3,5.83595E1,6.6036017E2,1.5083687E2,2.8326804E2,6.599113E1,6.0604095E1,3.4117863E1,2.3658044E2,4.273262E3,2.1907259E2,1.0100683E2,6.2399773E1,5.418455E2,3.1778992E3,8.888601E2,1.5532605E2,1.3987874E4,2.2227787E4,1.4333542E4,1.2327322E3,1.150984E4,2.585775E3,3.10697E3,9.732569E2,7.065989E2,4.4218546E2,2.4385293E3,3.5644186E2],"tree_param":{"num_deleted":"0","num_feature":"44","num_nodes":"61","size_leaf_vector":"1"}},{"base_weights":[-1.2245637E-3,-4.132089E-1,4.112072E-1,-6.101266E-1,-2.0314376E-1,2.2646558E-1,7.0034325E-1,-6.8016744E-1,-5.019349E-1,-3.0095437E-1,-1.0517141E-1,2.0716605E-1,9.2264616E-1,5.898806E-1,8.8058394E-1,-6.278925E-1,-6.986299E-1,-4.1676217E-1,-5.5303055E-1,-3.1004927E-1,3.3824182E-1,-3.9915396E-3,-1.7571765E-1,9.186276E-2,3.120756E-1,6.945869E-1,1.0768089E0,5.6447184E-1,1.0648689E0,1.1367785E0,8.282689E-1,-3.1964164E-2,-1.5240753E-2,-3.5484903E-2,-3.0874986E-2,-2.1221953E-2,2.2173544E-2,-2.9451225E-2,-2.4624972E-2,-5.6389472E-3,-1.6668199E-2,4.2763572E-2,8.360863E-3,-7.750304E-4,2.8328886E-2,-9.474845E-3,1.6245589E-2,1.0133674E-2,1.2509325E-3,2.4405405E-2,1.2910006E-2,4.0017135E-2,1.5573493E-2,4.894213E-2,6.359966E-2,3.967014E-2,2.5107121E-2,4.9483117E-2,6.681013E-2,4.36232E-2,7.0396885E-2,3.9764266E-2,5.6396972E-2],"categories":[],"categories_nodes":[],"categories_segments":[],"categories_sizes":[],"default_left":[0,0,0,0,0,0,0,0,0,0,0,0,0,0,0,0,0,0,0,0,0,0,0,0,0,0,0,0,0,0,0,0,0,0,0,0,0,0,0,0,0,0,0,0,0,0,0,0,0,0,0,0,0,0,0,0,0,0,0,0,0,0,0],"id":2,"left_children":[1,3,5,7,9,11,13,15,17,19,21,23,25,27,29,31,33,35,37,39,41,43,45,47,49,51,53,55,57,59,61,-1,-1,-1,-1,-1,-1,-1,-1,-1,-1,-1,-1,-1,-1,-1,-1,-1,-1,-1,-1,-1,-1,-1,-1,-1,-1,-1,-1,-1,-1,-1,-1],"loss_changes":[1.4521476E4,1.768231E3,2.2808472E3,1.664707E2,1.9813434E2,3.4964075E2,3.3039844E2,1.2E1,3.7229004E1,6.032953E1,7.376551E1,3.066432E2,2.321399E1,1.2341504E2,8.293408E1,1.2444702E1,7.947754E0,2.181836E1,1.1153809E1,4.6801147E1,1.2458366E1,2.7813293E1,4.2081482E1,8.9458244E1,1.2557886E2,1.1072311E1,5.6322327E0,1.3907837E2,8.209656E0,7.420679E1,5.0226562E1,0E0,0E0,0E0,0E0,0E0,0E0,0E0,0E0,0E0,0E0,0E0,0E0,0E0,0E0,0E0,0E0,0E0,0E0,0E0,0E0,0E0,0E0,0E0,0E0,0E0,0E0,0E0,0E0,0E0,0E0,0E0,0E0],"parents":[2147483647,0,0,1,1,2,2,3,3,4,4,5,5,6,6,7,7,8,8,9,9,10,10,11,11,12,12,13,13,14,14,15,15,16,16,17,17,18,18,19,19,20,20,21,21,22,22,23,23,24,24,25,25,26,26,27,27,28,28,29,29,30,30],"right_children":[2,4,6,8,10,12,14,16,18,20,22,24,26,28,30,32,34,36,38,40,42,44,46,48,50,52,54,56,58,60,62,-1,-1,-1,-1,-1,-1,-1,-1,-1,-1,-1,-1,-1,-1,-1,-1,-1,-1,-1,-1,-1,-1,-1,-1,-1,-1,-1,-1,-1,-1,-1,-1],"split_conditions":[3.1746032E0,2.2100425E0,4.982669E0,1.7844023E0,2.6815643E0,1.8667525E0,6.703026E0,-4.7440436E-1,-5.8276755E-1,1.6642079E0,-7.065617E-1,3.8617337E0,2.464169E0,1.5027323E0,-2.1861435E1,7.0733863E-1,7.2353387E-1,1.6642079E0,2.0549283E0,-1.1009834E1,4.073394E-1,1.6642079E0,1.3678554E0,-9.0972036E-1,-1.3215713E1,1.4436334E0,4.0802383E0,-1.5061781E1,4.0802383E0,6.094183E0,2.5542784E-1,-3.1964164E-2,-1.5240753E-2,-3.5484903E-2,-3.0874986E-2,-2.1221953E-2,2.2173544E-2,-2.9451225E-2,-2.4624972E-2,-5.6389472E-3,-1.6668199E-2,4.2763572E-2,8.360863E-3,-7.750304E-4,2.8328886E-2,-9.474845E-3,1.6245589E-2,1.0133674E-2,1.2509325E-3,2.4405405E-2,1.2910006E-2,4.0017135E-2,1.5573493E-2,4.894213E-2,6.359966E-2,3.967014E-2,2.5107121E-2,4.9483117E-2,6.681013E-2,4.36232E-2,7.0396885E-2,3.9764266E-2,5.6396972E-2],"split_indices":[26,26,26,26,26,16,26,23,23,16,23,26,16,16,22,39,20,16,26,22,15,16,16,23,22,17,16,22,16,43,16,0,0,0,0,0,0,0,0,0,0,0,0,0,0,0,0,0,0,0,0,0,0,0,0,0,0,0,0,0,0,0,0],"split_type":[0,0,0,0,0,0,0,0,0,0,0,0,0,0,0,0,0,0,0,0,0,0,0,0,0,0,0,0,0,0,0,0,0,0,0,0,0,0,0,0,0,0,0,0,0,0,0,0,0,0,0,0,0,0,0,0,0,0,0,0,0,0,0],"sum_hessian":[8.545996E4,4.2753414E4,4.2706547E4,2.2065309E4,2.0688105E4,2.6059416E4,1.664713E4,1.3388268E4,8.67704E3,1.0350021E4,1.0338084E4,2.5358656E4,7.0075964E2,1.0326146E4,6.320985E3,3.5108723E3,9.8773955E3,3.2601904E3,5.41685E3,1.0205891E4,1.4413101E2,4.24877E3,6.089314E3,1.208313E4,1.3275527E4,2.8649353E2,4.142661E2,9.80533E3,5.2081696E2,1.0659504E3,5.255034E3,3.3892893E3,1.2158291E2,8.679251E3,1.1981443E3,3.232337E3,2.7853539E1,3.3866365E3,2.0302135E3,1.0805404E3,9.12535E3,3.4043213E1,1.1008779E2,4.1665356E3,8.223425E1,5.927498E3,1.618158E2,4.544106E3,7.5390244E3,3.107217E3,1.016831E4,2.2282831E2,6.366523E1,2.8251447E2,1.3175166E2,2.0938787E3,7.711451E3,4.13824E2,1.0699296E2,5.4336505E2,5.2258545E2,4.739523E3,5.1551154E2],"tree_param":{"num_deleted":"0","num_feature":"44","num_nodes":"63","size_leaf_vector":"1"}},{"base_weights":[1.3965978E-3,6.887074E-1,-2.3220573E-1,9.976556E-1,4.4501042E-1,-4.2609744E-2,-3.8406947E-1,1.2490661E0,8.7724346E-1,2.487485E-1,5.4008967E-1,3.587302E-2,-2.3239468E-1,-3.1649566E-1,-5.3079975E-1,1.3384986E0,1.0968393E0,9.3119615E-1,5.8798814E-1,1.4657095E-1,4.0612262E-1,6.4749026E-1,3.9849725E-1,1.5455735E-1,-5.167135E-2,-1.6822252E-1,-3.700531E-1,-2.4858607E-1,-4.0222698E-1,-4.620161E-1,-5.9664345E-1,6.741524E-2,2.5447965E-2,4.5226824E-2,5.87909E-2,2.2998093E-2,4.7876433E-2,3.680826E-2,1.5494013E-2,1.8204706E-2,5.1176026E-3,2.6876867E-2,7.493978E-3,3.9241858E-2,2.809976E-2,2.2195546E-2,-3.6212038E-3,1.1996146E-2,8.7860775E-5,4.6007335E-3,-4.7436575E-3,-1.8721329E-3,-1.0378259E-2,-2.0422474E-2,-8.870433E-3,-1.5992748E-2,-9.840949E-3,-2.418848E-2,-1.7811818E-2,-1.9260583E-2,-2.62478E-2,-3.1580668E-2,-2.5039664E-2],"categories":[],"categories_nodes":[],"categories_segments":[],"categories_sizes":[],"default_left":[0,0,0,0,0,0,0,0,0,0,0,0,0,0,0,0,0,0,0,0,0,0,0,0,0,0,0,0,0,0,0,0,0,0,0,0,0,0,0,0,0,0,0,0,0,0,0,0,0,0,0,0,0,0,0,0,0,0,0,0,0,0,0],"id":3,"left_children":[1,3,5,7,9,11,13,15,17,19,21,23,25,27,29,31,33,35,37,39,41,43,45,47,49,51,53,55,57,59,61,-1,-1,-1,-1,-1,-1,-1,-1,-1,-1,-1,-1,-1,-1,-1,-1,-1,-1,-1,-1,-1,-1,-1,-1,-1,-1,-1,-1,-1,-1,-1,-1],"loss_changes":[1.3681703E4,1.6264883E3,1.8310371E3,2.8643652E2,2.2518994E2,4.213848E2,3.496997E2,3.9271973E1,9.9526855E1,6.3285522E1,1.2319653E2,2.079622E2,7.291196E1,1.4050732E2,4.9788086E1,1.4330322E1,1.5451538E1,6.646533E1,4.142099E1,2.2906223E1,5.202466E1,5.3389282E1,7.531683E1,1.1077896E2,7.1506294E1,2.9003204E1,1.9222412E1,4.960431E1,3.9643555E1,2.5871216E1,1.83396E1,0E0,0E0,0E0,0E0,0E0,0E0,0E0,0E0,0E0,0E0,0E0,0E0,0E0,0E0,0E0,0E0,0E0,0E0,0E0,0E0,0E0,0E0,0E0,0E0,0E0,0E0,0E0,0E0,0E0,0E0,0E0,0E0],"parents":[2147483647,0,0,1,1,2,2,3,3,4,4,5,5,6,6,7,7,8,8,9,9,10,10,11,11,12,12,13,13,14,14,15,15,16,16,17,17,18,18,19,19,20,20,21,21,22,22,23,23,24,24,25,25,26,26,27,27,28,28,29,29,30,30],"right_children":[2,4,6,8,10,12,14,16,18,20,22,24,26,28,30,32,34,36,38,40,42,44,46,48,50,52,54,56,58,60,62,-1,-1,-1,-1,-1,-1,-1,-1,-1,-1,-1,-1,-1,-1,-1,-1,-1,-1,-1,-1,-1,-1,-1,-1,-1,-1,-1,-1,-1,-1,-1,-1],"split_conditions":[2.1803472E0,1.553983E0,3.5407267E0,1.058431E0,-6.193863E-1,5.007553E0,6.204204E0,9.3141116E-2,4.3623595E0,-1.2823123E0,3.801653E0,2.6815643E0,6.4356027E0,4.877485E0,7.8989897E0,5.101083E0,-3.039293E-1,-4.678216E0,2.838934E0,6.792402E-1,4.4147677E0,1.7844023E0,6.036074E0,1E0,2.8814814E0,2.5318959E0,-1.5553522E0,-1.6911764E1,-4.8343887E0,4.7123466E0,-1.7519271E0,6.741524E-2,2.5447965E-2,4.5226824E-2,5.87909E-2,2.2998093E-2,4.7876433E-2,3.680826E-2,1.5494013E-2,1.8204706E-2,5.1176026E-3,2.6876867E-2,7.493978E-3,3.9241858E-2,2.809976E-2,2.2195546E-2,-3.6212038E-3,1.1996146E-2,8.7860775E-5,4.6007335E-3,-4.7436575E-3,-1.8721329E-3,-1.0378259E-2,-2.0422474E-2,-8.870433E-3,-1.5992748E-2,-9.840949E-3,-2.418848E-2,-1.7811818E-2,-1.9260583E-2,-2.62478E-2,-3.1580668E-2,-2.5039664E-2],"split_indices":[26,26,26,26,23,11,11,27,11,17,11,26,11,26,11,11,23,20,43,30,11,26,11,25,11,26,9,10,16,26,9,0,0,0,0,0,0,0,0,0,0,0,0,0,0,0,0,0,0,0,0,0,0,0,0,0,0,0,0,0,0,0,0],"split_type":[0,0,0,0,0,0,0,0,0,0,0,0,0,0,0,0,0,0,0,0,0,0,0,0,0,0,0,0,0,0,0,0,0,0,0,0,0,0,0,0,0,0,0,0,0,0,0,0,0,0,0,0,0,0,0,0,0,0,0,0,0,0,0],"sum_hessian":[8.521022E4,2.1614223E4,6.3595992E4,9.5287E3,1.2085523E4,2.8285668E4,3.5310324E4,3.0807104E3,6.4479897E3,3.9465686E3,8.138955E3,2.0010701E4,8.274968E3,2.418054E4,1.1129785E4,1.93242E3,1.1482905E3,5.4309697E3,1.01701965E3,2.3954524E3,1.5511161E3,4.6244478E3,3.514507E3,8.495053E3,1.1515647E4,5.6472007E3,2.6277668E3,1.3497258E4,1.068328E4,5.450738E3,5.6790474E3,1.9086782E3,2.3741905E1,3.4047922E2,8.078113E2,2.8928845E2,5.1416816E3,6.6142163E2,3.5559802E2,4.0209235E2,1.9933601E3,1.02368854E3,5.2742755E2,1.7686013E3,2.8558464E3,3.2058584E3,3.0864883E2,5.448788E3,3.0462646E3,2.660545E3,8.855103E3,1.3078285E3,4.339372E3,2.1887952E3,4.389718E2,5.674045E3,7.823213E3,3.8458538E3,6.837427E3,2.461216E3,2.9895217E3,4.1532925E3,1.5257548E3],"tree_param":{"num_deleted":"0","num_feature":"44","num_nodes":"63","size_leaf_vector":"1"}},{"base_weights":[1.4849463E-3,-3.9264494E-1,4.0138375E-2,-6.337825E-1,-3.0789497E-1,1.05274886E-1,-2.004151E-1,-6.9067276E-1,-4.3415362E-1,-3.2615462E-1,2.8404307E-1,1.3950662E-1,1.6117347E-2,-1.2889437E-1,-4.430178E-1,-6.98147E-1,-7.9487795E-3,-5.319356E-1,-2.8659704E-1,1.1686585E-1,-3.5008448E-1,4.194958E-1,-1.3952996E-2,-4.755801E-2,1.6713545E-1,5.517777E-2,-1.871891E-1,-7.79936E-2,-2.4772583E-1,-3.4106684E-1,-5.388417E-1,-3.6109656E-2,-3.0739848E-2,-2.8708575E-2,-6.685736E-3,1.3894494E-2,-2.2683544E-2,3.008919E-2,-6.1396207E-3,-2.2267653E-2,-1.53789325E-2,1.3462126E-2,4.217361E-2,-5.025924E-3,5.96712E-3,7.518701E-3,1.1656155E-2,1.9782241E-3,1.0308276E-2,-2.7367796E-3,-1.4289408E-2,-9.139599E-4,-5.7803458E-3,-1.0365109E-2,-1.580776E-2,-3.6229545E-3,-1.8601287E-2,-2.3247553E-2,-3.354202E-2],"categories":[],"categories_nodes":[],"categories_segments":[],"categories_sizes":[],"default_left":[0,0,0,0,0,0,0,0,0,0,0,0,0,0,0,0,0,0,0,0,0,0,0,0,0,0,0,0,0,0,0,0,0,0,0,0,0,0,0,0,0,0,0,0,0,0,0,0,0,0,0,0,0,0,0,0,0,0,0],"id":4,"left_children":[1,3,5,7,9,11,13,15,17,19,21,23,25,27,29,31,-1,33,35,37,39,41,-1,43,45,47,49,51,53,55,57,-1,-1,-1,-1,-1,-1,-1,-1,-1,-1,-1,-1,-1,-1,-1,-1,-1,-1,-1,-1,-1,-1,-1,-1,-1,-1,-1,-1],"loss_changes":[1.3192426E3,1.575769E2,1.2357543E3,2.2144714E1,6.2041077E1,1.8938306E2,2.913808E2,5.863098E0,6.1066666E0,5.9009583E1,1.3309817E1,2.318023E2,1.367483E2,7.842479E1,3.69151E1,2.1489868E0,0E0,4.256592E0,1.7539112E1,3.337728E1,2.0993103E1,8.316933E0,0E0,5.102562E1,4.308789E1,3.3998413E1,3.6148804E1,2.0390594E1,1.0560364E1,1.5323944E1,1.8500854E1,0E0,0E0,0E0,0E0,0E0,0E0,0E0,0E0,0E0,0E0,0E0,0E0,0E0,0E0,0E0,0E0,0E0,0E0,0E0,0E0,0E0,0E0,0E0,0E0,0E0,0E0,0E0,0E0],"parents":[2147483647,0,0,1,1,2,2,3,3,4,4,5,5,6,6,7,7,8,8,9,9,10,10,11,11,12,12,13,13,14,14,15,15,17,17,18,18,19,19,20,20,21,21,23,23,24,24,25,25,26,26,27,27,28,28,29,29,30,30],"right_children":[2,4,6,8,10,12,14,16,18,20,22,24,26,28,30,32,-1,34,36,38,40,42,-1,44,46,48,50,52,54,56,58,-1,-1,-1,-1,-1,-1,-1,-1,-1,-1,-1,-1,-1,-1,-1,-1,-1,-1,-1,-1,-1,-1,-1,-1,-1,-1,-1,-1],"split_conditions":[1.4460325E0,9.188627E-1,4.982669E0,9.3141116E-2,5.442446E0,3.6564627E0,8.022654E0,4.813084E0,7.55287E-2,-2.849544E0,1E0,1.7844023E0,7.096531E0,6.911639E0,1.0504555E1,7.573845E-1,-7.9487795E-3,-6.0819853E-3,4.074074E1,-2.8846154E0,1.1290323E0,4.3010755E0,-1.3952996E-2,4.314363E0,1.3846156E1,1.3422819E1,1.0308641E0,4.0237465E0,8.543519E0,6.4416325E-1,1E0,-3.6109656E-2,-3.0739848E-2,-2.8708575E-2,-6.685736E-3,1.3894494E-2,-2.2683544E-2,3.008919E-2,-6.1396207E-3,-2.2267653E-2,-1.53789325E-2,1.3462126E-2,4.217361E-2,-5.025924E-3,5.96712E-3,7.518701E-3,1.1656155E-2,1.9782241E-3,1.0308276E-2,-2.7367796E-3,-1.4289408E-2,-9.139599E-4,-5.7803458E-3,-1.0365109E-2,-1.580776E-2,-3.6229545E-3,-1.8601287E-2,-2.3247553E-2,-3.354202E-2],"split_indices":[26,26,26,27,11,26,11,11,41,17,2,26,11,26,11,26,0,16,28,39,26,43,0,11,42,43,30,11,26,31,25,0,0,0,0,0,0,0,0,0,0,0,0,0,0,0,0,0,0,0,0,0,0,0,0,0,0,0,0],"split_type":[0,0,0,0,0,0,0,0,0,0,0,0,0,0,0,0,0,0,0,0,0,0,0,0,0,0,0,0,0,0,0,0,0,0,0,0,0,0,0,0,0,0,0,0,0,0,0,0,0,0,0,0,0,0,0,0,0,0,0],"sum_hessian":[8.659745E4,7.73264E3,7.886481E4,2.0078013E3,5.724839E3,6.2061594E4,1.6803219E4,1.5588647E3,4.4893652E2,5.554509E3,1.7032999E2,4.484169E4,1.7219902E4,1.29798125E4,3.8234058E3,1.536421E3,2.244377E1,2.668434E2,1.8209312E2,2.8392578E2,5.270583E3,1.3789699E2,3.2432987E1,5.7695913E3,3.90721E4,1.4446443E4,2.7734585E3,9.090232E3,3.8895808E3,1.8568035E3,1.9666024E3,1.1816293E3,3.547917E2,2.402022E2,2.6641216E1,4.1085815E1,1.4100731E2,9.3436646E1,1.9048914E2,1.6202311E3,3.650352E3,1.039739E2,3.3923096E1,4.3811646E3,1.3884265E3,3.1164098E4,7.908004E3,1.3095487E4,1.350956E3,1.185403E3,1.5880555E3,3.5159314E3,5.574301E3,2.450784E3,1.438797E3,1.9307784E2,1.6637256E3,1.2661377E3,7.0046466E2],"tree_param":{"num_deleted":"0","num_feature":"44","num_nodes":"59","size_leaf_vector":"1"}},{"base_weights":[5.5348745E-4,-4.0221208E-1,3.954659E-1,-5.8259267E-1,-1.8093346E-1,2.838747E-1,8.3542997E-1,-6.61314E-1,-4.690462E-1,-2.5424775E-1,-2.692634E-2,1.4545903E-1,5.2170765E-1,6.5332574E-1,9.8684263E-1,-5.982405E-1,-6.8421495E-1,-4.8978415E-1,-2.0111795E-1,-1.0761003E-1,-2.9794648E-1,-7.7121325E-2,2.9420885E-1,2.95465E-1,9.0409815E-2,4.450236E-1,6.7397445E-1,5.745862E-1,8.2953197E-1,1.2250152E0,8.8397706E-1,-3.0777866E-2,-1.8610515E-2,-3.5094228E-2,-3.135245E-2,-2.0852929E-2,-2.6947258E-2,-1.2628767E-2,2.6897242E-2,-3.2917054E-3,-1.5030696E-2,-1.9259246E-2,-1.1828697E-2,-9.957729E-3,-9.042164E-4,1.0949069E-2,3.3439748E-2,9.1271475E-3,1.8894015E-2,3.7594826E-3,3.538619E-2,2.0495985E-2,3.2613438E-2,2.8142309E-2,3.8195673E-2,4.0797275E-2,2.6373029E-2,3.55156E-2,4.5516044E-2,5.4807466E-2,6.662872E-2,3.1235471E-2,4.7832962E-2],"categories":[],"categories_nodes":[],"categories_segments":[],"categories_sizes":[],"default_left":[0,0,0,0,0,0,0,0,0,0,0,0,0,0,0,0,0,0,0,0,0,0,0,0,0,0,0,0,0,0,0,0,0,0,0,0,0,0,0,0,0,0,0,0,0,0,0,0,0,0,0,0,0,0,0,0,0,0,0,0,0,0,0],"id":5,"left_children":[1,3,5,7,9,11,13,15,17,19,21,23,25,27,29,31,33,35,37,39,41,43,45,47,49,51,53,55,57,59,61,-1,-1,-1,-1,-1,-1,-1,-1,-1,-1,-1,-1,-1,-1,-1,-1,-1,-1,-1,-1,-1,-1,-1,-1,-1,-1,-1,-1,-1,-1,-1,-1],"loss_changes":[1.3565117E4,1.6849629E3,2.1136152E3,2.0721436E2,2.1405682E2,1.1306328E3,2.3890039E2,1.8964355E1,5.2662598E1,8.219232E1,9.86214E1,1.7921902E2,1.4687671E2,5.3944702E1,1.14398926E2,1.3831177E1,9.236328E0,3.1088135E1,2.6305508E1,2.3705868E1,5.2720154E1,3.8087227E1,2.2903694E1,5.4028717E1,1.4906277E2,6.0566284E1,4.1354492E1,3.0279724E1,1.0445251E1,1.7131836E1,6.144995E1,0E0,0E0,0E0,0E0,0E0,0E0,0E0,0E0,0E0,0E0,0E0,0E0,0E0,0E0,0E0,0E0,0E0,0E0,0E0,0E0,0E0,0E0,0E0,0E0,0E0,0E0,0E0,0E0,0E0,0E0,0E0,0E0],"parents":[2147483647,0,0,1,1,2,2,3,3,4,4,5,5,6,6,7,7,8,8,9,9,10,10,11,11,12,12,13,13,14,14,15,15,16,16,17,17,18,18,19,19,20,20,21,21,22,22,23,23,24,24,25,25,26,26,27,27,28,28,29,29,30,30],"right_children":[2,4,6,8,10,12,14,16,18,20,22,24,26,28,30,32,34,36,38,40,42,44,46,48,50,52,54,56,58,60,62,-1,-1,-1,-1,-1,-1,-1,-1,-1,-1,-1,-1,-1,-1,-1,-1,-1,-1,-1,-1,-1,-1,-1,-1,-1,-1,-1,-1,-1,-1,-1,-1],"split_conditions":[3.1746032E0,2.288102E0,7.096531E0,1.8193095E0,4.813084E0,4.877485E0,8.603152E0,-4.7440436E-1,5.749606E0,-9.160422E0,7.165644E0,-1.1430115E1,6.617233E0,5.7198915E0,-1.2356711E1,2.8653294E-1,2.9657795E0,-5.329117E-1,1.8667525E0,-2.4734983E0,2.6071842E0,2.6071842E0,2.1159391E0,4.2453637E0,7.155461E-1,1.2124953E0,6.8931663E-1,-1.0655738E1,2.0833334E1,1.0504555E1,6.9584737E0,-3.0777866E-2,-1.8610515E-2,-3.5094228E-2,-3.135245E-2,-2.0852929E-2,-2.6947258E-2,-1.2628767E-2,2.6897242E-2,-3.2917054E-3,-1.5030696E-2,-1.9259246E-2,-1.1828697E-2,-9.957729E-3,-9.042164E-4,1.0949069E-2,3.3439748E-2,9.1271475E-3,1.8894015E-2,3.7594826E-3,3.538619E-2,2.0495985E-2,3.2613438E-2,2.8142309E-2,3.8195673E-2,4.0797275E-2,2.6373029E-2,3.55156E-2,4.5516044E-2,5.4807466E-2,6.662872E-2,3.1235471E-2,4.7832962E-2],"split_indices":[26,26,11,26,11,26,11,23,11,22,11,22,26,26,22,16,43,23,16,18,26,26,16,11,27,30,30,40,42,11,43,0,0,0,0,0,0,0,0,0,0,0,0,0,0,0,0,0,0,0,0,0,0,0,0,0,0,0,0,0,0,0,0],"split_type":[0,0,0,0,0,0,0,0,0,0,0,0,0,0,0,0,0,0,0,0,0,0,0,0,0,0,0,0,0,0,0,0,0,0,0,0,0,0,0,0,0,0,0,0,0,0,0,0,0,0,0,0,0,0,0,0,0,0,0,0,0,0,0],"sum_hessian":[8.528157E4,4.2220723E4,4.3060848E4,2.3258027E4,1.8962695E4,3.4351066E4,8.709783E3,1.3730045E4,9.527982E3,1.2845423E4,6.117272E3,2.1715936E4,1.2635131E4,3.9583557E3,4.751427E3,3.6704214E3,1.0059623E4,8.841641E3,6.863412E2,2.9513828E3,9.89404E3,5.291887E3,8.2538495E2,5.8271367E3,1.5888798E4,8.407949E3,4.227182E3,2.7410269E3,1.2173289E3,1.427627E3,3.3238E3,3.4060078E3,2.644136E2,7.6688315E3,2.390792E3,3.573512E3,5.268129E3,6.428412E2,4.349996E1,2.4287292E3,5.2265356E2,4.0813718E3,5.8126685E3,1.7231266E3,3.5687605E3,6.897704E2,1.3561458E2,2.4616013E3,3.3655352E3,1.55084375E4,3.8036096E2,7.194715E3,1.2132345E3,1.8967177E3,2.3304644E3,4.4307144E2,2.2979556E3,4.9864432E2,7.186846E2,6.5796765E2,7.6965936E2,7.3151764E2,2.5922822E3],"tree_param":{"num_deleted":"0","num_feature":"44","num_nodes":"63","size_leaf_vector":"1"}},{"base_weights":[-9.865806E-4,5.9684837E-1,-2.0452818E-1,9.4090563E-1,4.217793E-1,-3.7081905E-2,-3.598197E-1,1.0176545E0,5.527885E-1,8.842324E-2,5.1685417E-1,5.8446772E-2,-2.5588164E-1,-2.856295E-1,-5.0818586E-1,4.1663516E-1,1.0632427E0,6.6037375E-1,7.782911E-2,2.01653E-1,-1.08203374E-1,5.886356E-1,1.4406906E-1,-6.1134942E-2,1.7373683E-1,-1.5319183E-1,-3.781193E-1,-2.1574472E-1,-3.9429384E-1,-4.2424864E-1,-5.741272E-1,1.0223052E-3,3.2194912E-2,6.156192E-2,4.7722615E-2,1.1519486E-2,3.7404727E-2,1.0255345E-2,-2.3245819E-2,-2.9203852E-4,1.9305592E-2,-1.1234192E-2,3.8082232E-3,3.4542296E-2,2.2038644E-2,1.1969077E-2,-6.0071084E-3,-1.3009506E-2,1.2911205E-3,1.3272111E-2,3.0398613E-3,-1.7382244E-2,-5.3600282E-3,-1.6190952E-2,-2.3334833E-2,-1.4774053E-2,-5.9794215E-3,-8.640134E-3,-2.0390458E-2,-1.85936E-2,-2.5768533E-2,-3.0270759E-2,-2.384516E-2],"categories":[],"categories_nodes":[],"categories_segments":[],"categories_sizes":[],"default_left":[0,0,0,0,0,0,0,0,0,0,0,0,0,0,0,0,0,0,0,0,0,0,0,0,0,0,0,0,0,0,0,0,0,0,0,0,0,0,0,0,0,0,0,0,0,0,0,0,0,0,0,0,0,0,0,0,0,0,0,0,0,0,0],"id":6,"left_children":[1,3,5,7,9,11,13,15,17,19,21,23,25,27,29,31,33,35,37,39,41,43,45,47,49,51,53,55,57,59,61,-1,-1,-1,-1,-1,-1,-1,-1,-1,-1,-1,-1,-1,-1,-1,-1,-1,-1,-1,-1,-1,-1,-1,-1,-1,-1,-1,-1,-1,-1,-1,-1],"loss_changes":[1.0365513E4,1.302333E3,1.6523535E3,2.1613525E2,4.5437646E2,6.392328E2,3.6253662E2,1.6585303E2,6.1506226E1,7.0963646E1,2.9832666E2,2.9351144E2,1.1647748E2,1.6669434E2,6.0252686E1,3.874579E1,1.0120215E2,3.6676697E1,1.5644498E1,7.748212E1,2.505768E1,1.4071777E2,4.5501244E1,1.809255E2,1.1217346E2,4.5056953E1,2.0015808E1,1.02478455E2,2.5527222E1,2.264148E1,1.8052368E1,0E0,0E0,0E0,0E0,0E0,0E0,0E0,0E0,0E0,0E0,0E0,0E0,0E0,0E0,0E0,0E0,0E0,0E0,0E0,0E0,0E0,0E0,0E0,0E0,0E0,0E0,0E0,0E0,0E0,0E0,0E0,0E0],"parents":[2147483647,0,0,1,1,2,2,3,3,4,4,5,5,6,6,7,7,8,8,9,9,10,10,11,11,12,12,13,13,14,14,15,15,16,16,17,17,18,18,19,19,20,20,21,21,22,22,23,23,24,24,25,25,26,26,27,27,28,28,29,29,30,30],"right_children":[2,4,6,8,10,12,14,16,18,20,22,24,26,28,30,32,34,36,38,40,42,44,46,48,50,52,54,56,58,60,62,-1,-1,-1,-1,-1,-1,-1,-1,-1,-1,-1,-1,-1,-1,-1,-1,-1,-1,-1,-1,-1,-1,-1,-1,-1,-1,-1,-1,-1,-1,-1,-1],"split_conditions":[2.078389E-1,1.3595288E-1,3.6104476E-1,4.2453637E0,-1.4652257E0,5.007553E0,5.9577465E0,-6.1728396E0,5.5304346E0,4.314363E0,4.854701E0,-2.7777777E0,6.117857E0,5.4050267E-1,7.4918647E0,-4.94122E0,9.3141116E-2,-1.2339722E0,8.297552E0,-5.444369E0,-1.7360814E0,1.7829722E-1,6.036074E0,-1.076743E0,3.9040778E0,-2.5029304E0,7.3201785E0,-3.313489E0,4.598752E-1,2E1,-7.8125E-1,1.0223052E-3,3.2194912E-2,6.156192E-2,4.7722615E-2,1.1519486E-2,3.7404727E-2,1.0255345E-2,-2.3245819E-2,-2.9203852E-4,1.9305592E-2,-1.1234192E-2,3.8082232E-3,3.4542296E-2,2.2038644E-2,1.1969077E-2,-6.0071084E-3,-1.3009506E-2,1.2911205E-3,1.3272111E-2,3.0398613E-3,-1.7382244E-2,-5.3600282E-3,-1.6190952E-2,-2.3334833E-2,-1.4774053E-2,-5.9794215E-3,-8.640134E-3,-2.0390458E-2,-1.85936E-2,-2.5768533E-2,-3.0270759E-2,-2.384516E-2],"split_indices":[27,27,27,11,21,11,11,41,11,11,11,18,11,27,11,20,27,21,11,20,18,27,11,23,11,21,11,39,31,42,9,0,0,0,0,0,0,0,0,0,0,0,0,0,0,0,0,0,0,0,0,0,0,0,0,0,0,0,0,0,0,0,0],"split_type":[0,0,0,0,0,0,0,0,0,0,0,0,0,0,0,0,0,0,0,0,0,0,0,0,0,0,0,0,0,0,0,0,0,0,0,0,0,0,0,0,0,0,0,0,0,0,0,0,0,0,0,0,0,0,0,0,0,0,0,0,0,0,0],"sum_hessian":[8.5181305E4,2.163421E4,6.354709E4,7.293277E3,1.4340934E4,3.0578424E4,3.2968668E4,6.086703E3,1.2065741E3,3.183565E3,1.1157368E4,2.1285354E4,9.293069E3,2.1982229E4,1.0986438E4,4.3051654E2,5.6561865E3,9.829213E2,2.236527E2,2.0208268E3,1.1627382E3,9.354679E3,1.8026903E3,1.0447705E4,1.0837649E4,5.0530786E3,4.2399907E3,1.3382149E4,8.60008E3,4.839891E3,6.146547E3,1.5785027E2,2.7266626E2,2.2163513E3,3.439835E3,1.6785587E2,8.150655E2,1.8222195E2,4.1430744E1,9.51205E2,1.0696217E3,7.130206E2,4.497175E2,5.5271616E3,3.8275166E3,1.3254431E3,4.7724716E2,3.1762415E3,7.2714634E3,5.978993E3,4.8586562E3,9.6382007E2,4.0892585E3,2.6343232E3,1.6056677E3,7.3128643E3,6.069285E3,4.9663382E2,8.103446E3,3.079577E3,1.7603142E3,4.6426E3,1.5039469E3],"tree_param":{"num_deleted":"0","num_feature":"44","num_nodes":"63","size_leaf_vector":"1"}},{"base_weights":[8.317293E-4,-3.8446394E-1,3.7994426E-2,-6.543038E-1,-3.1220663E-1,9.714264E-2,-2.0640004E-1,-6.642675E-1,5.2578533E-3,2.946056E-1,-3.288784E-1,1.3821536E-1,1.9824076E-2,-1.3444662E-1,-4.412281E-1,-6.947164E-1,-5.102121E-1,4.383077E-1,-1.7268872E-2,-3.498863E-1,1.6332088E-1,-1.9934777E-2,1.7099172E-1,4.7284525E-2,-2.2567154E-1,-8.802866E-2,-2.633583E-1,-6.032069E-1,-3.8715535E-1,-1.9391818E-2,-3.507776E-2,-2.773549E-2,-1.5899016E-2,3.671588E-2,1.1123008E-3,-2.1915752E-2,-1.5036645E-2,-5.704926E-3,1.9704824E-2,-4.212268E-3,5.2830903E-3,7.6302015E-3,1.2459512E-2,6.3876784E-3,1.3261383E-3,-9.200424E-3,-2.2471687E-2,-5.359041E-3,4.4409232E-4,-1.1152442E-2,-1.7942656E-2,-2.0560429E-2,-3.3193815E-2,-1.1514412E-2,-2.1490876E-2],"categories":[],"categories_nodes":[],"categories_segments":[],"categories_sizes":[],"default_left":[0,0,0,0,0,0,0,0,0,0,0,0,0,0,0,0,0,0,0,0,0,0,0,0,0,0,0,0,0,0,0,0,0,0,0,0,0,0,0,0,0,0,0,0,0,0,0,0,0,0,0,0,0,0,0],"id":7,"left_children":[1,3,5,7,9,11,13,15,-1,17,19,21,23,25,27,29,31,33,-1,35,37,39,41,43,45,47,49,51,53,-1,-1,-1,-1,-1,-1,-1,-1,-1,-1,-1,-1,-1,-1,-1,-1,-1,-1,-1,-1,-1,-1,-1,-1,-1,-1],"loss_changes":[1.2385485E3,1.4786133E2,1.140472E3,1.2363464E1,6.090625E1,2.0169354E2,2.5955255E2,6.661804E0,0E0,1.5057112E1,6.056903E1,2.1506873E2,1.4856862E2,7.0326645E1,3.1021057E1,2.1403198E0,1.8558044E0,1.6134865E1,0E0,2.4027283E1,1.5484021E1,5.7532955E1,4.927307E1,3.308636E1,2.0417023E1,1.6089966E1,1.1751465E1,9.841339E0,1.7838135E1,0E0,0E0,0E0,0E0,0E0,0E0,0E0,0E0,0E0,0E0,0E0,0E0,0E0,0E0,0E0,0E0,0E0,0E0,0E0,0E0,0E0,0E0,0E0,0E0,0E0,0E0],"parents":[2147483647,0,0,1,1,2,2,3,3,4,4,5,5,6,6,7,7,9,9,10,10,11,11,12,12,13,13,14,14,15,15,16,16,17,17,19,19,20,20,21,21,22,22,23,23,24,24,25,25,26,26,27,27,28,28],"right_children":[2,4,6,8,10,12,14,16,-1,18,20,22,24,26,28,30,32,34,-1,36,38,40,42,44,46,48,50,52,54,-1,-1,-1,-1,-1,-1,-1,-1,-1,-1,-1,-1,-1,-1,-1,-1,-1,-1,-1,-1,-1,-1,-1,-1,-1,-1],"split_conditions":[1.4460325E0,7.9637066E-2,5.1309347E0,5.383764E0,-4.88759E0,3.4674063E0,8.022654E0,9.188627E-1,5.2578533E-3,-5.828221E0,5.101083E0,1.8539954E0,7.782452E0,7.2634153E0,-1.2648528E1,-3.537415E0,4.1350136E0,9.464286E0,-1.7268872E-2,1.1290323E0,2.838934E0,4.071823E0,1.3846156E1,6.741501E-1,2.464169E0,6.0674156E1,1.652174E1,6.8664184E0,7.254623E0,-1.9391818E-2,-3.507776E-2,-2.773549E-2,-1.5899016E-2,3.671588E-2,1.1123008E-3,-2.1915752E-2,-1.5036645E-2,-5.704926E-3,1.9704824E-2,-4.212268E-3,5.2830903E-3,7.6302015E-3,1.2459512E-2,6.3876784E-3,1.3261383E-3,-9.200424E-3,-2.2471687E-2,-5.359041E-3,4.4409232E-4,-1.1152442E-2,-1.7942656E-2,-2.0560429E-2,-3.3193815E-2,-1.1514412E-2,-2.1490876E-2],"split_indices":[26,27,26,11,20,26,11,26,0,41,11,26,11,26,20,41,11,42,0,26,43,11,42,31,16,28,43,43,43,0,0,0,0,0,0,0,0,0,0,0,0,0,0,0,0,0,0,0,0,0,0,0,0,0,0],"split_type":[0,0,0,0,0,0,0,0,0,0,0,0,0,0,0,0,0,0,0,0,0,0,0,0,0,0,0,0,0,0,0,0,0,0,0,0,0,0,0,0,0,0,0,0,0,0,0,0,0,0,0,0,0,0,0],"sum_hessian":[8.6500914E4,7.6075815E3,7.8893336E4,1.6037264E3,6.003855E3,6.3521598E4,1.5371738E4,1.5834044E3,2.032209E1,1.59552E2,5.844303E3,4.1482E4,2.2039598E4,1.1768864E4,3.6028748E3,1.3166145E3,2.6678992E2,1.3093661E2,2.8615374E1,5.605875E3,2.384279E2,7.12027E3,3.4361727E4,1.982415E4,2.2154478E3,8.656092E3,3.1127725E3,8.9697864E2,2.705896E3,3.1225828E1,1.2853887E3,2.1350023E2,5.3289677E1,7.555466E1,5.538196E1,1.9970905E3,3.6087847E3,1.0822293E2,1.3020497E2,4.710426E3,2.4098442E3,2.7825738E4,6.5359893E3,4.062239E3,1.5761912E4,1.8707529E3,3.4469476E2,7.229291E3,1.4268003E3,2.1938298E3,9.189425E2,2.1897142E2,6.7800726E2,5.816127E2,2.1242834E3],"tree_param":{"num_deleted":"0","num_feature":"44","num_nodes":"55","size_leaf_vector":"1"}},{"base_weights":[-8.1653096E-4,-1.286645E-1,5.805428E-1,-3.5495833E-1,1.2294488E-1,3.960529E-1,8.535199E-1,-4.4013658E-1,-8.0066904E-2,9.29293E-3,3.2954413E-1,2.6982543E-1,6.400636E-1,4.622485E-1,9.138711E-1,-5.885357E-1,-3.43723E-1,-3.378957E-1,3.3802688E-2,-1.3529456E-1,1.21854946E-1,6.804807E-1,2.6800096E-1,3.209617E-2,3.592241E-1,5.362026E-1,7.858901E-1,7.274693E-1,2.5958768E-1,1.1547787E0,8.274039E-1,-3.1863883E-2,-2.2930136E-2,-2.1452678E-2,-8.501103E-3,-1.9765161E-2,-4.7576064E-3,-1.0647014E-3,9.713504E-3,4.293924E-4,-1.4951432E-2,1.2863501E-2,-6.4903224E-4,4.2302098E-2,2.8669909E-2,6.4521916E-3,1.9323982E-2,-5.076781E-3,8.300011E-3,7.414275E-3,2.1293191E-2,4.0010143E-2,2.260661E-2,3.5312586E-2,4.6263434E-2,2.4947397E-2,4.1490525E-2,-3.2718742E-4,2.4387395E-2,6.2105656E-2,4.9654003E-2,3.5787888E-2,4.8343506E-2],"categories":[],"categories_nodes":[],"categories_segments":[],"categories_sizes":[],"default_left":[0,0,0,0,0,0,0,0,0,0,0,0,0,0,0,0,0,0,0,0,0,0,0,0,0,0,0,0,0,0,0,0,0,0,0,0,0,0,0,0,0,0,0,0,0,0,0,0,0,0,0,0,0,0,0,0,0,0,0,0,0,0,0],"id":8,"left_children":[1,3,5,7,9,11,13,15,17,19,21,23,25,27,29,31,33,35,37,39,41,43,45,47,49,51,53,55,57,59,61,-1,-1,-1,-1,-1,-1,-1,-1,-1,-1,-1,-1,-1,-1,-1,-1,-1,-1,-1,-1,-1,-1,-1,-1,-1,-1,-1,-1,-1,-1,-1,-1],"loss_changes":[6.338298E3,3.980387E3,7.734404E2,8.616299E2,7.7717834E2,2.8220007E2,1.4544629E2,4.0152344E2,2.5576593E2,3.4760626E2,2.532395E2,1.2850381E2,4.6463135E1,4.4223923E1,1.0998291E2,6.94043E1,2.5228638E2,3.7034546E1,5.345833E1,2.2029745E2,2.1933977E2,3.0034729E1,1.6440802E2,2.9668402E1,6.1592773E1,3.986212E1,1.3086304E1,7.5090485E0,2.889602E1,1.7661377E1,6.0221436E1,0E0,0E0,0E0,0E0,0E0,0E0,0E0,0E0,0E0,0E0,0E0,0E0,0E0,0E0,0E0,0E0,0E0,0E0,0E0,0E0,0E0,0E0,0E0,0E0,0E0,0E0,0E0,0E0,0E0,0E0,0E0,0E0],"parents":[2147483647,0,0,1,1,2,2,3,3,4,4,5,5,6,6,7,7,8,8,9,9,10,10,11,11,12,12,13,13,14,14,15,15,16,16,17,17,18,18,19,19,20,20,21,21,22,22,23,23,24,24,25,25,26,26,27,27,28,28,29,29,30,30],"right_children":[2,4,6,8,10,12,14,16,18,20,22,24,26,28,30,32,34,36,38,40,42,44,46,48,50,52,54,56,58,60,62,-1,-1,-1,-1,-1,-1,-1,-1,-1,-1,-1,-1,-1,-1,-1,-1,-1,-1,-1,-1,-1,-1,-1,-1,-1,-1,-1,-1,-1,-1,-1,-1],"split_conditions":[6.204204E0,1.0609481E1,8.154588E0,6.25E0,2E1,1.695053E1,5.6543283E0,5.315435E0,3.9956162E0,1.8604652E0,-7.8685255E0,4.1666665E0,5.134475E0,-6.776769E0,-2.9715855E0,4.1975307E0,4.3287673E0,5.301695E0,4.9625998E0,-2.4080627E0,-1.9062748E0,-1.6392272E0,2.1201413E0,1.0683012E1,4.9792533E0,-1.232506E1,2.7868853E1,8.776255E-1,5.0729675E0,-5.5078993E0,1.0504555E1,-3.1863883E-2,-2.2930136E-2,-2.1452678E-2,-8.501103E-3,-1.9765161E-2,-4.7576064E-3,-1.0647014E-3,9.713504E-3,4.293924E-4,-1.4951432E-2,1.2863501E-2,-6.4903224E-4,4.2302098E-2,2.8669909E-2,6.4521916E-3,1.9323982E-2,-5.076781E-3,8.300011E-3,7.414275E-3,2.1293191E-2,4.0010143E-2,2.260661E-2,3.5312586E-2,4.6263434E-2,2.4947397E-2,4.1490525E-2,-3.2718742E-4,2.4387395E-2,6.2105656E-2,4.9654003E-2,3.5787888E-2,4.8343506E-2],"split_indices":[11,42,11,43,42,42,43,42,42,43,16,43,43,20,21,11,11,11,11,16,16,23,43,42,42,20,42,29,43,18,11,0,0,0,0,0,0,0,0,0,0,0,0,0,0,0,0,0,0,0,0,0,0,0,0,0,0,0,0,0,0,0,0],"split_type":[0,0,0,0,0,0,0,0,0,0,0,0,0,0,0,0,0,0,0,0,0,0,0,0,0,0,0,0,0,0,0,0,0,0,0,0,0,0,0,0,0,0,0,0,0,0,0,0,0,0,0,0,0,0,0,0,0,0,0,0,0,0,0],"sum_hessian":[8.527566E4,6.990435E4,1.5371303E4,3.680376E4,3.3100594E4,9.174907E3,6.196395E3,2.8096203E4,8.707558E3,2.1355367E4,1.1745228E4,6.049474E3,3.1254333E3,8.3021515E2,5.36618E3,1.1061177E4,1.7035027E4,2.6671897E3,6.040368E3,9.346972E3,1.2008395E4,1.7496855E3,9.995542E3,1.6543903E3,4.395084E3,1.8302642E3,1.2951691E3,3.57494E2,4.7272113E2,1.4118258E3,3.9543542E3,8.0383467E3,3.0228298E3,1.1421071E4,5.6139556E3,2.1556284E3,5.1156116E2,4.496532E3,1.5438362E3,4.97519E3,4.3717812E3,5.9913843E3,6.0170107E3,6.8240106E2,1.0672844E3,4.6024287E3,5.393114E3,8.2747076E2,8.2691943E2,1.0570334E3,3.3380505E3,4.384078E2,1.3918563E3,8.309276E2,4.6424152E2,1.1390916E2,2.4358482E2,2.1847137E2,2.5424977E2,9.093963E2,5.0242957E2,2.202128E3,1.7522262E3],"tree_param":{"num_deleted":"0","num_feature":"44","num_nodes":"63","size_leaf_vector":"1"}},{"base_weights":[-2.1783395E-3,6.183315E-1,-2.249255E-1,8.8999003E-1,3.923512E-1,-4.6007343E-2,-3.6878487E-1,1.1003302E0,7.9288936E-1,2.1340072E-1,4.8037586E-1,4.4179726E-2,-1.837649E-1,-3.0516437E-1,-5.0941265E-1,1.1771814E0,9.698217E-1,8.13215E-1,2.2236986E-1,1.1450569E-1,3.653447E-1,5.1483905E-1,1.0485728E-1,-1.3239415E-1,1.1397712E-1,-1.3239771E-1,-3.5656428E-1,-2.4366084E-1,-3.925778E-1,-4.441555E-1,-5.7859266E-1,5.9228897E-2,3.2745644E-2,3.967467E-2,5.2239288E-2,2.279201E-2,4.2432543E-2,3.4107312E-3,3.5053387E-2,7.325166E-3,-7.4157394E-3,2.4858033E-2,5.4420293E-3,3.154841E-2,2.095288E-2,1.4824201E-2,-2.7095478E-3,-8.238505E-3,2.3115182E-3,1.2255026E-2,2.2101277E-3,-3.6868258E-4,-8.757662E-3,-1.9751905E-2,-1.1750443E-2,-6.1394884E-3,-1.3512241E-2,-2.352146E-2,-1.731634E-2,-1.8862078E-2,-2.5583146E-2,-3.2664407E-2,-2.713565E-2],"categories":[],"categories_nodes":[],"categories_segments":[],"categories_sizes":[],"default_left":[0,0,0,0,0,0,0,0,0,0,0,0,0,0,0,0,0,0,0,0,0,0,0,0,0,0,0,0,0,0,0,0,0,0,0,0,0,0,0,0,0,0,0,0,0,0,0,0,0,0,0,0,0,0,0,0,0,0,0,0,0,0,0],"id":9,"left_children":[1,3,5,7,9,11,13,15,17,19,21,23,25,27,29,31,33,35,37,39,41,43,45,47,49,51,53,55,57,59,61,-1,-1,-1,-1,-1,-1,-1,-1,-1,-1,-1,-1,-1,-1,-1,-1,-1,-1,-1,-1,-1,-1,-1,-1,-1,-1,-1,-1,-1,-1,-1,-1],"loss_changes":[1.1778235E4,1.3810791E3,1.613897E3,2.0705225E2,1.9331665E2,3.4729102E2,3.1057666E2,3.01875E1,8.0674805E1,6.078778E1,1.06389404E2,2.0820134E2,9.800003E1,1.284148E2,4.8271973E1,6.274414E0,1.4305176E1,8.472461E1,1.7717487E1,2.0718533E1,5.381456E1,8.3298096E1,2.1246832E1,2.7709663E1,1.1070302E2,4.5551468E1,1.1578583E1,4.5035583E1,3.5174072E1,2.472754E1,1.3292114E1,0E0,0E0,0E0,0E0,0E0,0E0,0E0,0E0,0E0,0E0,0E0,0E0,0E0,0E0,0E0,0E0,0E0,0E0,0E0,0E0,0E0,0E0,0E0,0E0,0E0,0E0,0E0,0E0,0E0,0E0,0E0,0E0],"parents":[2147483647,0,0,1,1,2,2,3,3,4,4,5,5,6,6,7,7,8,8,9,9,10,10,11,11,12,12,13,13,14,14,15,15,16,16,17,17,18,18,19,19,20,20,21,21,22,22,23,23,24,24,25,25,26,26,27,27,28,28,29,29,30,30],"right_children":[2,4,6,8,10,12,14,16,18,20,22,24,26,28,30,32,34,36,38,40,42,44,46,48,50,52,54,56,58,60,62,-1,-1,-1,-1,-1,-1,-1,-1,-1,-1,-1,-1,-1,-1,-1,-1,-1,-1,-1,-1,-1,-1,-1,-1,-1,-1,-1,-1,-1,-1,-1,-1],"split_conditions":[2.1949635E0,1.5748031E0,3.5407267E0,1.058431E0,-6.193863E-1,4.558233E0,6.204204E0,9.3141116E-2,5.442446E0,-1.3100437E0,5.3567553E0,-8.109752E0,6.4356027E0,4.982669E0,8.022654E0,4.833111E0,-3.039293E-1,-6.444595E0,3.5911603E0,3.030303E0,4.4147677E0,1.8539954E0,3.4146342E0,-1.0280219E0,2.5624402E0,2.5474524E0,6.382413E-1,2.8276923E0,-4.8343887E0,4.877485E0,-1.1728139E1,5.9228897E-2,3.2745644E-2,3.967467E-2,5.2239288E-2,2.279201E-2,4.2432543E-2,3.4107312E-3,3.5053387E-2,7.325166E-3,-7.4157394E-3,2.4858033E-2,5.4420293E-3,3.154841E-2,2.095288E-2,1.4824201E-2,-2.7095478E-3,-8.238505E-3,2.3115182E-3,1.2255026E-2,2.2101277E-3,-3.6868258E-4,-8.757662E-3,-1.9751905E-2,-1.1750443E-2,-6.1394884E-3,-1.3512241E-2,-2.352146E-2,-1.731634E-2,-1.8862078E-2,-2.5583146E-2,-3.2664407E-2,-2.713565E-2],"split_indices":[26,26,26,26,23,11,11,27,11,17,11,22,11,26,11,11,23,22,10,43,11,26,43,17,26,26,10,11,16,26,22,0,0,0,0,0,0,0,0,0,0,0,0,0,0,0,0,0,0,0,0,0,0,0,0,0,0,0,0,0,0,0,0],"split_type":[0,0,0,0,0,0,0,0,0,0,0,0,0,0,0,0,0,0,0,0,0,0,0,0,0,0,0,0,0,0,0,0,0,0,0,0,0,0,0,0,0,0,0,0,0,0,0,0,0,0,0,0,0,0,0,0,0,0,0,0,0,0,0],"sum_hessian":[8.521322E4,2.2508215E4,6.2705E4,1.0218688E4,1.2289525E4,2.7948621E4,3.475638E4,3.2218762E3,6.9968125E3,4.0544338E3,8.235091E3,1.6890393E4,1.1058229E4,2.3934502E4,1.0821878E4,2.0192561E3,1.2026201E3,6.755161E3,2.4165158E2,2.4583357E3,1.5960981E3,7.541849E3,6.93242E2,4.783884E3,1.2106509E4,8.527198E3,2.5310308E3,1.4054098E4,9.880405E3,5.576045E3,5.2458325E3,1.9888048E3,3.0451317E1,3.6473846E2,8.378817E2,6.117748E2,6.143386E3,1.8440056E2,5.7251022E1,2.1927944E3,2.6554144E2,1.0528551E3,5.432431E2,3.4041072E3,4.137742E3,3.1440155E2,3.7884042E2,4.0508901E3,7.329935E2,4.202449E3,7.90406E3,2.1746394E3,6.352558E3,1.9187141E3,6.1231665E2,2.5366223E3,1.1517475E4,3.6755325E3,6.2048726E3,2.8067815E3,2.7692637E3,1.6919974E3,3.553835E3],"tree_param":{"num_deleted":"0","num_feature":"44","num_nodes":"63","size_leaf_vector":"1"}},{"base_weights":[-1.9283863E-4,-3.651722E-1,3.6182985E-2,-5.4795104E-1,-2.5812098E-1,9.4062224E-2,-1.9632635E-1,-6.3931185E-1,-3.9816776E-1,1.3632719E-1,-2.9070163E-1,1.2534827E-1,2.0202962E-3,-1.2142487E-1,-4.3452415E-1,-6.4786863E-1,-2.1929674E-4,-4.7352186E-1,-2.7008426E-1,5.4878026E-1,-6.185536E-2,-3.1323314E-1,2.739297E-1,-1.930145E-2,1.467908E-1,3.281399E-2,-2.400497E-1,-7.9321295E-2,-2.4417718E-1,-5.9751403E-1,-3.7980354E-1,-1.0330986E-2,-3.290194E-2,6.1383966E-4,-2.4594745E-2,2.390146E-2,-1.8228399E-2,3.375037E-2,2.332123E-3,1.5038426E-2,-5.4175514E-3,-1.6883643E-2,-6.8178996E-3,2.124382E-2,-5.816361E-3,1.5211256E-2,-2.6835718E-3,7.591944E-3,-3.2241684E-3,3.409642E-3,-1.4136933E-3,-2.7019668E-3,-1.6339114E-2,-3.1971943E-3,-1.0913793E-2,-1.0383849E-2,-1.7021898E-2,-3.2786958E-2,-2.3509739E-2,-1.3653365E-2,-2.255462E-2],"categories":[],"categories_nodes":[],"categories_segments":[],"categories_sizes":[],"default_left":[0,0,0,0,0,0,0,0,0,0,0,0,0,0,0,0,0,0,0,0,0,0,0,0,0,0,0,0,0,0,0,0,0,0,0,0,0,0,0,0,0,0,0,0,0,0,0,0,0,0,0,0,0,0,0,0,0,0,0,0,0],"id":10,"left_children":[1,3,5,7,9,11,13,15,17,19,21,23,25,27,29,31,-1,33,35,37,39,41,43,45,47,49,51,53,55,57,59,-1,-1,-1,-1,-1,-1,-1,-1,-1,-1,-1,-1,-1,-1,-1,-1,-1,-1,-1,-1,-1,-1,-1,-1,-1,-1,-1,-1,-1,-1],"loss_changes":[1.1494357E3,1.5316174E2,1.0594526E3,3.9043762E1,6.373059E1,1.8149414E2,2.7976013E2,9.620911E0,1.0296371E1,3.1076845E1,5.8341522E1,1.4594165E2,1.1919477E2,6.1616364E1,3.2932312E1,7.572632E0,0E0,6.271637E0,2.9409666E1,7.6223946E0,4.336648E0,1.8859009E1,1.0505064E1,6.750825E1,4.3729187E1,3.0681248E1,2.900885E1,1.8927128E1,1.0491928E1,6.278015E0,2.1085114E1,0E0,0E0,0E0,0E0,0E0,0E0,0E0,0E0,0E0,0E0,0E0,0E0,0E0,0E0,0E0,0E0,0E0,0E0,0E0,0E0,0E0,0E0,0E0,0E0,0E0,0E0,0E0,0E0,0E0,0E0],"parents":[2147483647,0,0,1,1,2,2,3,3,4,4,5,5,6,6,7,7,8,8,9,9,10,10,11,11,12,12,13,13,14,14,15,15,17,17,18,18,19,19,20,20,21,21,22,22,23,23,24,24,25,25,26,26,27,27,28,28,29,29,30,30],"right_children":[2,4,6,8,10,12,14,16,18,20,22,24,26,28,30,32,-1,34,36,38,40,42,44,46,48,50,52,54,56,58,60,-1,-1,-1,-1,-1,-1,-1,-1,-1,-1,-1,-1,-1,-1,-1,-1,-1,-1,-1,-1,-1,-1,-1,-1,-1,-1,-1,-1,-1,-1],"split_conditions":[1.469183E0,1.058431E0,5.0917144E0,9.3141116E-2,-6.5312047E0,3.799392E0,7.8989897E0,5.101083E0,7.55287E-2,-3.0630631E0,5.328932E0,1.8193095E0,7.782452E0,7.2634153E0,-1.7688215E1,-4.755053E0,-2.1929674E-4,-6.6174936E0,-8.694896E-2,1.0051991E1,-3.5620053E0,4.3623595E0,2.600671E0,-7.810592E0,8.154588E0,5.101083E0,9.5534563E-1,1.3641979E0,4.6802216E0,-9.983E0,8.778935E-1,-1.0330986E-2,-3.290194E-2,6.1383966E-4,-2.4594745E-2,2.390146E-2,-1.8228399E-2,3.375037E-2,2.332123E-3,1.5038426E-2,-5.4175514E-3,-1.6883643E-2,-6.8178996E-3,2.124382E-2,-5.816361E-3,1.5211256E-2,-2.6835718E-3,7.591944E-3,-3.2241684E-3,3.409642E-3,-1.4136933E-3,-2.7019668E-3,-1.6339114E-2,-3.1971943E-3,-1.0913793E-2,-1.0383849E-2,-1.7021898E-2,-3.2786958E-2,-2.3509739E-2,-1.3653365E-2,-2.255462E-2],"split_indices":[26,26,26,27,22,26,11,11,41,39,11,26,11,26,22,22,0,22,21,42,17,11,10,22,11,11,30,30,21,17,30,0,0,0,0,0,0,0,0,0,0,0,0,0,0,0,0,0,0,0,0,0,0,0,0,0,0,0,0,0,0],"split_type":[0,0,0,0,0,0,0,0,0,0,0,0,0,0,0,0,0,0,0,0,0,0,0,0,0,0,0,0,0,0,0,0,0,0,0,0,0,0,0,0,0,0,0,0,0,0,0,0,0,0,0,0,0,0,0,0,0,0,0,0,0],"sum_hessian":[8.656925E4,7.845257E3,7.872399E4,2.8947407E3,4.950516E3,6.3034402E4,1.568959E4,1.7941534E3,1.1005872E3,3.7687244E2,4.5736436E3,4.7041707E4,1.5992696E4,1.1938594E4,3.7509956E3,1.7699546E3,2.4198904E1,6.8939514E2,4.1119202E2,1.2178072E2,2.5509174E2,4.3991196E3,1.7452396E2,6.0719067E3,4.09698E4,1.4189743E4,1.8029525E3,8.892573E3,3.0460205E3,9.381382E2,2.8128574E3,4.103903E1,1.7289155E3,2.4744396E1,6.6465076E2,4.518842E1,3.660036E2,9.658623E1,2.5194492E1,2.7569569E1,2.2752216E2,3.862873E3,5.362467E2,1.2612121E2,4.8402752E1,5.8141534E2,5.4904917E3,4.001507E4,9.547316E2,8.987664E3,5.2020796E3,5.748484E2,1.2281041E3,8.009799E3,8.82775E2,2.2135134E3,8.325071E2,6.383942E2,2.99744E2,1.130413E3,1.6824445E3],"tree_param":{"num_deleted":"0","num_feature":"44","num_nodes":"61","size_leaf_vector":"1"}},{"base_weights":[2.5676764E-4,-3.9322832E-1,3.545057E-1,-5.777897E-1,-1.9875956E-1,1.9921267E-1,5.9909415E-1,-6.454851E-1,-4.7768053E-1,-2.891859E-1,-1.1169083E-1,1.5394564E-1,4.577112E-1,4.8796463E-1,7.504324E-1,-5.803014E-1,-6.633424E-1,-3.9757124E-1,-5.305284E-1,-4.0060577E-1,-2.2325774E-1,-1.9701995E-1,-3.2528199E-3,2.7908266E-2,2.2722118E-1,3.8695458E-1,8.931896E-1,3.939717E-1,6.270148E-1,6.6363275E-1,9.1183585E-1,-2.6525036E-2,-3.1460393E-2,-3.3656146E-2,-2.9347558E-2,-2.025697E-2,3.389011E-2,-2.6825476E-2,-3.937036E-3,-1.7291766E-2,-2.23179E-2,-5.8428054E-3,-1.3722298E-2,-1.0825048E-2,8.456959E-3,-8.366477E-4,2.7773855E-2,-3.910856E-3,4.9140127E-3,6.0136616E-3,1.4163874E-2,1.0649836E-2,2.4430586E-2,3.473974E-2,5.080838E-2,1.8917972E-2,4.4184797E-2,2.8321072E-2,3.8607236E-2,3.6782935E-2,2.6445506E-2,3.7980527E-2,4.9621116E-2],"categories":[],"categories_nodes":[],"categories_segments":[],"categories_sizes":[],"default_left":[0,0,0,0,0,0,0,0,0,0,0,0,0,0,0,0,0,0,0,0,0,0,0,0,0,0,0,0,0,0,0,0,0,0,0,0,0,0,0,0,0,0,0,0,0,0,0,0,0,0,0,0,0,0,0,0,0,0,0,0,0,0,0],"id":11,"left_children":[1,3,5,7,9,11,13,15,17,19,21,23,25,27,29,31,33,35,37,39,41,43,45,47,49,51,53,55,57,59,61,-1,-1,-1,-1,-1,-1,-1,-1,-1,-1,-1,-1,-1,-1,-1,-1,-1,-1,-1,-1,-1,-1,-1,-1,-1,-1,-1,-1,-1,-1,-1,-1],"loss_changes":[1.1840803E4,1.4440933E3,1.6975767E3,1.3923438E2,1.5417975E2,3.1974756E2,2.9114502E2,1.3505371E1,3.4790283E1,7.0348206E1,9.238097E1,2.1487537E2,1.2474255E2,1.3030615E2,1.01694824E2,5.7509155E0,6.366211E0,2.7385498E1,1.3369751E1,8.5564575E0,3.2788666E1,3.9929916E1,3.3054565E1,6.3934704E1,8.8089905E1,6.1725037E1,1.2452423E1,4.4967285E1,3.4564575E1,4.5579834E1,2.9975098E1,0E0,0E0,0E0,0E0,0E0,0E0,0E0,0E0,0E0,0E0,0E0,0E0,0E0,0E0,0E0,0E0,0E0,0E0,0E0,0E0,0E0,0E0,0E0,0E0,0E0,0E0,0E0,0E0,0E0,0E0,0E0,0E0],"parents":[2147483647,0,0,1,1,2,2,3,3,4,4,5,5,6,6,7,7,8,8,9,9,10,10,11,11,12,12,13,13,14,14,15,15,16,16,17,17,18,18,19,19,20,20,21,21,22,22,23,23,24,24,25,25,26,26,27,27,28,28,29,29,30,30],"right_children":[2,4,6,8,10,12,14,16,18,20,22,24,26,28,30,32,34,36,38,40,42,44,46,48,50,52,54,56,58,60,62,-1,-1,-1,-1,-1,-1,-1,-1,-1,-1,-1,-1,-1,-1,-1,-1,-1,-1,-1,-1,-1,-1,-1,-1,-1,-1,-1,-1,-1,-1,-1,-1],"split_conditions":[3.124207E0,2.1949635E0,4.982669E0,1.764936E0,8.596097E-1,1.3198178E0,8.918285E-1,-5.578156E-1,-5.329117E-1,2.5474524E0,2.6975963E0,3.6564627E0,1.5027323E0,6.617233E0,6.911639E0,-1.3954813E0,7.2353387E-1,1.8667525E0,1.2453874E0,-1.1911357E1,-1.96774E1,1.140125E0,2.1159391E0,7.153607E-1,6.556312E-1,3.6564627E0,2.464169E0,9.6590006E-1,8.831169E0,1.7631948E0,9.4877034E-1,-2.6525036E-2,-3.1460393E-2,-3.3656146E-2,-2.9347558E-2,-2.025697E-2,3.389011E-2,-2.6825476E-2,-3.937036E-3,-1.7291766E-2,-2.23179E-2,-5.8428054E-3,-1.3722298E-2,-1.0825048E-2,8.456959E-3,-8.366477E-4,2.7773855E-2,-3.910856E-3,4.9140127E-3,6.0136616E-3,1.4163874E-2,1.0649836E-2,2.4430586E-2,3.473974E-2,5.080838E-2,1.8917972E-2,4.4184797E-2,2.8321072E-2,3.8607236E-2,3.6782935E-2,2.6445506E-2,3.7980527E-2,4.9621116E-2],"split_indices":[26,26,26,26,30,30,30,23,23,26,26,26,16,26,26,17,20,16,16,10,10,16,16,30,30,26,16,27,26,19,29,0,0,0,0,0,0,0,0,0,0,0,0,0,0,0,0,0,0,0,0,0,0,0,0,0,0,0,0,0,0,0,0],"split_type":[0,0,0,0,0,0,0,0,0,0,0,0,0,0,0,0,0,0,0,0,0,0,0,0,0,0,0,0,0,0,0,0,0,0,0,0,0,0,0,0,0,0,0,0,0,0,0,0,0,0,0,0,0,0,0,0,0,0,0,0,0,0,0],"sum_hessian":[8.494332E4,4.024268E4,4.470064E4,2.0645244E4,1.9597438E4,2.734342E4,1.7357223E4,1.2310513E4,8.334731E3,9.610525E3,9.986912E3,2.3271408E4,4.0720112E3,1.0012546E4,7.344677E3,2.660497E3,9.650016E3,3.3194797E3,5.015252E3,3.5687017E3,6.041823E3,5.587263E3,4.399649E3,8.557282E3,1.4714127E4,3.505697E3,5.663141E2,5.9784897E3,4.0340557E3,4.7819463E3,2.5627305E3,1.3290276E3,1.3314694E3,8.542035E3,1.1079803E3,3.2973945E3,2.2085184E1,4.94901E3,6.624228E1,1.6321023E3,1.9365994E3,1.9653691E3,4.076454E3,5.306117E3,2.8114594E2,4.297772E3,1.0187668E2,3.4107087E3,5.146573E3,5.06296E3,9.651167E3,1.2954703E3,2.2102268E3,2.2114774E2,3.4516638E2,5.796758E3,1.8173192E2,2.852033E3,1.1820228E3,3.1107104E3,1.671236E3,8.933467E2,1.6693838E3],"tree_param":{"num_deleted":"0","num_feature":"44","num_nodes":"63","size_leaf_vector":"1"}},{"base_weights":[-1.2164039E-3,5.893766E-1,-2.1819925E-1,8.376306E-1,3.8024062E-1,-5.298479E-2,-3.6981103E-1,1.0365211E0,7.466907E-1,2.0541656E-1,4.655197E-1,3.4194447E-2,-1.9591399E-1,-3.0717295E-1,-5.040557E-1,8.511408E-1,1.0793141E0,7.903663E-1,5.186141E-1,1.10820755E-1,3.497816E-1,5.00804E-1,8.475965E-2,1.494239E-1,-4.240395E-2,-1.4393325E-1,-3.5718408E-1,-2.4559467E-1,-3.7653115E-1,-4.2559162E-1,-5.558763E-1,3.9314557E-2,5.1571038E-2,5.826162E-2,5.112077E-2,2.477223E-2,4.126231E-2,3.2880723E-2,1.2754797E-2,7.07096E-3,-7.900859E-3,2.361809E-2,5.3193616E-3,2.9640336E-2,2.0222811E-2,1.5912127E-2,-2.6814234E-3,2.2499452E-3,1.258439E-2,5.0333203E-3,-4.4340026E-3,-1.8674361E-3,-9.929724E-3,-1.1337853E-2,-1.998931E-2,-1.5343231E-2,-1.0067995E-2,-1.612918E-2,-2.1395056E-2,-1.6973482E-2,-2.4176737E-2,-2.8905615E-2,-2.170489E-2],"categories":[],"categories_nodes":[],"categories_segments":[],"categories_sizes":[],"default_left":[0,0,0,0,0,0,0,0,0,0,0,0,0,0,0,0,0,0,0,0,0,0,0,0,0,0,0,0,0,0,0,0,0,0,0,0,0,0,0,0,0,0,0,0,0,0,0,0,0,0,0,0,0,0,0,0,0,0,0,0,0,0,0],"id":12,"left_children":[1,3,5,7,9,11,13,15,17,19,21,23,25,27,29,31,33,35,37,39,41,43,45,47,49,51,53,55,57,59,61,-1,-1,-1,-1,-1,-1,-1,-1,-1,-1,-1,-1,-1,-1,-1,-1,-1,-1,-1,-1,-1,-1,-1,-1,-1,-1,-1,-1,-1,-1,-1,-1],"loss_changes":[1.0898702E4,1.1856655E3,1.5578291E3,1.8742969E2,1.8467761E2,3.709376E2,2.7232812E2,2.4202393E1,7.059448E1,5.5442947E1,1.1181702E2,1.6322272E2,9.436713E1,9.420752E1,4.1390625E1,5.6901855E0,1.0744629E1,6.1029785E1,4.199051E1,2.0285954E1,4.784308E1,6.706262E1,2.2996414E1,7.877899E1,7.3543335E1,4.965265E1,1.5003204E1,3.1576965E1,2.8459106E1,2.0102661E1,1.6225952E1,0E0,0E0,0E0,0E0,0E0,0E0,0E0,0E0,0E0,0E0,0E0,0E0,0E0,0E0,0E0,0E0,0E0,0E0,0E0,0E0,0E0,0E0,0E0,0E0,0E0,0E0,0E0,0E0,0E0,0E0,0E0,0E0],"parents":[2147483647,0,0,1,1,2,2,3,3,4,4,5,5,6,6,7,7,8,8,9,9,10,10,11,11,12,12,13,13,14,14,15,15,16,16,17,17,18,18,19,19,20,20,21,21,22,22,23,23,24,24,25,25,26,26,27,27,28,28,29,29,30,30],"right_children":[2,4,6,8,10,12,14,16,18,20,22,24,26,28,30,32,34,36,38,40,42,44,46,48,50,52,54,56,58,60,62,-1,-1,-1,-1,-1,-1,-1,-1,-1,-1,-1,-1,-1,-1,-1,-1,-1,-1,-1,-1,-1,-1,-1,-1,-1,-1,-1,-1,-1,-1,-1,-1],"split_conditions":[2.1949635E0,1.5748031E0,3.6564627E0,1.058431E0,-6.193863E-1,4.653409E0,6.204204E0,-3.039293E-1,4.3623595E0,-1.3100437E0,5.3567553E0,2.6815643E0,6.487228E0,4.877485E0,7.4918647E0,1.2298998E2,6.251212E-1,-2.8627138E0,2.838934E0,4.413408E1,4.4147677E0,1.8876473E0,3.1007752E0,-3.039293E-1,2.7279518E0,2.6975963E0,8.63433E-1,-1.7133444E1,7.22095E-1,4.6168056E0,5.88682E0,3.9314557E-2,5.1571038E-2,5.826162E-2,5.112077E-2,2.477223E-2,4.126231E-2,3.2880723E-2,1.2754797E-2,7.07096E-3,-7.900859E-3,2.361809E-2,5.3193616E-3,2.9640336E-2,2.0222811E-2,1.5912127E-2,-2.6814234E-3,2.2499452E-3,1.258439E-2,5.0333203E-3,-4.4340026E-3,-1.8674361E-3,-9.929724E-3,-1.1337853E-2,-1.998931E-2,-1.5343231E-2,-1.0067995E-2,-1.612918E-2,-2.1395056E-2,-1.6973482E-2,-2.4176737E-2,-2.8905615E-2,-2.170489E-2],"split_indices":[26,26,26,26,23,11,11,23,11,17,11,26,11,26,11,15,26,18,43,28,11,26,43,23,11,26,30,10,30,26,9,0,0,0,0,0,0,0,0,0,0,0,0,0,0,0,0,0,0,0,0,0,0,0,0,0,0,0,0,0,0,0,0],"split_type":[0,0,0,0,0,0,0,0,0,0,0,0,0,0,0,0,0,0,0,0,0,0,0,0,0,0,0,0,0,0,0,0,0,0,0,0,0,0,0,0,0,0,0,0,0,0,0,0,0,0,0,0,0,0,0,0,0,0,0,0,0,0,0],"sum_hessian":[8.504498E4,2.2849299E4,6.2195676E4,1.0445064E4,1.2404235E4,2.9764275E4,3.2431402E4,3.2717603E3,7.1733047E3,4.0693765E3,8.334858E3,1.8487576E4,1.1276699E4,2.2117758E4,1.0313645E4,6.2035986E2,2.6514004E3,6.016581E3,1.1567235E3,2.460899E3,1.6084775E3,7.627073E3,7.077851E2,7.3827104E3,1.1104865E4,8.531043E3,2.7456555E3,1.1721106E4,1.0396651E4,4.109279E3,6.2043657E3,4.6297256E2,1.573873E2,1.0432848E3,1.6081155E3,6.393339E2,5.377247E3,7.553108E2,4.0141275E2,2.2107336E3,2.5016516E2,1.0682462E3,5.402314E2,3.896497E3,3.7305762E3,2.6320758E2,4.4457748E2,3.654796E3,3.7279146E3,2.7125317E3,8.392333E3,2.894063E3,5.63698E3,6.7950824E2,2.0661472E3,4.9086577E3,6.812449E3,5.0783223E3,5.3183296E3,1.6582817E3,2.450997E3,5.240263E3,9.641026E2],"tree_param":{"num_deleted":"0","num_feature":"44","num_nodes":"63","size_leaf_vector":"1"}},{"base_weights":[6.20661E-4,-3.7058342E-1,3.4083188E-2,-6.010523E-1,-2.8612965E-1,8.858529E-2,-1.9603506E-1,-3.4496006E-2,-5.1261556E-1,4.282159E-1,-2.986102E-1,1.1892107E-1,-5.401921E-4,-1.3312323E-1,-4.568792E-1,-4.2648897E-1,-6.041856E-1,-7.1122632E-3,6.4805126E-1,-3.3761743E-1,-5.1050264E-2,-5.4502916E-2,1.407782E-1,4.453133E-2,-1.466693E-1,-9.19977E-2,-2.4866726E-1,-3.9037225E-1,-5.824137E-1,-1.7050685E-2,-2.5819173E-2,-2.2057297E-2,-3.2373443E-2,4.502743E-2,8.226082E-3,-1.1455344E-2,-1.9349014E-2,-6.09045E-3,2.2554664E-2,-5.263061E-3,6.3098366E-3,7.6781134E-3,3.4781564E-3,1.5655663E-3,1.2498384E-2,-2.1452603E-3,-1.1356527E-2,-2.482226E-3,-7.5729922E-3,-1.1062645E-2,-1.7437216E-2,-1.6959658E-2,-2.6166895E-2,-2.4755722E-2,-3.3484507E-2],"categories":[],"categories_nodes":[],"categories_segments":[],"categories_sizes":[],"default_left":[0,0,0,0,0,0,0,0,0,0,0,0,0,0,0,0,0,0,0,0,0,0,0,0,0,0,0,0,0,0,0,0,0,0,0,0,0,0,0,0,0,0,0,0,0,0,0,0,0,0,0,0,0,0,0],"id":13,"left_children":[1,3,5,7,9,11,13,-1,15,17,19,21,23,25,27,29,31,-1,33,35,37,39,41,43,45,47,49,51,53,-1,-1,-1,-1,-1,-1,-1,-1,-1,-1,-1,-1,-1,-1,-1,-1,-1,-1,-1,-1,-1,-1,-1,-1,-1,-1],"loss_changes":[1.0727727E3,1.3856812E2,9.936826E2,1.4265076E1,4.6792694E1,1.7321878E2,2.4875403E2,0E0,7.0249023E0,1.1544329E1,4.95437E1,1.8119226E2,1.0716748E2,5.799289E1,2.406726E1,3.4366913E0,2.624115E0,0E0,7.5729675E0,2.3528595E1,2.496959E1,4.908055E1,3.858252E1,3.369659E1,3.1957657E1,2.2665344E1,8.569199E0,1.2707825E1,7.0140686E0,0E0,0E0,0E0,0E0,0E0,0E0,0E0,0E0,0E0,0E0,0E0,0E0,0E0,0E0,0E0,0E0,0E0,0E0,0E0,0E0,0E0,0E0,0E0,0E0,0E0,0E0],"parents":[2147483647,0,0,1,1,2,2,3,3,4,4,5,5,6,6,8,8,9,9,10,10,11,11,12,12,13,13,14,14,15,15,16,16,18,18,19,19,20,20,21,21,22,22,23,23,24,24,25,25,26,26,27,27,28,28],"right_children":[2,4,6,8,10,12,14,-1,16,18,20,22,24,26,28,30,32,-1,34,36,38,40,42,44,46,48,50,52,54,-1,-1,-1,-1,-1,-1,-1,-1,-1,-1,-1,-1,-1,-1,-1,-1,-1,-1,-1,-1,-1,-1,-1,-1,-1,-1],"split_conditions":[1.4228799E0,9.188627E-1,5.1309347E0,6.251212E-1,-5.275962E0,3.799392E0,8.603152E0,-3.4496006E-2,1.4444027E0,-7.3407164E0,4.3623595E0,1.7471232E0,6.4356027E0,7.2634153E0,1E0,8.9967554E-4,-3.1399497E-1,-7.1122632E-3,-5.9483033E-1,-3.362383E-1,6.8373775E-1,4.3976946E0,3.4312837E0,4.4089003E0,9.711859E-1,5.174699E0,1.7847412E1,8.543519E0,1.1499453E1,-1.7050685E-2,-2.5819173E-2,-2.2057297E-2,-3.2373443E-2,4.502743E-2,8.226082E-3,-1.1455344E-2,-1.9349014E-2,-6.09045E-3,2.2554664E-2,-5.263061E-3,6.3098366E-3,7.6781134E-3,3.4781564E-3,1.5655663E-3,1.2498384E-2,-2.1452603E-3,-1.1356527E-2,-2.482226E-3,-7.5729922E-3,-1.1062645E-2,-1.7437216E-2,-1.6959658E-2,-2.6166895E-2,-2.4755722E-2,-3.3484507E-2],"split_indices":[26,26,26,26,20,26,11,0,15,40,11,26,11,26,25,23,23,0,23,23,18,11,26,20,30,11,41,26,11,0,0,0,0,0,0,0,0,0,0,0,0,0,0,0,0,0,0,0,0,0,0,0,0,0,0],"split_type":[0,0,0,0,0,0,0,0,0,0,0,0,0,0,0,0,0,0,0,0,0,0,0,0,0,0,0,0,0,0,0,0,0,0,0,0,0,0,0,0,0,0,0,0,0,0,0,0,0,0,0,0,0,0,0],"sum_hessian":[8.6367086E4,7.1400884E3,7.9227E4,1.9116832E3,5.2284053E3,6.405723E4,1.51697705E4,9.4730145E2,9.6438184E2,8.864526E1,5.13976E3,4.779195E4,1.6265281E4,1.2224444E4,2.9453267E3,5.024607E2,4.6192114E2,2.4552494E1,6.409277E1,4.4389717E3,7.0078796E2,5.347908E3,4.244404E4,1.2430834E4,3.8344465E3,9.018809E3,3.2056357E3,1.9303851E3,1.01494147E3,2.6238736E2,2.4007333E2,1.01394966E2,3.6052618E2,4.0983856E1,2.3108913E1,1.3918622E3,3.0471096E3,6.155791E2,8.520889E1,4.1764746E3,1.1714335E3,3.598051E4,6.46353E3,1.1681803E4,7.490317E2,1.6768019E3,2.1576445E3,5.2707324E3,3.748076E3,2.5216804E3,6.839551E2,1.398808E3,5.3157715E2,5.1355414E2,5.0138736E2],"tree_param":{"num_deleted":"0","num_feature":"44","num_nodes":"55","size_leaf_vector":"1"}},{"base_weights":[1.1406923E-3,-3.827331E-1,3.4112298E-1,-5.622481E-1,-1.900681E-1,1.9259886E-1,5.7319295E-1,-6.336922E-1,-4.5426252E-1,-2.9294538E-1,-1.09820046E-1,1.0398619E-1,3.1523025E-1,4.6570733E-1,7.1758276E-1,-5.705806E-1,-6.5099066E-1,-3.6946058E-1,-5.01958E-1,-3.7537256E-1,-1.949387E-1,-2.0559315E-1,-2.2014024E-2,1.9627273E-2,2.0072052E-1,2.8560027E-1,7.759138E-1,3.836457E-1,6.2447596E-1,6.1739016E-1,8.4092766E-1,-2.9334923E-2,-1.5983736E-2,-3.3084624E-2,-2.840784E-2,-1.8874438E-2,3.0201012E-2,-2.537702E-2,-3.984635E-3,-1.4378172E-2,-2.0542787E-2,-1.0449888E-2,1.52424965E-2,-6.3674487E-3,-1.3701618E-2,3.3830856E-3,-4.882055E-3,2.9744263E-4,2.319706E-2,9.307817E-3,3.4437206E-2,7.2256946E-3,1.8561292E-2,2.862287E-2,4.4510085E-2,1.842832E-2,4.049089E-2,2.8132597E-2,3.7010565E-2,3.5333548E-2,2.5310392E-2,4.844393E-2,3.8597524E-2],"categories":[],"categories_nodes":[],"categories_segments":[],"categories_sizes":[],"default_left":[0,0,0,0,0,0,0,0,0,0,0,0,0,0,0,0,0,0,0,0,0,0,0,0,0,0,0,0,0,0,0,0,0,0,0,0,0,0,0,0,0,0,0,0,0,0,0,0,0,0,0,0,0,0,0,0,0,0,0,0,0,0,0],"id":14,"left_children":[1,3,5,7,9,11,13,15,17,19,21,23,25,27,29,31,33,35,37,39,41,43,45,47,49,51,53,55,57,59,61,-1,-1,-1,-1,-1,-1,-1,-1,-1,-1,-1,-1,-1,-1,-1,-1,-1,-1,-1,-1,-1,-1,-1,-1,-1,-1,-1,-1,-1,-1,-1,-1],"loss_changes":[1.1110204E4,1.3825615E3,1.5557632E3,1.590249E2,1.5910797E2,2.9903473E2,2.72667E2,1.2791504E1,3.290503E1,6.804144E1,9.110014E1,1.3039656E2,1.5707092E2,1.3108081E2,9.1791016E1,1.0428772E1,7.841797E0,2.3554901E1,1.2251221E1,1.3975708E1,2.7231018E1,2.7623062E1,3.8385357E1,5.181366E1,5.25506E1,1.3091364E2,1.513855E1,4.215332E1,2.3725952E1,4.0442505E1,2.820996E1,0E0,0E0,0E0,0E0,0E0,0E0,0E0,0E0,0E0,0E0,0E0,0E0,0E0,0E0,0E0,0E0,0E0,0E0,0E0,0E0,0E0,0E0,0E0,0E0,0E0,0E0,0E0,0E0,0E0,0E0,0E0,0E0],"parents":[2147483647,0,0,1,1,2,2,3,3,4,4,5,5,6,6,7,7,8,8,9,9,10,10,11,11,12,12,13,13,14,14,15,15,16,16,17,17,18,18,19,19,20,20,21,21,22,22,23,23,24,24,25,25,26,26,27,27,28,28,29,29,30,30],"right_children":[2,4,6,8,10,12,14,16,18,20,22,24,26,28,30,32,34,36,38,40,42,44,46,48,50,52,54,56,58,60,62,-1,-1,-1,-1,-1,-1,-1,-1,-1,-1,-1,-1,-1,-1,-1,-1,-1,-1,-1,-1,-1,-1,-1,-1,-1,-1,-1,-1,-1,-1,-1,-1],"split_conditions":[3.124207E0,2.2100425E0,4.982669E0,1.7844023E0,2.6071842E0,9.0278304E-1,8.918285E-1,-5.7084936E-1,-6.193863E-1,9.099104E-1,8.4271264E-1,3.9502497E0,1.8667525E0,6.911639E0,6.445585E0,3.531489E-1,7.2353387E-1,1.8667525E0,1.2453874E0,-2.496124E1,1.6642079E0,-1.8693403E1,-6.811165E-1,6.485949E-1,8.09047E-1,3.6564627E0,2.464169E0,9.6590006E-1,8.831169E0,-2.8194578E-2,-9.290188E0,-2.9334923E-2,-1.5983736E-2,-3.3084624E-2,-2.840784E-2,-1.8874438E-2,3.0201012E-2,-2.537702E-2,-3.984635E-3,-1.4378172E-2,-2.0542787E-2,-1.0449888E-2,1.52424965E-2,-6.3674487E-3,-1.3701618E-2,3.3830856E-3,-4.882055E-3,2.9744263E-4,2.319706E-2,9.307817E-3,3.4437206E-2,7.2256946E-3,1.8561292E-2,2.862287E-2,4.4510085E-2,1.842832E-2,4.049089E-2,2.8132597E-2,3.7010565E-2,3.5333548E-2,2.5310392E-2,4.844393E-2,3.8597524E-2],"split_indices":[26,26,26,26,26,30,30,23,23,30,30,26,16,26,26,16,20,16,16,9,16,9,23,27,27,26,16,27,26,13,17,0,0,0,0,0,0,0,0,0,0,0,0,0,0,0,0,0,0,0,0,0,0,0,0,0,0,0,0,0,0,0,0],"split_type":[0,0,0,0,0,0,0,0,0,0,0,0,0,0,0,0,0,0,0,0,0,0,0,0,0,0,0,0,0,0,0,0,0,0,0,0,0,0,0,0,0,0,0,0,0,0,0,0,0,0,0,0,0,0,0,0,0,0,0,0,0,0,0],"sum_hessian":[8.512601E4,3.99818E4,4.5144203E4,2.0695201E4,1.9286602E4,2.75292E4,1.7615004E4,1.2449417E4,8.245783E3,8.44882E3,1.0837781E4,1.5983806E4,1.1545395E4,1.0102381E4,7.512623E3,2.6916719E3,9.757745E3,2.9744902E3,5.271293E3,4.585751E3,3.8630693E3,5.1816665E3,5.656115E3,8.540115E3,7.44369E3,1.085039E4,6.950045E2,6.6642573E3,3.438123E3,4.1512275E3,3.3613955E3,2.526564E3,1.6510799E2,8.629896E3,1.127848E3,2.9512751E3,2.3215004E1,5.201749E3,6.9544136E1,1.3253191E3,3.2604321E3,3.7586123E3,1.0445688E2,2.421016E3,2.7606504E3,2.5865706E3,3.0695444E3,8.286967E3,2.531481E2,7.230394E3,2.1329596E2,4.100427E3,6.7499634E3,2.5385428E2,4.4115027E2,6.4396685E3,2.2458913E2,2.247867E3,1.1902562E3,2.2969312E3,1.8542964E3,1.1695122E3,2.1918833E3],"tree_param":{"num_deleted":"0","num_feature":"44","num_nodes":"63","size_leaf_vector":"1"}},{"base_weights":[3.561996E-4,5.728894E-1,-2.0501983E-1,8.220063E-1,3.888596E-1,-1.0250072E-2,-3.283779E-1,9.843883E-1,7.339682E-1,2.2349635E-1,4.6609744E-1,5.9196886E-2,-1.7099741E-1,-2.6064196E-1,-4.6936822E-1,1.0609021E0,8.5557556E-1,3.79586E-1,7.6458085E-1,2.9500955E-1,7.876051E-2,5.475455E-1,3.1513557E-1,-1.2046568E-1,1.2783402E-1,-1.0151503E-1,-2.833725E-1,-1.9226214E-1,-3.5111788E-1,-3.777571E-1,-5.2790385E-1,2.8588122E-2,5.350259E-2,3.832638E-2,4.8130408E-2,-8.0060185E-4,2.5812337E-2,4.0748477E-2,2.9298443E-2,7.238506E-3,2.130143E-2,7.975965E-3,-3.727554E-3,3.2696888E-2,2.3302957E-2,1.7858637E-2,-3.1279915E-3,1.4203117E-3,-8.254441E-3,1.0187858E-2,2.0772412E-3,-1.0433025E-2,-3.2950048E-3,-9.88192E-3,-1.7114526E-2,-1.4145844E-2,-7.2469497E-3,-2.1936947E-2,-1.5267613E-2,-1.5824128E-2,-2.321147E-2,-2.4046775E-2,-2.9468445E-2],"categories":[],"categories_nodes":[],"categories_segments":[],"categories_sizes":[],"default_left":[0,0,0,0,0,0,0,0,0,0,0,0,0,0,0,0,0,0,0,0,0,0,0,0,0,0,0,0,0,0,0,0,0,0,0,0,0,0,0,0,0,0,0,0,0,0,0,0,0,0,0,0,0,0,0,0,0,0,0,0,0,0,0],"id":15,"left_children":[1,3,5,7,9,11,13,15,17,19,21,23,25,27,29,31,33,35,37,39,41,43,45,47,49,51,53,55,57,59,61,-1,-1,-1,-1,-1,-1,-1,-1,-1,-1,-1,-1,-1,-1,-1,-1,-1,-1,-1,-1,-1,-1,-1,-1,-1,-1,-1,-1,-1,-1,-1,-1],"loss_changes":[9.965023E3,1.0250288E3,1.4985212E3,1.3444482E2,1.641051E2,2.70058E2,3.6435303E2,3.1135986E1,6.626831E1,4.2344772E1,1.0741736E2,2.0831627E2,5.686714E1,1.5939746E2,6.595801E1,8.088379E0,1.0479553E1,2.682351E1,5.0097168E1,5.3802505E1,1.6865732E1,4.868799E1,4.896768E1,3.1051956E1,8.001782E1,1.714746E1,1.386644E1,6.2908142E1,4.4169067E1,2.5250916E1,2.1168945E1,0E0,0E0,0E0,0E0,0E0,0E0,0E0,0E0,0E0,0E0,0E0,0E0,0E0,0E0,0E0,0E0,0E0,0E0,0E0,0E0,0E0,0E0,0E0,0E0,0E0,0E0,0E0,0E0,0E0,0E0,0E0,0E0],"parents":[2147483647,0,0,1,1,2,2,3,3,4,4,5,5,6,6,7,7,8,8,9,9,10,10,11,11,12,12,13,13,14,14,15,15,16,16,17,17,18,18,19,19,20,20,21,21,22,22,23,23,24,24,25,25,26,26,27,27,28,28,29,29,30,30],"right_children":[2,4,6,8,10,12,14,16,18,20,22,24,26,28,30,32,34,36,38,40,42,44,46,48,50,52,54,56,58,60,62,-1,-1,-1,-1,-1,-1,-1,-1,-1,-1,-1,-1,-1,-1,-1,-1,-1,-1,-1,-1,-1,-1,-1,-1,-1,-1,-1,-1,-1,-1,-1,-1],"split_conditions":[2.1642323E0,1.5109891E0,3.307702E0,1.058431E0,-6.193863E-1,4.876652E0,5.9577465E0,9.3141116E-2,-6.5312047E0,4.4147677E0,4.0237465E0,-8.109752E0,6.036074E0,4.679803E0,4.64716E0,-4.9801526E0,8.9967554E-4,-3.575025E0,4.1350136E0,-2.3193202E0,4.311111E1,1.7844023E0,6.036074E0,6.792402E-1,2.6815643E0,-1.9294188E0,1.0172396E0,-9.278226E0,-4.8343887E0,7.4023438E0,8.603152E0,2.8588122E-2,5.350259E-2,3.832638E-2,4.8130408E-2,-8.0060185E-4,2.5812337E-2,4.0748477E-2,2.9298443E-2,7.238506E-3,2.130143E-2,7.975965E-3,-3.727554E-3,3.2696888E-2,2.3302957E-2,1.7858637E-2,-3.1279915E-3,1.4203117E-3,-8.254441E-3,1.0187858E-2,2.0772412E-3,-1.0433025E-2,-3.2950048E-3,-9.88192E-3,-1.7114526E-2,-1.4145844E-2,-7.2469497E-3,-2.1936947E-2,-1.5267613E-2,-1.5824128E-2,-2.321147E-2,-2.4046775E-2,-2.9468445E-2],"split_indices":[26,26,26,26,23,11,11,27,22,11,11,22,11,26,26,22,23,18,11,18,28,26,11,30,26,21,30,22,16,11,11,0,0,0,0,0,0,0,0,0,0,0,0,0,0,0,0,0,0,0,0,0,0,0,0,0,0,0,0,0,0,0,0],"split_type":[0,0,0,0,0,0,0,0,0,0,0,0,0,0,0,0,0,0,0,0,0,0,0,0,0,0,0,0,0,0,0,0,0,0,0,0,0,0,0,0,0,0,0,0,0,0,0,0,0,0,0,0,0,0,0,0,0,0,0,0,0,0,0],"sum_hessian":[8.474407E4,2.2372854E4,6.237122E4,9.50282E3,1.2870034E4,2.4186484E4,3.8184734E4,3.3346597E3,6.16816E3,4.100166E3,8.769868E3,1.6889494E4,7.2969897E3,2.5796848E4,1.2387886E4,2.0842332E3,1.2504266E3,4.9257565E2,5.6755845E3,2.7422808E3,1.3578855E3,5.693049E3,3.0768193E3,4.6676206E3,1.2221874E4,4.511889E3,2.7851006E3,1.4696466E4,1.1100383E4,4.8351846E3,7.552701E3,4.0420937E1,2.0438121E3,6.9026086E2,5.6016583E2,1.2643608E2,3.661396E2,4.421703E3,1.2538812E3,1.2796224E3,1.4626583E3,8.9020355E2,4.6768192E2,2.4635425E3,3.2295063E3,2.7692188E3,3.0760062E2,1.0755223E3,3.5920984E3,6.4991333E3,5.72274E3,1.1223776E3,3.3895115E3,1.1384375E3,1.6466632E3,5.0365293E3,9.659936E3,3.8026772E3,7.2977056E3,2.8353499E3,1.9998347E3,4.290565E3,3.262136E3],"tree_param":{"num_deleted":"0","num_feature":"44","num_nodes":"63","size_leaf_vector":"1"}},{"base_weights":[2.2734276E-3,-3.823966E-1,3.304266E-2,-5.8356005E-1,-3.0012947E-1,8.320352E-2,-1.8148904E-1,-6.7464375E-1,-4.940747E-1,1.4820372E-1,-3.263515E-1,9.772078E-2,-9.1645E-2,-1.1993912E-1,-4.371601E-1,-6.7945606E-1,-2.236492E-2,-5.088029E-1,1.991544E-3,4.3569216E-1,-1.319476E-1,-3.6123744E-1,-9.4054274E-2,-7.187202E-2,1.1651824E-1,7.7170424E-2,-1.6878776E-1,-7.2366826E-2,-2.1758145E-1,-5.93645E-1,-3.6820173E-1,-2.5340317E-2,-3.4332037E-2,-2.1520954E-2,-2.9491369E-2,2.9667428E-2,-4.648206E-3,-2.1674758E-2,-2.5033017E-3,-2.0147054E-2,-1.4446731E-2,-1.1255713E-2,9.842421E-3,1.1606574E-2,-5.1702796E-3,7.564828E-3,2.546049E-3,6.2177726E-3,-7.330309E-3,-1.5636126E-3,-1.1946836E-2,-1.3863324E-3,-6.632816E-3,-9.59915E-3,-1.793317E-2,-3.23811E-2,-2.3269827E-2,-1.2099532E-2,-2.2426825E-2],"categories":[],"categories_nodes":[],"categories_segments":[],"categories_sizes":[],"default_left":[0,0,0,0,0,0,0,0,0,0,0,0,0,0,0,0,0,0,0,0,0,0,0,0,0,0,0,0,0,0,0,0,0,0,0,0,0,0,0,0,0,0,0,0,0,0,0,0,0,0,0,0,0,0,0,0,0,0,0],"id":16,"left_children":[1,3,5,7,9,11,13,15,17,19,21,23,25,27,29,31,-1,33,-1,35,37,39,41,43,45,47,49,51,53,55,57,-1,-1,-1,-1,-1,-1,-1,-1,-1,-1,-1,-1,-1,-1,-1,-1,-1,-1,-1,-1,-1,-1,-1,-1,-1,-1,-1,-1],"loss_changes":[1.0211974E3,1.0531195E2,8.597559E2,1.4365173E1,5.347162E1,1.6438574E2,2.380646E2,3.1744385E-1,7.5249176E0,2.0396946E1,3.4617615E1,1.9063727E2,6.46843E1,5.6612793E1,3.1166687E1,3.4347534E-1,0E0,5.2349396E0,0E0,1.0583521E1,3.0345924E0,1.0927734E1,2.1530037E1,5.7202232E1,1.22750916E2,1.6464737E1,3.281421E1,2.205949E1,1.4219238E1,5.5198975E0,2.0414185E1,0E0,0E0,0E0,0E0,0E0,0E0,0E0,0E0,0E0,0E0,0E0,0E0,0E0,0E0,0E0,0E0,0E0,0E0,0E0,0E0,0E0,0E0,0E0,0E0,0E0,0E0,0E0,0E0],"parents":[2147483647,0,0,1,1,2,2,3,3,4,4,5,5,6,6,7,7,8,8,9,9,10,10,11,11,12,12,13,13,14,14,15,15,17,17,19,19,20,20,21,21,22,22,23,23,24,24,25,25,26,26,27,27,28,28,29,29,30,30],"right_children":[2,4,6,8,10,12,14,16,18,20,22,24,26,28,30,32,-1,34,-1,36,38,40,42,44,46,48,50,52,54,56,58,-1,-1,-1,-1,-1,-1,-1,-1,-1,-1,-1,-1,-1,-1,-1,-1,-1,-1,-1,-1,-1,-1,-1,-1,-1,-1,-1,-1],"split_conditions":[1.3761468E0,9.188627E-1,5.1309347E0,6.251212E-1,-6.5312047E0,7.096531E0,8.603152E0,2.7777777E0,4.7347006E-1,-2.4035368E0,4.3623595E0,1.7471232E0,3.4312837E0,6.911639E0,-1.5061781E1,-2.0905128E0,-2.236492E-2,1.4444027E0,1.991544E-3,-6.086128E0,2.278481E0,-3.9789158E-1,2.838934E0,-7.433964E0,3.4674063E0,9.767442E0,9.326436E-1,5.101083E0,6.4693336E0,-9.603826E0,8.778935E-1,-2.5340317E-2,-3.4332037E-2,-2.1520954E-2,-2.9491369E-2,2.9667428E-2,-4.648206E-3,-2.1674758E-2,-2.5033017E-3,-2.0147054E-2,-1.4446731E-2,-1.1255713E-2,9.842421E-3,1.1606574E-2,-5.1702796E-3,7.564828E-3,2.546049E-3,6.2177726E-3,-7.330309E-3,-1.5636126E-3,-1.1946836E-2,-1.3863324E-3,-6.632816E-3,-9.59915E-3,-1.793317E-2,-3.23811E-2,-2.3269827E-2,-1.2099532E-2,-2.2426825E-2],"split_indices":[26,26,26,26,22,11,11,43,39,17,11,26,26,26,22,22,0,15,0,41,8,41,43,22,26,11,30,11,21,17,30,0,0,0,0,0,0,0,0,0,0,0,0,0,0,0,0,0,0,0,0,0,0,0,0,0,0,0,0],"split_type":[0,0,0,0,0,0,0,0,0,0,0,0,0,0,0,0,0,0,0,0,0,0,0,0,0,0,0,0,0,0,0,0,0,0,0,0,0,0,0,0,0,0,0,0,0,0,0,0,0,0,0,0,0,0,0,0,0,0,0],"sum_hessian":[8.628171E4,6.388647E3,7.989306E4,1.8509777E3,4.5376694E3,6.475434E4,1.5138725E4,9.113283E2,9.3964935E2,2.4992656E2,4.2877427E3,5.9791777E4,4.962564E3,1.2203786E4,2.934938E3,8.8865497E2,2.2673336E1,9.1485736E2,2.4791975E1,1.2328936E2,1.266372E2,3.7264224E3,5.6132025E2,5.9645005E3,5.3827277E4,1.555654E3,3.40691E3,8.208961E3,3.9948252E3,8.93358E2,2.04158E3,4.0902374E1,8.477526E2,4.7107306E2,4.437843E2,9.511795E1,2.817141E1,2.5146324E1,1.01490875E2,2.3571907E3,1.3692318E3,3.876842E2,1.7363606E2,5.590473E2,5.405453E3,3.5173824E4,1.8653451E4,1.2860422E3,2.6961176E2,1.1525481E3,2.2543618E3,4.719791E3,3.48917E3,3.385505E3,6.0932025E2,6.233636E2,2.699944E2,7.9736926E2,1.2442107E3],"tree_param":{"num_deleted":"0","num_feature":"44","num_nodes":"59","size_leaf_vector":"1"}},{"base_weights":[-3.1919556E-4,-3.7053192E-1,3.2739788E-1,-5.52017E-1,-1.8081872E-1,2.3031306E-1,6.762668E-1,-6.2419873E-1,-4.439372E-1,-2.57829E-1,-6.390098E-2,1.05481915E-1,4.0808895E-1,5.592894E-1,8.3873755E-1,-5.709749E-1,-6.4398795E-1,-4.5837948E-1,-1.5194292E-1,-1.066237E-1,-2.9866996E-1,-1.02125585E-1,2.335286E-1,2.6382768E-1,6.0493793E-2,3.259119E-1,5.221553E-1,6.786529E-1,4.774988E-1,1.0410699E0,7.490105E-1,-2.9198347E-2,-1.1800757E-2,-3.2809984E-2,-2.775915E-2,-1.9465854E-2,-2.5231842E-2,-1.1329675E-2,1.4235175E-2,-3.0699205E-3,-1.74015E-2,-1.8826354E-2,-1.1380523E-2,-1.0621767E-2,-2.1165132E-3,7.2994004E-3,2.5876602E-2,6.2019615E-3,1.5745379E-2,2.3786526E-3,3.384767E-2,1.2686945E-2,2.0503286E-2,2.1575266E-2,2.964302E-2,4.5981552E-2,3.0962965E-2,2.2012373E-2,3.3101853E-2,5.3788345E-2,4.5817725E-2,2.672171E-2,4.1857883E-2],"categories":[],"categories_nodes":[],"categories_segments":[],"categories_sizes":[],"default_left":[0,0,0,0,0,0,0,0,0,0,0,0,0,0,0,0,0,0,0,0,0,0,0,0,0,0,0,0,0,0,0,0,0,0,0,0,0,0,0,0,0,0,0,0,0,0,0,0,0,0,0,0,0,0,0,0,0,0,0,0,0,0,0],"id":17,"left_children":[1,3,5,7,9,11,13,15,17,19,21,23,25,27,29,31,33,35,37,39,41,43,45,47,49,51,53,55,57,59,61,-1,-1,-1,-1,-1,-1,-1,-1,-1,-1,-1,-1,-1,-1,-1,-1,-1,-1,-1,-1,-1,-1,-1,-1,-1,-1,-1,-1,-1,-1,-1,-1],"loss_changes":[1.0275916E4,1.3690034E3,1.5212544E3,1.5793164E2,1.7501105E2,7.798579E2,1.848789E2,1.2035645E1,3.4121094E1,7.226526E1,8.78435E1,1.4702974E2,1.3547803E2,5.484253E1,7.2724365E1,1.406665E1,8.825195E0,2.4315674E1,1.2692034E1,2.7141155E1,5.0805054E1,4.5101646E1,2.1624058E1,3.247003E1,1.2793094E2,5.0925415E1,3.8302002E1,3.1891846E1,2.2598267E1,3.5406494E0,5.276111E1,0E0,0E0,0E0,0E0,0E0,0E0,0E0,0E0,0E0,0E0,0E0,0E0,0E0,0E0,0E0,0E0,0E0,0E0,0E0,0E0,0E0,0E0,0E0,0E0,0E0,0E0,0E0,0E0,0E0,0E0,0E0,0E0],"parents":[2147483647,0,0,1,1,2,2,3,3,4,4,5,5,6,6,7,7,8,8,9,9,10,10,11,11,12,12,13,13,14,14,15,15,16,16,17,17,18,18,19,19,20,20,21,21,22,22,23,23,24,24,25,25,26,26,27,27,28,28,29,29,30,30],"right_children":[2,4,6,8,10,12,14,16,18,20,22,24,26,28,30,32,34,36,38,40,42,44,46,48,50,52,54,56,58,60,62,-1,-1,-1,-1,-1,-1,-1,-1,-1,-1,-1,-1,-1,-1,-1,-1,-1,-1,-1,-1,-1,-1,-1,-1,-1,-1,-1,-1,-1,-1,-1,-1],"split_conditions":[3.1397173E0,2.2100425E0,6.957214E0,1.7844023E0,4.503099E0,4.679803E0,9.220848E0,-4.6243563E-1,6.0775557E0,-9.388693E0,7.096531E0,-1.252384E1,6.0838814E0,-3.313489E0,-1.2356711E1,6.3897765E-1,7.2353387E-1,-5.329117E-1,1.5027323E0,-2.4491491E0,2.6071842E0,2.5624402E0,1.7829111E0,3.5407267E0,7.155461E-1,4.503099E0,6.8271244E-1,-1.9358074E1,6.653012E-1,-4.378555E0,8.0954915E-1,-2.9198347E-2,-1.1800757E-2,-3.2809984E-2,-2.775915E-2,-1.9465854E-2,-2.5231842E-2,-1.1329675E-2,1.4235175E-2,-3.0699205E-3,-1.74015E-2,-1.8826354E-2,-1.1380523E-2,-1.0621767E-2,-2.1165132E-3,7.2994004E-3,2.5876602E-2,6.2019615E-3,1.5745379E-2,2.3786526E-3,3.384767E-2,1.2686945E-2,2.0503286E-2,2.1575266E-2,2.964302E-2,4.5981552E-2,3.0962965E-2,2.2012373E-2,3.3101853E-2,5.3788345E-2,4.5817725E-2,2.672171E-2,4.1857883E-2],"split_indices":[26,26,11,26,11,26,11,23,11,22,11,22,26,39,22,39,20,23,16,18,26,26,30,26,27,11,30,22,27,18,30,0,0,0,0,0,0,0,0,0,0,0,0,0,0,0,0,0,0,0,0,0,0,0,0,0,0,0,0,0,0,0,0],"split_type":[0,0,0,0,0,0,0,0,0,0,0,0,0,0,0,0,0,0,0,0,0,0,0,0,0,0,0,0,0,0,0,0,0,0,0,0,0,0,0,0,0,0,0,0,0,0,0,0,0,0,0,0,0,0,0,0,0,0,0,0,0,0,0],"sum_hessian":[8.469434E4,3.9768926E4,4.4925418E4,2.0323229E4,1.94457E4,3.514748E4,9.777937E3,1.2179835E4,8.143393E3,1.1721543E4,7.7241567E3,2.0650543E4,1.4496938E4,5.6894683E3,4.0884678E3,3.3160632E3,8.863771E3,7.75813E3,3.85263E2,2.4949197E3,9.226623E3,6.845991E3,8.7816547E2,4.566385E3,1.6084157E4,8.430719E3,6.066219E3,2.3079314E3,3.381537E3,1.2504966E3,2.8379712E3,3.1905977E3,1.25465515E2,7.7818447E3,1.0819266E3,3.1193613E3,4.6387686E3,3.3002112E2,5.5241905E1,2.1035486E3,3.913709E2,4.398307E3,4.8283164E3,2.403981E3,4.4420103E3,6.7353253E2,2.0463293E2,1.2244728E3,3.341912E3,1.5755861E4,3.2829633E2,4.5429424E3,3.8877766E3,2.6640994E3,3.4021199E3,4.5139392E2,1.8565375E3,2.818708E3,5.628292E2,9.68115E2,2.8238165E2,8.301076E2,2.0078635E3],"tree_param":{"num_deleted":"0","num_feature":"44","num_nodes":"63","size_leaf_vector":"1"}},{"base_weights":[-1.6619425E-3,5.395149E-1,-2.0251776E-1,7.879514E-1,3.7351793E-1,-3.6722444E-2,-3.413393E-1,9.3858844E-1,7.0055336E-1,1.11979984E-1,4.2177656E-1,2.9935617E-2,-2.0330572E-1,-2.9138574E-1,-5.099462E-1,1.0085961E0,8.21413E-1,3.4778222E-1,7.309568E-1,3.5351567E-2,3.3896363E-1,5.372709E-1,2.9734376E-1,-1.2657605E-1,9.3426585E-2,-1.4478943E-1,-3.3191338E-1,-2.3257667E-1,-3.722327E-1,-6.032332E-1,-4.8108232E-1,2.9282665E-2,5.080223E-2,4.37604E-2,3.3995334E-2,6.485928E-4,2.5092317E-2,3.8460746E-2,2.5834901E-2,1.0567379E-2,-1.3584609E-3,1.927607E-2,-3.209325E-3,3.1519722E-2,2.295103E-2,1.677326E-2,-1.7585515E-3,-7.8377975E-3,3.2338668E-3,5.480283E-3,-1.7062465E-2,-5.247799E-3,-1.1614911E-2,-1.836214E-2,-8.4658675E-3,-8.167469E-3,-1.3993219E-2,-2.3190765E-2,-1.7400773E-2,-3.1957395E-2,-2.6771998E-2,-2.0389255E-2,-2.6292747E-2],"categories":[],"categories_nodes":[],"categories_segments":[],"categories_sizes":[],"default_left":[0,0,0,0,0,0,0,0,0,0,0,0,0,0,0,0,0,0,0,0,0,0,0,0,0,0,0,0,0,0,0,0,0,0,0,0,0,0,0,0,0,0,0,0,0,0,0,0,0,0,0,0,0,0,0,0,0,0,0,0,0,0,0],"id":18,"left_children":[1,3,5,7,9,11,13,15,17,19,21,23,25,27,29,31,33,35,37,39,41,43,45,47,49,51,53,55,57,59,61,-1,-1,-1,-1,-1,-1,-1,-1,-1,-1,-1,-1,-1,-1,-1,-1,-1,-1,-1,-1,-1,-1,-1,-1,-1,-1,-1,-1,-1,-1,-1,-1],"loss_changes":[9.19262E3,9.433667E2,1.4195056E3,1.1937451E2,1.730636E2,3.1219135E2,2.823562E2,2.595874E1,6.1696777E1,3.7143723E1,1.6610718E2,1.9952364E2,6.0300262E1,1.2289795E2,1.9999512E1,5.390381E0,8.433838E0,2.383326E1,4.2963135E1,1.7682278E1,1.0227528E1,4.3116577E1,7.0830414E1,3.347634E1,1.0047209E2,1.9158356E1,1.4220154E1,4.894586E1,2.3777222E1,3.645813E0,1.8743164E1,0E0,0E0,0E0,0E0,0E0,0E0,0E0,0E0,0E0,0E0,0E0,0E0,0E0,0E0,0E0,0E0,0E0,0E0,0E0,0E0,0E0,0E0,0E0,0E0,0E0,0E0,0E0,0E0,0E0,0E0,0E0,0E0],"parents":[2147483647,0,0,1,1,2,2,3,3,4,4,5,5,6,6,7,7,8,8,9,9,10,10,11,11,12,12,13,13,14,14,15,15,16,16,17,17,18,18,19,19,20,20,21,21,22,22,23,23,24,24,25,25,26,26,27,27,28,28,29,29,30,30],"right_children":[2,4,6,8,10,12,14,16,18,20,22,24,26,28,30,32,34,36,38,40,42,44,46,48,50,52,54,56,58,60,62,-1,-1,-1,-1,-1,-1,-1,-1,-1,-1,-1,-1,-1,-1,-1,-1,-1,-1,-1,-1,-1,-1,-1,-1,-1,-1,-1,-1,-1,-1,-1,-1],"split_conditions":[2.1803472E0,1.4910712E0,3.5407267E0,1.058431E0,-7.433964E0,5.007553E0,6.957214E0,9.3141116E-2,-6.444595E0,-1.7059236E0,3.7871556E0,-8.109752E0,6.4356027E0,4.947723E0,-1.1560694E1,-4.9801526E0,6.52819E-1,-3.0630631E0,4.3623595E0,8.907798E-1,5.007553E0,1.7844023E0,5.852941E0,-2.5274725E0,4.9054947E-1,3.124207E0,-2.4730012E0,3.9188843E0,-1.4603445E1,-1.3766894E1,9.099104E-1,2.9282665E-2,5.080223E-2,4.37604E-2,3.3995334E-2,6.485928E-4,2.5092317E-2,3.8460746E-2,2.5834901E-2,1.0567379E-2,-1.3584609E-3,1.927607E-2,-3.209325E-3,3.1519722E-2,2.295103E-2,1.677326E-2,-1.7585515E-3,-7.8377975E-3,3.2338668E-3,5.480283E-3,-1.7062465E-2,-5.247799E-3,-1.1614911E-2,-1.836214E-2,-8.4658675E-3,-8.167469E-3,-1.3993219E-2,-2.3190765E-2,-1.7400773E-2,-3.1957395E-2,-2.6771998E-2,-2.0389255E-2,-2.6292747E-2],"split_indices":[26,26,26,26,22,11,11,27,22,17,11,22,11,26,40,22,41,39,11,29,11,26,11,40,27,26,9,11,22,22,30,0,0,0,0,0,0,0,0,0,0,0,0,0,0,0,0,0,0,0,0,0,0,0,0,0,0,0,0,0,0,0,0],"split_type":[0,0,0,0,0,0,0,0,0,0,0,0,0,0,0,0,0,0,0,0,0,0,0,0,0,0,0,0,0,0,0,0,0,0,0,0,0,0,0,0,0,0,0,0,0,0,0,0,0,0,0,0,0,0,0,0,0,0,0,0,0,0,0],"sum_hessian":[8.4567484E4,2.2890047E4,6.1677434E4,9.165634E3,1.3724413E4,2.810947E4,3.356796E4,3.3590938E3,5.8065405E3,2.1393442E3,1.1585068E4,2.0076086E4,8.033386E3,2.5899836E4,7.6681255E3,2.0945603E3,1.2645334E3,4.62729E2,5.3438115E3,1.6013514E3,5.379926E2,6.00492E3,5.580149E3,5.792455E3,1.428363E4,5.524493E3,2.508893E3,1.4998231E4,1.0901605E4,1.8032654E3,5.86486E3,3.878133E1,2.055779E3,9.095633E2,3.549701E2,1.4674625E2,3.1598276E2,4.530096E3,8.1371515E2,4.1965393E2,1.1816975E3,4.827984E2,5.5194252E1,2.7358826E3,3.2690374E3,5.006736E3,5.7341284E2,5.004119E3,7.883361E2,1.3772583E4,5.1104733E2,3.8002354E3,1.7242579E3,2.0584976E3,4.5039563E2,6.091472E3,8.90676E3,2.2724326E3,8.629173E3,1.1685917E3,6.3467377E2,2.231425E3,3.6334348E3],"tree_param":{"num_deleted":"0","num_feature":"44","num_nodes":"63","size_leaf_vector":"1"}},{"base_weights":[1.7147289E-3,-3.4665644E-1,2.4872785E-2,-6.2554735E-1,-2.6682347E-1,5.35504E-2,-1.8251584E-1,-9.73433E-3,-6.325973E-1,5.267813E-2,-3.2546288E-1,-1.5704978E-1,6.552035E-2,-1.4240818E-1,-3.505411E-1,-4.3464935E-1,-6.419175E-1,4.4415855E-1,-6.599857E-2,-3.597208E-1,-1.3173987E-1,-3.580333E-1,-9.044475E-2,-3.5903525E-2,8.265323E-2,-3.077179E-1,-1.0159645E-1,-2.6822472E-1,-4.3824816E-1,-2.7892793E-2,-8.950781E-3,-3.2386165E-2,-1.9928137E-2,2.7112443E-2,4.1932796E-4,1.268541E-3,-1.6799754E-2,-1.0540465E-2,-2.0217253E-2,-9.204225E-3,1.0282438E-2,-2.0479063E-2,6.3568697E-4,4.375204E-3,-6.3655893E-3,1.1056298E-2,-5.1772785E-3,4.424277E-3,-1.3940607E-2,-2.2319285E-2,-1.0166985E-2,-2.0304036E-3,-9.511783E-3,-6.771742E-3,-1.553145E-2,-1.9672316E-2,-2.8555155E-2],"categories":[],"categories_nodes":[],"categories_segments":[],"categories_sizes":[],"default_left":[0,0,0,0,0,0,0,0,0,0,0,0,0,0,0,0,0,0,0,0,0,0,0,0,0,0,0,0,0,0,0,0,0,0,0,0,0,0,0,0,0,0,0,0,0,0,0,0,0,0,0,0,0,0,0,0,0],"id":19,"left_children":[1,3,5,7,9,11,13,-1,15,17,19,21,23,25,27,29,31,33,35,37,39,41,43,45,47,49,51,53,55,-1,-1,-1,-1,-1,-1,-1,-1,-1,-1,-1,-1,-1,-1,-1,-1,-1,-1,-1,-1,-1,-1,-1,-1,-1,-1,-1,-1],"loss_changes":[6.953128E2,1.1917877E2,4.8066846E2,3.2763062E0,7.838867E1,1.789927E2,6.5989716E1,0E0,1.531189E0,3.0268223E1,2.3272797E1,5.097484E1,1.167663E2,5.336743E1,1.3327103E1,1.5415487E0,9.8114014E-1,6.3607616E0,1.238194E1,1.9682678E1,9.483667E0,1.822644E1,1.8857168E1,1.6881006E2,1.2117938E2,2.2433243E1,3.4338127E1,5.3657303E0,4.8952026E0,0E0,0E0,0E0,0E0,0E0,0E0,0E0,0E0,0E0,0E0,0E0,0E0,0E0,0E0,0E0,0E0,0E0,0E0,0E0,0E0,0E0,0E0,0E0,0E0,0E0,0E0,0E0,0E0],"parents":[2147483647,0,0,1,1,2,2,3,3,4,4,5,5,6,6,8,8,9,9,10,10,11,11,12,12,13,13,14,14,15,15,16,16,17,17,18,18,19,19,20,20,21,21,22,22,23,23,24,24,25,25,26,26,27,27,28,28],"right_children":[2,4,6,8,10,12,14,-1,16,18,20,22,24,26,28,30,32,34,36,38,40,42,44,46,48,50,52,54,56,-1,-1,-1,-1,-1,-1,-1,-1,-1,-1,-1,-1,-1,-1,-1,-1,-1,-1,-1,-1,-1,-1,-1,-1,-1,-1,-1,-1],"split_conditions":[1.2686552E-1,7.042059E-2,6.1221856E-1,-9.729993E-1,-4.908135E0,-1.7688215E1,1.6002613E1,-9.73433E-3,-4.255429E-1,-5.3846154E0,4.4693507E-2,-9.290188E0,1.8152182E-1,-9.603826E0,8.7367284E-1,3.4188035E0,2.8011206E-1,-1.1707546E0,-1.0557832E0,-3.362383E-1,1.0179011E0,-1.2327292E0,3.024294E-1,-6.3619995E0,2.1159391E0,-1.6392272E0,1.1786919E1,-3.6430833E0,-9.0947545E-1,-2.7892793E-2,-8.950781E-3,-3.2386165E-2,-1.9928137E-2,2.7112443E-2,4.1932796E-4,1.268541E-3,-1.6799754E-2,-1.0540465E-2,-2.0217253E-2,-9.204225E-3,1.0282438E-2,-2.0479063E-2,6.3568697E-4,4.375204E-3,-6.3655893E-3,1.1056298E-2,-5.1772785E-3,4.424277E-3,-1.3940607E-2,-2.2319285E-2,-1.0166985E-2,-2.0304036E-3,-9.511783E-3,-6.771742E-3,-1.553145E-2,-1.9672316E-2,-2.8555155E-2],"split_indices":[27,27,27,21,22,22,22,0,23,40,16,17,27,17,27,8,39,21,17,23,17,23,27,22,16,23,8,16,16,0,0,0,0,0,0,0,0,0,0,0,0,0,0,0,0,0,0,0,0,0,0,0,0,0,0,0,0],"split_type":[0,0,0,0,0,0,0,0,0,0,0,0,0,0,0,0,0,0,0,0,0,0,0,0,0,0,0,0,0,0,0,0,0,0,0,0,0,0,0,0,0,0,0,0,0,0,0,0,0,0,0,0,0,0,0,0,0],"sum_hessian":[8.619072E4,5.3705713E3,8.082015E4,1.1923661E3,4.178205E3,7.100384E4,9.816306E3,2.0343857E1,1.1720222E3,6.4742114E2,3.530784E3,3.8167534E3,6.718709E4,7.927881E3,1.8884249E3,5.6879932E1,1.1151423E3,1.5004315E2,4.97378E2,2.9982559E3,5.3252826E2,9.4764075E2,2.8691125E3,9.707417E3,5.747967E4,1.5667954E3,6.3610854E3,9.784652E2,9.099597E2,3.6656864E1,2.0223068E1,1.0859211E3,2.922117E1,1.21800865E2,2.8242292E1,3.7208066E2,1.2529734E2,6.9433215E2,2.3039236E3,4.6210825E2,7.0420044E1,8.323016E2,1.1533919E2,4.9111694E2,2.3779956E3,2.0211174E3,7.6862993E3,5.6568613E4,9.1105804E2,6.6994025E2,8.9685516E2,3.7709316E3,2.5901536E3,2.3949359E2,7.389716E2,6.8605365E2,2.2390608E2],"tree_param":{"num_deleted":"0","num_feature":"44","num_nodes":"57","size_leaf_vector":"1"}},{"base_weights":[-2.055928E-3,-3.8445714E-1,2.907433E-1,-5.663145E-1,-2.2514476E-1,1.9935074E-1,6.331976E-1,-6.1371285E-1,-4.66352E-1,-2.9731554E-1,-1.088743E-1,7.995978E-2,3.827189E-1,5.171307E-1,7.978901E-1,-6.3626087E-1,-5.780424E-1,-5.351231E-1,-4.1466913E-1,-3.9503974E-1,-2.3257199E-1,-2.1057326E-1,-1.945954E-2,2.3913863E-1,3.8016766E-2,3.2231718E-1,5.1566267E-1,4.44137E-1,6.3833314E-1,9.121618E-1,5.755718E-1,-2.865967E-2,-3.2321356E-2,-2.908422E-2,-4.8737125E-3,-1.252196E-2,-2.7424667E-2,-2.1376718E-2,-2.8082537E-3,-2.3403678E-2,-1.7206274E-2,-4.879176E-3,-1.34686325E-2,-1.1316752E-2,1.2111037E-2,-2.761224E-3,1.1672318E-2,3.996245E-3,1.5098053E-2,-1.5280923E-3,5.5799875E-3,1.180655E-2,1.923067E-2,3.2627977E-2,2.3480313E-2,2.7128264E-2,1.8592425E-2,4.059567E-2,2.975066E-2,3.9298408E-2,4.954748E-2,9.272135E-3,3.315918E-2],"categories":[],"categories_nodes":[],"categories_segments":[],"categories_sizes":[],"default_left":[0,0,0,0,0,0,0,0,0,0,0,0,0,0,0,0,0,0,0,0,0,0,0,0,0,0,0,0,0,0,0,0,0,0,0,0,0,0,0,0,0,0,0,0,0,0,0,0,0,0,0,0,0,0,0,0,0,0,0,0,0,0,0],"id":20,"left_children":[1,3,5,7,9,11,13,15,17,19,21,23,25,27,29,31,33,35,37,39,41,43,45,47,49,51,53,55,57,59,61,-1,-1,-1,-1,-1,-1,-1,-1,-1,-1,-1,-1,-1,-1,-1,-1,-1,-1,-1,-1,-1,-1,-1,-1,-1,-1,-1,-1,-1,-1,-1,-1],"loss_changes":[9.476746E3,1.0630356E3,1.4999045E3,8.055371E1,1.6406873E2,8.28271E2,1.9211914E2,8.550293E0,1.9096313E1,7.6113525E1,6.812649E1,1.5295851E2,1.1939795E2,5.180017E1,1.0486572E2,3.7531738E0,7.6901855E0,8.622986E0,1.4440979E1,1.747113E1,3.598169E1,2.5105408E1,3.6096188E1,4.7684875E1,9.157662E1,5.4850586E1,2.8683228E1,2.5880371E1,1.5714355E1,2.5832764E1,4.819995E1,0E0,0E0,0E0,0E0,0E0,0E0,0E0,0E0,0E0,0E0,0E0,0E0,0E0,0E0,0E0,0E0,0E0,0E0,0E0,0E0,0E0,0E0,0E0,0E0,0E0,0E0,0E0,0E0,0E0,0E0,0E0,0E0],"parents":[2147483647,0,0,1,1,2,2,3,3,4,4,5,5,6,6,7,7,8,8,9,9,10,10,11,11,12,12,13,13,14,14,15,15,16,16,17,17,18,18,19,19,20,20,21,21,22,22,23,23,24,24,25,25,26,26,27,27,28,28,29,29,30,30],"right_children":[2,4,6,8,10,12,14,16,18,20,22,24,26,28,30,32,34,36,38,40,42,44,46,48,50,52,54,56,58,60,62,-1,-1,-1,-1,-1,-1,-1,-1,-1,-1,-1,-1,-1,-1,-1,-1,-1,-1,-1,-1,-1,-1,-1,-1,-1,-1,-1,-1,-1,-1,-1,-1],"split_conditions":[3.011654E0,2.0702362E0,6.957214E0,1.764936E0,4.485672E0,4.64716E0,9.220848E0,1.469183E0,3.6329527E0,2.425044E0,2.5624402E0,-1.269211E1,6.5301204E0,5.379433E0,-1.940545E0,-1.357822E0,7.4023438E0,-1.0607465E1,6.8267326E0,8.988515E-1,-9.510106E0,1.6642079E0,7.096531E0,3.485518E0,4.263752E0,3.9932811E0,-7.8685255E0,-2.4990878E0,-1.7688215E1,1.0504555E1,4.2535515E0,-2.865967E-2,-3.2321356E-2,-2.908422E-2,-4.8737125E-3,-1.252196E-2,-2.7424667E-2,-2.1376718E-2,-2.8082537E-3,-2.3403678E-2,-1.7206274E-2,-4.879176E-3,-1.34686325E-2,-1.1316752E-2,1.2111037E-2,-2.761224E-3,1.1672318E-2,3.996245E-3,1.5098053E-2,-1.5280923E-3,5.5799875E-3,1.180655E-2,1.923067E-2,3.2627977E-2,2.3480313E-2,2.7128264E-2,1.8592425E-2,4.059567E-2,2.975066E-2,3.9298408E-2,4.954748E-2,9.272135E-3,3.315918E-2],"split_indices":[26,26,11,26,11,26,11,26,11,26,26,22,26,26,9,19,11,22,11,29,22,16,11,26,11,11,16,19,22,11,26,0,0,0,0,0,0,0,0,0,0,0,0,0,0,0,0,0,0,0,0,0,0,0,0,0,0,0,0,0,0,0,0],"split_type":[0,0,0,0,0,0,0,0,0,0,0,0,0,0,0,0,0,0,0,0,0,0,0,0,0,0,0,0,0,0,0,0,0,0,0,0,0,0,0,0,0,0,0,0,0,0,0,0,0,0,0,0,0,0,0,0,0,0,0,0,0,0,0],"sum_hessian":[8.463574E4,3.6702203E4,4.793354E4,1.7136057E4,1.9566145E4,3.7838375E4,1.0095165E4,1.1617694E4,5.518362E3,1.2070038E4,7.4961074E3,2.2919037E4,1.4919337E4,5.9261436E3,4.1690215E3,7.0992495E3,4.5184453E3,2.3600686E3,3.1582935E3,4.805642E3,7.2643955E3,3.5051433E3,3.990964E3,4.777192E3,1.8141846E4,1.0263057E4,4.6562803E3,3.7040444E3,2.2220994E3,2.749978E3,1.4190433E3,1.0001915E3,6.099058E3,4.4837334E3,3.4711872E1,1.0786751E2,2.252201E3,3.0480645E3,1.1022907E2,1.9673557E3,2.8382864E3,1.5585165E3,5.705879E3,3.3883853E3,1.16757935E2,3.498223E3,4.927414E2,1.3535138E3,3.4236782E3,9.389284E3,8.752562E3,4.3102554E3,5.9528013E3,1.1661001E3,3.4901802E3,1.5631406E3,2.1409038E3,4.3756714E2,1.7845322E3,1.0642996E3,1.6856786E3,2.6151114E2,1.1575321E3],"tree_param":{"num_deleted":"0","num_feature":"44","num_nodes":"63","size_leaf_vector":"1"}},{"base_weights":[-1.8028223E-3,5.190573E-1,-1.939903E-1,7.27897E-1,3.3306235E-1,-4.3918937E-2,-3.3837798E-1,9.021964E-1,6.4757425E-1,1.7190987E-1,3.9923838E-1,6.849885E-2,-1.1560408E-1,-2.7573395E-1,-4.292849E-1,9.639729E-1,7.9601747E-1,5.0553405E-1,7.000022E-1,1.9363543E-1,-4.3491384E-1,5.1090646E-1,3.2678005E-1,-2.7566254E-2,1.7961475E-1,-7.186028E-3,-1.7836124E-1,-2.3984972E-1,-3.9035317E-1,-3.7970296E-1,-5.067093E-1,3.0020937E-2,4.8607063E-2,3.4749486E-2,4.380023E-2,3.386172E-3,2.7274823E-2,3.797444E-2,2.5177712E-2,6.4083557E-3,2.0852275E-2,-3.0709779E-2,-1.2794818E-2,3.154088E-2,2.2605032E-2,2.1583833E-2,1.2141469E-2,5.7497793E-3,-3.9438354E-3,9.757103E-3,-1.964364E-2,-6.549054E-3,1.2667066E-3,-1.1364966E-2,-5.613239E-3,-1.1249126E-2,-1.9522604E-2,-1.2383126E-2,-2.0745723E-2,-1.5483171E-2,-2.042071E-2,-2.7943859E-2,-2.2887005E-2],"categories":[],"categories_nodes":[],"categories_segments":[],"categories_sizes":[],"default_left":[0,0,0,0,0,0,0,0,0,0,0,0,0,0,0,0,0,0,0,0,0,0,0,0,0,0,0,0,0,0,0,0,0,0,0,0,0,0,0,0,0,0,0,0,0,0,0,0,0,0,0,0,0,0,0,0,0,0,0,0,0,0,0],"id":21,"left_children":[1,3,5,7,9,11,13,15,17,19,21,23,25,27,29,31,33,35,37,39,41,43,45,47,49,51,53,55,57,59,61,-1,-1,-1,-1,-1,-1,-1,-1,-1,-1,-1,-1,-1,-1,-1,-1,-1,-1,-1,-1,-1,-1,-1,-1,-1,-1,-1,-1,-1,-1,-1,-1],"loss_changes":[8.443317E3,8.824746E2,1.334967E3,1.4872021E2,1.2805273E2,2.4350992E2,1.7849976E2,2.0622559E1,5.3856934E1,4.62846E1,6.855603E1,1.2561755E2,1.2550395E2,7.6217285E1,4.8696045E1,5.11792E0,8.877747E0,3.4536255E1,6.1730713E1,4.932171E1,3.4829044E0,2.298407E1,4.528076E1,4.6163216E1,4.8576218E1,2.7270752E1,3.769168E1,3.1465515E1,1.5238953E1,1.5380859E1,1.2169189E1,0E0,0E0,0E0,0E0,0E0,0E0,0E0,0E0,0E0,0E0,0E0,0E0,0E0,0E0,0E0,0E0,0E0,0E0,0E0,0E0,0E0,0E0,0E0,0E0,0E0,0E0,0E0,0E0,0E0,0E0,0E0,0E0],"parents":[2147483647,0,0,1,1,2,2,3,3,4,4,5,5,6,6,7,7,8,8,9,9,10,10,11,11,12,12,13,13,14,14,15,15,16,16,17,17,18,18,19,19,20,20,21,21,22,22,23,23,24,24,25,25,26,26,27,27,28,28,29,29,30,30],"right_children":[2,4,6,8,10,12,14,16,18,20,22,24,26,28,30,32,34,36,38,40,42,44,46,48,50,52,54,56,58,60,62,-1,-1,-1,-1,-1,-1,-1,-1,-1,-1,-1,-1,-1,-1,-1,-1,-1,-1,-1,-1,-1,-1,-1,-1,-1,-1,-1,-1,-1,-1,-1,-1],"split_conditions":[2.1642323E0,1.5748031E0,3.6564627E0,1.058431E0,-6.94904E-1,2.6975963E0,5.292412E0,9.3141116E-2,-4.7440436E-1,4.8494983E0,7.9937017E-1,-3.039293E-1,7.413906E-1,1.1181391E0,9.249597E-1,-6.6891277E-1,-1.096616E-1,-4.88759E0,-2.1847478E-1,-3.5756853E-1,-1.3927576E-1,1.7844023E0,1.8371702E0,7.22095E-1,4.6328634E-1,-1.2136558E0,-3.4726164E-1,6.1221856E-1,9.726439E-1,5.310583E-1,-4.5577097E0,3.0020937E-2,4.8607063E-2,3.4749486E-2,4.380023E-2,3.386172E-3,2.7274823E-2,3.797444E-2,2.5177712E-2,6.4083557E-3,2.0852275E-2,-3.0709779E-2,-1.2794818E-2,3.154088E-2,2.2605032E-2,2.1583833E-2,1.2141469E-2,5.7497793E-3,-3.9438354E-3,9.757103E-3,-1.964364E-2,-6.549054E-3,1.2667066E-3,-1.1364966E-2,-5.613239E-3,-1.1249126E-2,-1.9522604E-2,-1.2383126E-2,-2.0745723E-2,-1.5483171E-2,-2.042071E-2,-2.7943859E-2,-2.2887005E-2],"split_indices":[26,26,26,26,23,26,26,27,23,41,30,23,30,30,30,23,23,20,18,17,40,26,26,30,27,23,23,27,29,30,17,0,0,0,0,0,0,0,0,0,0,0,0,0,0,0,0,0,0,0,0,0,0,0,0,0,0,0,0,0,0,0,0],"split_type":[0,0,0,0,0,0,0,0,0,0,0,0,0,0,0,0,0,0,0,0,0,0,0,0,0,0,0,0,0,0,0,0,0,0,0,0,0,0,0,0,0,0,0,0,0,0,0,0,0,0,0,0,0,0,0,0,0,0,0,0,0,0,0],"sum_hessian":[8.434411E4,2.2732271E4,6.1611836E4,1.0705936E4,1.2026335E4,3.0212936E4,3.1398898E4,3.3716526E3,7.334283E3,3.503353E3,8.522982E3,1.1763112E4,1.8449822E4,1.8594E4,1.2804899E4,2.122656E3,1.2489966E3,1.9826298E3,5.3516533E3,3.3835652E3,1.1978781E2,3.3493472E3,5.1736353E3,6.3084653E3,5.4546475E3,6.7659526E3,1.168387E4,1.4165533E4,4.4284663E3,7.8129756E3,4.9919243E3,4.9637413E1,2.0730186E3,5.59435E2,6.895615E2,1.6658995E2,1.8160398E3,4.1036943E3,1.2479591E3,2.6192678E3,7.6429736E2,5.7469685E1,6.2318123E1,1.0961636E3,2.2531836E3,2.2960813E3,2.8775542E3,1.6680808E3,4.6403843E3,5.3119126E3,1.4273451E2,1.4079384E3,5.358014E3,6.70947E3,4.9744E3,1.2897394E4,1.2681394E3,6.5396655E2,3.7744995E3,2.2787434E3,5.5342324E3,2.4074814E3,2.5844426E3],"tree_param":{"num_deleted":"0","num_feature":"44","num_nodes":"63","size_leaf_vector":"1"}},{"base_weights":[1.8907661E-3,-3.472374E-1,2.3370646E-2,-4.0969193E-1,6.0670026E-2,4.7629043E-2,-2.9572797E-1,1.1582642E-1,-4.4413635E-1,-4.6476882E-2,3.6514357E-1,6.3327335E-2,-1.5053482E-1,-4.898606E-1,-2.3854785E-1,-1.10751405E-1,2.2899772E-1,-6.0511065E-1,-3.5962316E-1,-7.965164E-2,1.6357915E-2,5.20812E-1,4.8870206E-2,-3.8331475E-2,7.9654336E-2,-9.427561E-2,-2.1100502E-1,-3.8638785E-1,-5.73306E-1,-1.0818581E-1,-2.9808196E-1,-1.2397054E-2,1.4603803E-2,2.0226222E-2,7.876657E-4,-3.2603126E-2,-2.6332209E-2,-2.2771817E-2,-1.5994927E-2,8.824959E-3,-7.3576863E-3,1.5510735E-2,3.619996E-2,-4.5761764E-3,1.4501035E-2,9.13228E-3,-4.4633136E-3,5.783749E-3,2.2289564E-3,-3.8411114E-3,-1.2321151E-2,-4.635938E-3,-1.3290207E-2,-2.1366399E-2,-3.6492285E-3,-3.0497974E-2,-1.9619262E-2,-1.1053939E-2,2.9719865E-3,-1.3318761E-2,-2.4655871E-2],"categories":[],"categories_nodes":[],"categories_segments":[],"categories_sizes":[],"default_left":[0,0,0,0,0,0,0,0,0,0,0,0,0,0,0,0,0,0,0,0,0,0,0,0,0,0,0,0,0,0,0,0,0,0,0,0,0,0,0,0,0,0,0,0,0,0,0,0,0,0,0,0,0,0,0,0,0,0,0,0,0],"id":22,"left_children":[1,3,5,7,9,11,13,15,17,19,21,23,25,27,29,31,33,35,37,39,-1,41,43,45,47,49,51,53,55,57,59,-1,-1,-1,-1,-1,-1,-1,-1,-1,-1,-1,-1,-1,-1,-1,-1,-1,-1,-1,-1,-1,-1,-1,-1,-1,-1,-1,-1,-1,-1],"loss_changes":[6.464807E2,1.2739227E2,6.286689E2,7.8585205E1,2.1760733E1,2.3480931E2,6.3371246E1,6.918339E0,5.481897E1,6.09078E0,8.393614E0,1.1610391E2,1.8756844E1,1.0728638E1,3.4298035E1,5.045536E0,6.621519E0,4.397156E0,9.795624E0,7.879236E0,0E0,4.4089622E0,2.0882633E0,1.089377E2,7.610318E1,7.5400105E0,1.718032E1,7.3910522E0,4.1970825E0,2.6434206E1,1.847107E1,0E0,0E0,0E0,0E0,0E0,0E0,0E0,0E0,0E0,0E0,0E0,0E0,0E0,0E0,0E0,0E0,0E0,0E0,0E0,0E0,0E0,0E0,0E0,0E0,0E0,0E0,0E0,0E0,0E0,0E0],"parents":[2147483647,0,0,1,1,2,2,3,3,4,4,5,5,6,6,7,7,8,8,9,9,10,10,11,11,12,12,13,13,14,14,15,15,16,16,17,17,18,18,19,19,21,21,22,22,23,23,24,24,25,25,26,26,27,27,28,28,29,29,30,30],"right_children":[2,4,6,8,10,12,14,16,18,20,22,24,26,28,30,32,34,36,38,40,-1,42,44,46,48,50,52,54,56,58,60,-1,-1,-1,-1,-1,-1,-1,-1,-1,-1,-1,-1,-1,-1,-1,-1,-1,-1,-1,-1,-1,-1,-1,-1,-1,-1,-1,-1,-1,-1],"split_conditions":[1.2438746E-1,4.3623595E0,8.154588E0,-4.3835616E0,5.5304346E0,6.740394E-1,-7.6803117E0,9.494966E-1,7.9637066E-2,9.174312E-1,-2.6496387E0,1.7996036E-1,8.2845736E-1,1.0504555E1,4.0674925E-1,-7.21177E-2,-5.325902E0,5.7258584E-2,8.1193E-1,-1.9077902E0,1.6357915E-2,-5.361174E-1,4.4693507E-2,-2.7511396E0,3.180797E-1,4.4199535E1,-3.1229124E0,4.1666665E0,-3.483309E0,-5.844156E0,3.001933E0,-1.2397054E-2,1.4603803E-2,2.0226222E-2,7.876657E-4,-3.2603126E-2,-2.6332209E-2,-2.2771817E-2,-1.5994927E-2,8.824959E-3,-7.3576863E-3,1.5510735E-2,3.619996E-2,-4.5761764E-3,1.4501035E-2,9.13228E-3,-4.4633136E-3,5.783749E-3,2.2289564E-3,-3.8411114E-3,-1.2321151E-2,-4.635938E-3,-1.3290207E-2,-2.1366399E-2,-3.6492285E-3,-3.0497974E-2,-1.9619262E-2,-1.1053939E-2,2.9719865E-3,-1.3318761E-2,-2.4655871E-2],"split_indices":[27,11,11,40,11,27,17,31,27,17,9,27,27,11,27,12,40,27,31,17,0,17,16,17,27,42,19,10,9,9,16,0,0,0,0,0,0,0,0,0,0,0,0,0,0,0,0,0,0,0,0,0,0,0,0,0,0,0,0,0,0],"split_type":[0,0,0,0,0,0,0,0,0,0,0,0,0,0,0,0,0,0,0,0,0,0,0,0,0,0,0,0,0,0,0,0,0,0,0,0,0,0,0,0,0,0,0,0,0,0,0,0,0,0,0,0,0,0,0,0,0,0,0,0,0],"sum_hessian":[8.621178E4,4.9948457E3,8.121694E4,4.3320513E3,6.627945E2,7.548067E4,5.736261E3,2.6589798E2,4.0661533E3,4.9072E2,1.7207452E2,6.994199E4,5.538685E3,1.3017689E3,4.434492E3,8.799331E1,1.7790468E2,1.3958457E3,2.6703074E3,4.522781E2,3.8441887E1,1.1424243E2,5.7832085E1,9.676671E3,6.0265316E4,2.8729475E3,2.6657375E3,5.85986E2,7.157829E2,1.3926302E3,3.041862E3,6.643947E1,2.1553839E1,9.6329834E1,8.157484E1,8.648396E2,5.310061E2,7.765611E2,1.8937463E3,9.320546E1,3.5907266E2,5.844275E1,5.5799683E1,3.661614E1,2.1215946E1,1.8111814E3,7.8654897E3,2.972744E4,3.0537877E4,2.5805007E3,2.9244666E2,8.464109E2,1.8193267E3,5.172357E2,6.87503E1,5.9132214E2,1.2446077E2,8.326018E2,5.6002844E2,2.6204343E3,4.214277E2],"tree_param":{"num_deleted":"0","num_feature":"44","num_nodes":"61","size_leaf_vector":"1"}},{"base_weights":[-1.5084626E-3,-3.5862955E-1,2.9496515E-1,-5.330184E-1,-1.7644632E-1,2.1035619E-1,6.372936E-1,-6.036546E-1,-4.343733E-1,-2.3903963E-1,-3.2351315E-2,9.863337E-2,3.8050953E-1,5.237705E-1,7.730534E-1,-6.051895E-1,-4.5895306E-3,-4.479393E-1,-1.9156191E-1,-5.7625026E-2,-2.6905835E-1,-7.581694E-2,2.3213658E-1,1.8752405E-2,1.7459403E-1,3.066187E-1,4.7584096E-1,6.3655436E-1,4.4446585E-1,8.8028264E-1,5.812557E-1,-2.7735118E-2,-3.1096175E-2,-1.9634824E-2,-2.45856E-2,-1.718177E-2,-3.7641495E-3,-1.4827405E-3,-1.646827E-2,-1.751337E-2,-1.0358015E-2,6.879842E-4,-6.895674E-3,7.644351E-3,2.9172465E-2,-2.7795432E-3,4.7086296E-3,1.3677708E-2,4.707537E-3,1.1857039E-2,1.9315355E-2,2.0454384E-2,2.7805684E-2,4.002648E-2,2.9058237E-2,2.0012544E-2,2.7322957E-2,3.8850002E-2,4.859325E-2,1.19695915E-2,3.260601E-2],"categories":[],"categories_nodes":[],"categories_segments":[],"categories_sizes":[],"default_left":[0,0,0,0,0,0,0,0,0,0,0,0,0,0,0,0,0,0,0,0,0,0,0,0,0,0,0,0,0,0,0,0,0,0,0,0,0,0,0,0,0,0,0,0,0,0,0,0,0,0,0,0,0,0,0,0,0,0,0,0,0],"id":23,"left_children":[1,3,5,7,9,11,13,15,17,19,21,23,25,27,29,31,-1,33,35,37,39,41,43,45,47,49,51,53,55,57,59,-1,-1,-1,-1,-1,-1,-1,-1,-1,-1,-1,-1,-1,-1,-1,-1,-1,-1,-1,-1,-1,-1,-1,-1,-1,-1,-1,-1,-1,-1],"loss_changes":[8.931973E3,1.2154927E3,1.3347139E3,1.3562549E2,1.6876013E2,7.025033E2,1.3989966E2,8.724609E0,2.6636719E1,7.097052E1,6.519299E1,1.3535912E2,1.0281372E2,4.3898804E1,8.4403564E1,8.838379E0,0E0,1.8226807E1,7.5768003E0,1.4015934E1,5.6050537E1,2.7131031E1,2.1997177E1,6.1018154E1,9.093152E1,4.5458435E1,3.371997E1,1.7657349E1,1.2694763E1,2.3694824E1,3.581076E1,0E0,0E0,0E0,0E0,0E0,0E0,0E0,0E0,0E0,0E0,0E0,0E0,0E0,0E0,0E0,0E0,0E0,0E0,0E0,0E0,0E0,0E0,0E0,0E0,0E0,0E0,0E0,0E0,0E0,0E0],"parents":[2147483647,0,0,1,1,2,2,3,3,4,4,5,5,6,6,7,7,8,8,9,9,10,10,11,11,12,12,13,13,14,14,15,15,17,17,18,18,19,19,20,20,21,21,22,22,23,23,24,24,25,25,26,26,27,27,28,28,29,29,30,30],"right_children":[2,4,6,8,10,12,14,16,18,20,22,24,26,28,30,32,-1,34,36,38,40,42,44,46,48,50,52,54,56,58,60,-1,-1,-1,-1,-1,-1,-1,-1,-1,-1,-1,-1,-1,-1,-1,-1,-1,-1,-1,-1,-1,-1,-1,-1,-1,-1,-1,-1,-1,-1],"split_conditions":[3.109606E0,2.2100425E0,7.165644E0,1.764936E0,4.876652E0,4.744016E0,9.220848E0,8.441795E0,5.9577465E0,-1.1009834E1,7.165644E0,