{"learner":{"attributes":{"best_iteration":"111","best_score":"0.9470054463905336","scikit_learn":"{\"_estimator_type\": \"classifier\"}"},"feature_names":["type_1buy","type_2buy","type_3buy","type_quasi2buy","type_sub1buy","type_2b3bbuy","confidence","confidence_sq","pivot_width_pct","price_above_zg_pct","price_above_zd_pct","stop_loss_dist_pct","macd_hist_last","macd_hist_prev","macd_below_zero","macd_area_10","ma5_dist_pct","ma5_slope","ma10_dist_pct","ma10_slope","ma20_dist_pct","ma20_slope","ma60_dist_pct","ma60_slope","ma_bullish_align","ma_bearish_align","atr_14_pct","volatility_20","rsi_14","vol_ratio_5","vol_ratio_20","vol_shrink","weekly_up","weekly_down","env_bull","env_bear","conf_x_weekly_up","conf_x_env_bull","weekly_up_x_rsi","ret_3d","ret_10d","ret_20d","dist_from_high20_pct","dist_from_low20_pct"],"feature_types":["int","int","int","int","int","int","float","float","float","float","float","float","float","float","int","float","float","float","float","float","float","float","float","float","int","int","float","float","float","float","float","float","int","int","int","int","float","float","float","float","float","float","float","float"],"gradient_booster":{"model":{"cats":{"enc":[],"feature_segments":[],"sorted_idx":[]},"gbtree_model_param":{"num_parallel_tree":"1","num_trees":"426"},"iteration_indptr":[0,3,6,9,12,15,18,21,24,27,30,33,36,39,42,45,48,51,54,57,60,63,66,69,72,75,78,81,84,87,90,93,96,99,102,105,108,111,114,117,120,123,126,129,132,135,138,141,144,147,150,153,156,159,162,165,168,171,174,177,180,183,186,189,192,195,198,201,204,207,210,213,216,219,222,225,228,231,234,237,240,243,246,249,252,255,258,261,264,267,270,273,276,279,282,285,288,291,294,297,300,303,306,309,312,315,318,321,324,327,330,333,336,339,342,345,348,351,354,357,360,363,366,369,372,375,378,381,384,387,390,393,396,399,402,405,408,411,414,417,420,423,426],"tree_info":[0,1,2,0,1,2,0,1,2,0,1,2,0,1,2,0,1,2,0,1,2,0,1,2,0,1,2,0,1,2,0,1,2,0,1,2,0,1,2,0,1,2,0,1,2,0,1,2,0,1,2,0,1,2,0,1,2,0,1,2,0,1,2,0,1,2,0,1,2,0,1,2,0,1,2,0,1,2,0,1,2,0,1,2,0,1,2,0,1,2,0,1,2,0,1,2,0,1,2,0,1,2,0,1,2,0,1,2,0,1,2,0,1,2,0,1,2,0,1,2,0,1,2,0,1,2,0,1,2,0,1,2,0,1,2,0,1,2,0,1,2,0,1,2,0,1,2,0,1,2,0,1,2,0,1,2,0,1,2,0,1,2,0,1,2,0,1,2,0,1,2,0,1,2,0,1,2,0,1,2,0,1,2,0,1,2,0,1,2,0,1,2,0,1,2,0,1,2,0,1,2,0,1,2,0,1,2,0,1,2,0,1,2,0,1,2,0,1,2,0,1,2,0,1,2,0,1,2,0,1,2,0,1,2,0,1,2,0,1,2,0,1,2,0,1,2,0,1,2,0,1,2,0,1,2,0,1,2,0,1,2,0,1,2,0,1,2,0,1,2,0,1,2,0,1,2,0,1,2,0,1,2,0,1,2,0,1,2,0,1,2,0,1,2,0,1,2,0,1,2,0,1,2,0,1,2,0,1,2,0,1,2,0,1,2,0,1,2,0,1,2,0,1,2,0,1,2,0,1,2,0,1,2,0,1,2,0,1,2,0,1,2,0,1,2,0,1,2,0,1,2,0,1,2,0,1,2,0,1,2,0,1,2,0,1,2,0,1,2,0,1,2,0,1,2,0,1,2,0,1,2,0,1,2,0,1,2,0,1,2,0,1,2,0,1,2,0,1,2,0,1,2,0,1,2,0,1,2,0,1,2,0,1,2,0,1,2,0,1,2,0,1,2,0,1,2],"trees":[{"base_weights":[7.1620434E-3,1.913458E-1,-3.599399E-1,4.7704014E-1,2.6202887E-2,-2.437248E-1,-6.168337E-1,1.02175616E-1,6.31894E-1,-9.936418E-2,1.4823705E-1,-3.5249892E-1,-1.4973742E-1,-5.0765157E-1,-6.766742E-1,-8.798524E-2,2.2620447E-1,8.3692276E-1,4.8086843E-1,-2.9208604E-1,-4.131544E-2,2.6665443E-1,4.2080242E-2,-2.80689E-1,-4.753814E-1,-9.193738E-2,-2.8863487E-1,-5.69556E-1,-1.8616274E-1,-3.5959207E-2,-6.150265E-1,9.477921E-3,-8.250056E-3,6.001907E-4,1.803646E-2,4.793456E-2,2.6119158E-2,2.921932E-2,1.5783764E-2,-1.0975451E-3,-1.7276278E-2,-8.724011E-3,7.0808054E-4,1.8195607E-2,5.400352E-3,-2.7156617E-3,7.591814E-3,-2.5755435E-2,-1.22807445E-2,-2.6092058E-2,-1.2033434E-2,5.0843973E-3,-6.651497E-3,-2.6719054E-2,-1.1507767E-2,-3.0195339E-2,-1.8323861E-2,-0E0,-1.7302183E-2,-2.4391467E-2,-3.3852972E-2],"categories":[],"categories_nodes":[],"categories_segments":[],"categories_sizes":[],"default_left":[0,0,0,0,0,0,0,0,0,0,0,0,0,0,0,0,0,0,0,0,0,0,0,0,0,0,0,0,0,0,0,0,0,0,0,0,0,0,0,0,0,0,0,0,0,0,0,0,0,0,0,0,0,0,0,0,0,0,0,0,0],"id":0,"left_children":[1,3,5,7,9,11,13,15,17,19,21,23,25,27,29,31,33,35,37,39,41,43,45,47,49,51,53,55,57,-1,59,-1,-1,-1,-1,-1,-1,-1,-1,-1,-1,-1,-1,-1,-1,-1,-1,-1,-1,-1,-1,-1,-1,-1,-1,-1,-1,-1,-1,-1,-1],"loss_changes":[4.910258E2,2.2807076E2,7.2033295E1,1.0256778E2,4.702799E1,1.6928558E1,4.175171E0,1.2320019E1,3.7921783E1,1.6826756E1,1.949113E1,6.475067E0,7.1202183E0,5.1466064E0,3.3145142E-1,4.43859E0,9.016918E0,1.920456E1,1.1948486E1,4.9515266E0,8.63712E0,1.1183037E1,8.744799E0,3.7112312E0,2.735817E0,5.1162972E0,3.444231E0,1.0691223E0,1.4607704E0,0E0,9.189377E-1,0E0,0E0,0E0,0E0,0E0,0E0,0E0,0E0,0E0,0E0,0E0,0E0,0E0,0E0,0E0,0E0,0E0,0E0,0E0,0E0,0E0,0E0,0E0,0E0,0E0,0E0,0E0,0E0,0E0,0E0],"parents":[2147483647,0,0,1,1,2,2,3,3,4,4,5,5,6,6,7,7,8,8,9,9,10,10,11,11,12,12,13,13,14,14,15,15,16,16,17,17,18,18,19,19,20,20,21,21,22,22,23,23,24,24,25,25,26,26,27,27,28,28,30,30],"right_children":[2,4,6,8,10,12,14,16,18,20,22,24,26,28,30,32,34,36,38,40,42,44,46,48,50,52,54,56,58,-1,60,-1,-1,-1,-1,-1,-1,-1,-1,-1,-1,-1,-1,-1,-1,-1,-1,-1,-1,-1,-1,-1,-1,-1,-1,-1,-1,-1,-1,-1,-1],"split_conditions":[5.6869807E0,2.6849967E-1,8.075582E0,-5.0610585E0,-2.5813296E0,-8.033083E0,9.127027E0,-1.0594984E1,1.9643511E-1,-5.7229114E0,4.557075E0,6.9505796E0,1.0262765E0,2.0100503E0,-6.367041E0,7.7191114E-1,-2.6302478E0,4.437037E0,4.4955945E0,1.7069487E1,-1.2746164E1,3.7758917E-1,-9.819967E-1,-5.2532835E0,2.9498526E-1,5.4367204E0,-2.2485909E-1,-1.48881385E-2,8.29979E-1,-3.5959207E-2,8.733334E0,9.477921E-3,-8.250056E-3,6.001907E-4,1.803646E-2,4.793456E-2,2.6119158E-2,2.921932E-2,1.5783764E-2,-1.0975451E-3,-1.7276278E-2,-8.724011E-3,7.0808054E-4,1.8195607E-2,5.400352E-3,-2.7156617E-3,7.591814E-3,-2.5755435E-2,-1.22807445E-2,-2.6092058E-2,-1.2033434E-2,5.0843973E-3,-6.651497E-3,-2.6719054E-2,-1.1507767E-2,-3.0195339E-2,-1.8323861E-2,-0E0,-1.7302183E-2,-2.4391467E-2,-3.3852972E-2],"split_indices":[11,27,11,20,16,22,11,22,27,16,11,11,21,40,41,30,16,11,11,42,22,27,16,16,16,42,12,13,21,0,43,0,0,0,0,0,0,0,0,0,0,0,0,0,0,0,0,0,0,0,0,0,0,0,0,0,0,0,0,0,0],"split_type":[0,0,0,0,0,0,0,0,0,0,0,0,0,0,0,0,0,0,0,0,0,0,0,0,0,0,0,0,0,0,0,0,0,0,0,0,0,0,0,0,0,0,0,0,0,0,0,0,0,0,0,0,0,0,0,0,0,0,0,0,0],"sum_hessian":[7.2596396E3,4.8350454E3,2.424594E3,1.7696089E3,3.0654365E3,1.6719357E3,7.526583E2,5.184194E2,1.2511896E3,1.5101782E3,1.5552582E3,7.721046E2,8.998311E2,2.7268948E2,4.7996887E2,2.0418565E2,3.1423376E2,5.272586E2,7.239309E2,3.4738077E2,1.1627975E3,7.332121E2,8.220461E2,4.9145984E2,2.8064478E2,6.381906E2,2.6164047E2,2.2716759E2,4.5521908E1,2.7268948E2,2.0727937E2,4.3312107E1,1.6087354E2,1.22423E2,1.9181076E2,3.7743408E2,1.4982454E2,4.4196027E2,2.8197064E2,5.8338757E1,2.8904202E2,3.4207724E2,8.207202E2,4.5256732E2,2.8064478E2,4.3709872E2,3.849474E2,6.0548557E1,4.3091125E2,2.3202914E2,4.861563E1,1.1049007E2,5.2770056E2,4.728975E1,2.1435074E2,1.9092683E2,3.624074E1,2.1214092E1,2.4307816E1,7.33654E1,1.3391397E2],"tree_param":{"num_deleted":"0","num_feature":"44","num_nodes":"61","size_leaf_vector":"1"}},{"base_weights":[4.7111395E-3,4.0190842E-2,-3.898529E-1,-2.2129779E-1,7.291062E-2,-2.638309E-1,-5.903602E-1,-4.0565416E-1,-1.3532798E-1,1.5706971E-1,-4.067383E-2,-4.394892E-1,-1.0849583E-1,-4.8182014E-1,-6.881162E-1,-4.5362538E-1,1.2199763E-4,1.943369E-2,-1.5912135E-1,1.13514155E-1,2.7242562E-1,3.6932966E-3,-1.5941428E-1,-4.8221958E-1,-7.067937E-3,9.2221834E-2,-2.2486743E-1,-1.312158E-2,-5.555605E-1,-2.3917357E-2,-3.667362E-2,-2.5621852E-2,-8.511986E-3,-1.1616046E-2,-8.466939E-4,8.942174E-3,2.7216128E-3,2.3943944E-2,1.1382863E-2,3.7785897E-3,-1.6686379E-3,-8.603675E-5,-1.1541868E-2,-1.3716844E-2,-2.8378827E-2,-1.8579614E-3,1.9368807E-2,-5.178367E-3,-2.0584373E-2,-3.450833E-2,-2.2419197E-2],"categories":[],"categories_nodes":[],"categories_segments":[],"categories_sizes":[],"default_left":[0,0,0,0,0,0,0,0,0,0,0,0,0,0,0,0,0,0,0,0,0,0,0,0,0,0,0,0,0,0,0,0,0,0,0,0,0,0,0,0,0,0,0,0,0,0,0,0,0,0,0],"id":1,"left_children":[1,3,5,7,9,11,13,15,17,19,21,23,25,27,29,31,-1,-1,33,35,37,39,41,43,-1,45,47,-1,49,-1,-1,-1,-1,-1,-1,-1,-1,-1,-1,-1,-1,-1,-1,-1,-1,-1,-1,-1,-1,-1,-1],"loss_changes":[1.0377451E2,5.8227905E1,1.5048111E1,1.180146E1,5.787659E1,1.0155968E1,1.7536011E0,4.7734222E0,6.5176315E0,1.7346756E1,1.3600327E1,2.0239944E0,4.8144217E0,1.5096874E0,3.6114502E-1,3.3063774E0,0E0,0E0,5.126281E0,9.6959E0,8.482071E0,5.008205E0,7.8575935E0,2.3188858E0,0E0,2.9622517E0,2.7784276E0,0E0,5.416336E-1,0E0,0E0,0E0,0E0,0E0,0E0,0E0,0E0,0E0,0E0,0E0,0E0,0E0,0E0,0E0,0E0,0E0,0E0,0E0,0E0,0E0,0E0],"parents":[2147483647,0,0,1,1,2,2,3,3,4,4,5,5,6,6,7,7,8,8,9,9,10,10,11,11,12,12,13,13,14,14,15,15,18,18,19,19,20,20,21,21,22,22,23,23,25,25,26,26,28,28],"right_children":[2,4,6,8,10,12,14,16,18,20,22,24,26,28,30,32,-1,-1,34,36,38,40,42,44,-1,46,48,-1,50,-1,-1,-1,-1,-1,-1,-1,-1,-1,-1,-1,-1,-1,-1,-1,-1,-1,-1,-1,-1,-1,-1],"split_conditions":[8.657908E0,2.1793702E0,1.0977571E1,1.669653E0,3.95523E0,-4.7974834E0,1.1853309E0,4.616667E0,-4.7461553E0,5.4661016E0,5.7018905E0,-4.8076922E-1,9.5765215E-1,1.1818182E1,9.6108294E-1,1.1139641E0,1.2199763E-4,1.943369E-2,4.450467E0,-3.2068686E0,4.2813784E-1,-2.7392632E-1,7.554584E-1,1.0488505E1,-7.067937E-3,2.6495876E0,5.3402596E0,-1.312158E-2,-9.586545E0,-2.3917357E-2,-3.667362E-2,-2.5621852E-2,-8.511986E-3,-1.1616046E-2,-8.466939E-4,8.942174E-3,2.7216128E-3,2.3943944E-2,1.1382863E-2,3.7785897E-3,-1.6686379E-3,-8.603675E-5,-1.1541868E-2,-1.3716844E-2,-2.8378827E-2,-1.8579614E-3,1.9368807E-2,-5.178367E-3,-2.0584373E-2,-3.450833E-2,-2.2419197E-2],"split_indices":[11,26,11,26,26,17,31,11,18,11,26,39,31,11,29,31,0,0,11,18,15,12,31,8,0,22,26,0,17,0,0,0,0,0,0,0,0,0,0,0,0,0,0,0,0,0,0,0,0,0,0],"split_type":[0,0,0,0,0,0,0,0,0,0,0,0,0,0,0,0,0,0,0,0,0,0,0,0,0,0,0,0,0,0,0,0,0,0,0,0,0,0,0,0,0,0,0,0,0,0,0,0,0,0,0],"sum_hessian":[7.4148037E3,6.8047646E3,6.10039E2,7.551366E2,6.049628E3,3.773437E2,2.3269528E2,2.3763669E2,5.1749994E2,3.475605E3,2.5740232E3,1.7519528E2,2.021484E2,1.154492E2,1.1724608E2,2.1292966E2,2.4707027E1,2.111328E1,4.9638666E2,2.526406E3,9.491991E2,1.8736912E3,7.003319E2,1.5183592E2,2.3359371E1,7.367187E1,1.2847655E2,3.1445309E1,8.40039E1,2.4707027E1,9.253905E1,1.7474606E2,3.818359E1,3.2613278E2,1.7025389E2,1.1967186E3,1.3296874E3,1.657617E2,7.834374E2,6.38789E2,1.2349022E3,2.1966794E2,4.80664E2,4.6718742E1,1.0511717E2,5.166015E1,2.2011715E1,7.996093E1,4.8515617E1,3.2792965E1,5.121093E1],"tree_param":{"num_deleted":"0","num_feature":"44","num_nodes":"51","size_leaf_vector":"1"}},{"base_weights":[-4.0073553E-3,-3.1241444E-1,4.0017837E-1,-4.8406574E-1,-1.1738526E-1,2.009792E-1,6.741114E-1,-6.134733E-1,-4.2867485E-1,-1.368119E-1,3.810707E-2,3.586739E-3,3.023555E-1,2.9773322E-1,8.001286E-1,-1.32615315E-2,-6.2831664E-1,-4.3948746E-1,-7.7512585E-2,6.890587E-2,-1.9154204E-1,-1.9401599E-2,2.7587077E-2,1.6982971E-1,4.3693283E-1,3.918943E-2,2.4675924E-1,1.1940548E0,6.9083047E-1,-1.6377477E-2,-3.1876884E-2,-1.7158246E-2,-2.354001E-2,7.506091E-3,-1.717601E-2,-1.0004322E-2,6.0628084E-3,-1.4854464E-2,-6.101214E-3,5.998322E-3,-6.059598E-3,2.2654166E-2,5.7012006E-3,3.6872026E-2,1.4113501E-2,7.3640407E-3,2.2388186E-2,6.627023E-2,3.2037616E-2,3.724247E-2,2.2962244E-2],"categories":[],"categories_nodes":[],"categories_segments":[],"categories_sizes":[],"default_left":[0,0,0,0,0,0,0,0,0,0,0,0,0,0,0,0,0,0,0,0,0,0,0,0,0,0,0,0,0,0,0,0,0,0,0,0,0,0,0,0,0,0,0,0,0,0,0,0,0,0,0],"id":2,"left_children":[1,3,5,7,9,11,13,15,17,19,-1,21,23,25,27,-1,29,31,33,35,37,39,-1,41,43,-1,45,47,49,-1,-1,-1,-1,-1,-1,-1,-1,-1,-1,-1,-1,-1,-1,-1,-1,-1,-1,-1,-1,-1,-1],"loss_changes":[9.049806E2,1.3766043E2,1.710646E2,1.5090515E1,3.3013924E1,3.638965E1,6.21131E1,2.9398346E0,5.689789E0,2.1325329E1,0E0,7.9389153E0,2.1219925E1,7.786978E0,4.0963745E1,0E0,1.2226562E0,4.095978E0,3.0438266E0,5.618521E0,1.0824707E1,8.483107E0,0E0,9.439465E0,2.7142372E1,0E0,5.8837223E0,1.3764282E1,8.979858E0,0E0,0E0,0E0,0E0,0E0,0E0,0E0,0E0,0E0,0E0,0E0,0E0,0E0,0E0,0E0,0E0,0E0,0E0,0E0,0E0,0E0,0E0],"parents":[2147483647,0,0,1,1,2,2,3,3,4,4,5,5,6,6,7,7,8,8,9,9,11,11,12,12,13,13,14,14,16,16,17,17,18,18,19,19,20,20,21,21,23,23,24,24,26,26,27,27,28,28],"right_children":[2,4,6,8,10,12,14,16,18,20,-1,22,24,26,28,-1,30,32,34,36,38,40,-1,42,44,-1,46,48,50,-1,-1,-1,-1,-1,-1,-1,-1,-1,-1,-1,-1,-1,-1,-1,-1,-1,-1,-1,-1,-1,-1],"split_conditions":[3.8859577E0,2.944259E0,5.269841E0,2.1173148E0,1.8095791E0,7.724989E-1,7.554584E-1,1.3833992E0,1.1702273E0,-1.2409907E1,3.810707E-2,1.2826529E0,4.4766707E0,-2.4401197E1,-4.5370545E0,-1.32615315E-2,-1.7239895E0,-2.3053133E0,8.474329E-1,-5.5461235E0,7.9368055E-1,-7.1706505E0,2.7587077E-2,-5.823217E0,-1.7052375E0,3.918943E-2,-3.8222053E0,-5.7747726E0,2.9238691E0,-1.6377477E-2,-3.1876884E-2,-1.7158246E-2,-2.354001E-2,7.506091E-3,-1.717601E-2,-1.0004322E-2,6.0628084E-3,-1.4854464E-2,-6.101214E-3,5.998322E-3,-6.059598E-3,2.2654166E-2,5.7012006E-3,3.6872026E-2,1.4113501E-2,7.3640407E-3,2.2388186E-2,6.627023E-2,3.2037616E-2,3.724247E-2,2.2962244E-2],"split_indices":[26,26,26,26,16,31,31,42,16,22,0,16,43,41,21,0,23,16,15,19,31,20,0,16,19,0,22,17,19,0,0,0,0,0,0,0,0,0,0,0,0,0,0,0,0,0,0,0,0,0,0],"split_type":[0,0,0,0,0,0,0,0,0,0,0,0,0,0,0,0,0,0,0,0,0,0,0,0,0,0,0,0,0,0,0,0,0,0,0,0,0,0,0,0,0,0,0,0,0,0,0,0,0,0,0],"sum_hessian":[7.2570913E3,4.1167275E3,3.1403638E3,2.187868E3,1.9288596E3,1.8201293E3,1.3202346E3,6.501724E2,1.5376954E3,1.8886383E3,4.022141E1,6.187909E2,1.2013384E3,3.328211E2,9.874135E2,2.8287584E1,6.218849E2,1.4908441E3,4.685131E1,3.9602618E2,1.492612E3,5.949233E2,2.386765E1,6.077411E2,5.935973E2,2.9171572E1,3.0364954E2,2.108309E2,7.765826E2,2.0773695E1,6.0111115E2,3.7171655E2,1.1191276E3,2.519363E1,2.1657682E1,6.320507E1,3.328211E2,5.896193E2,9.0299274E2,2.5016832E2,3.4475494E2,9.7680565E1,5.1006052E2,1.9933907E2,3.942582E2,2.0552698E2,9.812256E1,1.6839952E2,4.2431377E1,6.263048E2,1.5027779E2],"tree_param":{"num_deleted":"0","num_feature":"44","num_nodes":"51","size_leaf_vector":"1"}},{"base_weights":[6.350566E-3,4.5201507E-1,-1.8596424E-1,7.692977E-1,2.8450763E-1,-4.136021E-2,-4.3111822E-1,1.0169387E0,6.554004E-1,3.502498E-1,-8.988467E-2,2.743867E-2,-2.5087604E-1,-3.161313E-1,-5.8556694E-1,2.2216689E-2,1.1042458E0,8.0780566E-1,5.2738494E-1,1.10877745E-1,4.4495785E-1,-1.494072E-1,1.2666496E-2,8.381777E-2,-4.871305E-2,-1.527194E-1,-3.9385095E-1,-2.0977044E-1,-3.7279063E-1,-3.46783E-2,-5.201433E-1,5.761503E-2,3.4161728E-2,2.9834462E-2,4.5362677E-2,1.5758865E-2,3.1806584E-2,1.2753246E-3,2.4185278E-2,2.974679E-2,1.8328276E-2,-2.6804379E-3,-2.050794E-2,7.382763E-3,-1.4562247E-3,1.7519293E-2,-3.1568059E-3,-9.414113E-3,5.688791E-3,-1.2669635E-2,-2.3859438E-2,-6.518451E-3,-1.88217E-2,-1.9721039E-2,-4.523437E-3,-2.1430654E-2,-3.0805895E-2],"categories":[],"categories_nodes":[],"categories_segments":[],"categories_sizes":[],"default_left":[0,0,0,0,0,0,0,0,0,0,0,0,0,0,0,0,0,0,0,0,0,0,0,0,0,0,0,0,0,0,0,0,0,0,0,0,0,0,0,0,0,0,0,0,0,0,0,0,0,0,0,0,0,0,0,0,0],"id":3,"left_children":[1,3,5,7,9,11,13,15,17,19,21,23,25,27,29,-1,31,33,35,37,39,41,-1,43,45,47,49,51,53,-1,55,-1,-1,-1,-1,-1,-1,-1,-1,-1,-1,-1,-1,-1,-1,-1,-1,-1,-1,-1,-1,-1,-1,-1,-1,-1,-1],"loss_changes":[6.244658E2,1.1619513E2,1.802835E2,2.0035248E1,3.5549942E1,4.6225594E1,3.3061066E1,1.0722946E1,9.31189E0,2.7607147E1,4.4460945E0,1.0368376E1,1.0924618E1,6.3102036E0,4.8897095E0,0E0,2.5579834E0,3.8326263E0,6.1937027E0,1.1023962E1,9.795029E0,4.5057225E0,0E0,1.0037118E1,5.878613E0,4.5324106E0,3.4286385E0,4.8811417E0,4.156723E0,0E0,3.850525E0,0E0,0E0,0E0,0E0,0E0,0E0,0E0,0E0,0E0,0E0,0E0,0E0,0E0,0E0,0E0,0E0,0E0,0E0,0E0,0E0,0E0,0E0,0E0,0E0,0E0,0E0],"parents":[2147483647,0,0,1,1,2,2,3,3,4,4,5,5,6,6,7,7,8,8,9,9,10,10,11,11,12,12,13,13,14,14,16,16,17,17,18,18,19,19,20,20,21,21,23,23,24,24,25,25,26,26,27,27,28,28,30,30],"right_children":[2,4,6,8,10,12,14,16,18,20,22,24,26,28,30,-1,32,34,36,38,40,42,-1,44,46,48,50,52,54,-1,56,-1,-1,-1,-1,-1,-1,-1,-1,-1,-1,-1,-1,-1,-1,-1,-1,-1,-1,-1,-1,-1,-1,-1,-1,-1,-1],"split_conditions":[2.930069E0,2.1793702E0,5.974808E0,1.669653E0,5.707411E0,4.9310436E0,7.85E0,-8.452869E-1,8.623123E-1,-2.2653723E0,5.7145707E-2,8.244232E-1,8.1485397E-1,8.200212E-1,-8.821224E0,2.2216689E-2,5.901524E-1,-1.7842323E1,-3.412347E0,-9.0817356E-1,4.002066E0,6.9071107E0,1.2666496E-2,4.827536E0,6.7823195E-1,1.0313919E0,1.0031801E0,6.9933047E0,1.5485305E0,-3.46783E-2,9.255332E0,5.761503E-2,3.4161728E-2,2.9834462E-2,4.5362677E-2,1.5758865E-2,3.1806584E-2,1.2753246E-3,2.4185278E-2,2.974679E-2,1.8328276E-2,-2.6804379E-3,-2.050794E-2,7.382763E-3,-1.4562247E-3,1.7519293E-2,-3.1568059E-3,-9.414113E-3,5.688791E-3,-1.2669635E-2,-2.3859438E-2,-6.518451E-3,-1.88217E-2,-1.9721039E-2,-4.523437E-3,-2.1430654E-2,-3.0805895E-2],"split_indices":[26,26,11,26,11,26,11,23,30,16,12,30,30,31,20,0,20,9,20,17,11,11,0,11,29,31,31,11,31,0,11,0,0,0,0,0,0,0,0,0,0,0,0,0,0,0,0,0,0,0,0,0,0,0,0,0,0],"split_type":[0,0,0,0,0,0,0,0,0,0,0,0,0,0,0,0,0,0,0,0,0,0,0,0,0,0,0,0,0,0,0,0,0,0,0,0,0,0,0,0,0,0,0,0,0,0,0,0,0,0,0,0,0,0,0,0,0],"sum_hessian":[7.2823867E3,2.1949321E3,5.0874546E3,7.56131E2,1.438801E3,3.201575E3,1.8858796E3,2.339081E2,5.222229E2,1.2244264E3,2.1437473E2,2.4104143E3,7.911607E2,1.0844056E3,8.014739E2,3.2457787E1,2.014503E2,2.3405154E2,2.8817133E2,3.4863315E2,8.757932E2,1.8390965E2,3.0465069E1,1.3864375E3,1.0239768E3,4.7177432E2,3.1938638E2,3.8057465E2,7.0383105E2,2.957696E2,5.057043E2,1.7804718E2,2.3403122E1,7.895346E1,1.5509808E2,1.0024347E2,1.8792787E2,2.8541663E2,6.3216515E1,2.9636374E2,5.7942944E2,1.3637996E2,4.7529705E1,8.866135E2,4.9982394E2,3.4012566E1,9.8996423E2,4.1728043E2,5.4493896E1,1.220846E2,1.9730179E2,2.603925E2,1.20182175E2,6.525331E2,5.1297924E1,2.6410873E2,2.4159557E2],"tree_param":{"num_deleted":"0","num_feature":"44","num_nodes":"57","size_leaf_vector":"1"}},{"base_weights":[-1.0852868E-3,3.305832E-2,-3.8990375E-1,-2.2190042E-1,6.4214684E-2,-2.6943076E-1,-6.2361E-1,-4.1541418E-1,-1.3020135E-1,1.2147546E-1,-6.2312998E-2,-3.05305E-1,1.3338125E-2,-1.8447306E-2,-3.2596137E-2,-5.262552E-1,-2.7219832E-1,2.1180255E-2,-1.5525681E-1,8.940494E-2,2.1648239E-1,-2.223677E-2,-1.8586731E-1,-1.7192079E-1,-4.4510603E-1,-2.8526112E-2,-1.4684649E-2,-4.0520467E-3,-2.1605339E-2,-1.097701E-2,-5.4203457E-4,1.0041513E-2,2.971638E-3,1.47319855E-2,4.4290493E-3,9.404026E-5,-1.0440063E-2,-6.046917E-3,-1.6578821E-2,-1.8370235E-2,-4.047052E-3,-1.329113E-2,-2.7024016E-2],"categories":[],"categories_nodes":[],"categories_segments":[],"categories_sizes":[],"default_left":[0,0,0,0,0,0,0,0,0,0,0,0,0,0,0,0,0,0,0,0,0,0,0,0,0,0,0,0,0,0,0,0,0,0,0,0,0,0,0,0,0,0,0],"id":4,"left_children":[1,3,5,7,9,11,13,15,17,19,21,23,-1,-1,-1,25,27,-1,29,31,33,35,37,39,41,-1,-1,-1,-1,-1,-1,-1,-1,-1,-1,-1,-1,-1,-1,-1,-1,-1,-1],"loss_changes":[9.796888E1,5.383541E1,1.634304E1,1.2901653E1,4.3799507E1,7.753235E0,8.838501E-1,3.3688622E0,7.030939E0,1.2588982E1,9.273079E0,6.708149E0,0E0,0E0,0E0,9.1970444E-1,3.1088E0,0E0,4.4353514E0,1.0333925E1,1.0356071E1,6.4505615E0,4.197605E0,3.3126035E0,2.7045746E0,0E0,0E0,0E0,0E0,0E0,0E0,0E0,0E0,0E0,0E0,0E0,0E0,0E0,0E0,0E0,0E0,0E0,0E0],"parents":[2147483647,0,0,1,1,2,2,3,3,4,4,5,5,6,6,7,7,8,8,9,9,10,10,11,11,15,15,16,16,18,18,19,19,20,20,21,21,22,22,23,23,24,24],"right_children":[2,4,6,8,10,12,14,16,18,20,22,24,-1,-1,-1,26,28,-1,30,32,34,36,38,40,42,-1,-1,-1,-1,-1,-1,-1,-1,-1,-1,-1,-1,-1,-1,-1,-1,-1,-1],"split_conditions":[8.657908E0,2.1576197E0,1.1343306E1,1.669653E0,4.4075303E0,1.7409472E1,4.530535E0,1.6161616E0,-7.755102E0,5.6869807E0,6.730769E0,5.3749013E0,1.3338125E-2,-1.8447306E-2,-3.2596137E-2,8.995816E0,1.7079419E-1,2.1180255E-2,4.4814544E0,8.595989E-1,3.7076523E0,7.02765E0,1.1560321E0,-6.954728E0,9.5718163E-1,-2.8526112E-2,-1.4684649E-2,-4.0520467E-3,-2.1605339E-2,-1.097701E-2,-5.4203457E-4,1.0041513E-2,2.971638E-3,1.47319855E-2,4.4290493E-3,9.404026E-5,-1.0440063E-2,-6.046917E-3,-1.6578821E-2,-1.8370235E-2,-4.047052E-3,-1.329113E-2,-2.7024016E-2],"split_indices":[11,26,11,26,26,43,26,43,40,11,11,26,0,0,0,42,17,0,11,43,26,26,30,20,30,0,0,0,0,0,0,0,0,0,0,0,0,0,0,0,0,0,0],"split_type":[0,0,0,0,0,0,0,0,0,0,0,0,0,0,0,0,0,0,0,0,0,0,0,0,0,0,0,0,0,0,0,0,0,0,0,0,0,0,0,0,0,0,0],"sum_hessian":[7.3712515E3,6.776996E3,5.942553E2,7.362787E2,6.040718E3,3.948167E2,1.994386E2,2.3431801E2,5.019607E2,4.1598125E3,1.8809049E3,3.7101285E2,2.3803867E1,2.2767065E1,1.7667154E2,1.2904E2,1.05278015E2,2.0348604E1,4.816121E2,3.113752E3,1.0460608E3,1.4227943E3,4.581106E2,1.9230743E2,1.787054E2,1.0585183E2,2.3188164E1,4.9552727E1,5.572529E1,3.3176822E2,1.4984387E2,6.567985E2,2.4569534E3,6.4710944E2,3.989514E2,1.2602872E3,1.6250706E2,3.197468E2,1.383638E2,5.8930496E1,1.3337694E2,6.4755875E1,1.1394953E2],"tree_param":{"num_deleted":"0","num_feature":"44","num_nodes":"43","size_leaf_vector":"1"}},{"base_weights":[4.7346434E-4,-3.257995E-1,3.559725E-1,-4.821298E-1,-1.5344673E-1,1.9544756E-1,9.1836035E-1,-4.969347E-1,8.121905E-2,-2.2374623E-1,8.735415E-2,9.581921E-2,4.4657478E-1,7.6847124E-1,6.369586E-2,-5.6717414E-1,-4.1342482E-1,1.9167798E-2,-1.7941521E-2,-8.702091E-3,-2.750479E-1,2.0622844E-2,5.930363E-1,-6.0384016E-2,1.9491516E-1,3.5616264E-1,7.712026E-1,9.476117E-1,6.0085356E-1,-3.2466587E-2,-2.615255E-2,-1.48601355E-2,-2.3100486E-2,-5.572967E-3,7.730411E-3,-1.4385841E-2,-0E0,7.0382217E-3,-1.0712013E-2,1.6726987E-2,4.2524505E-2,1.2455021E-2,-5.62547E-3,6.0179955E-3,1.9583246E-2,7.089667E-3,2.177057E-2,4.1949175E-2,1.2595055E-2,3.253782E-2,5.0681956E-2,2.5484478E-2,4.084557E-2],"categories":[],"categories_nodes":[],"categories_segments":[],"categories_sizes":[],"default_left":[0,0,0,0,0,0,0,0,0,0,0,0,0,0,0,0,0,0,0,0,0,0,0,0,0,0,0,0,0,0,0,0,0,0,0,0,0,0,0,0,0,0,0,0,0,0,0,0,0,0,0,0,0],"id":5,"left_children":[1,3,5,7,9,11,13,15,17,19,21,23,25,27,-1,29,31,-1,-1,33,35,37,39,41,43,45,47,49,51,-1,-1,-1,-1,-1,-1,-1,-1,-1,-1,-1,-1,-1,-1,-1,-1,-1,-1,-1,-1,-1,-1,-1,-1],"loss_changes":[8.479003E2,1.0245694E2,3.1535654E2,1.680188E1,3.0791843E1,6.797879E1,3.9490173E1,1.0871002E1,7.1367264E0,1.5455383E1,1.3718389E1,3.0270899E1,2.2042297E1,1.5357086E1,0E0,3.0697632E0,4.702606E0,0E0,0E0,4.6017637E0,3.9741669E0,1.032225E1,2.4958553E0,1.2247957E1,1.7369167E1,1.011528E1,5.3275757E0,3.8283386E0,4.800827E0,0E0,0E0,0E0,0E0,0E0,0E0,0E0,0E0,0E0,0E0,0E0,0E0,0E0,0E0,0E0,0E0,0E0,0E0,0E0,0E0,0E0,0E0,0E0,0E0],"parents":[2147483647,0,0,1,1,2,2,3,3,4,4,5,5,6,6,7,7,8,8,9,9,10,10,11,11,12,12,13,13,15,15,16,16,19,19,20,20,21,21,22,22,23,23,24,24,25,25,26,26,27,27,28,28],"right_children":[2,4,6,8,10,12,14,16,18,20,22,24,26,28,-1,30,32,-1,-1,34,36,38,40,42,44,46,48,50,52,-1,-1,-1,-1,-1,-1,-1,-1,-1,-1,-1,-1,-1,-1,-1,-1,-1,-1,-1,-1,-1,-1,-1,-1],"split_conditions":[3.742696E0,2.863046E0,7.85E0,6.9933047E0,5.9483285E0,5.4761906E0,1.0977571E1,2.3919652E0,7.8167114E0,-1.2409907E1,8.475806E0,7.0504504E-1,1.1560321E0,-1.1354283E1,6.369586E-2,3.7046006E0,-3.5871935E0,1.9167798E-2,-1.7941521E-2,3.446098E0,1.590746E0,-5.1842374E-1,7.105263E0,-1.5419214E1,6.410989E0,6.8624216E-1,8.381181E-1,8.3909225E-1,1.1743425E0,-3.2466587E-2,-2.615255E-2,-1.48601355E-2,-2.3100486E-2,-5.572967E-3,7.730411E-3,-1.4385841E-2,-0E0,7.0382217E-3,-1.0712013E-2,1.6726987E-2,4.2524505E-2,1.2455021E-2,-5.62547E-3,6.0179955E-3,1.9583246E-2,7.089667E-3,2.177057E-2,4.1949175E-2,1.2595055E-2,3.253782E-2,5.0681956E-2,2.5484478E-2,4.084557E-2],"split_indices":[26,26,11,11,11,26,11,26,42,22,11,30,30,22,0,11,18,0,0,26,30,21,42,22,11,31,27,31,31,0,0,0,0,0,0,0,0,0,0,0,0,0,0,0,0,0,0,0,0,0,0,0,0],"split_type":[0,0,0,0,0,0,0,0,0,0,0,0,0,0,0,0,0,0,0,0,0,0,0,0,0,0,0,0,0,0,0,0,0,0,0,0,0,0,0,0,0,0,0,0,0,0,0,0,0,0,0,0,0],"sum_hessian":[7.307081E3,3.809932E3,3.4971492E3,1.9958059E3,1.8141261E3,2.7224458E3,7.7470337E2,1.945217E3,5.058884E1,1.4049124E3,4.0921375E2,1.9512183E3,7.7122754E2,5.486979E2,2.2600548E2,1.0505374E3,8.9467975E2,3.0378668E1,2.0210175E1,2.7169333E2,1.1332191E3,3.6323663E2,4.5977104E1,7.568215E2,1.1943969E3,6.0616595E2,1.6506158E2,2.6128143E2,2.8741644E2,3.5829044E2,6.922468E2,2.681111E2,6.265686E2,1.6780737E2,1.03885956E2,1.0834984E3,4.9720715E1,2.4127014E2,1.2196649E2,2.5050804E1,2.09263E1,1.0772424E2,6.490972E2,8.686642E2,3.2573264E2,1.6541716E2,4.407488E2,1.4484714E2,2.021444E1,5.1054863E1,2.1022658E2,2.063238E2,8.109262E1],"tree_param":{"num_deleted":"0","num_feature":"44","num_nodes":"53","size_leaf_vector":"1"}},{"base_weights":[-1.291617E-3,1.7214133E-1,-3.5667124E-1,4.3592787E-1,1.4401396E-2,-2.3226668E-1,-5.57302E-1,1.3566294E-1,5.987879E-1,-1.1616324E-1,1.3727705E-1,1.4075725E-2,-2.6401126E-1,-4.6755338E-1,-6.4347225E-1,-2.0813951E-2,3.098375E-1,8.14078E-1,4.8758495E-1,-3.0041432E-1,-5.877976E-2,2.5833985E-1,2.879853E-2,-1.3562992E-2,9.477087E-2,-2.8569883E-1,-0E0,-5.696219E-1,-3.575926E-1,-5.021282E-1,-6.6704136E-1,1.4190857E-2,-5.2456367E-3,1.9467069E-2,2.137171E-3,4.574382E-2,2.586179E-2,2.8720185E-2,1.7996242E-2,-2.1834936E-2,-9.65785E-3,3.4390676E-3,-5.153274E-3,1.4686095E-2,-6.278281E-3,1.1159111E-2,-1.759472E-3,1.2670162E-2,-4.3283254E-3,-1.2163443E-2,-2.0775368E-2,-1.108431E-2,8.237338E-3,-7.2304765E-3,-3.0725008E-2,8.9074904E-4,-2.289486E-2,-3.4284372E-2,-1.7040065E-2,-3.398345E-2,-2.2215147E-2],"categories":[],"categories_nodes":[],"categories_segments":[],"categories_sizes":[],"default_left":[0,0,0,0,0,0,0,0,0,0,0,0,0,0,0,0,0,0,0,0,0,0,0,0,0,0,0,0,0,0,0,0,0,0,0,0,0,0,0,0,0,0,0,0,0,0,0,0,0,0,0,0,0,0,0,0,0,0,0,0,0],"id":6,"left_children":[1,3,5,7,9,11,13,15,17,19,21,23,25,27,29,31,33,35,37,39,41,43,45,-1,47,49,51,53,55,57,59,-1,-1,-1,-1,-1,-1,-1,-1,-1,-1,-1,-1,-1,-1,-1,-1,-1,-1,-1,-1,-1,-1,-1,-1,-1,-1,-1,-1,-1,-1],"loss_changes":[4.4625046E2,2.0232852E2,5.8920166E1,8.873062E1,4.8902874E1,1.1543343E1,6.342682E0,1.7575012E1,2.7373108E1,1.551829E1,2.0561724E1,3.8806715E0,7.4786606E0,4.5709534E0,7.885895E-1,8.698383E0,6.358864E0,1.0934814E1,8.168594E0,4.857395E0,6.3951325E0,1.0158764E1,1.0386482E1,0E0,3.8901722E0,6.345558E0,3.7046928E0,4.1099854E0,8.462856E0,1.5969276E0,4.0937805E-1,0E0,0E0,0E0,0E0,0E0,0E0,0E0,0E0,0E0,0E0,0E0,0E0,0E0,0E0,0E0,0E0,0E0,0E0,0E0,0E0,0E0,0E0,0E0,0E0,0E0,0E0,0E0,0E0,0E0,0E0],"parents":[2147483647,0,0,1,1,2,2,3,3,4,4,5,5,6,6,7,7,8,8,9,9,10,10,11,11,12,12,13,13,14,14,15,15,16,16,17,17,18,18,19,19,20,20,21,21,22,22,24,24,25,25,26,26,27,27,28,28,29,29,30,30],"right_children":[2,4,6,8,10,12,14,16,18,20,22,24,26,28,30,32,34,36,38,40,42,44,46,-1,48,50,52,54,56,58,60,-1,-1,-1,-1,-1,-1,-1,-1,-1,-1,-1,-1,-1,-1,-1,-1,-1,-1,-1,-1,-1,-1,-1,-1,-1,-1,-1,-1,-1,-1],"split_conditions":[5.6869807E0,2.6849967E-1,7.601518E0,-4.386098E0,-2.5813296E0,2.4971545E-1,9.127027E0,-6.172523E0,1.8181296E-1,-5.6179776E0,4.557075E0,-8.731241E0,-4.6578493E0,-2.3779724E0,8.1465447E-1,8.5485667E-1,-4.9570813E0,4.437037E0,4.450467E0,-8.9605093E-1,3.292689E-1,6.670733E0,6.4205325E-1,-1.3562992E-2,9.897879E-1,6.9933047E0,2.6992288E0,6.4205325E-1,-1.7357002E1,-1.6023306E1,3.7181994E-1,1.4190857E-2,-5.2456367E-3,1.9467069E-2,2.137171E-3,4.574382E-2,2.586179E-2,2.8720185E-2,1.7996242E-2,-2.1834936E-2,-9.65785E-3,3.4390676E-3,-5.153274E-3,1.4686095E-2,-6.278281E-3,1.1159111E-2,-1.759472E-3,1.2670162E-2,-4.3283254E-3,-1.2163443E-2,-2.0775368E-2,-1.108431E-2,8.237338E-3,-7.2304765E-3,-3.0725008E-2,8.9074904E-4,-2.289486E-2,-3.4284372E-2,-1.7040065E-2,-3.398345E-2,-2.2215147E-2],"split_indices":[11,27,11,20,16,27,11,20,27,16,11,41,9,19,31,29,40,11,11,23,27,15,31,0,31,11,8,31,10,10,13,0,0,0,0,0,0,0,0,0,0,0,0,0,0,0,0,0,0,0,0,0,0,0,0,0,0,0,0,0,0],"split_type":[0,0,0,0,0,0,0,0,0,0,0,0,0,0,0,0,0,0,0,0,0,0,0,0,0,0,0,0,0,0,0,0,0,0,0,0,0,0,0,0,0,0,0,0,0,0,0,0,0,0,0,0,0,0,0,0,0,0,0,0,0],"sum_hessian":[7.236674E3,4.863427E3,2.3732468E3,1.8184845E3,3.0449424E3,1.4675195E3,9.0572736E2,6.4087726E2,1.1776072E3,1.4755325E3,1.56941E3,1.6689847E2,1.3006211E3,4.4951025E2,4.562171E2,3.376805E2,3.0319678E2,3.972492E2,7.8035803E2,3.4807367E2,1.1274587E3,7.3983405E2,8.295759E2,3.5467106E1,1.3143137E2,1.2020583E3,9.856272E1,2.2892589E2,2.2058437E2,7.119603E1,3.8502106E2,7.1769485E1,2.6591104E2,2.325423E2,7.065448E1,2.9371567E2,1.03533554E2,4.604206E2,3.199374E2,1.504436E2,1.9763008E2,2.891737E2,8.382851E2,6.7820197E2,6.1632103E1,2.053015E2,6.242745E2,7.0374855E1,6.1056515E1,9.1034827E2,2.9171002E2,4.1590378E1,5.6972343E1,2.289476E1,2.0603113E2,4.6350197E1,1.7423418E2,3.0442783E1,4.0753246E1,3.6060245E2,2.4418636E1],"tree_param":{"num_deleted":"0","num_feature":"44","num_nodes":"61","size_leaf_vector":"1"}},{"base_weights":[-2.0644688E-3,3.2477465E-2,-3.781165E-1,-2.264979E-1,6.19289E-2,-2.559633E-1,-5.8467054E-1,-4.1149548E-1,-1.2988369E-1,1.2104355E-1,-5.9600007E-2,-4.629001E-1,-1.2237879E-1,-3.318998E-2,-4.479093E-1,-4.6403548E-1,3.326994E-3,8.16756E-2,-1.6961616E-1,9.398228E-2,2.0616496E-1,-1.8942492E-1,-1.7295241E-2,-5.284756E-1,-1.1901617E-2,-1.657724E-1,1.2174449E-2,-2.7365899E-2,-3.171963E-1,-2.5853518E-2,-1.1879894E-2,1.5737154E-2,-1.3508941E-2,-1.16814105E-2,3.8698205E-4,6.6652517E-3,2.2076394E-3,1.2473342E-2,1.1818364E-3,8.855968E-3,-1.1907797E-2,-1.563353E-4,-1.1268981E-2,-3.3918247E-2,-1.9901147E-2,-2.1723087E-3,-2.0178583E-2,-7.5602904E-3,-2.2795968E-2],"categories":[],"categories_nodes":[],"categories_segments":[],"categories_sizes":[],"default_left":[0,0,0,0,0,0,0,0,0,0,0,0,0,0,0,0,0,0,0,0,0,0,0,0,0,0,0,0,0,0,0,0,0,0,0,0,0,0,0,0,0,0,0,0,0,0,0,0,0],"id":7,"left_children":[1,3,5,7,9,11,13,15,17,19,21,23,25,-1,27,29,-1,31,33,35,37,39,41,43,-1,45,-1,-1,47,-1,-1,-1,-1,-1,-1,-1,-1,-1,-1,-1,-1,-1,-1,-1,-1,-1,-1,-1,-1],"loss_changes":[9.616801E1,5.166523E1,1.5323158E1,1.2170399E1,4.374151E1,1.0708246E1,1.8173676E0,6.0487556E0,3.8810062E0,9.345074E0,1.0890466E1,1.9244881E0,3.894599E0,0E0,7.325878E-1,2.2231445E0,0E0,6.081623E0,4.4317694E0,6.053772E0,7.721157E0,8.793928E0,4.3895245E0,1.6690826E0,0E0,6.229959E0,0E0,0E0,7.698517E-1,0E0,0E0,0E0,0E0,0E0,0E0,0E0,0E0,0E0,0E0,0E0,0E0,0E0,0E0,0E0,0E0,0E0,0E0,0E0,0E0],"parents":[2147483647,0,0,1,1,2,2,3,3,4,4,5,5,6,6,7,7,8,8,9,9,10,10,11,11,12,12,14,14,15,15,17,17,18,18,19,19,20,20,21,21,22,22,23,23,25,25,28,28],"right_children":[2,4,6,8,10,12,14,16,18,20,22,24,26,-1,28,30,-1,32,34,36,38,40,42,44,-1,46,-1,-1,48,-1,-1,-1,-1,-1,-1,-1,-1,-1,-1,-1,-1,-1,-1,-1,-1,-1,-1,-1,-1],"split_conditions":[8.559289E0,2.1367521E0,1.0977571E1,1.669653E0,4.304741E0,-7.421384E0,-2.356063E1,4.6496596E0,2.3076923E1,5.6869807E0,-4.99098E0,6.355563E-1,1.7409472E1,-3.318998E-2,8.732394E0,1.1139641E0,3.326994E-3,2.003663E0,4.7187386E0,-2.761355E0,3.9703648E0,6.8624216E-1,1.3428543E0,-3.9763687E1,-1.1901617E-2,5.3402596E0,1.2174449E-2,-2.7365899E-2,2.4096386E-1,-2.5853518E-2,-1.1879894E-2,1.5737154E-2,-1.3508941E-2,-1.16814105E-2,3.8698205E-4,6.6652517E-3,2.2076394E-3,1.2473342E-2,1.1818364E-3,8.855968E-3,-1.1907797E-2,-1.563353E-4,-1.1268981E-2,-3.3918247E-2,-1.9901147E-2,-2.1723087E-3,-2.0178583E-2,-7.5602904E-3,-2.2795968E-2],"split_indices":[11,26,11,26,26,20,9,11,28,11,16,6,43,0,8,31,0,26,11,18,26,31,29,9,0,26,0,0,18,0,0,0,0,0,0,0,0,0,0,0,0,0,0,0,0,0,0,0,0],"split_type":[0,0,0,0,0,0,0,0,0,0,0,0,0,0,0,0,0,0,0,0,0,0,0,0,0,0,0,0,0,0,0,0,0,0,0,0,0,0,0,0,0,0,0,0,0,0,0,0,0],"sum_hessian":[7.395242E3,6.7738726E3,6.2136957E2,6.8996606E2,6.0839062E3,3.9317715E2,2.2819244E2,2.3432333E2,4.5564273E2,4.0940916E3,1.989815E3,1.5220311E2,2.4097403E2,1.3996614E2,8.822629E1,2.1153609E2,2.2787245E1,7.099675E1,3.84646E2,3.1106719E3,9.834196E2,4.8659808E2,1.5032168E3,1.1558251E2,3.6620594E1,2.1664584E2,2.4328194E1,4.6529354E1,4.1696938E1,1.6911783E2,4.2418266E1,4.3144547E1,2.7852207E1,2.8311472E2,1.01531265E2,1.7349869E3,1.3756849E3,7.9352325E2,1.8989638E2,5.6155148E1,4.3044293E2,1.4097126E3,9.350413E1,5.0139393E1,6.544312E1,1.447831E2,7.186273E1,2.1066408E1,2.063053E1],"tree_param":{"num_deleted":"0","num_feature":"44","num_nodes":"49","size_leaf_vector":"1"}},{"base_weights":[-2.1387858E-3,-1.461951E-1,6.699012E-1,-2.7264044E-1,9.08732E-2,4.1751254E-1,9.435938E-1,-3.2330728E-1,1.2345644E-2,4.5882905E-1,1.0172142E-2,8.823666E-1,3.7173373E-1,8.0121404E-1,6.030486E-2,-3.8659498E-1,-1.5117139E-1,-7.591312E-2,1.5896213E-1,7.583254E-1,3.370945E-1,-1.6068771E-1,7.292126E-2,3.5879787E-2,5.2998263E-2,1.4423744E-1,4.1068366E-1,1.0239938E0,6.2238103E-1,-1.1133396E-2,-2.2337684E-2,-1.0223912E-2,8.810877E-3,-5.7419403E-3,2.0297876E-2,1.05944015E-2,-1.0360912E-2,1.2539205E-2,4.504905E-2,-9.0609427E-4,2.1687716E-2,-9.608906E-3,1.3651862E-2,-2.7424554E-4,8.136435E-3,7.210963E-4,2.7357623E-2,6.0707526E-3,2.2496095E-2,5.4053366E-2,3.317814E-2,1.3935027E-2,3.347647E-2],"categories":[],"categories_nodes":[],"categories_segments":[],"categories_sizes":[],"default_left":[0,0,0,0,0,0,0,0,0,0,0,0,0,0,0,0,0,0,0,0,0,0,0,0,0,0,0,0,0,0,0,0,0,0,0,0,0,0,0,0,0,0,0,0,0,0,0,0,0,0,0,0,0],"id":8,"left_children":[1,3,5,7,9,11,13,15,17,19,21,23,25,27,-1,29,31,33,35,37,39,41,43,-1,-1,45,47,49,51,-1,-1,-1,-1,-1,-1,-1,-1,-1,-1,-1,-1,-1,-1,-1,-1,-1,-1,-1,-1,-1,-1,-1,-1],"loss_changes":[7.030459E2,1.7936821E2,8.76814E1,5.6405273E1,6.1696312E1,1.3513741E1,2.1074585E1,3.5900543E1,7.666852E0,1.3027817E1,1.8320034E1,2.1769333E-1,5.2306976E0,1.4756439E1,0E0,2.3590118E1,1.5662193E1,6.920639E0,4.3879557E0,7.1320915E0,9.330589E0,6.3261003E0,8.846252E0,0E0,0E0,4.7220025E0,5.7253876E0,2.2052612E0,3.2197113E0,0E0,0E0,0E0,0E0,0E0,0E0,0E0,0E0,0E0,0E0,0E0,0E0,0E0,0E0,0E0,0E0,0E0,0E0,0E0,0E0,0E0,0E0,0E0,0E0],"parents":[2147483647,0,0,1,1,2,2,3,3,4,4,5,5,6,6,7,7,8,8,9,9,10,10,11,11,12,12,13,13,15,15,16,16,17,17,18,18,19,19,20,20,21,21,22,22,25,25,26,26,27,27,28,28],"right_children":[2,4,6,8,10,12,14,16,18,20,22,24,26,28,-1,30,32,34,36,38,40,42,44,-1,-1,46,48,50,52,-1,-1,-1,-1,-1,-1,-1,-1,-1,-1,-1,-1,-1,-1,-1,-1,-1,-1,-1,-1,-1,-1,-1,-1],"split_conditions":[7.0416665E0,1.6333334E1,8.657908E0,5.874074E0,-5.7229114E0,-9.286412E0,1.1343306E1,1.7135757E0,1.0088735E0,-3.04712E0,6.4205325E-1,7.9410186E0,6.3211126E0,-4.4995484E0,6.030486E-2,-2.3734887E0,8.0434475E0,9.18851E0,1.383156E0,8.345123E-1,-4.549444E0,1.1686335E0,4.841772E0,3.5879787E-2,5.2998263E-2,1.433121E1,6.8268305E-1,-1.5992599E0,8.181821E-1,-1.1133396E-2,-2.2337684E-2,-1.0223912E-2,8.810877E-3,-5.7419403E-3,2.0297876E-2,1.05944015E-2,-1.0360912E-2,1.2539205E-2,4.504905E-2,-9.0609427E-4,2.1687716E-2,-9.608906E-3,1.3651862E-2,-2.7424554E-4,8.136435E-3,7.210963E-4,2.7357623E-2,6.0707526E-3,2.2496095E-2,5.4053366E-2,3.317814E-2,1.3935027E-2,3.347647E-2],"split_indices":[11,42,11,11,16,18,11,15,31,21,31,11,42,18,0,16,15,15,18,31,19,23,11,0,0,43,31,19,30,0,0,0,0,0,0,0,0,0,0,0,0,0,0,0,0,0,0,0,0,0,0,0,0],"split_type":[0,0,0,0,0,0,0,0,0,0,0,0,0,0,0,0,0,0,0,0,0,0,0,0,0,0,0,0,0,0,0,0,0,0,0,0,0,0,0,0,0,0,0,0,0,0,0,0,0,0,0,0,0],"sum_hessian":[7.260065E3,5.979739E3,1.280326E3,3.9001372E3,2.0796013E3,6.684377E2,6.1188837E2,3.311836E3,5.8830133E2,3.723532E2,1.7072482E3,5.7077023E1,6.113607E2,4.0114874E2,2.1073961E2,2.4193162E3,8.9251984E2,3.6683615E2,2.214652E2,1.0486735E2,2.6748587E2,4.5709467E2,1.2501536E3,3.4114E1,2.2963026E1,9.115251E1,5.202082E2,1.7497177E2,2.2617697E2,6.522823E2,1.7670339E3,7.6855457E2,1.2396524E2,3.40859E2,2.5977142E1,1.9452737E2,2.693781E1,2.4223536E1,8.0643814E1,5.703543E1,2.1045044E2,4.273627E2,2.9731985E1,6.670065E2,5.831471E2,7.049102E1,2.0661488E1,6.3478237E1,4.5672995E2,1.4798474E2,2.6987032E1,2.9047567E1,1.9712941E2],"tree_param":{"num_deleted":"0","num_feature":"44","num_nodes":"53","size_leaf_vector":"1"}},{"base_weights":[-3.4889542E-3,3.991202E-1,-1.9528656E-1,7.256033E-1,2.5506368E-1,-9.392445E-2,-5.188062E-1,9.3553525E-1,6.1722463E-1,3.1091377E-1,-7.713423E-2,-3.4824695E-2,-2.5878328E-1,-4.4389156E-1,-6.391449E-1,2.6280612E-2,1.0060073E0,4.5990613E-1,6.8764985E-1,1.0090289E-1,3.908931E-1,4.7156313E-3,-4.0598693E-1,1.1269724E-2,-2.4673976E-1,-4.0797025E-1,-2.1205512E-1,-5.2575964E-1,-3.359501E-1,-3.245386E-2,-2.1327643E-2,5.24997E-2,2.8460894E-2,1.1341031E-2,3.0481622E-2,1.1446213E-2,3.62616E-2,-1.7654671E-3,1.7946448E-2,2.2832962E-2,1.2432171E-2,-5.8501572E-3,7.528215E-3,-3.0040601E-2,-7.3816404E-3,-4.8604547E-3,3.27117E-3,4.5594783E-4,-1.47102615E-2,-2.6140599E-2,-1.5367261E-2,-8.725182E-3,-2.1478392E-2,-2.7210701E-2,-1.1082553E-2,-2.6175561E-3,-1.8066078E-2],"categories":[],"categories_nodes":[],"categories_segments":[],"categories_sizes":[],"default_left":[0,0,0,0,0,0,0,0,0,0,0,0,0,0,0,0,0,0,0,0,0,0,0,0,0,0,0,0,0,0,0,0,0,0,0,0,0,0,0,0,0,0,0,0,0,0,0,0,0,0,0,0,0,0,0,0,0],"id":9,"left_children":[1,3,5,7,9,11,13,15,17,19,21,23,25,27,29,-1,31,33,35,37,39,41,43,45,47,49,51,53,55,-1,-1,-1,-1,-1,-1,-1,-1,-1,-1,-1,-1,-1,-1,-1,-1,-1,-1,-1,-1,-1,-1,-1,-1,-1,-1,-1,-1],"loss_changes":[5.592363E2,1.09424774E2,1.6068529E2,1.5071411E1,3.021389E1,3.634662E1,9.9019165E0,5.82251E0,4.5700836E0,2.3208267E1,6.393086E0,2.6954063E1,6.6146927E0,5.9852905E0,3.0776978E-1,0E0,2.668457E0,4.951187E0,5.1616516E0,1.3663537E1,9.102097E0,3.3830934E0,2.094211E0,1.3295871E1,6.0468006E0,2.2779884E0,5.9286804E0,1.9646301E0,2.1819153E0,0E0,0E0,0E0,0E0,0E0,0E0,0E0,0E0,0E0,0E0,0E0,0E0,0E0,0E0,0E0,0E0,0E0,0E0,0E0,0E0,0E0,0E0,0E0,0E0,0E0,0E0,0E0,0E0],"parents":[2147483647,0,0,1,1,2,2,3,3,4,4,5,5,6,6,7,7,8,8,9,9,10,10,11,11,12,12,13,13,14,14,16,16,17,17,18,18,19,19,20,20,21,21,22,22,23,23,24,24,25,25,26,26,27,27,28,28],"right_children":[2,4,6,8,10,12,14,16,18,20,22,24,26,28,30,-1,32,34,36,38,40,42,44,46,48,50,52,54,56,-1,-1,-1,-1,-1,-1,-1,-1,-1,-1,-1,-1,-1,-1,-1,-1,-1,-1,-1,-1,-1,-1,-1,-1,-1,-1,-1,-1],"split_conditions":[2.9878163E0,2.1367521E0,6.9933047E0,1.669653E0,5.7507463E0,4.9310436E0,9.127027E0,-7.9479617E-1,1.7243871E-1,-2.28471E0,7.279412E0,5.899939E0,-5.823217E0,-2.4882314E0,5.115917E-1,2.6280612E-2,4.616667E0,-2.9925187E0,-5.7901525E0,2.6567766E-1,4.796296E0,8.2956135E-1,-1.1414468E0,-1.0886775E1,-3.4984303E-1,-8.452869E-1,1.3852678E1,1.5871265E0,3.280731E0,-3.245386E-2,-2.1327643E-2,5.24997E-2,2.8460894E-2,1.1341031E-2,3.0481622E-2,1.1446213E-2,3.62616E-2,-1.7654671E-3,1.7946448E-2,2.2832962E-2,1.2432171E-2,-5.8501572E-3,7.528215E-3,-3.0040601E-2,-7.3816404E-3,-4.8604547E-3,3.27117E-3,4.5594783E-4,-1.47102615E-2,-2.6140599E-2,-1.5367261E-2,-8.725182E-3,-2.1478392E-2,-2.7210701E-2,-1.1082553E-2,-2.6175561E-3,-1.8066078E-2],"split_indices":[26,26,11,26,11,26,11,23,27,16,11,11,16,39,12,0,11,20,20,27,11,15,17,22,12,23,15,29,26,0,0,0,0,0,0,0,0,0,0,0,0,0,0,0,0,0,0,0,0,0,0,0,0,0,0,0,0],"split_type":[0,0,0,0,0,0,0,0,0,0,0,0,0,0,0,0,0,0,0,0,0,0,0,0,0,0,0,0,0,0,0,0,0,0,0,0,0,0,0,0,0,0,0,0,0,0,0,0,0,0,0,0,0,0,0,0,0],"sum_hessian":[7.239681E3,2.3351729E3,4.9045083E3,7.1263824E2,1.6225344E3,3.7364067E3,1.1681017E3,2.3811356E2,4.7452472E2,1.3896077E3,2.329268E2,2.752648E3,9.8375867E2,7.2528436E2,4.4281738E2,3.7207886E1,2.0090567E2,1.511085E2,3.234162E2,3.8487924E2,1.00472845E3,1.8720314E2,4.572365E1,2.2612678E3,4.9138016E2,2.3085185E2,7.529068E2,4.081013E2,3.1718307E2,4.1921143E2,2.3605957E1,1.8019545E2,2.071021E1,6.1099834E1,9.000867E1,2.5698658E1,2.9771756E2,2.522407E2,1.3263852E2,6.838456E2,3.2088284E2,1.0145702E2,8.574612E1,2.449187E1,2.1231781E1,7.5133435E2,1.5099335E3,7.642353E1,4.1495663E2,1.03942696E2,1.2690916E2,6.4515063E2,1.0775617E2,3.830165E2,2.5084757E1,2.7070469E1,2.901126E2],"tree_param":{"num_deleted":"0","num_feature":"44","num_nodes":"57","size_leaf_vector":"1"}},{"base_weights":[-8.178722E-3,2.3465222E-2,-3.6671594E-1,-1.9931452E-1,5.0492402E-2,-2.4050425E-1,-5.9034795E-1,-3.89987E-1,-1.1773507E-1,7.76169E-2,-1.734928E-1,-3.7542847E-1,-8.611401E-2,-3.3308055E-2,-4.739964E-1,-4.381309E-1,-2.1492892E-3,-1.4988543E-1,2.4397759E-1,1.2009112E-1,1.22362925E-2,-2.034524E-2,-2.4222067E-1,-1.9028689E-1,-4.6037605E-1,1.4931603E-2,-1.4631301E-1,-4.0222806E-1,-3.179646E-2,-1.6785799E-2,-2.7130667E-2,-8.914487E-3,5.7826894E-3,3.346512E-3,1.9870933E-2,4.3830215E-3,1.1947204E-2,1.6916728E-3,-1.0831093E-2,2.0456542E-3,-1.0976057E-2,-1.40436245E-2,9.834205E-4,-1.8884682E-3,-2.0174151E-2,-2.6608033E-2,-1.55665325E-2,-1.15774125E-2,8.149148E-3,-2.6053831E-2,-1.0837036E-2],"categories":[],"categories_nodes":[],"categories_segments":[],"categories_sizes":[],"default_left":[0,0,0,0,0,0,0,0,0,0,0,0,0,0,0,0,0,0,0,0,0,0,0,0,0,0,0,0,0,0,0,0,0,0,0,0,0,0,0,0,0,0,0,0,0,0,0,0,0,0,0],"id":10,"left_children":[1,3,5,7,9,11,13,15,17,19,21,23,25,-1,27,29,-1,31,33,35,37,39,41,43,45,-1,47,49,-1,-1,-1,-1,-1,-1,-1,-1,-1,-1,-1,-1,-1,-1,-1,-1,-1,-1,-1,-1,-1,-1,-1],"loss_changes":[8.3502686E1,4.0672104E1,1.6468842E1,1.1193974E1,3.6625637E1,7.8723125E0,1.1837692E0,3.5097084E0,6.019937E0,1.4908562E1,6.7904186E0,2.9490337E0,4.2512064E0,0E0,4.6123123E-1,1.588089E0,0E0,3.6185312E0,1.0099983E0,1.2463608E1,1.0461811E1,2.5399373E0,4.5973415E0,2.083817E0,1.0607376E0,0E0,4.2583647E0,1.1752977E0,0E0,0E0,0E0,0E0,0E0,0E0,0E0,0E0,0E0,0E0,0E0,0E0,0E0,0E0,0E0,0E0,0E0,0E0,0E0,0E0,0E0,0E0,0E0],"parents":[2147483647,0,0,1,1,2,2,3,3,4,4,5,5,6,6,7,7,8,8,9,9,10,10,11,11,12,12,14,14,15,15,17,17,18,18,19,19,20,20,21,21,22,22,23,23,24,24,26,26,27,27],"right_children":[2,4,6,8,10,12,14,16,18,20,22,24,26,-1,28,30,-1,32,34,36,38,40,42,44,46,-1,48,50,-1,-1,-1,-1,-1,-1,-1,-1,-1,-1,-1,-1,-1,-1,-1,-1,-1,-1,-1,-1,-1,-1,-1],"split_conditions":[8.559289E0,2.1793702E0,1.0977571E1,1.669653E0,5.7901826E0,-8.65505E0,-1.7553192E1,4.4955945E0,1.2424581E0,3.8119912E0,7.554584E-1,1.0488505E1,3.7894737E1,-3.3308055E-2,1.8085065E0,-3.8814015E0,-2.1492892E-3,-4.1666666E-1,5.4367204E0,5.6869807E0,1.4677255E0,-2.3255813E0,5.6904762E1,2.2989395E0,3.4E1,1.4931603E-2,1.0265924E1,-1.2278599E-1,-3.179646E-2,-1.6785799E-2,-2.7130667E-2,-8.914487E-3,5.7826894E-3,3.346512E-3,1.9870933E-2,4.3830215E-3,1.1947204E-2,1.6916728E-3,-1.0831093E-2,2.0456542E-3,-1.0976057E-2,-1.40436245E-2,9.834205E-4,-1.8884682E-3,-2.0174151E-2,-2.6608033E-2,-1.55665325E-2,-1.15774125E-2,8.149148E-3,-2.6053831E-2,-1.0837036E-2],"split_indices":[11,26,11,26,26,22,10,11,31,26,31,8,28,0,30,10,0,10,42,11,30,39,28,15,28,0,41,13,0,0,0,0,0,0,0,0,0,0,0,0,0,0,0,0,0,0,0,0,0,0,0],"split_type":[0,0,0,0,0,0,0,0,0,0,0,0,0,0,0,0,0,0,0,0,0,0,0,0,0,0,0,0,0,0,0,0,0,0,0,0,0,0,0,0,0,0,0,0,0,0,0,0,0,0,0],"sum_hessian":[7.3512744E3,6.755857E3,5.9541754E2,7.290964E2,6.0267603E3,3.8317288E2,2.1224464E2,2.1603766E2,5.130587E2,5.3774297E3,6.4933093E2,2.026397E2,1.8053319E2,1.23177055E2,8.906759E1,1.8886386E2,2.7173794E1,4.7249313E2,4.0565575E1,3.257133E3,2.1202964E3,2.0263959E2,4.4669135E2,6.600268E1,1.3663702E2,2.3171999E1,1.5736119E2,6.6192245E1,2.2875341E1,9.9533676E1,8.9330185E1,4.2796088E2,4.4532253E1,2.043939E1,2.0126186E1,2.5622708E3,6.9486224E2,1.9394264E3,1.8087E2,1.5511906E2,4.752051E1,3.8981418E2,5.6877167E1,4.0053097E1,2.5949585E1,8.871281E1,4.7924213E1,1.24167114E2,3.3194073E1,3.803179E1,2.8160458E1],"tree_param":{"num_deleted":"0","num_feature":"44","num_nodes":"51","size_leaf_vector":"1"}},{"base_weights":[-3.538613E-3,-3.5454598E-1,2.943284E-1,-4.6353072E-1,-2.0224777E-1,1.5574344E-1,6.0951704E-1,-5.835461E-1,-4.0794072E-1,-2.2717261E-1,1.20840825E-1,2.4002817E-2,3.3919358E-1,3.7789196E-1,8.3490425E-1,-1.252853E-2,-5.952763E-1,-4.629919E-1,-2.887938E-1,-5.8542058E-2,-2.6818138E-1,1.6642982E-3,2.6079176E-2,-9.153575E-2,1.12242356E-1,1.7083739E-1,4.918227E-1,1.3325818E-1,4.4682622E-1,6.045422E-1,9.5122945E-1,-3.0500537E-2,-2.4213115E-2,-2.990661E-2,-2.1994604E-2,-6.6699134E-3,-1.8908592E-2,-1.0843011E-2,3.7754688E-3,-1.4518742E-2,-2.9203135E-3,8.319295E-3,-5.726835E-3,-6.5678465E-3,9.902595E-3,8.933448E-3,-4.977418E-3,3.2301291E-3,1.4671795E-2,3.2770604E-2,1.3168822E-2,8.558772E-5,2.0142473E-2,2.5914732E-2,1.0607211E-2,3.687552E-2,1.4159675E-2,5.6146532E-2,3.747641E-2],"categories":[],"categories_nodes":[],"categories_segments":[],"categories_sizes":[],"default_left":[0,0,0,0,0,0,0,0,0,0,0,0,0,0,0,0,0,0,0,0,0,0,0,0,0,0,0,0,0,0,0,0,0,0,0,0,0,0,0,0,0,0,0,0,0,0,0,0,0,0,0,0,0,0,0,0,0,0,0],"id":11,"left_children":[1,3,5,7,9,11,13,15,17,19,21,23,25,27,29,-1,31,33,35,37,39,41,-1,43,45,47,49,51,53,55,57,-1,-1,-1,-1,-1,-1,-1,-1,-1,-1,-1,-1,-1,-1,-1,-1,-1,-1,-1,-1,-1,-1,-1,-1,-1,-1,-1,-1],"loss_changes":[7.533845E2,5.463385E1,1.6995184E2,1.2296204E1,1.1201756E1,6.5402336E1,6.137625E1,1.9708099E0,8.324387E0,8.799286E0,4.6448455E0,1.6121265E1,2.8824753E1,9.740036E0,1.4934723E1,0E0,2.915039E-1,2.2104187E0,5.6986885E0,5.4496875E0,4.711708E0,1.5426971E0,0E0,7.91035E0,1.26637535E1,6.947425E0,2.1689255E1,4.614355E0,7.3845825E0,8.301521E0,1.2085663E1,0E0,0E0,0E0,0E0,0E0,0E0,0E0,0E0,0E0,0E0,0E0,0E0,0E0,0E0,0E0,0E0,0E0,0E0,0E0,0E0,0E0,0E0,0E0,0E0,0E0,0E0,0E0,0E0],"parents":[2147483647,0,0,1,1,2,2,3,3,4,4,5,5,6,6,7,7,8,8,9,9,10,10,11,11,12,12,13,13,14,14,16,16,17,17,18,18,19,19,20,20,21,21,23,23,24,24,25,25,26,26,27,27,28,28,29,29,30,30],"right_children":[2,4,6,8,10,12,14,16,18,20,22,24,26,28,30,-1,32,34,36,38,40,42,-1,44,46,48,50,52,54,56,58,-1,-1,-1,-1,-1,-1,-1,-1,-1,-1,-1,-1,-1,-1,-1,-1,-1,-1,-1,-1,-1,-1,-1,-1,-1,-1,-1,-1],"split_conditions":[3.5243328E0,2.850043E0,5.510052E0,2.0972645E0,7.981756E-1,9.334562E-1,8.985505E-1,1.3833992E0,1.0433583E0,-2.3092783E1,1.7017213E0,6.4070773E-1,4.437401E0,5.2130306E-1,5.4545455E0,-1.252853E-2,1.3224758E0,-3.294084E0,-2.5797775E0,3.1710782E0,1.4173807E0,4.1491596E1,2.6079176E-2,9.396386E0,1.7733641E-2,4.2095833E0,-1.4052838E0,-2.4106066E0,1.369244E0,-5.078873E0,-8.266666E0,-3.0500537E-2,-2.4213115E-2,-2.990661E-2,-2.1994604E-2,-6.6699134E-3,-1.8908592E-2,-1.0843011E-2,3.7754688E-3,-1.4518742E-2,-2.9203135E-3,8.319295E-3,-5.726835E-3,-6.5678465E-3,9.902595E-3,8.933448E-3,-4.977418E-3,3.2301291E-3,1.4671795E-2,3.2770604E-2,1.3168822E-2,8.558772E-5,2.0142473E-2,2.5914732E-2,1.0607211E-2,3.687552E-2,1.4159675E-2,5.6146532E-2,3.747641E-2],"split_indices":[26,26,26,26,16,30,30,42,30,10,29,30,43,30,43,0,30,19,17,26,30,28,0,43,41,26,17,19,19,16,41,0,0,0,0,0,0,0,0,0,0,0,0,0,0,0,0,0,0,0,0,0,0,0,0,0,0,0,0],"split_type":[0,0,0,0,0,0,0,0,0,0,0,0,0,0,0,0,0,0,0,0,0,0,0,0,0,0,0,0,0,0,0,0,0,0,0,0,0,0,0,0,0,0,0,0,0,0,0,0,0,0,0,0,0,0,0,0,0,0,0],"sum_hessian":[7.202619E3,3.306553E3,3.896066E3,1.9247917E3,1.3817612E3,2.7081836E3,1.1878824E3,6.036674E2,1.3211243E3,1.2837871E3,9.797413E1,1.5778629E3,1.1303206E3,5.8825214E2,5.996303E2,2.2264236E1,5.8140314E2,8.995054E2,4.216189E2,2.5279544E2,1.0309917E3,7.706203E1,2.0912106E1,6.82237E2,8.95626E2,5.3960425E2,5.907164E2,1.3092537E2,4.5732678E2,2.0489192E2,3.9473837E2,5.0573502E2,7.566815E1,1.24594574E2,7.749108E2,1.5613464E2,2.6548425E2,1.161659E2,1.3662953E2,9.309689E2,1.0002286E2,3.2319958E1,4.4742065E1,6.010912E2,8.114579E1,6.826856E2,2.129404E2,2.9119653E2,2.4840767E2,3.4207727E2,2.4863908E2,8.950366E1,4.142171E1,3.485246E2,1.0880219E2,1.4311049E2,6.178144E1,2.0899005E2,1.8574834E2],"tree_param":{"num_deleted":"0","num_feature":"44","num_nodes":"59","size_leaf_vector":"1"}},{"base_weights":[9.423063E-4,3.8092113E-1,-1.8348773E-1,6.7587215E-1,2.4835745E-1,-8.854621E-2,-4.9979612E-1,8.6083394E-1,5.8158034E-1,3.053497E-1,-8.916806E-2,-4.434462E-2,-3.0091324E-1,-4.1921255E-1,-3.1925984E-2,4.9052623E-1,9.5266056E-1,6.471118E-1,4.0503213E-1,9.5812514E-2,4.0348643E-1,1.2773521E-1,-1.7802936E-1,7.669573E-2,-1.05527386E-1,-8.3308324E-2,-3.5870185E-1,-5.124684E-1,-3.1241748E-1,1.34005565E-2,3.1244198E-2,2.9963586E-2,5.063718E-2,1.04065705E-2,3.3789825E-2,3.2042634E-2,1.4101997E-2,1.9833652E-2,4.150121E-4,2.2530526E-2,1.4543756E-2,1.494052E-2,-3.2319208E-3,-1.5595371E-2,3.9711548E-4,-4.5330706E-3,6.3985027E-3,-3.208298E-3,-1.3647163E-2,-9.048432E-3,7.821419E-3,-4.6269833E-3,-1.9024082E-2,-2.6579333E-2,-7.5729378E-3,-1.8660827E-2,-3.661528E-3],"categories":[],"categories_nodes":[],"categories_segments":[],"categories_sizes":[],"default_left":[0,0,0,0,0,0,0,0,0,0,0,0,0,0,0,0,0,0,0,0,0,0,0,0,0,0,0,0,0,0,0,0,0,0,0,0,0,0,0,0,0,0,0,0,0,0,0,0,0,0,0,0,0,0,0,0,0],"id":12,"left_children":[1,3,5,7,9,11,13,15,17,19,21,23,25,27,-1,29,31,33,35,37,39,41,43,45,47,49,51,53,55,-1,-1,-1,-1,-1,-1,-1,-1,-1,-1,-1,-1,-1,-1,-1,-1,-1,-1,-1,-1,-1,-1,-1,-1,-1,-1,-1,-1],"loss_changes":[5.083452E2,9.224872E1,1.464502E2,1.1756561E1,3.159864E1,3.518579E1,1.1979218E1,7.3039246E0,5.0805054E0,2.8681366E1,4.6183715E0,2.307144E1,7.994858E0,6.7437363E0,0E0,1.124466E0,2.8738708E0,4.0820007E0,3.541994E0,1.17608185E1,4.7177277E0,2.352859E0,4.287918E0,8.9919815E0,1.4236763E1,3.285662E0,2.806427E0,2.3643188E0,4.806221E0,0E0,0E0,0E0,0E0,0E0,0E0,0E0,0E0,0E0,0E0,0E0,0E0,0E0,0E0,0E0,0E0,0E0,0E0,0E0,0E0,0E0,0E0,0E0,0E0,0E0,0E0,0E0,0E0],"parents":[2147483647,0,0,1,1,2,2,3,3,4,4,5,5,6,6,7,7,8,8,9,9,10,10,11,11,12,12,13,13,15,15,16,16,17,17,18,18,19,19,20,20,21,21,22,22,23,23,24,24,25,25,26,26,27,27,28,28],"right_children":[2,4,6,8,10,12,14,16,18,20,22,24,26,28,-1,30,32,34,36,38,40,42,44,46,48,50,52,54,56,-1,-1,-1,-1,-1,-1,-1,-1,-1,-1,-1,-1,-1,-1,-1,-1,-1,-1,-1,-1,-1,-1,-1,-1,-1,-1,-1,-1],"split_conditions":[2.9878163E0,2.1367521E0,7.0416665E0,3.6392093E0,5.707411E0,5.4457293E0,9.255332E0,-8.551405E-1,4.705078E0,-3.4184754E0,-2.3730965E1,6.633137E-1,5.297978E-1,-2.9143898E0,-3.1925984E-2,-2.5760217E0,-3.142857E0,-6.4291368E0,9.4917744E-1,8.579729E-1,4.813084E0,2.6876163E0,-9.417808E-1,-2.914814E0,5.974808E0,2.4448082E-1,6.03113E-1,1.5706799E0,1.0656437E0,1.34005565E-2,3.1244198E-2,2.9963586E-2,5.063718E-2,1.04065705E-2,3.3789825E-2,3.2042634E-2,1.4101997E-2,1.9833652E-2,4.150121E-4,2.2530526E-2,1.4543756E-2,1.494052E-2,-3.2319208E-3,-1.5595371E-2,3.9711548E-4,-4.5330706E-3,6.3985027E-3,-3.208298E-3,-1.3647163E-2,-9.048432E-3,7.821419E-3,-4.6269833E-3,-1.9024082E-2,-2.6579333E-2,-7.5729378E-3,-1.8660827E-2,-3.661528E-3],"split_indices":[26,26,11,11,11,26,11,23,11,18,9,30,30,39,0,18,39,40,30,29,11,26,17,21,11,23,29,29,17,0,0,0,0,0,0,0,0,0,0,0,0,0,0,0,0,0,0,0,0,0,0,0,0,0,0,0,0],"split_type":[0,0,0,0,0,0,0,0,0,0,0,0,0,0,0,0,0,0,0,0,0,0,0,0,0,0,0,0,0,0,0,0,0,0,0,0,0,0,0,0,0,0,0,0,0,0,0,0,0,0,0,0,0,0,0,0,0],"sum_hessian":[7.2502764E3,2.3689812E3,4.881295E3,7.3219916E2,1.6367821E3,3.756358E3,1.1249371E3,2.4239818E2,4.89801E2,1.4009608E3,2.3582121E2,3.1114937E3,6.448642E2,7.163113E2,4.086258E2,5.0487785E1,1.919104E2,3.5346893E2,1.3633208E2,4.484509E2,9.5251E2,6.768956E1,1.6813165E2,1.0434818E3,2.068012E3,1.3681308E2,5.0805112E2,3.7835367E2,3.379576E2,2.125961E1,2.9228176E1,3.0762917E1,1.6114748E2,2.2867567E1,3.3060135E2,4.400901E1,9.232307E1,9.934067E1,3.4911023E2,6.670808E2,2.854292E2,3.593912E1,3.1750435E1,9.779224E1,7.033941E1,2.4353648E2,7.999454E2,1.6609344E3,4.0707755E2,9.806628E1,3.8746803E1,3.9718845E1,4.6833228E2,3.5812543E2,2.0228264E1,2.6812585E2,6.983174E1],"tree_param":{"num_deleted":"0","num_feature":"44","num_nodes":"57","size_leaf_vector":"1"}},{"base_weights":[-5.045738E-3,2.422351E-2,-3.5295084E-1,-1.9629037E-1,5.002937E-2,-2.3577473E-1,-5.48777E-1,2.9420877E-2,-2.5942826E-1,1.0523197E-1,-7.4363366E-2,-5.4419372E-2,-3.3848512E-1,-9.992449E-3,-5.8556086E-1,1.7513357E-2,-4.3647513E-2,-4.429755E-1,-1.6553177E-1,7.834748E-2,1.8409495E-1,-2.7016148E-2,-1.6568623E-1,9.446636E-2,-1.9877845E-1,-1.3806121E-1,-4.361235E-1,-3.140543E-2,-4.050525E-1,-1.2051292E-2,8.40594E-3,-2.6129363E-2,-1.2511945E-2,-7.0599624E-4,-1.2232868E-2,-1.0979543E-3,4.898208E-3,1.8885782E-2,7.245879E-3,8.244324E-3,-3.305005E-3,-1.3293392E-2,-4.5326687E-3,2.0825839E-2,-4.4965497E-3,-1.928977E-2,6.4353184E-3,1.9319479E-3,-1.45452665E-2,-5.5783554E-3,-2.4776025E-2,-1.2294196E-2,-2.632079E-2],"categories":[],"categories_nodes":[],"categories_segments":[],"categories_sizes":[],"default_left":[0,0,0,0,0,0,0,0,0,0,0,0,0,0,0,0,0,0,0,0,0,0,0,0,0,0,0,0,0,0,0,0,0,0,0,0,0,0,0,0,0,0,0,0,0,0,0,0,0,0,0,0,0],"id":13,"left_children":[1,3,5,7,9,11,13,15,17,19,21,23,25,-1,27,-1,29,31,33,35,37,39,41,43,45,47,49,-1,51,-1,-1,-1,-1,-1,-1,-1,-1,-1,-1,-1,-1,-1,-1,-1,-1,-1,-1,-1,-1,-1,-1,-1,-1],"loss_changes":[7.533243E1,3.87813E1,1.2822762E1,1.0228933E1,4.1942104E1,6.6453247E0,2.4032516E0,3.7571273E0,9.395023E0,8.8952675E0,8.067986E0,2.9193413E0,4.303787E0,0E0,8.8277435E-1,0E0,5.443612E0,2.5251465E0,4.407609E0,6.2352085E0,7.949032E0,9.289075E0,4.695341E0,4.0455136E0,4.349929E0,2.183179E0,2.7560997E0,0E0,4.560542E-1,0E0,0E0,0E0,0E0,0E0,0E0,0E0,0E0,0E0,0E0,0E0,0E0,0E0,0E0,0E0,0E0,0E0,0E0,0E0,0E0,0E0,0E0,0E0,0E0],"parents":[2147483647,0,0,1,1,2,2,3,3,4,4,5,5,6,6,7,7,8,8,9,9,10,10,11,11,12,12,14,14,16,16,17,17,18,18,19,19,20,20,21,21,22,22,23,23,24,24,25,25,26,26,28,28],"right_children":[2,4,6,8,10,12,14,16,18,20,22,24,26,-1,28,-1,30,32,34,36,38,40,42,44,46,48,50,-1,52,-1,-1,-1,-1,-1,-1,-1,-1,-1,-1,-1,-1,-1,-1,-1,-1,-1,-1,-1,-1,-1,-1,-1,-1],"split_conditions":[8.657908E0,2.1576197E0,1.0977571E1,-8.551405E-1,4.4075303E0,1.3358779E1,4.530535E0,-2.007722E0,1.669653E0,5.6708384E0,5.7901826E0,5.15625E1,9.123513E-1,-9.992449E-3,-4.6371263E-1,1.7513357E-2,-1.7647059E0,4.053307E0,-3.0339084E0,5.557859E-1,4.4163626E-1,-7.014079E-1,-1.0894207E1,8.664773E0,5.409983E0,2.622912E0,8.893426E0,-3.140543E-2,6.10998E-1,-1.2051292E-2,8.40594E-3,-2.6129363E-2,-1.2511945E-2,-7.0599624E-4,-1.2232868E-2,-1.0979543E-3,4.898208E-3,1.8885782E-2,7.245879E-3,8.244324E-3,-3.305005E-3,-1.3293392E-2,-4.5326687E-3,2.0825839E-2,-4.4965497E-3,-1.928977E-2,6.4353184E-3,1.9319479E-3,-1.45452665E-2,-5.5783554E-3,-2.4776025E-2,-1.2294196E-2,-2.632079E-2],"split_indices":[11,26,11,23,26,42,26,16,26,11,26,28,31,0,23,0,40,11,20,30,15,12,41,42,20,15,11,0,41,0,0,0,0,0,0,0,0,0,0,0,0,0,0,0,0,0,0,0,0,0,0,0,0],"split_type":[0,0,0,0,0,0,0,0,0,0,0,0,0,0,0,0,0,0,0,0,0,0,0,0,0,0,0,0,0,0,0,0,0,0,0,0,0,0,0,0,0,0,0,0,0,0,0,0,0,0,0,0,0],"sum_hessian":[7.388703E3,6.8160864E3,5.726165E2,7.122419E2,6.1038447E3,3.6095807E2,2.1165845E2,1.5516759E2,5.5707434E2,4.228967E3,1.874878E3,1.3204634E2,2.2891173E2,2.1623817E1,1.9003464E2,2.8234663E1,1.2693292E2,1.8592491E2,3.711494E2,3.1579453E3,1.0710212E3,1.237446E3,6.37432E2,6.4577194E1,6.746915E1,7.684338E1,1.5206834E2,1.4987907E2,4.0155563E1,6.607988E1,6.0853046E1,1.2902504E2,5.6899868E1,1.28861E2,2.4228842E2,5.1487E2,2.6430754E3,1.7720073E2,8.938205E2,2.0769858E2,1.0297474E3,2.7019516E2,3.6723682E2,2.3219936E1,4.1357258E1,4.3163418E1,2.4305727E1,3.555324E1,4.1290146E1,2.4713545E1,1.273548E2,2.0048637E1,2.0106926E1],"tree_param":{"num_deleted":"0","num_feature":"44","num_nodes":"53","size_leaf_vector":"1"}},{"base_weights":[4.2012916E-3,-3.350562E-1,2.8556857E-1,-4.7787717E-1,-2.139815E-1,1.23365976E-1,5.17607E-1,-5.006359E-1,-1.2555346E-1,-2.4155581E-1,-1.856262E-2,-1.6503008E-2,2.6268515E-1,3.154935E-1,7.4839896E-1,-3.3931985E-1,-5.2398235E-1,-2.6479405E-1,1.3721275E-2,-8.887972E-2,-2.7591076E-1,-1.2454812E-1,2.3637156E-1,1.5923494E-1,-7.398111E-2,2.447207E-1,4.879089E-2,1.6797036E-1,4.519828E-1,1.0207124E0,6.556434E-1,-2.4117148E-2,-1.1597931E-2,-3.2602083E-2,-2.5057355E-2,-5.4488475E-3,-2.3563756E-2,1.0494126E-2,-8.942983E-3,-1.7483553E-2,-1.1937611E-2,7.0414157E-3,-1.0410862E-2,-2.815763E-3,2.2898884E-2,1.891483E-2,2.226736E-3,-7.1726493E-3,8.448732E-4,7.20697E-3,1.8549176E-2,-7.987538E-3,1.0834763E-2,6.005752E-3,2.7031658E-2,5.40846E-2,2.2987973E-2,2.9267643E-2,4.3619193E-2],"categories":[],"categories_nodes":[],"categories_segments":[],"categories_sizes":[],"default_left":[0,0,0,0,0,0,0,0,0,0,0,0,0,0,0,0,0,0,0,0,0,0,0,0,0,0,0,0,0,0,0,0,0,0,0,0,0,0,0,0,0,0,0,0,0,0,0,0,0,0,0,0,0,0,0,0,0,0,0],"id":14,"left_children":[1,3,5,7,9,11,13,15,17,19,21,23,25,27,29,31,33,35,-1,37,39,41,43,45,47,49,-1,51,53,55,57,-1,-1,-1,-1,-1,-1,-1,-1,-1,-1,-1,-1,-1,-1,-1,-1,-1,-1,-1,-1,-1,-1,-1,-1,-1,-1,-1,-1],"loss_changes":[6.915452E2,5.649829E1,1.488411E2,1.1846649E1,9.537598E0,4.5528355E1,7.539734E1,4.8801575E0,5.3334255E0,8.070862E0,6.040002E0,1.1770131E1,1.438504E1,1.7305206E1,1.7826263E1,2.513319E0,2.8761902E0,2.0829659E0,0E0,7.8397837E0,3.2417068E0,3.5848923E0,4.3590684E0,7.0960484E0,5.584124E0,1.4337685E1,0E0,6.7986355E0,1.3037827E1,5.4293213E0,7.637314E0,0E0,0E0,0E0,0E0,0E0,0E0,0E0,0E0,0E0,0E0,0E0,0E0,0E0,0E0,0E0,0E0,0E0,0E0,0E0,0E0,0E0,0E0,0E0,0E0,0E0,0E0,0E0,0E0],"parents":[2147483647,0,0,1,1,2,2,3,3,4,4,5,5,6,6,7,7,8,8,9,9,10,10,11,11,12,12,13,13,14,14,15,15,16,16,17,17,19,19,20,20,21,21,22,22,23,23,24,24,25,25,27,27,28,28,29,29,30,30],"right_children":[2,4,6,8,10,12,14,16,18,20,22,24,26,28,30,32,34,36,-1,38,40,42,44,46,48,50,-1,52,54,56,58,-1,-1,-1,-1,-1,-1,-1,-1,-1,-1,-1,-1,-1,-1,-1,-1,-1,-1,-1,-1,-1,-1,-1,-1,-1,-1,-1,-1],"split_conditions":[3.5243328E0,2.6592455E0,5.0698733E0,5.8309036E-1,1.4173807E0,8.4180385E-1,9.334562E-1,-3.8633819E0,1.5577422E0,-2.3092783E1,-4.474273E-1,-2.113924E1,3.1953604E0,5.98325E0,-4.6220684E0,6.2258476E-1,1.4792933E-1,-1.8877159E-1,1.3721275E-2,-3.3242354E0,2.944259E0,-1.1728346E0,-8.944544E0,1.5870004E0,-3.2283783E-1,4.263162E0,4.879089E-2,-1.4477798E1,5.2130306E-1,-5.137157E0,-1.1834968E0,-2.4117148E-2,-1.1597931E-2,-3.2602083E-2,-2.5057355E-2,-5.4488475E-3,-2.3563756E-2,1.0494126E-2,-8.942983E-3,-1.7483553E-2,-1.1937611E-2,7.0414157E-3,-1.0410862E-2,-2.815763E-3,2.2898884E-2,1.891483E-2,2.226736E-3,-7.1726493E-3,8.448732E-4,7.20697E-3,1.8549176E-2,-7.987538E-3,1.0834763E-2,6.005752E-3,2.7031658E-2,5.40846E-2,2.2987973E-2,2.9267643E-2,4.3619193E-2],"split_indices":[26,26,26,16,30,30,30,17,30,10,16,10,16,26,21,6,27,17,0,21,26,23,10,15,23,26,0,40,30,17,16,0,0,0,0,0,0,0,0,0,0,0,0,0,0,0,0,0,0,0,0,0,0,0,0,0,0,0,0],"split_type":[0,0,0,0,0,0,0,0,0,0,0,0,0,0,0,0,0,0,0,0,0,0,0,0,0,0,0,0,0,0,0,0,0,0,0,0,0,0,0,0,0,0,0,0,0,0,0,0,0,0,0,0,0,0,0,0,0,0,0],"sum_hessian":[7.2417534E3,3.282679E3,3.9590745E3,1.5032991E3,1.77938E3,2.332052E3,1.6270225E3,1.4109574E3,9.234167E1,1.558143E3,2.212371E2,1.1636732E3,1.1683787E3,8.697585E2,7.5726404E2,1.8241269E2,1.2285447E3,6.92436E1,2.3098068E1,2.8826648E2,1.2698765E3,1.5736598E2,6.3871128E1,2.8528522E2,8.78388E2,1.1419082E3,2.6470495E1,4.2029645E2,4.4946204E2,1.8804257E2,5.6922144E2,7.517075E1,1.07241936E2,1.7833888E2,1.0502058E3,4.132143E1,2.7922167E1,6.574627E1,2.2252022E2,4.1938766E2,8.504888E2,3.6903305E1,1.20462685E2,2.7614939E1,3.6256187E1,9.6256905E1,1.890283E2,4.985816E2,3.798064E2,6.3826276E2,5.0364548E2,5.342695E1,3.668695E2,9.597233E1,3.534897E2,1.6802776E2,2.0014828E1,4.3471414E2,1.3450728E2],"tree_param":{"num_deleted":"0","num_feature":"44","num_nodes":"59","size_leaf_vector":"1"}},{"base_weights":[-7.9432124E-4,3.238445E-1,-1.95633E-1,6.3608104E-1,1.9441551E-1,-7.121039E-2,-4.430565E-1,8.2583374E-1,5.456271E-1,2.5136006E-1,-7.299884E-2,-1.1195881E-2,-2.3230916E-1,-3.4401911E-1,-5.7133317E-1,1.7576728E-2,9.1042924E-1,6.435212E-1,3.962933E-1,7.598046E-2,3.318741E-1,-1.2587723E-1,1.7833975E-1,1.6842292E-1,-5.1191784E-2,-1.3106798E-1,-3.7600735E-1,-2.024921E-1,-3.9033163E-1,-3.3730406E-2,-5.0168955E-1,4.816654E-2,2.3815542E-2,9.109343E-3,3.3636708E-2,4.507813E-3,2.3589704E-2,-2.7863E-3,1.0882962E-2,2.1503506E-2,1.1350755E-2,6.8252697E-3,-1.0339658E-2,2.0143533E-2,1.9412002E-3,-4.1838326E-3,1.1371641E-2,3.6194238E-3,-4.8368066E-3,-3.6709688E-3,-1.451297E-2,-7.987066E-3,-2.2236412E-2,-8.875482E-4,-1.4663602E-2,-2.3367353E-2,-1.3567919E-2,-1.925913E-2,-2.9082632E-2],"categories":[],"categories_nodes":[],"categories_segments":[],"categories_sizes":[],"default_left":[0,0,0,0,0,0,0,0,0,0,0,0,0,0,0,0,0,0,0,0,0,0,0,0,0,0,0,0,0,0,0,0,0,0,0,0,0,0,0,0,0,0,0,0,0,0,0,0,0,0,0,0,0,0,0,0,0,0,0],"id":15,"left_children":[1,3,5,7,9,11,13,15,17,19,21,23,25,27,29,-1,31,33,35,37,39,41,43,45,47,49,51,53,55,-1,57,-1,-1,-1,-1,-1,-1,-1,-1,-1,-1,-1,-1,-1,-1,-1,-1,-1,-1,-1,-1,-1,-1,-1,-1,-1,-1,-1,-1],"loss_changes":[4.5680658E2,1.09105286E2,1.3881042E2,1.2653992E1,2.9260803E1,2.9008606E1,1.8699799E1,9.387802E0,7.3311462E0,2.2215408E1,4.5042124E0,1.5740249E1,1.1679432E1,5.3768845E0,3.9648743E0,0E0,3.909668E0,4.013031E0,4.892128E0,9.388038E0,1.0871735E1,6.003082E0,1.7228875E0,5.9889336E0,1.0119696E1,4.311104E0,4.754116E0,3.541728E0,5.5505676E0,0E0,3.177803E0,0E0,0E0,0E0,0E0,0E0,0E0,0E0,0E0,0E0,0E0,0E0,0E0,0E0,0E0,0E0,0E0,0E0,0E0,0E0,0E0,0E0,0E0,0E0,0E0,0E0,0E0,0E0,0E0],"parents":[2147483647,0,0,1,1,2,2,3,3,4,4,5,5,6,6,7,7,8,8,9,9,10,10,11,11,12,12,13,13,14,14,16,16,17,17,18,18,19,19,20,20,21,21,22,22,23,23,24,24,25,25,26,26,27,27,28,28,30,30],"right_children":[2,4,6,8,10,12,14,16,18,20,22,24,26,28,30,-1,32,34,36,38,40,42,44,46,48,50,52,54,56,-1,58,-1,-1,-1,-1,-1,-1,-1,-1,-1,-1,-1,-1,-1,-1,-1,-1,-1,-1,-1,-1,-1,-1,-1,-1,-1,-1,-1,-1],"split_conditions":[3.144654E0,2.1793702E0,6.3096676E0,1.669653E0,5.6286383E0,4.956475E0,8.1578045E0,-7.9479617E-1,9.6943253E-1,-2.2653723E0,5.7593312E-2,5.388857E-1,8.1485397E-1,7.7031666E-1,-8.821224E0,1.7576728E-2,4.507772E0,-5.448378E0,-7.893487E0,2.5768676E-1,2.6592455E0,-2.7118645E1,9.983624E-1,-1.2324789E1,2.9399893E-1,6.559066E0,9.1688526E-1,6.695238E0,-6.5774226E0,-3.3730406E-2,9.255332E0,4.816654E-2,2.3815542E-2,9.109343E-3,3.3636708E-2,4.507813E-3,2.3589704E-2,-2.7863E-3,1.0882962E-2,2.1503506E-2,1.1350755E-2,6.8252697E-3,-1.0339658E-2,2.0143533E-2,1.9412002E-3,-4.1838326E-3,1.1371641E-2,3.6194238E-3,-4.8368066E-3,-3.6709688E-3,-1.451297E-2,-7.987066E-3,-2.2236412E-2,-8.875482E-4,-1.4663602E-2,-2.3367353E-2,-1.3567919E-2,-1.925913E-2,-2.9082632E-2],"split_indices":[26,26,11,26,11,26,11,23,30,16,13,30,30,31,20,0,11,20,22,27,26,9,30,22,7,26,31,11,22,0,11,0,0,0,0,0,0,0,0,0,0,0,0,0,0,0,0,0,0,0,0,0,0,0,0,0,0,0,0],"split_type":[0,0,0,0,0,0,0,0,0,0,0,0,0,0,0,0,0,0,0,0,0,0,0,0,0,0,0,0,0,0,0,0,0,0,0,0,0,0,0,0,0,0,0,0,0,0,0,0,0,0,0,0,0,0,0,0,0,0,0],"sum_hessian":[7.21939E3,2.7069949E3,4.512395E3,7.9110455E2,1.9158904E3,3.0043357E3,1.5080594E3,2.5072719E2,5.403774E2,1.5802269E3,3.356635E2,2.1909731E3,8.133627E2,8.550166E2,6.5304285E2,3.9478973E1,2.1124821E2,3.225985E2,2.1777885E2,4.988994E2,1.0813275E3,2.7859518E2,5.7068333E1,3.9722888E2,1.7937443E3,4.7967337E2,3.336893E2,2.1385901E2,6.411576E2,2.5661118E2,3.9643164E2,1.8626122E2,2.4986996E1,2.0265446E1,3.0233307E2,4.4259117E1,1.7351973E2,2.5828894E2,2.4061047E2,5.550176E2,5.263099E2,6.483977E1,2.137554E2,2.023614E1,3.6832195E1,7.4582855E1,3.2264603E2,4.8162506E2,1.3121191E3,3.546799E2,1.2499346E2,8.236909E1,2.5132022E2,7.1780014E1,1.42079E2,3.8552252E2,2.5563506E2,1.6591647E2,2.3051517E2],"tree_param":{"num_deleted":"0","num_feature":"44","num_nodes":"59","size_leaf_vector":"1"}},{"base_weights":[-3.659407E-5,2.9912923E-2,-3.5081473E-1,-3.0865613E-1,4.5682587E-2,-2.1974334E-1,-5.669385E-1,-4.3173206E-1,-2.0551728E-1,9.4334215E-2,-3.5722766E-2,-3.5729012E-1,-7.7162705E-2,-3.1562697E-2,-4.702908E-1,-3.1916094E-1,-5.726504E-1,-3.2944164E-1,-8.841515E-2,-7.27254E-2,1.13597386E-1,1.4897507E-4,-1.3361838E-1,-2.337387E-1,-4.4073355E-1,-1.4506699E-1,7.968181E-3,-3.055094E-1,-3.2164227E-2,-2.0047069E-2,-3.2234606E-3,-1.931987E-2,-3.2812204E-2,-8.5559515E-3,-2.3069415E-2,2.2086317E-3,-1.3733846E-2,-7.3856823E-3,3.6165395E-3,4.857754E-3,1.1989016E-2,7.178202E-3,-1.3499911E-3,-1.1645418E-2,-2.4402405E-3,2.3986574E-3,-1.7283117E-2,-2.9273255E-2,-1.7068481E-2,-1.307361E-3,-1.7944075E-2,-4.229295E-3,-2.2282435E-2],"categories":[],"categories_nodes":[],"categories_segments":[],"categories_sizes":[],"default_left":[0,0,0,0,0,0,0,0,0,0,0,0,0,0,0,0,0,0,0,0,0,0,0,0,0,0,0,0,0,0,0,0,0,0,0,0,0,0,0,0,0,0,0,0,0,0,0,0,0,0,0,0,0],"id":16,"left_children":[1,3,5,7,9,11,13,15,17,19,21,23,25,-1,27,29,31,33,35,37,39,41,43,45,47,49,-1,51,-1,-1,-1,-1,-1,-1,-1,-1,-1,-1,-1,-1,-1,-1,-1,-1,-1,-1,-1,-1,-1,-1,-1,-1,-1],"loss_changes":[7.719607E1,3.608173E1,1.6031197E1,3.5559082E0,2.5620354E1,6.9881115E0,6.8141174E-1,1.6863441E0,2.3008761E0,1.3048584E1,8.517532E0,1.6030693E0,2.9356742E0,0E0,2.1868515E0,1.516365E0,3.016758E-1,1.4244585E0,2.2599971E0,4.5820866E0,7.432022E0,6.9187045E0,5.3993816E0,2.5487814E0,1.052288E0,3.517338E0,0E0,1.43014E0,0E0,0E0,0E0,0E0,0E0,0E0,0E0,0E0,0E0,0E0,0E0,0E0,0E0,0E0,0E0,0E0,0E0,0E0,0E0,0E0,0E0,0E0,0E0,0E0,0E0],"parents":[2147483647,0,0,1,1,2,2,3,3,4,4,5,5,6,6,7,7,8,8,9,9,10,10,11,11,12,12,14,14,15,15,16,16,17,17,18,18,19,19,20,20,21,21,22,22,23,23,24,24,25,25,27,27],"right_children":[2,4,6,8,10,12,14,16,18,20,22,24,26,-1,28,30,32,34,36,38,40,42,44,46,48,50,-1,52,-1,-1,-1,-1,-1,-1,-1,-1,-1,-1,-1,-1,-1,-1,-1,-1,-1,-1,-1,-1,-1,-1,-1,-1,-1],"split_conditions":[8.657908E0,1.7985611E0,1.0977571E1,3.6519792E0,4.037955E0,-4.186202E0,-6.0226593E0,-3.8814015E0,-3.3624554E0,2.1793702E0,5.7901826E0,5.3402596E0,3.1906886E0,-3.1562697E-2,1.5931435E-2,-9.467456E-1,2.920635E0,-6.6358023E0,-1.5957447E0,4.466919E0,7.92393E-2,-1.3185221E1,-9.894921E0,-1.3376623E1,-4.6220684E0,-5.8630396E-2,7.968181E-3,1.2263063E1,-3.2164227E-2,-2.0047069E-2,-3.2234606E-3,-1.931987E-2,-3.2812204E-2,-8.5559515E-3,-2.3069415E-2,2.2086317E-3,-1.3733846E-2,-7.3856823E-3,3.6165395E-3,4.857754E-3,1.1989016E-2,7.178202E-3,-1.3499911E-3,-1.1645418E-2,-2.4402405E-3,2.3986574E-3,-1.7283117E-2,-2.9273255E-2,-1.7068481E-2,-1.307361E-3,-1.7944075E-2,-4.229295E-3,-2.2282435E-2],"split_indices":[11,26,11,11,26,17,17,10,22,26,26,26,22,0,12,41,42,10,10,11,39,40,41,40,21,21,0,11,0,0,0,0,0,0,0,0,0,0,0,0,0,0,0,0,0,0,0,0,0,0,0,0,0],"split_type":[0,0,0,0,0,0,0,0,0,0,0,0,0,0,0,0,0,0,0,0,0,0,0,0,0,0,0,0,0,0,0,0,0,0,0,0,0,0,0,0,0,0,0,0,0,0,0,0,0,0,0,0,0],"sum_hessian":[7.338954E3,6.7623823E3,5.765718E2,2.9915207E2,6.46323E3,3.6136642E2,2.1520537E2,1.333304E2,1.6582167E2,4.0468582E3,2.416372E3,1.820664E2,1.7930003E2,1.229921E2,9.221326E1,7.76317E1,5.5698708E1,7.8412796E1,8.740887E1,4.168848E2,3.6299731E3,1.7679862E3,6.4838574E2,7.6659004E1,1.054074E2,1.4041415E2,3.888588E1,4.9944668E1,4.226859E1,5.7516724E1,2.0114971E1,2.0608164E1,3.509054E1,3.7898964E1,4.0513832E1,5.110267E1,3.63062E1,2.7570676E2,1.4117805E2,3.2152493E3,4.147241E2,2.8156067E2,1.4864255E3,2.9640808E2,3.5197766E2,2.1532303E1,5.51267E1,3.9101696E1,6.630571E1,9.191276E1,4.850139E1,2.0872543E1,2.9072124E1],"tree_param":{"num_deleted":"0","num_feature":"44","num_nodes":"53","size_leaf_vector":"1"}},{"base_weights":[-4.5150416E-3,-3.2529816E-1,2.61364E-1,-4.352283E-1,-1.7559855E-1,1.3586003E-1,7.349772E-1,-4.4928753E-1,7.25627E-2,-1.8813865E-1,2.4502663E-2,5.9021063E-2,3.7985042E-1,6.262484E-1,5.230197E-2,-5.592633E-1,-3.9791638E-1,-1.2959267E-2,1.5150464E-2,-0E0,-2.2527163E-1,1.8973152E-1,-2.1494275E-2,1.1526656E-1,4.6079373E-1,8.8826907E-1,5.233309E-1,-1.3710724E-2,-2.847468E-2,-1.3411629E-2,-2.2174476E-2,-5.0271503E-3,8.32095E-3,-1.580476E-2,-7.973748E-3,1.2198112E-2,-2.8161308E-5,-4.073707E-3,7.2494843E-3,-3.836766E-3,1.5328722E-2,2.9455787E-2,1.6896648E-2,2.72735E-2,4.701377E-2,1.8644901E-2,3.0789604E-2],"categories":[],"categories_nodes":[],"categories_segments":[],"categories_sizes":[],"default_left":[0,0,0,0,0,0,0,0,0,0,0,0,0,0,0,0,0,0,0,0,0,0,0,0,0,0,0,0,0,0,0,0,0,0,0,0,0,0,0,0,0,0,0,0,0,0,0],"id":17,"left_children":[1,3,5,7,9,11,13,15,17,19,-1,21,23,25,-1,27,29,-1,-1,31,33,35,37,39,41,43,45,-1,-1,-1,-1,-1,-1,-1,-1,-1,-1,-1,-1,-1,-1,-1,-1,-1,-1,-1,-1],"loss_changes":[6.1340063E2,5.3406677E1,2.3340271E2,1.3529663E1,1.1626343E1,5.819581E1,2.6519043E1,9.80072E0,4.063482E0,9.526085E0,0E0,2.4961052E1,1.5740768E1,1.557988E1,0E0,1.279602E0,7.0800934E0,0E0,0E0,3.7981005E0,6.616768E0,9.37529E0,1.4641658E1,6.5786858E0,8.481934E0,1.9727631E0,5.648773E0,0E0,0E0,0E0,0E0,0E0,0E0,0E0,0E0,0E0,0E0,0E0,0E0,0E0,0E0,0E0,0E0,0E0,0E0,0E0,0E0],"parents":[2147483647,0,0,1,1,2,2,3,3,4,4,5,5,6,6,7,7,8,8,9,9,11,11,12,12,13,13,15,15,16,16,19,19,20,20,21,21,22,22,23,23,24,24,25,25,26,26],"right_children":[2,4,6,8,10,12,14,16,18,20,-1,22,24,26,-1,28,30,-1,-1,32,34,36,38,40,42,44,46,-1,-1,-1,-1,-1,-1,-1,-1,-1,-1,-1,-1,-1,-1,-1,-1,-1,-1,-1,-1],"split_conditions":[3.5243328E0,2.850043E0,7.85E0,6.9933047E0,8.657908E0,5.510052E0,1.1343306E1,2.0972645E0,9.7831106E-1,-2.8556993E0,2.4502663E-2,-1.1157455E1,7.097447E-1,-1.6386974E1,5.230197E-2,1.3833992E0,-3.5871935E0,-1.2959267E-2,1.5150464E-2,5.1473284E0,8.345123E-1,4.7294828E-1,5.920818E0,-3.1354097E-1,-6.793049E0,4.570334E0,9.077916E-1,-1.3710724E-2,-2.847468E-2,-1.3411629E-2,-2.2174476E-2,-5.0271503E-3,8.32095E-3,-1.580476E-2,-7.973748E-3,1.2198112E-2,-2.8161308E-5,-4.073707E-3,7.2494843E-3,-3.836766E-3,1.5328722E-2,2.9455787E-2,1.6896648E-2,2.72735E-2,4.701377E-2,1.8644901E-2,3.0789604E-2],"split_indices":[26,26,11,11,11,26,11,26,31,21,0,22,31,22,0,42,18,0,0,11,31,27,11,23,39,26,31,0,0,0,0,0,0,0,0,0,0,0,0,0,0,0,0,0,0,0,0],"split_type":[0,0,0,0,0,0,0,0,0,0,0,0,0,0,0,0,0,0,0,0,0,0,0,0,0,0,0,0,0,0,0,0,0,0,0,0,0,0,0,0,0,0,0,0,0,0,0],"sum_hessian":[7.188838E3,3.2582163E3,3.9306216E3,1.8762312E3,1.3819851E3,3.1090886E3,8.2153284E2,1.8262347E3,4.9996452E1,1.3577825E3,2.4202543E1,2.3664988E3,7.4258984E2,6.1257574E2,2.089571E2,5.7549274E2,1.250742E3,2.0061384E1,2.9935066E1,2.234694E2,1.1343131E3,9.022366E2,1.4642622E3,1.7538998E2,5.671998E2,1.6897856E2,4.4359717E2,2.2060984E1,5.5343176E2,3.2906522E2,9.2167676E2,1.391789E2,8.4290504E1,4.728545E2,6.614586E2,7.026277E2,1.9960884E2,1.0778926E3,3.8636963E2,8.746279E1,8.7927185E1,2.738533E2,2.9334656E2,2.503554E1,1.4394302E2,1.7255894E2,2.710382E2],"tree_param":{"num_deleted":"0","num_feature":"44","num_nodes":"47","size_leaf_vector":"1"}},{"base_weights":[-2.0565925E-4,3.9003557E-1,-1.599416E-1,6.192298E-1,2.6400295E-1,-3.9292272E-2,-3.9412716E-1,8.059207E-1,5.2546424E-1,3.1223896E-1,-6.1284155E-2,1.3538542E-2,-2.1594627E-1,-2.947453E-1,-5.6541836E-1,8.8411224E-1,5.843958E-1,6.402822E-1,3.8043004E-1,1.1624645E-1,3.8820884E-1,1.6370867E-1,-2.4698551E-1,8.883915E-2,-3.6647804E-2,-1.1427211E-1,-3.5942236E-1,2.7485685E-2,-3.1435227E-1,-6.2388456E-1,-4.5362353E-1,5.2402783E-2,3.999261E-2,3.971461E-2,2.33576E-2,1.1251624E-2,3.3883516E-2,2.6556224E-2,1.10563915E-2,2.0114234E-2,2.0755483E-3,2.4877487E-2,1.6110934E-2,2.3696452E-2,-3.989726E-3,-1.6904814E-2,4.5004836E-3,8.264995E-3,-2.3761254E-3,-3.0737452E-3,9.992852E-3,-6.8041547E-3,1.2215528E-2,-8.567988E-3,-2.1189606E-2,-9.873806E-3,1.1337659E-2,-2.3620872E-2,-1.3708121E-2,-3.1892695E-2,-1.6112832E-2,-1.4796781E-2,-2.735257E-2],"categories":[],"categories_nodes":[],"categories_segments":[],"categories_sizes":[],"default_left":[0,0,0,0,0,0,0,0,0,0,0,0,0,0,0,0,0,0,0,0,0,0,0,0,0,0,0,0,0,0,0,0,0,0,0,0,0,0,0,0,0,0,0,0,0,0,0,0,0,0,0,0,0,0,0,0,0,0,0,0,0,0,0],"id":18,"left_children":[1,3,5,7,9,11,13,15,17,19,21,23,25,27,29,31,33,35,37,39,41,43,45,47,49,51,53,55,57,59,61,-1,-1,-1,-1,-1,-1,-1,-1,-1,-1,-1,-1,-1,-1,-1,-1,-1,-1,-1,-1,-1,-1,-1,-1,-1,-1,-1,-1,-1,-1,-1,-1],"loss_changes":[4.5343805E2,6.06015E1,1.4574808E2,1.2189697E1,2.1515541E1,3.1862942E1,2.9445923E1,3.2011108E0,7.8040924E0,1.755838E1,7.4788303E0,9.935195E0,1.1307163E1,7.1098633E0,3.5551605E0,8.401947E-1,8.990383E-1,3.90197E0,5.114357E0,7.057149E0,5.776428E0,6.2176547E0,3.1083336E0,1.1002134E1,9.236483E0,3.6487932E0,3.6990852E0,2.9734738E0,6.3330154E0,1.2535858E0,2.9338837E0,0E0,0E0,0E0,0E0,0E0,0E0,0E0,0E0,0E0,0E0,0E0,0E0,0E0,0E0,0E0,0E0,0E0,0E0,0E0,0E0,0E0,0E0,0E0,0E0,0E0,0E0,0E0,0E0,0E0,0E0,0E0,0E0],"parents":[2147483647,0,0,1,1,2,2,3,3,4,4,5,5,6,6,7,7,8,8,9,9,10,10,11,11,12,12,13,13,14,14,15,15,16,16,17,17,18,18,19,19,20,20,21,21,22,22,23,23,24,24,25,25,26,26,27,27,28,28,29,29,30,30],"right_children":[2,4,6,8,10,12,14,16,18,20,22,24,26,28,30,32,34,36,38,40,42,44,46,48,50,52,54,56,58,60,62,-1,-1,-1,-1,-1,-1,-1,-1,-1,-1,-1,-1,-1,-1,-1,-1,-1,-1,-1,-1,-1,-1,-1,-1,-1,-1,-1,-1,-1,-1,-1,-1],"split_conditions":[2.850043E0,2.1367521E0,6.059178E0,1.669653E0,5.7289004E0,4.9310436E0,8.1578045E0,4.053307E0,9.383879E-1,-3.5492458E0,-1.701031E1,8.579729E-1,8.1485397E-1,5.2130306E-1,-2.7914615E0,1.2874012E0,-1.1818182E1,-5.595421E0,4.0801783E0,8.4948397E-1,4.002066E0,1.0023911E0,5.459252E-1,4.827536E0,-6.7114096E0,1.1423677E0,9.1688526E-1,-9.219858E0,-6.5165586E0,2.2094486E0,9.127027E0,5.2402783E-2,3.999261E-2,3.971461E-2,2.33576E-2,1.1251624E-2,3.3883516E-2,2.6556224E-2,1.10563915E-2,2.0114234E-2,2.0755483E-3,2.4877487E-2,1.6110934E-2,2.3696452E-2,-3.989726E-3,-1.6904814E-2,4.5004836E-3,8.264995E-3,-2.3761254E-3,-3.0737452E-3,9.992852E-3,-6.8041547E-3,1.2215528E-2,-8.567988E-3,-2.1189606E-2,-9.873806E-3,1.1337659E-2,-2.3620872E-2,-1.3708121E-2,-3.1892695E-2,-1.6112832E-2,-1.4796781E-2,-2.735257E-2],"split_indices":[26,26,11,26,11,26,11,11,31,18,9,29,30,30,17,26,9,20,11,29,11,30,7,11,9,31,31,41,39,22,11,0,0,0,0,0,0,0,0,0,0,0,0,0,0,0,0,0,0,0,0,0,0,0,0,0,0,0,0,0,0,0,0],"split_type":[0,0,0,0,0,0,0,0,0,0,0,0,0,0,0,0,0,0,0,0,0,0,0,0,0,0,0,0,0,0,0,0,0,0,0,0,0,0,0,0,0,0,0,0,0,0,0,0,0,0,0,0,0,0,0,0,0,0,0,0,0,0,0],"sum_hessian":[7.2718857E3,2.1110623E3,5.160823E3,7.463481E2,1.3647142E3,3.4077837E3,1.7530398E3,2.4500598E2,5.0134213E2,1.1890658E3,1.7564848E2,2.6234558E3,7.843278E2,1.1127053E3,6.403344E2,1.7710425E2,6.790173E1,2.7619116E2,2.2515097E2,3.339488E2,8.5511694E2,7.9015366E1,9.663312E1,1.0503378E3,1.5731182E3,4.6142685E2,3.2290094E2,6.3202377E1,1.0495029E3,4.1476294E2,2.2557147E2,5.349285E1,1.236114E2,2.0619564E1,4.7282173E1,2.4124994E1,2.5206616E2,1.13257065E2,1.118939E2,6.726239E1,2.666864E2,3.170114E2,5.381055E2,3.4484455E1,4.4530914E1,7.6530685E1,2.0102428E1,6.7371844E2,3.7661932E2,1.4254385E3,1.4767966E2,4.3637277E2,2.5054102E1,8.453212E1,2.3836882E2,2.9222092E1,3.3980286E1,2.0847415E2,8.410288E2,3.9417245E2,2.0590487E1,8.704633E1,1.3852513E2],"tree_param":{"num_deleted":"0","num_feature":"44","num_nodes":"63","size_leaf_vector":"1"}},{"base_weights":[2.752942E-3,-2.6016402E-1,2.0553192E-2,-5.140387E-1,-1.6735339E-1,-2.7724522E-1,2.9306676E-2,-5.866516E-1,-7.1041496E-3,1.7276618E-1,-2.1938585E-1,-2.0817584E-1,-3.1919956E-2,5.4007158E-2,-9.149285E-2,-3.18729E-2,-1.9644337E-2,-6.049643E-3,2.0728452E-2,-3.205154E-1,-3.7119493E-2,-2.582928E-1,6.820013E-3,1.832971E-1,4.4823967E-2,-7.064665E-2,-3.4647647E-1,-2.5134652E-3,-1.88572E-2,5.628743E-3,-1.8549403E-2,6.3097663E-3,-1.627523E-2,2.5432387E-2,6.7660967E-3,-7.248623E-3,2.550894E-3,-9.272835E-3,-8.0398854E-4,-2.5289318E-2,-8.82213E-3],"categories":[],"categories_nodes":[],"categories_segments":[],"categories_sizes":[],"default_left":[0,0,0,0,0,0,0,0,0,0,0,0,0,0,0,0,0,0,0,0,0,0,0,0,0,0,0,0,0,0,0,0,0,0,0,0,0,0,0,0,0],"id":19,"left_children":[1,3,5,7,9,11,13,15,-1,17,19,21,-1,23,25,-1,-1,-1,-1,27,29,31,-1,33,35,37,39,-1,-1,-1,-1,-1,-1,-1,-1,-1,-1,-1,-1,-1,-1],"loss_changes":[3.4407776E1,1.0717865E1,1.7938908E1,3.0644646E0,6.156639E0,4.5305653E0,1.9994684E1,4.2621994E-1,0E0,3.4008565E0,5.434022E0,2.9708939E0,0E0,6.550314E0,5.9223356E0,0E0,0E0,0E0,0E0,2.8216438E0,5.5786405E0,3.9083261E0,0E0,5.499201E0,6.105489E0,6.555053E0,2.0268745E0,0E0,0E0,0E0,0E0,0E0,0E0,0E0,0E0,0E0,0E0,0E0,0E0,0E0,0E0],"parents":[2147483647,0,0,1,1,2,2,3,3,4,4,5,5,6,6,7,7,9,9,10,10,11,11,13,13,14,14,19,19,20,20,21,21,23,23,24,24,25,25,26,26],"right_children":[2,4,6,8,10,12,14,16,-1,18,20,22,-1,24,26,-1,-1,-1,-1,28,30,32,-1,34,36,38,40,-1,-1,-1,-1,-1,-1,-1,-1,-1,-1,-1,-1,-1,-1],"split_conditions":[-1.9791683E1,-1.3089888E1,1.4792933E-1,-4.5370545E0,-1.9006685E1,-3.473054E0,5.0903815E-1,6.868147E-1,-7.1041496E-3,-4.9534246E-1,-5.460751E0,3.1615555E-2,-3.1919956E-2,-5.3292546E0,1.4053018E0,-3.18729E-2,-1.9644337E-2,-6.049643E-3,2.0728452E-2,-3.3766623E0,2.5986782E-1,-1.7242758E0,6.820013E-3,1.1180124E1,-4.015611E0,-6.653992E0,2.9680237E-1,-2.5134652E-3,-1.88572E-2,5.628743E-3,-1.8549403E-2,6.3097663E-3,-1.627523E-2,2.5432387E-2,6.7660967E-3,-7.248623E-3,2.550894E-3,-9.272835E-3,-8.0398854E-4,-2.5289318E-2,-8.82213E-3],"split_indices":[22,17,27,21,40,9,27,27,0,13,18,23,0,19,16,0,0,0,0,23,12,21,0,28,21,39,22,0,0,0,0,0,0,0,0,0,0,0,0,0,0],"split_type":[0,0,0,0,0,0,0,0,0,0,0,0,0,0,0,0,0,0,0,0,0,0,0,0,0,0,0,0,0,0,0,0,0,0,0,0,0,0,0,0,0],"sum_hessian":[7.359134E3,4.646344E2,6.894499E3,1.2198721E2,3.426472E2,1.9490385E2,6.699595E3,1.0088834E2,2.1098866E1,4.449211E1,2.9815506E2,1.6606328E2,2.8840591E1,5.564317E3,1.1352787E3,7.639116E1,2.4497185E1,2.0052835E1,2.4439276E1,1.9032126E2,1.0783381E2,1.4581168E2,2.0251589E1,3.656812E2,5.1986353E3,1.0519744E3,8.330424E1,3.4074127E1,1.5624713E2,7.4725044E1,3.3108765E1,2.1057762E1,1.2475392E2,4.4606087E1,3.210751E2,1.6221063E2,5.036425E3,3.365667E2,7.154077E2,4.0871925E1,4.243231E1],"tree_param":{"num_deleted":"0","num_feature":"44","num_nodes":"41","size_leaf_vector":"1"}},{"base_weights":[7.2507985E-4,-3.2133088E-1,2.607445E-1,-4.4365376E-1,-1.8966182E-1,1.3793029E-1,7.0971674E-1,-4.5741293E-1,5.873295E-3,-2.1351755E-1,1.3115506E-1,3.5499528E-2,3.0394885E-1,5.9878725E-1,9.742E-1,-5.5752146E-1,-4.0269646E-1,-3.2362574E-1,-1.7964771E-1,3.7187374E-1,-3.1276613E-2,1.9605786E-1,-5.9603546E-2,4.2910825E-2,3.8034913E-1,6.757094E-1,3.5192522E-1,3.3077188E-2,4.9922865E-2,-3.0103514E-2,-2.4173565E-2,-2.5314188E-2,-1.8277708E-2,-2.3959547E-2,-1.3137258E-2,-1.1283029E-2,-3.5172352E-3,7.479141E-3,2.8343711E-2,1.4909997E-2,-9.698164E-3,-1.8463485E-3,1.2515004E-2,-7.58952E-3,3.4386532E-3,-9.594701E-4,1.7437978E-2,2.7969701E-2,1.4136738E-2,4.4494286E-2,3.0124037E-2,1.3000107E-2,2.7523119E-2],"categories":[],"categories_nodes":[],"categories_segments":[],"categories_sizes":[],"default_left":[0,0,0,0,0,0,0,0,0,0,0,0,0,0,0,0,0,0,0,0,0,0,0,0,0,0,0,0,0,0,0,0,0,0,0,0,0,0,0,0,0,0,0,0,0,0,0,0,0,0,0,0,0],"id":20,"left_children":[1,3,5,7,9,11,13,15,-1,17,19,21,23,25,27,29,31,33,35,37,39,41,43,45,47,49,51,-1,-1,-1,-1,-1,-1,-1,-1,-1,-1,-1,-1,-1,-1,-1,-1,-1,-1,-1,-1,-1,-1,-1,-1,-1,-1],"loss_changes":[6.0116187E2,5.1392944E1,2.1872223E2,1.2967651E1,1.1903564E1,5.299617E1,2.3822449E1,8.35199E0,0E0,5.1888657E0,4.287675E0,2.9558065E1,2.362474E1,1.0926941E1,5.655823E-1,1.2192993E0,3.6071472E0,2.8440094E0,5.4861755E0,1.6329932E0,3.553069E0,9.157085E0,1.4401832E1,5.23697E0,1.56706085E1,6.096985E0,2.314907E0,0E0,0E0,0E0,0E0,0E0,0E0,0E0,0E0,0E0,0E0,0E0,0E0,0E0,0E0,0E0,0E0,0E0,0E0,0E0,0E0,0E0,0E0,0E0,0E0,0E0,0E0],"parents":[2147483647,0,0,1,1,2,2,3,3,4,4,5,5,6,6,7,7,9,9,10,10,11,11,12,12,13,13,14,14,15,15,16,16,17,17,18,18,19,19,20,20,21,21,22,22,23,23,24,24,25,25,26,26],"right_children":[2,4,6,8,10,12,14,16,-1,18,20,22,24,26,28,30,32,34,36,38,40,42,44,46,48,50,52,-1,-1,-1,-1,-1,-1,-1,-1,-1,-1,-1,-1,-1,-1,-1,-1,-1,-1,-1,-1,-1,-1,-1,-1,-1,-1],"split_conditions":[3.5243328E0,2.7545233E0,7.85E0,7.09483E0,7.145968E0,4.9310436E0,1.0977571E1,2.0972645E0,5.873295E-3,7.0704764E-1,5.869982E-1,-1.1157455E1,6.920341E-1,-2.1629136E0,4.530535E0,4.0801783E0,8.3862513E-1,-2.0519796E-1,3.280731E0,-1.0773752E0,-8.65505E0,-1.1649447E1,5.2551146E0,1.6749498E-1,-4.99098E0,-4.148629E1,1.1577243E0,3.3077188E-2,4.9922865E-2,-3.0103514E-2,-2.4173565E-2,-2.5314188E-2,-1.8277708E-2,-2.3959547E-2,-1.3137258E-2,-1.1283029E-2,-3.5172352E-3,7.479141E-3,2.8343711E-2,1.4909997E-2,-9.698164E-3,-1.8463485E-3,1.2515004E-2,-7.58952E-3,3.4386532E-3,-9.594701E-4,1.7437978E-2,2.7969701E-2,1.4136738E-2,4.4494286E-2,3.0124037E-2,1.3000107E-2,2.7523119E-2],"split_indices":[26,26,11,11,11,26,11,26,0,31,6,22,31,22,26,11,29,13,26,40,22,20,11,22,16,9,31,0,0,0,0,0,0,0,0,0,0,0,0,0,0,0,0,0,0,0,0,0,0,0,0,0,0],"split_type":[0,0,0,0,0,0,0,0,0,0,0,0,0,0,0,0,0,0,0,0,0,0,0,0,0,0,0,0,0,0,0,0,0,0,0,0,0,0,0,0,0,0,0,0,0,0,0,0,0,0,0,0,0],"sum_hessian":[7.1759844E3,3.205089E3,3.9708953E3,1.6588835E3,1.5462054E3,3.1198745E3,8.510206E2,1.6197982E3,3.9085255E1,1.4402356E3,1.0596987E2,1.9313119E3,1.1885627E3,6.0353735E2,2.4748332E2,5.662875E2,1.0535107E3,3.3439755E2,1.105838E3,4.2412712E1,6.3557156E1,7.186156E2,1.2126963E3,2.702286E2,9.183341E2,4.575491E2,1.4598822E2,2.146535E1,2.2601796E2,3.4521082E2,2.2107669E2,2.7162808E2,7.818827E2,9.023441E1,2.4416315E2,7.7581824E2,3.300198E2,2.1537405E1,2.0875309E1,2.018971E1,4.3367447E1,1.351032E2,5.835124E2,7.065845E2,5.061118E2,2.252461E2,4.4982517E1,3.2079144E2,5.9754266E2,1.116221E2,3.45927E2,1.02843315E2,4.314491E1],"tree_param":{"num_deleted":"0","num_feature":"44","num_nodes":"53","size_leaf_vector":"1"}},{"base_weights":[-5.4462585E-3,3.3792526E-1,-1.7564636E-1,5.789985E-1,2.137748E-1,-8.7256335E-2,-3.5662863E-1,7.2401315E-1,4.8529673E-1,7.074839E-3,2.593138E-1,8.315499E-2,-1.5738273E-1,-2.1838257E-1,-4.6583587E-1,4.383389E-1,7.8098255E-1,1.2596743E-3,5.0487995E-1,-1.1007143E-1,2.0350356E-1,4.242255E-1,2.1500024E-1,-9.226427E-2,1.3052419E-1,-6.357902E-2,-2.2968651E-1,-8.400898E-2,-2.7150407E-1,-3.6704573E-1,-5.336381E-1,3.3064164E-2,7.2237714E-3,4.458563E-2,3.227673E-2,2.2285191E-2,3.200337E-2,2.3076828E-3,-1.7618435E-2,1.5378355E-2,-1.117418E-2,1.7669488E-2,3.2378998E-2,1.3900778E-2,5.8365976E-3,-9.192723E-3,8.310183E-3,9.185216E-3,-1.9176256E-4,-5.2869753E-3,3.8692483E-3,-6.428213E-3,-2.0674385E-2,-1.3927246E-3,-1.9584473E-2,-1.5617828E-2,-2.291559E-3,-2.3670664E-2,-1.10584935E-2,-3.070047E-2,-2.0227281E-2],"categories":[],"categories_nodes":[],"categories_segments":[],"categories_sizes":[],"default_left":[0,0,0,0,0,0,0,0,0,0,0,0,0,0,0,0,0,0,0,0,0,0,0,0,0,0,0,0,0,0,0,0,0,0,0,0,0,0,0,0,0,0,0,0,0,0,0,0,0,0,0,0,0,0,0,0,0,0,0,0,0],"id":21,"left_children":[1,3,5,7,9,11,13,15,17,19,21,23,25,27,29,31,33,-1,35,37,39,41,43,45,47,49,51,53,55,57,59,-1,-1,-1,-1,-1,-1,-1,-1,-1,-1,-1,-1,-1,-1,-1,-1,-1,-1,-1,-1,-1,-1,-1,-1,-1,-1,-1,-1,-1,-1],"loss_changes":[4.1981955E2,7.090149E1,7.670802E1,1.0207092E1,1.4761749E1,3.8635414E1,2.3489029E1,4.3395386E0,4.3447876E0,6.6458106E0,9.156296E0,7.8520546E0,1.5449398E1,4.88221E0,5.4055786E0,3.3691854E0,2.7077332E0,0E0,3.1575623E0,6.8926773E0,4.928125E0,3.736946E0,6.189331E0,4.7896376E0,5.3468056E0,5.960879E0,2.3812195E1,3.3759983E0,4.507469E0,5.3404922E0,4.777603E0,0E0,0E0,0E0,0E0,0E0,0E0,0E0,0E0,0E0,0E0,0E0,0E0,0E0,0E0,0E0,0E0,0E0,0E0,0E0,0E0,0E0,0E0,0E0,0E0,0E0,0E0,0E0,0E0,0E0,0E0],"parents":[2147483647,0,0,1,1,2,2,3,3,4,4,5,5,6,6,7,7,8,8,9,9,10,10,11,11,12,12,13,13,14,14,15,15,16,16,18,18,19,19,20,20,21,21,22,22,23,23,24,24,25,25,26,26,27,27,28,28,29,29,30,30],"right_children":[2,4,6,8,10,12,14,16,18,20,22,24,26,28,30,32,34,-1,36,38,40,42,44,46,48,50,52,54,56,58,60,-1,-1,-1,-1,-1,-1,-1,-1,-1,-1,-1,-1,-1,-1,-1,-1,-1,-1,-1,-1,-1,-1,-1,-1,-1,-1,-1,-1,-1,-1],"split_conditions":[2.9878163E0,2.1793702E0,4.9310436E0,1.7564403E0,-4.062681E0,6.669576E-1,8.1485397E-1,-7.8405994E-1,-7.755102E0,1.2084056E0,6.472507E-1,-3.04712E0,3.0952382E0,5.2130306E-1,5.504587E0,9.6943253E-1,1.633987E0,1.2596743E-3,-1.0219144E-1,1.0023911E0,2.4970274E0,1.8501483E0,2.6745532E0,-3.539823E0,3.836317E-1,3.4156961E0,1E0,8.91888E-1,7.789095E-1,-1.1077243E1,-2.2727273E0,3.3064164E-2,7.2237714E-3,4.458563E-2,3.227673E-2,2.2285191E-2,3.200337E-2,2.3076828E-3,-1.7618435E-2,1.5378355E-2,-1.117418E-2,1.7669488E-2,3.2378998E-2,1.3900778E-2,5.8365976E-3,-9.192723E-3,8.310183E-3,9.185216E-3,-1.9176256E-4,-5.2869753E-3,3.8692483E-3,-6.428213E-3,-2.0674385E-2,-1.3927246E-3,-1.9584473E-2,-1.5617828E-2,-2.291559E-3,-2.3670664E-2,-1.10584935E-2,-3.070047E-2,-2.0227281E-2],"split_indices":[26,26,26,26,17,30,30,23,40,15,30,21,43,30,43,30,43,0,17,30,43,15,26,40,41,15,25,29,17,40,17,0,0,0,0,0,0,0,0,0,0,0,0,0,0,0,0,0,0,0,0,0,0,0,0,0,0,0,0,0,0],"split_type":[0,0,0,0,0,0,0,0,0,0,0,0,0,0,0,0,0,0,0,0,0,0,0,0,0,0,0,0,0,0,0,0,0,0,0,0,0,0,0,0,0,0,0,0,0,0,0,0,0,0,0,0,0,0,0,0,0,0,0,0,0],"sum_hessian":[7.1810728E3,2.3789626E3,4.80211E3,8.0626483E2,1.5726978E3,3.228614E3,1.5734961E3,3.1167944E2,4.9458542E2,2.8503925E2,1.2876586E3,9.403578E2,2.288256E3,6.9721655E2,8.7627954E2,5.4573177E1,2.5710626E2,2.0748455E1,4.7383698E2,1.7832874E2,1.0671052E2,2.690443E2,1.0186142E3,1.9873854E2,7.4161926E2,9.9847034E2,1.2897858E3,1.9970067E2,4.975159E2,3.6175732E2,5.145222E2,2.9577599E1,2.4995579E1,1.3604022E2,1.2106603E2,3.350841E2,1.3875287E2,1.0865835E2,6.9670395E1,8.651368E1,2.0196836E1,2.0788374E2,6.1160564E1,6.177185E2,4.0089572E2,1.4763109E2,5.110746E1,5.319919E2,2.0962737E2,7.699746E2,2.2849571E2,8.3437396E2,4.5541183E2,1.7081178E2,2.8888885E1,4.2001938E2,7.7496506E1,2.0646869E2,1.5528865E2,3.1267264E2,2.0184956E2],"tree_param":{"num_deleted":"0","num_feature":"44","num_nodes":"61","size_leaf_vector":"1"}},{"base_weights":[5.6811473E-3,3.34979E-2,-3.3310643E-1,-2.855586E-1,4.2788997E-2,-2.0973195E-1,-5.4276407E-1,3.982997E-3,-3.3067945E-1,6.335571E-2,-2.7345523E-2,-4.951201E-1,-1.3679187E-1,-6.160571E-1,-4.4069156E-1,-4.1790512E-1,-1.5721835E-1,3.4671728E-2,1.07835785E-1,-1.3883515E-1,2.6340582E-3,-2.9302657E-2,-1.6302524E-2,9.612269E-3,-2.3234305E-1,-2.2003902E-2,-3.303973E-2,-8.459254E-3,-5.5799454E-1,-2.4115494E-2,-1.13917E-2,-2.0262066E-2,-0E0,3.7733612E-3,-3.522557E-3,1.3031273E-2,3.9267014E-3,4.439039E-3,-1.0499583E-2,4.9233264E-3,-1.8248461E-3,-1.0011472E-2,7.6193586E-3,-6.3753943E-3,-1.6272208E-2,-2.002073E-2,-3.213523E-2],"categories":[],"categories_nodes":[],"categories_segments":[],"categories_sizes":[],"default_left":[0,0,0,0,0,0,0,0,0,0,0,0,0,0,0,0,0,0,0,0,0,0,0,0,0,0,0,0,0,0,0,0,0,0,0,0,0,0,0,0,0,0,0,0,0,0,0],"id":22,"left_children":[1,3,5,7,9,11,13,-1,15,17,19,21,23,25,27,29,31,33,35,37,39,-1,-1,41,43,-1,-1,-1,45,-1,-1,-1,-1,-1,-1,-1,-1,-1,-1,-1,-1,-1,-1,-1,-1,-1,-1],"loss_changes":[6.894623E1,2.002999E1,1.4036091E1,3.238368E0,9.497429E0,7.109272E0,9.081764E-1,0E0,2.3712711E0,6.4583836E0,5.009007E0,6.166401E-1,4.011826E0,2.4015808E-1,2.6336002E0,1.0642452E0,2.3879104E0,1.3297518E1,8.81778E0,5.1906843E0,4.42235E0,0E0,0E0,3.4071865E0,1.5292797E0,0E0,0E0,0E0,2.4458122E-1,0E0,0E0,0E0,0E0,0E0,0E0,0E0,0E0,0E0,0E0,0E0,0E0,0E0,0E0,0E0,0E0,0E0,0E0],"parents":[2147483647,0,0,1,1,2,2,3,3,4,4,5,5,6,6,8,8,9,9,10,10,11,11,12,12,13,13,14,14,15,15,16,16,17,17,18,18,19,19,20,20,23,23,24,24,28,28],"right_children":[2,4,6,8,10,12,14,-1,16,18,20,22,24,26,28,30,32,34,36,38,40,-1,-1,42,44,-1,-1,-1,46,-1,-1,-1,-1,-1,-1,-1,-1,-1,-1,-1,-1,-1,-1,-1,-1,-1,-1],"split_conditions":[8.657908E0,1.4792933E-1,1.0977571E1,-1.8523878E1,4.6111596E-1,-4.1902603E1,-6.0226593E0,3.982997E-3,1.0738295E0,5.0208335E0,-5.078873E0,6.155428E-1,9.59794E-1,1.1818182E1,-2.7224069E0,4.190293E0,3.5460992E0,-1.2738854E0,4.4163626E-1,7.602268E-1,-3.7235136E0,-2.9302657E-2,-1.6302524E-2,-4.472289E0,1.3283582E1,-2.2003902E-2,-3.303973E-2,-8.459254E-3,1.6260163E0,-2.4115494E-2,-1.13917E-2,-2.0262066E-2,-0E0,3.7733612E-3,-3.522557E-3,1.3031273E-2,3.9267014E-3,4.439039E-3,-1.0499583E-2,4.9233264E-3,-1.8248461E-3,-1.0011472E-2,7.6193586E-3,-6.3753943E-3,-1.6272208E-2,-2.002073E-2,-3.213523E-2],"split_indices":[11,27,11,10,27,9,17,0,31,11,16,6,31,11,17,11,8,16,15,31,19,0,0,17,42,0,0,0,40,0,0,0,0,0,0,0,0,0,0,0,0,0,0,0,0,0,0],"split_type":[0,0,0,0,0,0,0,0,0,0,0,0,0,0,0,0,0,0,0,0,0,0,0,0,0,0,0,0,0,0,0,0,0,0,0,0,0,0,0,0,0,0,0,0,0,0,0],"sum_hessian":[7.3191313E3,6.7655737E3,5.5355743E2,1.8957106E2,6.576003E3,3.5097705E2,2.0258035E2,2.0231531E1,1.6933954E2,5.087197E3,1.4888063E3,6.911826E1,2.818588E2,1.1237618E2,9.020418E1,1.1050486E2,5.8834675E1,3.0971167E3,1.9900798E3,3.1576135E2,1.1730449E3,4.1770054E1,2.7348211E1,1.1101574E2,1.7084306E2,2.6978733E1,8.5397446E1,2.8834045E1,6.1370132E1,8.00289E1,3.0475958E1,2.2122131E1,3.6712543E1,2.232908E3,8.6420874E2,3.1723538E2,1.6728445E3,7.444475E1,2.413166E2,3.4093225E2,8.321127E2,4.4138817E1,6.687692E1,8.303982E1,8.780324E1,2.5285212E1,3.608492E1],"tree_param":{"num_deleted":"0","num_feature":"44","num_nodes":"47","size_leaf_vector":"1"}},{"base_weights":[-4.109744E-3,-2.590047E-1,2.979454E-1,-4.1586474E-1,-1.16387986E-1,1.77594E-1,6.969692E-1,-5.257295E-1,-3.6727232E-1,-1.6070504E-1,2.6194963E-1,1.0053117E-1,3.469721E-1,9.192555E-1,5.7455206E-1,-7.7711507E-3,-5.419016E-1,-4.201353E-1,-2.4721147E-1,-1.1259919E-2,-2.27309E-1,8.1807815E-2,3.9799544E-1,-3.343637E-2,1.7150941E-1,2.832991E-1,5.706525E-1,2.8391877E-2,4.748487E-2,4.8182487E-1,4.4484135E-2,-3.0573541E-2,-2.5111089E-2,-2.2857664E-2,-1.6328929E-2,-6.497042E-3,-1.797604E-2,-1.708792E-2,1.954915E-3,-1.7767E-2,-1.0021347E-2,-1.2758552E-2,9.370752E-3,4.7465074E-3,2.5768954E-2,-3.8137527E-3,1.4252305E-2,1.3972496E-2,4.4001583E-3,7.0098075E-3,1.7020477E-2,3.3785176E-2,1.4802626E-2,2.648601E-2,5.1061E-3],"categories":[],"categories_nodes":[],"categories_segments":[],"categories_sizes":[],"default_left":[0,0,0,0,0,0,0,0,0,0,0,0,0,0,0,0,0,0,0,0,0,0,0,0,0,0,0,0,0,0,0,0,0,0,0,0,0,0,0,0,0,0,0,0,0,0,0,0,0,0,0,0,0,0,0],"id":23,"left_children":[1,3,5,7,9,11,13,15,17,19,21,23,25,27,29,-1,31,33,35,37,39,41,43,45,47,49,51,-1,-1,53,-1,-1,-1,-1,-1,-1,-1,-1,-1,-1,-1,-1,-1,-1,-1,-1,-1,-1,-1,-1,-1,-1,-1,-1,-1],"loss_changes":[5.536435E2,8.707391E1,1.5766876E2,9.440979E0,3.4341896E1,3.2888992E1,1.9634247E1,3.1145782E0,7.9182434E0,1.8189045E1,5.114312E0,1.6602137E1,1.0836655E1,1.7482147E0,1.3568481E1,0E0,8.065338E-1,2.717392E0,5.101944E0,9.524777E0,4.14135E0,3.4337478E0,4.117611E0,8.226542E0,1.0165524E1,4.8874016E0,4.491867E0,0E0,0E0,6.826599E0,0E0,0E0,0E0,0E0,0E0,0E0,0E0,0E0,0E0,0E0,0E0,0E0,0E0,0E0,0E0,0E0,0E0,0E0,0E0,0E0,0E0,0E0,0E0,0E0,0E0],"parents":[2147483647,0,0,1,1,2,2,3,3,4,4,5,5,6,6,7,7,8,8,9,9,10,10,11,11,12,12,13,13,14,14,16,16,17,17,18,18,19,19,20,20,21,21,22,22,23,23,24,24,25,25,26,26,29,29],"right_children":[2,4,6,8,10,12,14,16,18,20,22,24,26,28,30,-1,32,34,36,38,40,42,44,46,48,50,52,-1,-1,54,-1,-1,-1,-1,-1,-1,-1,-1,-1,-1,-1,-1,-1,-1,-1,-1,-1,-1,-1,-1,-1,-1,-1,-1,-1],"split_conditions":[3.8859577E0,2.863046E0,7.9410186E0,2.0972645E0,7.0416665E0,5.510052E0,-2.6773163E1,1.3833992E0,1.04755E0,-1.0504862E1,3.446098E0,6.798273E-1,1.1381241E0,4.530535E0,1.1343306E1,-7.7711507E-3,3.6392093E0,4.576271E1,-1.7709767E0,-5.403565E0,-7.961921E0,4.9820656E-1,3.2608696E1,1.3670795E-1,-1.1157455E1,6.920341E-1,-7.74574E0,2.8391877E-2,4.748487E-2,-4.3010755E0,4.4484135E-2,-3.0573541E-2,-2.5111089E-2,-2.2857664E-2,-1.6328929E-2,-6.497042E-3,-1.797604E-2,-1.708792E-2,1.954915E-3,-1.7767E-2,-1.0021347E-2,-1.2758552E-2,9.370752E-3,4.7465074E-3,2.5768954E-2,-3.8137527E-3,1.4252305E-2,1.3972496E-2,4.4001583E-3,7.0098075E-3,1.7020477E-2,3.3785176E-2,1.4802626E-2,2.648601E-2,5.1061E-3],"split_indices":[26,26,11,26,11,26,10,42,30,22,26,30,30,26,11,0,11,28,17,19,40,15,28,13,22,31,22,0,0,9,0,0,0,0,0,0,0,0,0,0,0,0,0,0,0,0,0,0,0,0,0,0,0,0,0],"split_type":[0,0,0,0,0,0,0,0,0,0,0,0,0,0,0,0,0,0,0,0,0,0,0,0,0,0,0,0,0,0,0,0,0,0,0,0,0,0,0,0,0,0,0,0,0,0,0,0,0,0,0,0,0,0,0],"sum_hessian":[7.187989E3,3.8987937E3,3.2891948E3,1.8546458E3,2.044148E3,2.5290615E3,7.6013324E2,5.6296625E2,1.2916796E3,1.8310563E3,2.1309166E2,1.7406708E3,7.8839087E2,2.6590408E2,4.942292E2,2.4740664E1,5.382256E2,8.930523E2,3.986273E2,5.659472E2,1.2651091E3,9.335282E1,1.19738846E2,6.021401E2,1.1385306E3,6.170382E2,1.7135268E2,2.4071772E1,2.4183232E2,3.8528668E2,1.08942505E2,1.8580501E2,3.5242056E2,6.341631E2,2.5888922E2,1.9746033E2,2.0116695E2,7.420899E1,4.9173822E2,2.1506293E2,1.0500461E3,2.1316502E1,7.2036316E1,3.466259E1,8.5076256E1,5.3230865E2,6.9831436E1,4.9403036E2,6.445003E2,1.7848598E2,4.3855222E2,1.2182712E2,4.952555E1,3.411367E2,4.414997E1],"tree_param":{"num_deleted":"0","num_feature":"44","num_nodes":"55","size_leaf_vector":"1"}},{"base_weights":[-6.1370013E-3,3.198854E-1,-1.5890601E-1,5.60043E-1,1.9099465E-1,-3.6714587E-2,-3.7182197E-1,7.26006E-1,4.803321E-1,2.3395143E-1,-1.8400183E-1,2.0891404E-2,-2.2528122E-1,-3.1068718E-1,-5.954143E-1,7.605947E-3,7.883969E-1,5.984636E-1,3.1845793E-1,6.0628865E-2,3.250405E-1,-2.4519303E-1,7.3083923E-3,-8.662926E-2,7.4776545E-2,-1.5627055E-1,-3.8085023E-1,-1.9633259E-1,-3.6598146E-1,-1.9901589E-2,-3.053589E-2,2.3061771E-2,4.1754965E-2,2.1109974E-2,3.3059936E-2,-1.9719203E-3,1.857349E-2,1.5190824E-2,2.4279689E-4,2.431681E-2,1.2535741E-2,-6.114098E-3,-2.297139E-2,-5.8578053E-3,8.046919E-3,9.105129E-3,1.6126795E-3,-8.960188E-3,1.754446E-2,-8.757896E-3,-2.3116434E-2,-1.4095998E-2,-3.738391E-3,-2.1550039E-2,-1.21845985E-2],"categories":[],"categories_nodes":[],"categories_segments":[],"categories_sizes":[],"default_left":[0,0,0,0,0,0,0,0,0,0,0,0,0,0,0,0,0,0,0,0,0,0,0,0,0,0,0,0,0,0,0,0,0,0,0,0,0,0,0,0,0,0,0,0,0,0,0,0,0,0,0,0,0,0,0],"id":24,"left_children":[1,3,5,7,9,11,13,15,17,19,21,23,25,27,29,-1,31,33,35,37,39,41,-1,43,45,47,49,51,53,-1,-1,-1,-1,-1,-1,-1,-1,-1,-1,-1,-1,-1,-1,-1,-1,-1,-1,-1,-1,-1,-1,-1,-1,-1,-1],"loss_changes":[3.5812463E2,7.069946E1,1.2729919E2,9.817322E0,2.4167698E1,3.386978E1,2.393863E1,8.790329E0,9.963951E0,2.109758E1,3.1865945E0,1.3828772E1,7.6356506E0,8.666565E0,5.841522E-1,0E0,2.6776276E0,2.8256836E0,4.5299683E0,6.246884E0,1.0211021E1,3.250527E0,0E0,6.0343213E0,7.2102385E0,5.97773E0,3.475769E0,4.709036E0,7.2169647E0,0E0,0E0,0E0,0E0,0E0,0E0,0E0,0E0,0E0,0E0,0E0,0E0,0E0,0E0,0E0,0E0,0E0,0E0,0E0,0E0,0E0,0E0,0E0,0E0,0E0,0E0],"parents":[2147483647,0,0,1,1,2,2,3,3,4,4,5,5,6,6,7,7,8,8,9,9,10,10,11,11,12,12,13,13,14,14,16,16,17,17,18,18,19,19,20,20,21,21,23,23,24,24,25,25,26,26,27,27,28,28],"right_children":[2,4,6,8,10,12,14,16,18,20,22,24,26,28,30,-1,32,34,36,38,40,42,-1,44,46,48,50,52,54,-1,-1,-1,-1,-1,-1,-1,-1,-1,-1,-1,-1,-1,-1,-1,-1,-1,-1,-1,-1,-1,-1,-1,-1,-1,-1],"split_conditions":[2.930069E0,2.1793702E0,5.920818E0,3.6282384E0,6.03125E0,4.9310436E0,9.255332E0,-5.7901525E0,9.823617E-1,-3.1425793E0,5.7145707E-2,-1.0803665E1,9.334562E-1,8.200212E-1,7.295728E-1,7.605947E-3,-9.569538E-1,-1.9081272E0,-1.061889E0,-2.2830674E-1,4.002066E0,6.9071107E0,7.3083923E-3,3.3975086E-1,5.4221666E-1,8.757663E-2,9.7831106E-1,-8.4388185E-1,-5.5947895E0,-1.9901589E-2,-3.053589E-2,2.3061771E-2,4.1754965E-2,2.1109974E-2,3.3059936E-2,-1.9719203E-3,1.857349E-2,1.5190824E-2,2.4279689E-4,2.431681E-2,1.2535741E-2,-6.114098E-3,-2.297139E-2,-5.8578053E-3,8.046919E-3,9.105129E-3,1.6126795E-3,-8.960188E-3,1.754446E-2,-8.757896E-3,-2.3116434E-2,-1.4095998E-2,-3.738391E-3,-2.1550039E-2,-1.21845985E-2],"split_indices":[26,26,11,11,11,26,11,20,30,18,12,22,30,31,31,0,23,39,23,13,11,11,0,17,6,18,31,39,22,0,0,0,0,0,0,0,0,0,0,0,0,0,0,0,0,0,0,0,0,0,0,0,0,0,0],"split_type":[0,0,0,0,0,0,0,0,0,0,0,0,0,0,0,0,0,0,0,0,0,0,0,0,0,0,0,0,0,0,0,0,0,0,0,0,0,0,0,0,0,0,0,0,0,0,0,0,0,0,0,0,0,0,0],"sum_hessian":[7.1879893E3,2.2925461E3,4.8954434E3,7.983813E2,1.4941648E3,3.1121143E3,1.7833291E3,2.5428107E2,5.441002E2,1.3415808E3,1.5258392E2,2.3840686E3,7.2804565E2,1.4039412E3,3.7938797E2,2.5753838E1,2.2852724E2,3.1149683E2,2.326034E2,4.6378787E2,8.7779297E2,1.2956342E2,2.3020512E1,7.943752E2,1.5896934E3,5.0729922E2,2.207464E2,4.6099533E2,9.4294586E2,3.115373E1,3.4823422E2,3.11201E1,1.9740714E2,8.564538E1,2.2585146E2,2.9571333E1,2.0303206E2,8.460897E1,3.791789E2,2.7342404E2,6.0436896E2,8.441973E1,4.514368E1,7.08598E2,8.577717E1,4.483787E2,1.1413147E3,4.8665744E2,2.06418E1,6.466894E1,1.5607747E2,2.6840298E2,1.9259235E2,6.120871E2,3.3085876E2],"tree_param":{"num_deleted":"0","num_feature":"44","num_nodes":"55","size_leaf_vector":"1"}},{"base_weights":[6.0777636E-3,2.7123377E-2,-4.3866146E-1,-3.1551713E-1,3.8246352E-2,-3.1631476E-1,-5.777625E-1,-3.6843327E-1,2.2728716E-4,8.0896445E-2,-6.2867485E-2,-1.03043884E-1,-4.301051E-1,-3.304347E-2,-4.7128665E-1,-4.2920005E-1,-4.0786318E-3,-7.97864E-2,9.901536E-2,-4.6958055E-2,-2.9393497E-1,7.34588E-2,-2.2548275E-2,-3.0438347E-2,-3.4783515E-1,-1.1896565E-2,-2.7718443E-2,-2.3438103E-2,-7.2854655E-3,2.07443E-2,-5.158335E-3,3.9139926E-3,7.7859573E-3,-2.8407492E-3,1.5618724E-2,-2.0548875E-2,-1.155245E-3,1.4306197E-2,-6.327258E-3,-6.6549033E-3,-2.541261E-2],"categories":[],"categories_nodes":[],"categories_segments":[],"categories_sizes":[],"default_left":[0,0,0,0,0,0,0,0,0,0,0,0,0,0,0,0,0,0,0,0,0,0,0,0,0,0,0,0,0,0,0,0,0,0,0,0,0,0,0,0,0],"id":25,"left_children":[1,3,5,7,9,11,13,15,-1,17,19,21,23,-1,25,27,-1,29,31,33,35,37,-1,-1,39,-1,-1,-1,-1,-1,-1,-1,-1,-1,-1,-1,-1,-1,-1,-1,-1],"loss_changes":[6.857218E1,2.6654762E1,5.1800423E0,3.7979965E0,2.9273067E1,4.199547E0,6.5415955E-1,3.142933E0,0E0,1.3915848E1,7.309151E0,4.133498E0,1.2020874E0,0E0,1.0599937E0,1.5150471E0,0E0,5.5941234E0,4.9818E0,6.653435E0,3.9734726E0,1.9667512E0,0E0,0E0,2.662879E0,0E0,0E0,0E0,0E0,0E0,0E0,0E0,0E0,0E0,0E0,0E0,0E0,0E0,0E0,0E0,0E0],"parents":[2147483647,0,0,1,1,2,2,3,3,4,4,5,5,6,6,7,7,9,9,10,10,11,11,12,12,14,14,15,15,17,17,18,18,19,19,20,20,21,21,24,24],"right_children":[2,4,6,8,10,12,14,16,-1,18,20,22,24,-1,26,28,-1,30,32,34,36,38,-1,-1,40,-1,-1,-1,-1,-1,-1,-1,-1,-1,-1,-1,-1,-1,-1,-1,-1],"split_conditions":[9.718457E0,1.669653E0,1.1818182E1,4.4955945E0,4.4075303E0,5.151786E0,-1.1625006E1,1.1139641E0,2.2728716E-4,2.1576197E0,7.878268E0,1.2494146E0,5.116219E-1,-3.304347E-2,6.289308E-1,7.419954E-1,-4.0786318E-3,-4.7461553E0,5.649396E0,8.381181E-1,-5.4054055E0,1.4246038E0,-2.2548275E-2,-3.0438347E-2,6.7473636E0,-1.1896565E-2,-2.7718443E-2,-2.3438103E-2,-7.2854655E-3,2.07443E-2,-5.158335E-3,3.9139926E-3,7.7859573E-3,-2.8407492E-3,1.5618724E-2,-2.0548875E-2,-1.155245E-3,1.4306197E-2,-6.327258E-3,-6.6549033E-3,-2.541261E-2],"split_indices":[11,26,11,11,26,26,22,31,0,26,26,31,27,0,16,15,0,18,11,27,39,15,0,0,26,0,0,0,0,0,0,0,0,0,0,0,0,0,0,0,0],"split_type":[0,0,0,0,0,0,0,0,0,0,0,0,0,0,0,0,0,0,0,0,0,0,0,0,0,0,0,0,0,0,0,0,0,0,0,0,0,0,0,0,0],"sum_hessian":[7.3316235E3,7.0021323E3,3.2949136E2,2.1830391E2,6.7838286E3,1.7868086E2,1.5081052E2,1.8767389E2,3.0630032E1,4.7728887E3,2.0109397E3,6.377218E1,1.1490868E2,7.925873E1,7.155178E1,1.5367816E2,3.3995728E1,4.820259E2,4.290863E3,1.8839E3,1.2703967E2,4.2712387E1,2.1059792E1,3.2436775E1,8.247191E1,2.0939993E1,5.061179E1,1.3337892E2,2.029923E1,2.023473E1,4.6179117E2,3.147118E3,1.143745E3,1.8353729E3,4.8527092E1,8.764719E1,3.9392487E1,2.0872574E1,2.1839813E1,3.6971935E1,4.5499977E1],"tree_param":{"num_deleted":"0","num_feature":"44","num_nodes":"41","size_leaf_vector":"1"}},{"base_weights":[1.4922292E-3,-2.684448E-1,2.6361004E-1,-4.021989E-1,-1.2936188E-1,1.1544532E-1,5.7635015E-1,-4.2456764E-1,-7.024544E-2,-1.4548287E-1,3.8768008E-1,4.3542616E-2,3.0547047E-1,4.8901227E-1,4.490995E-2,-5.250163E-1,-3.815034E-1,-2.1624118E-1,2.3554815E-2,6.671633E-2,-1.7236783E-1,7.99796E-3,3.0039666E-2,-8.199308E-2,9.23754E-2,1.1849289E-1,3.9938203E-1,7.598116E-1,4.3708768E-1,-2.8167149E-2,-1.7530454E-2,-2.1800114E-2,-1.5693955E-2,-1.4135999E-2,5.2352087E-4,1.3809471E-2,-8.521355E-3,-1.0338458E-2,-2.6291285E-3,5.3498857E-3,-7.6255514E-3,2.5633199E-3,9.544957E-3,7.884826E-3,-1.095664E-2,3.6966454E-2,1.6814861E-2,2.8085886E-2,4.1719224E-2,1.612511E-2,2.6659165E-2],"categories":[],"categories_nodes":[],"categories_segments":[],"categories_sizes":[],"default_left":[0,0,0,0,0,0,0,0,0,0,0,0,0,0,0,0,0,0,0,0,0,0,0,0,0,0,0,0,0,0,0,0,0,0,0,0,0,0,0,0,0,0,0,0,0,0,0,0,0,0,0],"id":26,"left_children":[1,3,5,7,9,11,13,15,17,19,21,23,25,27,-1,29,31,33,-1,35,37,-1,-1,39,41,43,45,47,49,-1,-1,-1,-1,-1,-1,-1,-1,-1,-1,-1,-1,-1,-1,-1,-1,-1,-1,-1,-1,-1,-1],"loss_changes":[5.0740662E2,6.553197E1,1.6836931E2,1.3217102E1,1.4495592E1,3.3676525E1,3.1921265E1,6.806671E0,9.266279E0,9.644131E0,2.2508883E0,1.1019784E1,1.1720043E1,1.2243668E1,0E0,2.864563E0,4.0163574E0,1.4551964E0,0E0,9.509296E0,6.095131E0,0E0,0E0,6.730018E0,5.1796885E0,3.0748947E0,9.053207E0,1.1728363E0,8.14653E0,0E0,0E0,0E0,0E0,0E0,0E0,0E0,0E0,0E0,0E0,0E0,0E0,0E0,0E0,0E0,0E0,0E0,0E0,0E0,0E0,0E0,0E0],"parents":[2147483647,0,0,1,1,2,2,3,3,4,4,5,5,6,6,7,7,8,8,9,9,10,10,11,11,12,12,13,13,15,15,16,16,17,17,19,19,20,20,23,23,24,24,25,25,26,26,27,27,28,28],"right_children":[2,4,6,8,10,12,14,16,18,20,22,24,26,28,-1,30,32,34,-1,36,38,-1,-1,40,42,44,46,48,50,-1,-1,-1,-1,-1,-1,-1,-1,-1,-1,-1,-1,-1,-1,-1,-1,-1,-1,-1,-1,-1,-1],"split_conditions":[3.727656E0,2.863046E0,7.0416665E0,6.1852827E0,8.475806E0,5.510052E0,1.0977571E1,2.076778E0,1.1910645E0,-3.3623407E0,-9.97151E-1,7.097447E-1,7.602268E-1,-3.4734917E1,4.490995E-2,1.0327023E1,8.8833916E-1,4.1841003E-1,2.3554815E-2,-2.0194466E1,5.874074E0,7.99796E-3,3.0039666E-2,-2.0858896E1,4.4048792E-1,-6.5487884E-2,-4.4509153E0,1.52753105E1,1.0205474E0,-2.8167149E-2,-1.7530454E-2,-2.1800114E-2,-1.5693955E-2,-1.4135999E-2,5.2352087E-4,1.3809471E-2,-8.521355E-3,-1.0338458E-2,-2.6291285E-3,5.3498857E-3,-7.6255514E-3,2.5633199E-3,9.544957E-3,7.884826E-3,-1.095664E-2,3.6966454E-2,1.6814861E-2,2.8085886E-2,4.1719224E-2,1.612511E-2,2.6659165E-2],"split_indices":[26,26,11,11,11,26,11,26,31,21,40,31,31,10,0,8,30,20,0,10,11,0,0,10,7,17,21,8,30,0,0,0,0,0,0,0,0,0,0,0,0,0,0,0,0,0,0,0,0,0,0],"split_type":[0,0,0,0,0,0,0,0,0,0,0,0,0,0,0,0,0,0,0,0,0,0,0,0,0,0,0,0,0,0,0,0,0,0,0,0,0,0,0,0,0,0,0,0,0,0,0,0,0,0,0],"sum_hessian":[7.1683013E3,3.5310833E3,3.637218E3,1.7978448E3,1.7332384E3,2.4698076E3,1.1674103E3,1.6833885E3,1.1445633E2,1.6822518E3,5.098659E1,1.7939135E3,6.7589417E2,9.216964E2,2.4571394E2,4.9870718E2,1.1846813E3,9.1145386E1,2.3310946E1,1.8808244E2,1.4941694E3,2.6371656E1,2.4614935E1,5.0096237E2,1.292951E3,2.2782253E2,4.4807162E2,1.4438612E2,7.7731024E2,4.0517633E2,9.353086E1,6.498411E2,5.3484015E2,7.0874435E1,2.027095E1,1.00184265E2,8.789818E1,1.1586545E3,3.355148E2,1.3514812E2,3.6581424E2,9.153374E2,3.776137E2,2.0536787E2,2.245466E1,6.71216E1,3.8095004E2,4.3722683E1,1.0066344E2,3.5847537E2,4.188349E2],"tree_param":{"num_deleted":"0","num_feature":"44","num_nodes":"51","size_leaf_vector":"1"}},{"base_weights":[3.1075338E-3,2.863752E-1,-1.6207553E-1,5.4877037E-1,1.8225665E-1,-7.955812E-2,-3.3383185E-1,7.209784E-1,4.557493E-1,9.377528E-3,2.3416945E-1,2.7915308E-2,-1.903916E-1,-2.0358038E-1,-4.4337073E-1,1.5665403E-2,7.5930685E-1,3.796744E-1,6.3778687E-1,-1.8220391E-2,1.6094996E-2,3.1468993E-1,1.4896384E-1,-1.08306944E-1,6.8673745E-2,-1.3654125E-1,-2.8764287E-1,-5.6173094E-2,-2.6883423E-1,-4.666626E-1,-1.436065E-1,4.0292967E-2,1.5991429E-2,2.0420654E-2,-2.6330466E-3,2.1009078E-2,3.5055704E-2,-2.361402E-3,1.9409109E-2,1.944833E-2,6.871909E-3,1.5847843E-2,5.20259E-3,-1.0598085E-2,1.3029457E-3,4.4424837E-3,-7.636284E-3,-9.286257E-3,2.530725E-3,-1.6543461E-2,-4.4152043E-3,6.284704E-4,-1.4030689E-2,-8.653753E-3,-1.7637866E-2,