{"learner":{"attributes":{"best_iteration":"158","best_score":"0.8842566416975002","scikit_learn":"{\"_estimator_type\": \"classifier\"}"},"feature_names":["type_1buy","type_2buy","type_3buy","type_quasi2buy","type_sub1buy","type_2b3bbuy","confidence","confidence_sq","pivot_width_pct","price_above_zg_pct","price_above_zd_pct","stop_loss_dist_pct","macd_hist_last","macd_hist_prev","macd_below_zero","macd_area_10","ma5_dist_pct","ma5_slope","ma10_dist_pct","ma10_slope","ma20_dist_pct","ma20_slope","ma60_dist_pct","ma60_slope","ma_bullish_align","ma_bearish_align","atr_14_pct","volatility_20","rsi_14","vol_ratio_5","vol_ratio_20","vol_shrink","weekly_up","weekly_down","env_bull","env_bear","conf_x_weekly_up","conf_x_env_bull","weekly_up_x_rsi","ret_3d","ret_10d","ret_20d","dist_from_high20_pct","dist_from_low20_pct"],"feature_types":["int","int","int","int","int","int","float","float","float","float","float","float","float","float","int","float","float","float","float","float","float","float","float","float","int","int","float","float","float","float","float","float","int","int","int","int","float","float","float","float","float","float","float","float"],"gradient_booster":{"model":{"cats":{"enc":[],"feature_segments":[],"sorted_idx":[]},"gbtree_model_param":{"num_parallel_tree":"1","num_trees":"567"},"iteration_indptr":[0,3,6,9,12,15,18,21,24,27,30,33,36,39,42,45,48,51,54,57,60,63,66,69,72,75,78,81,84,87,90,93,96,99,102,105,108,111,114,117,120,123,126,129,132,135,138,141,144,147,150,153,156,159,162,165,168,171,174,177,180,183,186,189,192,195,198,201,204,207,210,213,216,219,222,225,228,231,234,237,240,243,246,249,252,255,258,261,264,267,270,273,276,279,282,285,288,291,294,297,300,303,306,309,312,315,318,321,324,327,330,333,336,339,342,345,348,351,354,357,360,363,366,369,372,375,378,381,384,387,390,393,396,399,402,405,408,411,414,417,420,423,426,429,432,435,438,441,444,447,450,453,456,459,462,465,468,471,474,477,480,483,486,489,492,495,498,501,504,507,510,513,516,519,522,525,528,531,534,537,540,543,546,549,552,555,558,561,564,567],"tree_info":[0,1,2,0,1,2,0,1,2,0,1,2,0,1,2,0,1,2,0,1,2,0,1,2,0,1,2,0,1,2,0,1,2,0,1,2,0,1,2,0,1,2,0,1,2,0,1,2,0,1,2,0,1,2,0,1,2,0,1,2,0,1,2,0,1,2,0,1,2,0,1,2,0,1,2,0,1,2,0,1,2,0,1,2,0,1,2,0,1,2,0,1,2,0,1,2,0,1,2,0,1,2,0,1,2,0,1,2,0,1,2,0,1,2,0,1,2,0,1,2,0,1,2,0,1,2,0,1,2,0,1,2,0,1,2,0,1,2,0,1,2,0,1,2,0,1,2,0,1,2,0,1,2,0,1,2,0,1,2,0,1,2,0,1,2,0,1,2,0,1,2,0,1,2,0,1,2,0,1,2,0,1,2,0,1,2,0,1,2,0,1,2,0,1,2,0,1,2,0,1,2,0,1,2,0,1,2,0,1,2,0,1,2,0,1,2,0,1,2,0,1,2,0,1,2,0,1,2,0,1,2,0,1,2,0,1,2,0,1,2,0,1,2,0,1,2,0,1,2,0,1,2,0,1,2,0,1,2,0,1,2,0,1,2,0,1,2,0,1,2,0,1,2,0,1,2,0,1,2,0,1,2,0,1,2,0,1,2,0,1,2,0,1,2,0,1,2,0,1,2,0,1,2,0,1,2,0,1,2,0,1,2,0,1,2,0,1,2,0,1,2,0,1,2,0,1,2,0,1,2,0,1,2,0,1,2,0,1,2,0,1,2,0,1,2,0,1,2,0,1,2,0,1,2,0,1,2,0,1,2,0,1,2,0,1,2,0,1,2,0,1,2,0,1,2,0,1,2,0,1,2,0,1,2,0,1,2,0,1,2,0,1,2,0,1,2,0,1,2,0,1,2,0,1,2,0,1,2,0,1,2,0,1,2,0,1,2,0,1,2,0,1,2,0,1,2,0,1,2,0,1,2,0,1,2,0,1,2,0,1,2,0,1,2,0,1,2,0,1,2,0,1,2,0,1,2,0,1,2,0,1,2,0,1,2,0,1,2,0,1,2,0,1,2,0,1,2,0,1,2,0,1,2,0,1,2,0,1,2,0,1,2,0,1,2,0,1,2,0,1,2,0,1,2,0,1,2,0,1,2,0,1,2,0,1,2,0,1,2,0,1,2,0,1,2,0,1,2,0,1,2,0,1,2,0,1,2,0,1,2,0,1,2,0,1,2,0,1,2,0,1,2,0,1,2,0,1,2,0,1,2,0,1,2,0,1,2],"trees":[{"base_weights":[-4.9693634E-5,6.400158E-1,-2.2824779E-1,1.083165E0,4.761121E-1,-2.147527E-2,-3.62918E-1,1.1483095E0,3.889807E-1,6.4444315E-1,2.7183393E-1,9.95279E-2,-1.8226935E-1,-2.7416283E-1,-5.202436E-1,7.109889E-2,1.0347085E0,3.0416552E-2,1.3377741E-3,6.433314E-2,7.017737E-1,9.915648E-3,3.9460617E-1,-9.2819616E-2,2.0709124E-1,-4.8260728E-1,-1.3710888E-1,-3.5948363E-1,-1.57874E-1,-4.3774796E-1,-5.982698E-1,1.3788289E-2,5.3854156E-2,-7.1876007E-3,1.4036036E-2,4.196126E-2,2.8505117E-2,6.1478317E-3,-1.2085748E-2,2.7965054E-2,7.63741E-3,-9.455799E-3,1.5128792E-3,1.6808445E-2,5.6383642E-3,-2.841845E-2,-1.4633921E-2,-3.2053401E-3,-1.9751748E-2,-1.59124E-2,-2.3626342E-2,1.5839927E-2,-9.602736E-3,-1.8012254E-2,-2.6639927E-2,-2.542901E-2,-3.1940874E-2],"categories":[],"categories_nodes":[],"categories_segments":[],"categories_sizes":[],"default_left":[0,0,0,0,0,0,0,0,0,0,0,0,0,0,0,0,0,0,0,0,0,0,0,0,0,0,0,0,0,0,0,0,0,0,0,0,0,0,0,0,0,0,0,0,0,0,0,0,0,0,0,0,0,0,0,0,0],"id":0,"left_children":[1,3,5,7,9,11,13,15,17,19,21,23,25,27,29,-1,31,-1,-1,33,35,37,39,41,43,45,47,49,51,53,55,-1,-1,-1,-1,-1,-1,-1,-1,-1,-1,-1,-1,-1,-1,-1,-1,-1,-1,-1,-1,-1,-1,-1,-1,-1,-1],"loss_changes":[1.3781881E3,1.7903253E2,1.936203E2,2.9232788E1,6.190573E1,5.346951E1,5.844153E1,1.625647E1,4.6034555E0,3.278662E1,2.6355324E1,3.2473713E1,1.5785973E1,2.656897E1,9.162628E0,0E0,1.3333649E1,0E0,0E0,4.1955857E0,1.5338745E1,7.544178E0,2.2008202E1,6.7058716E0,1.2103611E1,2.0721664E0,1.923998E1,6.8571777E0,1.8642897E1,5.0147705E0,2.0984497E0,0E0,0E0,0E0,0E0,0E0,0E0,0E0,0E0,0E0,0E0,0E0,0E0,0E0,0E0,0E0,0E0,0E0,0E0,0E0,0E0,0E0,0E0,0E0,0E0,0E0,0E0],"parents":[2147483647,0,0,1,1,2,2,3,3,4,4,5,5,6,6,7,7,8,8,9,9,10,10,11,11,12,12,13,13,14,14,16,16,19,19,20,20,21,21,22,22,23,23,24,24,25,25,26,26,27,27,28,28,29,29,30,30],"right_children":[2,4,6,8,10,12,14,16,18,20,22,24,26,28,30,-1,32,-1,-1,34,36,38,40,42,44,46,48,50,52,54,56,-1,-1,-1,-1,-1,-1,-1,-1,-1,-1,-1,-1,-1,-1,-1,-1,-1,-1,-1,-1,-1,-1,-1,-1,-1,-1],"split_conditions":[2.3262542E-1,1.4155437E-1,3.6421466E-1,2.9130435E0,2.2375E0,2.8952324E0,4.432482E0,8.972371E-2,9.857073E-2,-5.8218694E0,-8.638606E-1,-2.4390244E0,-1.1606144E1,-2.4163568E0,5.885341E0,7.109889E-2,-4.198566E0,3.0416552E-2,1.3377741E-3,-9.415972E0,1.8377694E-1,3.4344263E0,4.347826E0,-3.716446E-1,1.972442E0,-3.221337E0,5.037453E0,6.4051163E-1,1.6298438E0,1.8814016E1,1.149033E1,1.3788289E-2,5.3854156E-2,-7.1876007E-3,1.4036036E-2,4.196126E-2,2.8505117E-2,6.1478317E-3,-1.2085748E-2,2.7965054E-2,7.63741E-3,-9.455799E-3,1.5128792E-3,1.6808445E-2,5.6383642E-3,-2.841845E-2,-1.4633921E-2,-3.2053401E-3,-1.9751748E-2,-1.59124E-2,-2.3626342E-2,1.5839927E-2,-9.602736E-3,-1.8012254E-2,-2.6639927E-2,-2.542901E-2,-3.1940874E-2],"split_indices":[27,27,27,11,11,11,11,27,16,22,21,16,41,16,11,0,22,0,0,41,27,11,43,21,11,21,11,27,11,42,42,0,0,0,0,0,0,0,0,0,0,0,0,0,0,0,0,0,0,0,0,0,0,0,0,0,0],"split_type":[0,0,0,0,0,0,0,0,0,0,0,0,0,0,0,0,0,0,0,0,0,0,0,0,0,0,0,0,0,0,0,0,0,0,0,0,0,0,0,0,0,0,0,0,0,0,0,0,0,0,0,0,0,0,0,0,0],"sum_hessian":[9.43322E3,2.4783086E3,6.9549106E3,6.665399E2,1.8117687E3,2.744394E3,4.2105166E3,6.0819556E2,5.834434E1,9.909698E2,8.207988E2,1.5655732E3,1.1788209E3,2.6953318E3,1.5151849E3,1.7282301E2,4.3537256E2,3.5360207E1,2.2984135E1,8.9726524E1,9.012433E2,2.6299155E2,5.5780725E2,5.609013E2,1.0046719E3,1.5160689E2,1.027214E3,1.5518711E3,1.1434607E3,7.4256433E2,7.7262054E2,2.386814E1,4.1150443E2,4.5526268E1,4.420026E1,4.3625656E2,4.6498672E2,1.8254707E2,8.044447E1,3.3017593E2,2.2763133E2,3.1514786E2,2.4575345E2,4.2167047E2,5.830014E2,1.016606E2,4.9946293E1,8.026767E2,2.2453732E2,1.1425767E3,4.092944E2,7.558244E1,1.0678783E3,4.1415643E2,3.2840793E2,2.4840546E2,5.242151E2],"tree_param":{"num_deleted":"0","num_feature":"44","num_nodes":"57","size_leaf_vector":"1"}},{"base_weights":[3.45227E-4,-4.4624618E-1,3.241387E-2,-3.4518417E-2,-3.485654E-1,1.0196457E-1,-1.8025795E-1,-3.8731593E-1,1.017567E-2,2.1882108E-1,6.932176E-2,-1.2756075E-1,-4.4848728E-1,-4.2244273E-1,-4.1838303E-2,1.9360068E-1,8.1787425E-1,-6.911887E-2,9.573007E-2,-6.820677E-2,-2.4562219E-1,-3.6194587E-1,-3.3666786E-2,-2.502565E-2,-1.0735697E-2,-1.4570686E-2,1.0328863E-2,1.5905576E-2,5.359736E-3,5.373475E-2,1.8333482E-2,-4.570397E-3,3.0263929E-2,5.582906E-3,-9.37588E-3,-1.8773979E-2,-2.4942267E-3,-8.3195185E-3,-1.6683465E-2,-6.452538E-3,-2.0289151E-2],"categories":[],"categories_nodes":[],"categories_segments":[],"categories_sizes":[],"default_left":[0,0,0,0,0,0,0,0,0,0,0,0,0,0,0,0,0,0,0,0,0,0,0,0,0,0,0,0,0,0,0,0,0,0,0,0,0,0,0,0,0],"id":1,"left_children":[1,3,5,-1,7,9,11,13,-1,15,17,19,21,23,25,27,29,31,33,35,37,39,-1,-1,-1,-1,-1,-1,-1,-1,-1,-1,-1,-1,-1,-1,-1,-1,-1,-1,-1],"loss_changes":[1.3806781E2,1.4832306E1,1.3314189E2,0E0,1.01006775E1,2.5797562E1,3.1148819E1,5.1627502E0,0E0,2.190921E1,1.9415016E1,1.2920885E1,6.490242E0,6.0918884E0,2.7336109E0,1.5159901E1,5.9546432E0,1.2752829E1,2.0129295E1,6.8598857E0,4.137455E0,2.5299683E0,0E0,0E0,0E0,0E0,0E0,0E0,0E0,0E0,0E0,0E0,0E0,0E0,0E0,0E0,0E0,0E0,0E0,0E0,0E0],"parents":[2147483647,0,0,1,1,2,2,4,4,5,5,6,6,7,7,9,9,10,10,11,11,12,12,13,13,14,14,15,15,16,16,17,17,18,18,19,19,20,20,21,21],"right_children":[2,4,6,-1,8,10,12,14,-1,16,18,20,22,24,26,28,30,32,34,36,38,40,-1,-1,-1,-1,-1,-1,-1,-1,-1,-1,-1,-1,-1,-1,-1,-1,-1,-1,-1],"split_conditions":[1.4134429E0,8.972371E-2,4.9923186E0,-3.4518417E-2,2.9292307E0,-2.8079107E0,7.0165744E0,9.693373E-1,1.017567E-2,7.164832E0,1.8746614E-1,6.636528E0,1.1116923E1,2.3896766E-1,5.548305E-2,3.4087117E0,-3.5600405E0,1.1271516E0,6.0456944E0,-2.3165138E1,8.575716E-1,-3.655803E1,-3.3666786E-2,-2.502565E-2,-1.0735697E-2,-1.4570686E-2,1.0328863E-2,1.5905576E-2,5.359736E-3,5.373475E-2,1.8333482E-2,-4.570397E-3,3.0263929E-2,5.582906E-3,-9.37588E-3,-1.8773979E-2,-2.4942267E-3,-8.3195185E-3,-1.6683465E-2,-6.452538E-3,-2.0289151E-2],"split_indices":[26,27,26,0,11,19,11,17,0,22,27,26,11,41,12,26,19,18,11,41,31,9,0,0,0,0,0,0,0,0,0,0,0,0,0,0,0,0,0,0,0],"split_type":[0,0,0,0,0,0,0,0,0,0,0,0,0,0,0,0,0,0,0,0,0,0,0,0,0,0,0,0,0,0,0,0,0,0,0,0,0,0,0,0,0],"sum_hessian":[9.643307E3,6.4435394E2,8.998953E3,1.8095795E2,4.6339603E2,6.782555E3,2.216398E3,4.3376022E2,2.9635792E1,1.4777484E3,5.3048066E3,1.8549312E3,3.6146686E2,3.9289874E2,4.086147E1,1.4202728E3,5.7475475E1,8.482123E2,4.456594E3,1.2370698E3,6.178614E2,2.64477E2,9.698987E1,2.8333612E2,1.0956262E2,2.0655249E1,2.0206223E1,5.79245E2,8.4102783E2,3.5024117E1,2.2451357E1,8.2261774E2,2.5594547E1,4.220855E3,2.3573926E2,6.735407E1,1.1697157E3,3.2868787E2,2.891735E2,4.3555634E1,2.2092136E2],"tree_param":{"num_deleted":"0","num_feature":"44","num_nodes":"41","size_leaf_vector":"1"}},{"base_weights":[2.4378046E-3,-3.9814883E-1,4.2117712E-1,-6.24863E-1,-2.0212479E-1,2.0760144E-1,6.6463137E-1,-6.815813E-1,-4.653556E-1,-2.3456831E-1,4.0142077E-1,1.807658E-1,8.538333E-1,5.598172E-1,8.533245E-1,-7.041106E-1,-6.2343115E-1,-5.8554834E-1,-3.8561496E-1,-3.369972E-1,-1.2328173E-1,1.7673334E-1,7.8205687E-1,6.547789E-1,1.5622546E-1,2.165508E-2,5.3318E-2,1.0808388E0,5.275592E-1,6.973753E-1,9.899225E-1,-3.5720937E-2,-3.0374397E-2,-2.4394052E-2,-3.221658E-2,-3.1093413E-2,-1.856674E-2,-1.7500533E-2,-3.0529425E-2,-1.6173175E-2,-3.2185808E-2,-4.6947845E-3,-1.6538778E-2,1.3282405E-3,2.4166746E-2,2.3939695E-2,5.011983E-2,1.2629843E-2,4.2395495E-2,3.9217384E-3,1.390517E-2,3.2385603E-2,6.462567E-2,1.8711833E-2,3.1928692E-2,3.0346463E-2,4.2764004E-2,2.7283764E-2,5.160436E-2],"categories":[],"categories_nodes":[],"categories_segments":[],"categories_sizes":[],"default_left":[0,0,0,0,0,0,0,0,0,0,0,0,0,0,0,0,0,0,0,0,0,0,0,0,0,0,0,0,0,0,0,0,0,0,0,0,0,0,0,0,0,0,0,0,0,0,0,0,0,0,0,0,0,0,0,0,0,0,0],"id":2,"left_children":[1,3,5,7,9,11,13,15,17,19,21,23,25,27,29,31,33,35,37,39,41,43,45,47,49,-1,-1,51,53,55,57,-1,-1,-1,-1,-1,-1,-1,-1,-1,-1,-1,-1,-1,-1,-1,-1,-1,-1,-1,-1,-1,-1,-1,-1,-1,-1,-1,-1],"loss_changes":[1.5836934E3,2.1407397E2,2.3964612E2,1.952539E1,5.0829323E1,4.2251686E1,4.1643982E1,1.2315674E0,5.1430664E0,2.7880737E1,1.0922436E1,2.72033E1,7.7208023E0,2.2204987E1,1.4953796E1,2.518921E-1,6.478729E-1,1.262352E0,2.382248E0,4.8029785E0,7.0759716E0,3.8157837E0,2.2158775E0,8.435871E0,2.1243607E1,0E0,0E0,5.628334E0,2.1794006E1,4.122177E0,6.412903E0,0E0,0E0,0E0,0E0,0E0,0E0,0E0,0E0,0E0,0E0,0E0,0E0,0E0,0E0,0E0,0E0,0E0,0E0,0E0,0E0,0E0,0E0,0E0,0E0,0E0,0E0,0E0,0E0],"parents":[2147483647,0,0,1,1,2,2,3,3,4,4,5,5,6,6,7,7,8,8,9,9,10,10,11,11,12,12,13,13,14,14,15,15,16,16,17,17,18,18,19,19,20,20,21,21,22,22,23,23,24,24,27,27,28,28,29,29,30,30],"right_children":[2,4,6,8,10,12,14,16,18,20,22,24,26,28,30,32,34,36,38,40,42,44,46,48,50,-1,-1,52,54,56,58,-1,-1,-1,-1,-1,-1,-1,-1,-1,-1,-1,-1,-1,-1,-1,-1,-1,-1,-1,-1,-1,-1,-1,-1,-1,-1,-1,-1],"split_conditions":[3.500473E0,2.3485785E0,4.9923186E0,2.0533152E0,9.5176494E-1,1.584132E0,6.7158384E0,1.7786281E0,-1.0471186E-1,2.9309247E0,2.2727273E0,-4.5383153E0,4.0067897E0,-5.3950777E0,8.3886504E-1,2.580528E0,2.6739892E-1,1.2859613E1,1.0174542E1,2.9490826E2,2.1519928E0,2.2075215E-2,5.6426334E0,2.2933283E0,4.320116E0,2.165508E-2,5.3318E-2,3.0831099E0,4.7916665E0,-2.4163568E0,2.3345535E0,-3.5720937E-2,-3.0374397E-2,-2.4394052E-2,-3.221658E-2,-3.1093413E-2,-1.856674E-2,-1.7500533E-2,-3.0529425E-2,-1.6173175E-2,-3.2185808E-2,-4.6947845E-3,-1.6538778E-2,1.3282405E-3,2.4166746E-2,2.3939695E-2,5.011983E-2,1.2629843E-2,4.2395495E-2,3.9217384E-3,1.390517E-2,3.2385603E-2,6.462567E-2,1.8711833E-2,3.1928692E-2,3.0346463E-2,4.2764004E-2,2.7283764E-2,5.160436E-2],"split_indices":[26,26,26,26,16,16,26,26,12,26,39,21,26,21,31,41,15,42,42,15,19,12,8,43,26,0,0,43,43,16,8,0,0,0,0,0,0,0,0,0,0,0,0,0,0,0,0,0,0,0,0,0,0,0,0,0,0,0,0],"split_type":[0,0,0,0,0,0,0,0,0,0,0,0,0,0,0,0,0,0,0,0,0,0,0,0,0,0,0,0,0,0,0,0,0,0,0,0,0,0,0,0,0,0,0,0,0,0,0,0,0,0,0,0,0,0,0,0,0,0,0],"sum_hessian":[9.438254E3,4.8234756E3,4.6147783E3,2.2346545E3,2.5888213E3,2.4601538E3,2.1546243E3,1.6439346E3,5.907199E2,2.457943E3,1.3087807E2,2.364206E3,9.594777E1,1.3896952E3,7.6492926E2,1.170386E3,4.7354868E2,2.3080524E2,3.5991467E2,1.2773876E3,1.1805555E3,8.400957E1,4.6868496E1,1.1407615E2,2.25013E3,3.4045982E1,6.1901787E1,7.781939E1,1.3118757E3,3.6212546E2,4.0280377E2,1.0470245E3,1.2336142E2,6.9418434E1,4.0413025E2,1.9410632E2,3.6698917E1,3.1481482E2,4.5099873E1,1.2269818E3,5.0405743E1,1.036855E3,1.4370058E2,5.7922386E1,2.6087183E1,2.2107782E1,2.4760715E1,3.846754E1,7.560861E1,1.3759883E3,8.7414166E2,2.7855804E1,4.9963585E1,5.5446313E2,7.574126E2,2.3566895E2,1.2645651E2,3.714107E1,3.6566272E2],"tree_param":{"num_deleted":"0","num_feature":"44","num_nodes":"59","size_leaf_vector":"1"}},{"base_weights":[1.3089618E-3,7.1464795E-1,-2.0686936E-1,1.0627236E0,5.254646E-1,7.332471E-2,-3.2778692E-1,1.1974331E0,8.484931E-1,5.7702947E-1,1.0573706E-1,2.1174799E-1,-4.98881E-2,-2.7492324E-1,-5.877342E-1,1.231117E0,3.0158928E-2,1.8090911E-2,9.092537E-1,6.899535E-1,3.9849764E-1,2.8828213E-1,-1.9709279E-1,1.0911002E-2,3.014317E-1,-5.2157375E-3,-3.693376E-1,-1.7385116E-1,-3.5915163E-1,-4.4584593E-1,-6.231557E-1,4.1486163E-2,6.304072E-2,1.6790776E-2,4.808638E-2,3.6504474E-2,1.5089204E-2,9.7422645E-4,2.3304084E-2,2.1201244E-2,5.763705E-4,4.484027E-3,-1.832842E-2,1.6543979E-2,-3.2686417E-3,1.7387327E-2,2.3372415E-3,2.1062959E-2,-1.2729642E-3,-2.0828736E-3,-2.5063848E-2,-4.5154323E-3,-1.2407897E-2,-1.4799552E-2,-2.0081008E-2,-2.4179248E-2,-6.8118423E-3,-2.9211357E-2,-3.386579E-2],"categories":[],"categories_nodes":[],"categories_segments":[],"categories_sizes":[],"default_left":[0,0,0,0,0,0,0,0,0,0,0,0,0,0,0,0,0,0,0,0,0,0,0,0,0,0,0,0,0,0,0,0,0,0,0,0,0,0,0,0,0,0,0,0,0,0,0,0,0,0,0,0,0,0,0,0,0,0,0],"id":3,"left_children":[1,3,5,7,9,11,13,15,17,19,21,23,25,27,29,31,-1,-1,33,35,37,39,41,43,45,47,49,51,53,55,57,-1,-1,-1,-1,-1,-1,-1,-1,-1,-1,-1,-1,-1,-1,-1,-1,-1,-1,-1,-1,-1,-1,-1,-1,-1,-1,-1,-1],"loss_changes":[1.404207E3,1.3951453E2,2.4805548E2,1.9721863E1,2.9798218E1,3.7690895E1,6.985193E1,7.656433E0,7.9876556E0,2.4263794E1,8.6194315E0,1.8672596E1,1.6592186E1,3.600351E1,3.7026672E0,3.1411133E0,0E0,0E0,7.117569E0,1.1204346E1,1.2252495E1,3.5546741E0,2.9437747E0,7.979843E0,8.37204E0,8.802489E0,6.0314026E0,1.1923458E1,5.8975525E0,1.8644867E0,5.984497E-1,0E0,0E0,0E0,0E0,0E0,0E0,0E0,0E0,0E0,0E0,0E0,0E0,0E0,0E0,0E0,0E0,0E0,0E0,0E0,0E0,0E0,0E0,0E0,0E0,0E0,0E0,0E0,0E0],"parents":[2147483647,0,0,1,1,2,2,3,3,4,4,5,5,6,6,7,7,8,8,9,9,10,10,11,11,12,12,13,13,14,14,15,15,18,18,19,19,20,20,21,21,22,22,23,23,24,24,25,25,26,26,27,27,28,28,29,29,30,30],"right_children":[2,4,6,8,10,12,14,16,18,20,22,24,26,28,30,32,-1,-1,34,36,38,40,42,44,46,48,50,52,54,56,58,-1,-1,-1,-1,-1,-1,-1,-1,-1,-1,-1,-1,-1,-1,-1,-1,-1,-1,-1,-1,-1,-1,-1,-1,-1,-1,-1,-1],"split_conditions":[2.2730758E0,1.4939278E0,3.2653062E0,1.6759777E0,3.4146342E0,2.4176612E0,5.8103447E0,5.815796E-1,-5.7689947E-1,1.9899842E0,1.0875503E0,-2.465029E0,1.0387157E0,4.385965E0,4.4158554E0,-3.1011307E-1,3.0158928E-2,1.8090911E-2,-3.1011307E-1,1.6982311E-1,-3.3552802E-1,1.5503876E0,2.792776E-2,-6.8511176E-1,1E0,3.9996004E-1,4.2136335E0,2.7631345E0,7.4036276E-1,3.591418E0,8.025806E0,4.1486163E-2,6.304072E-2,1.6790776E-2,4.808638E-2,3.6504474E-2,1.5089204E-2,9.7422645E-4,2.3304084E-2,2.1201244E-2,5.763705E-4,4.484027E-3,-1.832842E-2,1.6543979E-2,-3.2686417E-3,1.7387327E-2,2.3372415E-3,2.1062959E-2,-1.2729642E-3,-2.0828736E-3,-2.5063848E-2,-4.5154323E-3,-1.2407897E-2,-1.4799552E-2,-2.0081008E-2,-2.4179248E-2,-6.8118423E-3,-2.9211357E-2,-3.386579E-2],"split_indices":[26,26,26,43,11,11,11,23,19,26,30,16,39,26,26,23,0,0,23,13,23,10,16,12,25,30,11,11,31,17,11,0,0,0,0,0,0,0,0,0,0,0,0,0,0,0,0,0,0,0,0,0,0,0,0,0,0,0,0],"split_type":[0,0,0,0,0,0,0,0,0,0,0,0,0,0,0,0,0,0,0,0,0,0,0,0,0,0,0,0,0,0,0,0,0,0,0,0,0,0,0,0,0,0,0,0,0,0,0,0,0,0,0,0,0,0,0,0,0,0,0],"sum_hessian":[9.452153E3,2.1347117E3,7.3174414E3,7.488781E2,1.3858335E3,2.2055667E3,5.1118745E3,4.549716E2,2.9390652E2,1.2332823E3,1.525512E2,1.0389287E3,1.166638E3,4.2511943E3,8.606802E2,4.2872614E2,2.6245436E1,3.4144302E1,2.5976224E2,7.52131E2,4.811513E2,9.563509E1,5.6916096E1,3.21925E2,7.170038E2,1.0253954E3,1.4124248E2,1.9355505E3,2.315644E3,1.771389E2,6.8354126E2,3.2988674E1,3.957375E2,2.3027456E1,2.3673477E2,6.799853E2,7.2145706E1,7.355344E1,4.0759787E2,6.314356E1,3.2491535E1,2.096571E1,3.5950386E1,6.151579E1,2.604092E2,6.055509E2,1.1145285E2,4.4672695E1,9.807227E2,4.1547062E1,9.969543E1,9.139822E2,1.02156836E3,9.3771136E2,1.3779326E3,1.5656586E2,2.0573046E1,4.101279E2,2.734134E2],"tree_param":{"num_deleted":"0","num_feature":"44","num_nodes":"59","size_leaf_vector":"1"}},{"base_weights":[-4.3151423E-4,-4.1187692E-1,3.0226016E-2,-6.813353E-1,-3.1151542E-1,9.692755E-2,-1.8197927E-1,-3.5486758E-2,-2.3971489E-2,-3.6060572E-1,3.1163402E-2,2.0341969E-1,6.4421944E-2,-1.3128704E-1,-4.5688692E-1,-4.4138354E-1,-1.7737313E-1,-1.5431573E-2,1.4734797E-2,2.450157E-1,-7.1960925E-3,7.193737E-2,-3.8006085E-1,-8.219415E-2,-2.3485965E-1,-3.8176885E-1,-3.22729E-2,-2.4290957E-2,-9.162523E-3,4.093641E-3,-1.6439945E-2,1.1120382E-2,3.1427436E-2,1.7352654E-3,-1.4440052E-2,-2.5990724E-3,4.778945E-3,-5.3899228E-3,-2.386559E-2,-8.10794E-3,1.4597026E-3,5.704183E-3,-1.2910788E-2,-0E0,-2.11808E-2],"categories":[],"categories_nodes":[],"categories_segments":[],"categories_sizes":[],"default_left":[0,0,0,0,0,0,0,0,0,0,0,0,0,0,0,0,0,0,0,0,0,0,0,0,0,0,0,0,0,0,0,0,0,0,0,0,0,0,0,0,0,0,0,0,0],"id":4,"left_children":[1,3,5,7,9,11,13,-1,-1,15,17,19,21,23,25,27,29,-1,-1,31,33,35,37,39,41,43,-1,-1,-1,-1,-1,-1,-1,-1,-1,-1,-1,-1,-1,-1,-1,-1,-1,-1,-1],"loss_changes":[1.2108629E2,1.7485832E1,1.2637583E2,2.7733612E-1,8.297859E0,2.3445866E1,2.9543594E1,0E0,0E0,6.0905457E0,5.691143E0,1.3951477E1,1.738007E1,9.086674E0,4.1158447E0,3.1179237E0,5.3561416E0,0E0,0E0,1.1116936E1,3.1616173E0,1.502799E1,2.0936775E0,1.0974661E1,4.7869034E0,3.812378E0,0E0,0E0,0E0,0E0,0E0,0E0,0E0,0E0,0E0,0E0,0E0,0E0,0E0,0E0,0E0,0E0,0E0,0E0,0E0],"parents":[2147483647,0,0,1,1,2,2,3,3,4,4,5,5,6,6,9,9,10,10,11,11,12,12,13,13,14,14,15,15,16,16,19,19,20,20,21,21,22,22,23,23,24,24,25,25],"right_children":[2,4,6,8,10,12,14,-1,-1,16,18,20,22,24,26,28,30,-1,-1,32,34,36,38,40,42,44,-1,-1,-1,-1,-1,-1,-1,-1,-1,-1,-1,-1,-1,-1,-1,-1,-1,-1,-1],"split_conditions":[1.4411027E0,8.972371E-2,5.0605907E0,1.7852271E0,8.931525E-1,-2.7393754E0,7.1875E0,-3.5486758E-2,-2.3971489E-2,1.05932206E-1,8.2E-1,4.5588193E0,2.0358107E0,6.782438E0,1.1116923E1,1.1247326E0,5E1,-1.5431573E-2,1.4734797E-2,-2.6627383E0,-1.5039279E-1,1.8938904E-1,7.654499E-1,-1.3380282E0,1.9572954E1,7.057057E0,-3.22729E-2,-2.4290957E-2,-9.162523E-3,4.093641E-3,-1.6439945E-2,1.1120382E-2,3.1427436E-2,1.7352654E-3,-1.4440052E-2,-2.5990724E-3,4.778945E-3,-5.3899228E-3,-2.386559E-2,-8.10794E-3,1.4597026E-3,5.704183E-3,-1.2910788E-2,-0E0,-2.11808E-2],"split_indices":[26,27,26,11,17,19,11,0,0,41,6,26,16,26,11,31,28,0,0,20,13,27,15,41,28,42,0,0,0,0,0,0,0,0,0,0,0,0,0,0,0,0,0,0,0],"split_type":[0,0,0,0,0,0,0,0,0,0,0,0,0,0,0,0,0,0,0,0,0,0,0,0,0,0,0,0,0,0,0,0,0,0,0,0,0,0,0,0,0,0,0,0,0],"sum_hessian":[9.590401E3,6.6420325E2,8.926198E3,1.7735382E2,4.8684943E2,6.792804E3,2.1333943E3,1.5130763E2,2.6046185E1,4.2628705E2,6.056239E1,1.5852622E3,5.207542E3,1.8037344E3,3.296599E2,2.936341E2,1.3265295E2,2.6009945E1,3.4552444E1,1.3244014E3,2.6086084E2,5.1226343E3,8.490756E1,1.2268398E3,5.768945E2,2.3975137E2,8.990854E1,2.4872086E2,4.4913227E1,4.867977E1,8.397318E1,1.2534081E3,7.099318E1,2.2760004E2,3.326082E1,8.190843E2,4.30355E3,2.372016E1,6.1187405E1,7.148017E2,5.120382E2,3.5288605E1,5.416059E2,2.4065321E1,2.1568605E2],"tree_param":{"num_deleted":"0","num_feature":"44","num_nodes":"45","size_leaf_vector":"1"}},{"base_weights":[-2.120334E-3,-3.8450408E-1,3.9756444E-1,-6.1823654E-1,-1.9736868E-1,3.0039403E-1,8.6979467E-1,-6.667233E-1,-4.6090382E-1,-2.3357885E-1,2.6420143E-1,1.5710914E-1,4.896119E-1,7.8329235E-1,1.2544336E0,-6.706871E-1,-1.7571911E-2,-5.7647663E-1,-3.908926E-1,-3.3398414E-1,-1.5041375E-1,-1.719742E-1,4.2889628E-1,6.4732593E-1,1.325061E-1,4.0775052E-1,6.614621E-1,6.822411E-1,9.619847E-1,4.5067366E-2,6.539754E-2,-3.4610502E-2,-3.0737657E-2,-3.0667117E-2,-1.8555993E-2,-2.3135576E-2,-1.2630524E-2,-2.2419551E-2,-1.344395E-2,-4.49419E-3,-1.2679745E-2,5.74758E-3,-1.8602973E-2,1.0549137E-2,3.1071369E-2,3.9714154E-2,1.0751318E-2,-2.7861155E-3,8.695821E-3,4.4131916E-2,1.9042265E-2,1.1713955E-2,3.44636E-2,2.6196197E-2,4.2009745E-2,3.0657535E-2,5.203904E-2],"categories":[],"categories_nodes":[],"categories_segments":[],"categories_sizes":[],"default_left":[0,0,0,0,0,0,0,0,0,0,0,0,0,0,0,0,0,0,0,0,0,0,0,0,0,0,0,0,0,0,0,0,0,0,0,0,0,0,0,0,0,0,0,0,0,0,0,0,0,0,0,0,0,0,0,0,0],"id":5,"left_children":[1,3,5,7,9,11,13,15,17,19,21,23,25,27,29,31,-1,33,35,37,39,41,43,45,47,49,51,53,55,-1,-1,-1,-1,-1,-1,-1,-1,-1,-1,-1,-1,-1,-1,-1,-1,-1,-1,-1,-1,-1,-1,-1,-1,-1,-1,-1,-1],"loss_changes":[1.4494926E3,2.1167047E2,2.1214795E2,1.5746277E1,4.5123337E1,1.0408969E2,2.440918E1,1.4943848E0,3.6217728E0,2.0701782E1,1.4264754E1,2.616172E1,2.2692322E1,1.0414978E1,4.7599792E-1,1.0500488E0,0E0,8.9556885E-1,2.9131546E0,8.094002E0,8.460474E0,3.2471313E0,5.647814E0,6.150036E0,1.63307E1,1.3643616E1,5.8865967E0,9.588776E0,5.040741E0,0E0,0E0,0E0,0E0,0E0,0E0,0E0,0E0,0E0,0E0,0E0,0E0,0E0,0E0,0E0,0E0,0E0,0E0,0E0,0E0,0E0,0E0,0E0,0E0,0E0,0E0,0E0,0E0],"parents":[2147483647,0,0,1,1,2,2,3,3,4,4,5,5,6,6,7,7,8,8,9,9,10,10,11,11,12,12,13,13,14,14,15,15,17,17,18,18,19,19,20,20,21,21,22,22,23,23,24,24,25,25,26,26,27,27,28,28],"right_children":[2,4,6,8,10,12,14,16,18,20,22,24,26,28,30,32,-1,34,36,38,40,42,44,46,48,50,52,54,56,-1,-1,-1,-1,-1,-1,-1,-1,-1,-1,-1,-1,-1,-1,-1,-1,-1,-1,-1,-1,-1,-1,-1,-1,-1,-1,-1,-1],"split_conditions":[3.5164835E0,2.3085234E0,6.0456944E0,2.0533152E0,4.9957676E0,4.9923186E0,1.0220584E1,1.4987466E0,-1.0005672E-1,2.8366475E0,8.025254E-1,-4.5383153E0,6.7158384E0,2.0032707E1,4.6566474E-1,1.7786281E0,-1.7571911E-2,1.2859613E1,2.7149606E0,2.0293005E0,1.6064274E-1,6.4965196E0,9.5176494E-1,-7.9459004E0,5.0755733E-1,-5.3950777E0,3.6372644E-1,7.1875E0,5.760171E-1,4.5067366E-2,6.539754E-2,-3.4610502E-2,-3.0737657E-2,-3.0667117E-2,-1.8555993E-2,-2.3135576E-2,-1.2630524E-2,-2.2419551E-2,-1.344395E-2,-4.49419E-3,-1.2679745E-2,5.74758E-3,-1.8602973E-2,1.0549137E-2,3.1071369E-2,3.9714154E-2,1.0751318E-2,-2.7861155E-3,8.695821E-3,4.4131916E-2,1.9042265E-2,1.1713955E-2,3.44636E-2,2.6196197E-2,4.2009745E-2,3.0657535E-2,5.203904E-2],"split_indices":[26,26,11,26,11,26,11,18,13,26,30,21,26,42,27,26,0,42,11,11,21,42,16,40,30,21,30,11,30,0,0,0,0,0,0,0,0,0,0,0,0,0,0,0,0,0,0,0,0,0,0,0,0,0,0,0,0],"split_type":[0,0,0,0,0,0,0,0,0,0,0,0,0,0,0,0,0,0,0,0,0,0,0,0,0,0,0,0,0,0,0,0,0,0,0,0,0,0,0,0,0,0,0,0,0,0,0,0,0,0,0,0,0,0,0,0,0],"sum_hessian":[9.481178E3,4.8457456E3,4.6354316E3,2.1526086E3,2.6931372E3,3.8467642E3,7.886678E2,1.640815E3,5.1179367E2,2.4983184E3,1.9481879E2,2.191248E3,1.655516E3,6.4800995E2,1.4065784E2,1.6181466E3,2.2668383E1,1.879019E2,3.2389175E2,1.1287043E3,1.369614E3,5.304759E1,1.4177121E2,1.0251606E2,2.0887322E3,1.12557E3,5.29946E2,4.1926184E2,2.2874808E2,2.2527843E1,1.1813E2,1.1536084E3,4.6453827E2,1.5595145E2,3.1950462E1,2.0990758E2,1.13984184E2,4.0503976E2,7.236645E2,8.6620856E2,5.034055E2,2.1645794E1,3.1401794E1,6.846389E1,7.330731E1,7.522515E1,2.7290909E1,3.7569284E2,1.7130393E3,5.739442E1,1.0681755E3,3.3694695E1,4.9625128E2,2.1325641E2,2.0600543E2,4.5044453E1,1.8370363E2],"tree_param":{"num_deleted":"0","num_feature":"44","num_nodes":"57","size_leaf_vector":"1"}},{"base_weights":[-1.7813517E-3,5.6899357E-1,-2.194685E-1,1.005556E0,4.3111464E-1,-1.02942385E-1,-4.1848588E-1,1.0679319E0,3.4336495E-1,6.0133076E-1,2.636384E-1,3.8974665E-2,-2.337754E-1,-3.2176948E-1,-5.294172E-1,6.32282E-2,9.6301097E-1,-2.822508E-4,3.1981237E-2,-4.1419234E-2,6.49633E-1,-1.6885098E-2,3.8666534E-1,-1.2413763E-1,1.2123739E-1,-2.9808134E-1,-8.417784E-2,-1.7046607E-1,-3.808042E-1,-4.924669E-1,-3.3023763E-2,5.0112765E-2,2.3163678E-2,-1.9266037E-2,7.464871E-3,3.539228E-2,1.685992E-2,-1.2490703E-2,2.7722628E-3,2.388117E-2,5.805146E-3,-1.8265763E-2,-2.9638181E-3,2.278739E-2,4.1558845E-3,-1.1750861E-2,-1.925167E-2,2.7224375E-2,-5.7191853E-3,-2.2378662E-3,-1.3521442E-2,-1.7113334E-2,-2.5779922E-2,-1.8685687E-2,-2.6779786E-2],"categories":[],"categories_nodes":[],"categories_segments":[],"categories_sizes":[],"default_left":[0,0,0,0,0,0,0,0,0,0,0,0,0,0,0,0,0,0,0,0,0,0,0,0,0,0,0,0,0,0,0,0,0,0,0,0,0,0,0,0,0,0,0,0,0,0,0,0,0,0,0,0,0,0,0],"id":6,"left_children":[1,3,5,7,9,11,13,15,17,19,21,23,25,27,29,-1,31,-1,-1,33,35,37,39,41,43,45,47,49,51,53,-1,-1,-1,-1,-1,-1,-1,-1,-1,-1,-1,-1,-1,-1,-1,-1,-1,-1,-1,-1,-1,-1,-1,-1,-1],"loss_changes":[1.1651321E3,1.5489465E2,1.5727191E2,2.4773315E1,5.576169E1,7.960497E1,2.6460327E1,9.395813E0,5.9073706E0,3.044696E1,3.4474617E1,2.7606169E1,2.1341019E1,1.179306E1,4.917938E0,0E0,6.3793335E0,0E0,0E0,4.6789427E0,1.5941406E1,5.193749E0,1.685904E1,1.0662601E1,1.7280996E1,8.285004E0,1.2796923E1,4.703409E0,4.57283E0,4.204361E0,0E0,0E0,0E0,0E0,0E0,0E0,0E0,0E0,0E0,0E0,0E0,0E0,0E0,0E0,0E0,0E0,0E0,0E0,0E0,0E0,0E0,0E0,0E0,0E0,0E0],"parents":[2147483647,0,0,1,1,2,2,3,3,4,4,5,5,6,6,7,7,8,8,9,9,10,10,11,11,12,12,13,13,14,14,16,16,19,19,20,20,21,21,22,22,23,23,24,24,25,25,26,26,27,27,28,28,29,29],"right_children":[2,4,6,8,10,12,14,16,18,20,22,24,26,28,30,-1,32,-1,-1,34,36,38,40,42,44,46,48,50,52,54,-1,-1,-1,-1,-1,-1,-1,-1,-1,-1,-1,-1,-1,-1,-1,-1,-1,-1,-1,-1,-1,-1,-1,-1,-1],"split_conditions":[2.3610492E-1,1.3501412E-1,3.85E0,2.9130435E0,2.1061451E0,3.6421466E-1,5.348598E0,8.972371E-2,-2.357196E-2,-9.686221E0,-9.0194845E-1,-6.7064085E0,-2.011754E0,3.457686E-1,8.615385E0,6.32282E-2,7.9912674E-1,-2.822508E-4,3.1981237E-2,-4.2934785E0,8.289374E0,-2.3701804E0,3.47996E0,-3.147547E0,-2.1365979E0,5.438082E-1,1.5046729E0,2.1231736E-1,2.6425856E1,1.4001545E0,-3.3023763E-2,5.0112765E-2,2.3163678E-2,-1.9266037E-2,7.464871E-3,3.539228E-2,1.685992E-2,-1.2490703E-2,2.7722628E-3,2.388117E-2,5.805146E-3,-1.8265763E-2,-2.9638181E-3,2.278739E-2,4.1558845E-3,-1.1750861E-2,-1.925167E-2,2.7224375E-2,-5.7191853E-3,-2.2378662E-3,-1.3521442E-2,-1.7113334E-2,-2.5779922E-2,-1.8685687E-2,-2.6779786E-2],"split_indices":[27,27,11,11,11,27,11,27,13,41,21,41,16,27,11,0,20,0,0,39,8,21,11,21,12,27,11,23,42,15,0,0,0,0,0,0,0,0,0,0,0,0,0,0,0,0,0,0,0,0,0,0,0,0,0],"split_type":[0,0,0,0,0,0,0,0,0,0,0,0,0,0,0,0,0,0,0,0,0,0,0,0,0,0,0,0,0,0,0,0,0,0,0,0,0,0,0,0,0,0,0,0,0,0,0,0,0,0,0,0,0,0,0],"sum_hessian":[9.374848E3,2.5873875E3,6.78746E3,6.184177E2,1.9689697E3,4.2830083E3,2.504452E3,5.6406384E2,5.4353897E1,9.739779E2,9.9499176E2,2.0542495E3,2.2287585E3,1.3420386E3,1.1624133E3,1.8982628E2,3.7423755E2,2.5320875E1,2.9033022E1,6.780331E1,9.0617456E2,3.0323352E2,6.917583E2,6.876224E2,1.3666272E3,1.5567495E3,6.7200916E2,3.7925186E2,9.627867E2,9.135194E2,2.4889388E2,3.4521896E2,2.9018599E1,2.4015858E1,4.378745E1,7.6171405E2,1.4446056E2,7.16334E1,2.3160011E2,5.1630054E2,1.7545776E2,1.4360718E2,5.440152E2,1.3758676E2,1.2290404E3,9.0687244E2,6.49877E2,2.9333807E1,6.4267535E2,1.6984044E2,2.0941142E2,7.540088E2,2.0877791E2,2.4847905E2,6.6504034E2],"tree_param":{"num_deleted":"0","num_feature":"44","num_nodes":"55","size_leaf_vector":"1"}},{"base_weights":[6.6864192E-3,-4.0131217E-1,3.691515E-2,-6.666688E-1,-3.0720994E-1,1.058504E-1,-1.860738E-1,-3.5376515E-2,-2.4538426E-2,-3.4088254E-1,1.4563086E-2,1.1538852E-1,-2.9876158E-1,-1.3038202E-1,-4.204355E-1,-4.37014E-1,-2.1338573E-1,-1.9712698E-2,1.3538341E-1,1.6949887E-3,-3.96491E-1,-8.788653E-2,-2.2126633E-1,-3.428924E-1,-5.997484E-1,-1.1669395E-2,-2.4354808E-2,-4.7199554E-3,-1.618296E-2,-1.8627031E-3,2.8348476E-2,8.637286E-3,2.9852546E-3,-2.2853618E-2,-5.7369894E-3,-7.094599E-3,-7.8921614E-5,-8.10493E-3,-1.5305312E-2,-3.3251983E-3,-1.9242354E-2,-1.9219046E-2,-3.242465E-2],"categories":[],"categories_nodes":[],"categories_segments":[],"categories_sizes":[],"default_left":[0,0,0,0,0,0,0,0,0,0,0,0,0,0,0,0,0,0,0,0,0,0,0,0,0,0,0,0,0,0,0,0,0,0,0,0,0,0,0,0,0,0,0],"id":7,"left_children":[1,3,5,7,9,11,13,-1,-1,15,-1,17,19,21,23,25,27,29,31,-1,33,35,37,39,41,-1,-1,-1,-1,-1,-1,-1,-1,-1,-1,-1,-1,-1,-1,-1,-1,-1,-1],"loss_changes":[1.180452E2,1.5983017E1,1.3707933E2,4.6847534E-1,1.004723E1,2.630703E1,2.7288094E1,0E0,0E0,5.4361267E0,0E0,1.8011032E1,5.1915607E0,6.490385E0,5.105034E0,2.3685036E0,2.5466738E0,8.758572E0,1.6339394E1,0E0,1.8860683E0,5.4017534E0,2.544798E0,3.1824608E0,6.6721344E-1,0E0,0E0,0E0,0E0,0E0,0E0,0E0,0E0,0E0,0E0,0E0,0E0,0E0,0E0,0E0,0E0,0E0,0E0],"parents":[2147483647,0,0,1,1,2,2,3,3,4,4,5,5,6,6,9,9,11,11,12,12,13,13,14,14,15,15,16,16,17,17,18,18,20,20,21,21,22,22,23,23,24,24],"right_children":[2,4,6,8,10,12,14,-1,-1,16,-1,18,20,22,24,26,28,30,32,-1,34,36,38,40,42,-1,-1,-1,-1,-1,-1,-1,-1,-1,-1,-1,-1,-1,-1,-1,-1,-1,-1],"split_conditions":[1.4411027E0,8.972371E-2,5.0605907E0,1.6298438E0,7.36377E-1,7.1875E0,6.707059E0,-3.5376515E-2,-2.4538426E-2,1.6759777E0,1.4563086E-2,1.8746614E-1,1.0146629E0,6.782438E0,1.0220584E1,-4.382797E0,-2.4302886E0,1.1271516E0,3.7607136E0,1.6949887E-3,7.7E0,-5.847953E-1,-1.7695418E-1,6.487632E-1,6.9143724E-1,-1.1669395E-2,-2.4354808E-2,-4.7199554E-3,-1.618296E-2,-1.8627031E-3,2.8348476E-2,8.637286E-3,2.9852546E-3,-2.2853618E-2,-5.7369894E-3,-7.094599E-3,-7.8921614E-5,-8.10493E-3,-1.5305312E-2,-3.3251983E-3,-1.9242354E-2,-1.9219046E-2,-3.242465E-2],"split_indices":[26,27,26,11,18,11,11,0,0,43,0,27,29,26,11,41,9,18,26,0,41,41,13,31,6,0,0,0,0,0,0,0,0,0,0,0,0,0,0,0,0,0,0],"split_type":[0,0,0,0,0,0,0,0,0,0,0,0,0,0,0,0,0,0,0,0,0,0,0,0,0,0,0,0,0,0,0,0,0,0,0,0,0,0,0,0,0,0,0],"sum_hessian":[9.573882E3,6.5867566E2,8.915206E3,1.6948811E2,4.8918753E2,6.811248E3,2.103958E3,1.3293652E2,3.6551586E1,4.6405746E2,2.5130066E1,6.6559116E3,1.5533653E2,1.7025629E3,4.0139523E2,2.6160184E2,2.0245564E2,8.5678925E2,5.7991226E3,3.5030247E1,1.2030629E2,1.1636277E3,5.3893524E2,2.8404498E2,1.1735024E2,5.410461E1,2.0749722E2,9.9592094E1,1.0286355E2,8.3361053E2,2.3178688E1,3.8793337E3,1.9197887E3,9.766369E1,2.2642601E1,7.137381E2,4.498896E2,3.2146643E2,2.1746881E2,3.8573784E1,2.4547119E2,2.487535E1,9.24749E1],"tree_param":{"num_deleted":"0","num_feature":"44","num_nodes":"43","size_leaf_vector":"1"}},{"base_weights":[-8.659873E-4,-1.3754791E-1,5.213959E-1,-3.388833E-1,1.396141E-1,3.824669E-1,9.340728E-1,-4.374052E-1,-1.08751684E-1,1.9500103E-2,3.394026E-1,2.6734912E-1,6.3854414E-1,8.250883E-1,1.1734822E0,-1.5433612E-1,-4.953545E-1,-3.1907165E-1,9.539395E-2,-1.05936795E-1,2.1047042E-1,1.9910213E-1,4.8706865E-1,1.2363756E-1,4.5818993E-1,9.997476E-1,5.649846E-1,5.911803E-1,9.3019354E-1,3.863054E-2,6.2022835E-2,-1.3187721E-2,3.4130127E-3,-2.9707924E-2,-1.9298261E-2,-1.9772137E-2,-4.2487364E-3,2.5673066E-3,2.2472E-2,-1.7434677E-4,-1.3643329E-2,1.5216501E-2,7.8528834E-4,5.9436546E-3,2.1665132E-2,4.311458E-2,2.2203488E-2,1.7361613E-3,2.0925334E-2,6.6285282E-3,2.5210787E-2,2.8087238E-2,5.7994403E-2,1.9618962E-2,3.743833E-2,1.4977257E-2,4.3657787E-2,3.0633334E-2,4.9453806E-2],"categories":[],"categories_nodes":[],"categories_segments":[],"categories_sizes":[],"default_left":[0,0,0,0,0,0,0,0,0,0,0,0,0,0,0,0,0,0,0,0,0,0,0,0,0,0,0,0,0,0,0,0,0,0,0,0,0,0,0,0,0,0,0,0,0,0,0,0,0,0,0,0,0,0,0,0,0,0,0],"id":8,"left_children":[1,3,5,7,9,11,13,15,17,19,21,23,25,27,29,31,33,35,37,39,41,43,45,47,49,51,53,55,57,-1,-1,-1,-1,-1,-1,-1,-1,-1,-1,-1,-1,-1,-1,-1,-1,-1,-1,-1,-1,-1,-1,-1,-1,-1,-1,-1,-1,-1,-1],"loss_changes":[6.724042E2,4.1678033E2,1.1121649E2,9.790079E1,7.532875E1,4.2737732E1,1.0950806E1,4.9425842E1,5.5881424E1,4.7119743E1,2.4147049E1,2.7595093E1,1.0865173E1,7.2989044E0,2.170044E0,1.2665904E1,2.661206E1,1.1310776E1,1.0158711E1,2.022989E1,1.4188515E1,1.1234573E1,8.405655E0,1.5114829E1,6.279892E0,3.8805466E0,1.1382996E1,8.50021E0,3.1331024E0,0E0,0E0,0E0,0E0,0E0,0E0,0E0,0E0,0E0,0E0,0E0,0E0,0E0,0E0,0E0,0E0,0E0,0E0,0E0,0E0,0E0,0E0,0E0,0E0,0E0,0E0,0E0,0E0,0E0,0E0],"parents":[2147483647,0,0,1,1,2,2,3,3,4,4,5,5,6,6,7,7,8,8,9,9,10,10,11,11,12,12,13,13,14,14,15,15,16,16,17,17,18,18,19,19,20,20,21,21,22,22,23,23,24,24,25,25,26,26,27,27,28,28],"right_children":[2,4,6,8,10,12,14,16,18,20,22,24,26,28,30,32,34,36,38,40,42,44,46,48,50,52,54,56,58,-1,-1,-1,-1,-1,-1,-1,-1,-1,-1,-1,-1,-1,-1,-1,-1,-1,-1,-1,-1,-1,-1,-1,-1,-1,-1,-1,-1,-1,-1],"split_conditions":[4.535714E0,1.2396694E1,7.1875E0,5.2194543E0,2.1639345E1,2.0210602E1,1.0220584E1,-2.2500532E0,5.9459457E0,2.6471927E0,7.1593386E-1,7.0756555E0,-5.3950777E0,9.131906E0,4.335065E0,2.2375E0,2.1578948E0,3.47996E0,1.6803564E0,-2.0700564E0,-1.3201952E0,3.4344263E0,-1.3267326E1,6.0456944E0,2.7960527E0,-2.7355623E0,5.049732E0,1.2213631E0,6.7166144E-1,3.863054E-2,6.2022835E-2,-1.3187721E-2,3.4130127E-3,-2.9707924E-2,-1.9298261E-2,-1.9772137E-2,-4.2487364E-3,2.5673066E-3,2.2472E-2,-1.7434677E-4,-1.3643329E-2,1.5216501E-2,7.8528834E-4,5.9436546E-3,2.1665132E-2,4.311458E-2,2.2203488E-2,1.7361613E-3,2.0925334E-2,6.6285282E-3,2.5210787E-2,2.8087238E-2,5.7994403E-2,1.9618962E-2,3.743833E-2,1.4977257E-2,4.3657787E-2,3.0633334E-2,4.9453806E-2],"split_indices":[11,42,11,43,42,42,11,16,42,43,31,43,21,42,42,11,11,11,23,16,16,11,18,11,42,16,43,29,31,0,0,0,0,0,0,0,0,0,0,0,0,0,0,0,0,0,0,0,0,0,0,0,0,0,0,0,0,0,0],"split_type":[0,0,0,0,0,0,0,0,0,0,0,0,0,0,0,0,0,0,0,0,0,0,0,0,0,0,0,0,0,0,0,0,0,0,0,0,0,0,0,0,0,0,0,0,0,0,0,0,0,0,0,0,0,0,0,0,0,0,0],"sum_hessian":[9.417638E3,7.4653564E3,1.9522812E3,4.324413E3,3.140943E3,1.4630991E3,4.891822E2,3.0265105E3,1.2979027E3,1.9632644E3,1.1776786E3,1.0120058E3,4.510933E2,3.413136E2,1.4786856E2,5.158156E2,2.5106948E3,6.3935046E2,6.5855225E2,1.1847163E3,7.785481E2,6.064014E2,5.7127716E2,5.792926E2,4.3271323E2,7.266698E1,3.7842633E2,1.0948911E2,2.318245E2,2.4287477E1,1.2358109E2,3.4624057E2,1.6957506E2,1.3147208E3,1.1959741E3,4.8065488E2,1.5869557E2,5.877154E2,7.0836815E1,7.3583905E2,4.4887726E2,5.241047E2,2.5444345E2,4.5399402E2,1.5240744E2,5.531839E1,5.1595874E2,4.4689236E2,1.3240025E2,5.484766E1,3.7786557E2,2.159976E1,5.1067215E1,1.9813318E2,1.8029315E2,5.5691994E1,5.379712E1,3.9472317E1,1.9235217E2],"tree_param":{"num_deleted":"0","num_feature":"44","num_nodes":"59","size_leaf_vector":"1"}},{"base_weights":[1.5279426E-3,5.5525315E-1,-2.2803931E-1,8.860926E-1,3.5699964E-1,-5.040118E-2,-3.6767164E-1,1.023582E0,6.8933713E-1,5.002678E-1,2.3970014E-1,6.4783104E-2,-1.743238E-1,-3.1621248E-1,-5.6348383E-1,1.9905377E-2,1.0477873E0,7.4545467E-1,2.8249788E-1,5.9600717E-1,3.1727234E-1,-2.731459E-1,2.6856902E-1,-9.419288E-2,1.5771526E-1,-1.2720062E-1,-3.6887187E-1,-5.4627883E-1,-2.9650888E-1,-5.213366E-1,-3.3163264E-2,5.9399422E-2,4.7479264E-2,2.5814295E-2,4.097451E-2,-2.6229776E-3,2.6381275E-2,1.7919304E-2,3.204911E-2,2.0070335E-2,4.8276127E-4,-2.189867E-2,-1.4741721E-3,1.4703003E-2,-1.6596437E-2,1.8412492E-3,-1.2511285E-2,1.1497014E-2,1.3856059E-6,-1.9720754E-2,-4.2143273E-3,-1.1091229E-2,-2.4789436E-2,-1.6427694E-2,-2.8572192E-2,-1.2494042E-2,-1.9372607E-2,-6.87207E-3,-2.6863148E-2],"categories":[],"categories_nodes":[],"categories_segments":[],"categories_sizes":[],"default_left":[0,0,0,0,0,0,0,0,0,0,0,0,0,0,0,0,0,0,0,0,0,0,0,0,0,0,0,0,0,0,0,0,0,0,0,0,0,0,0,0,0,0,0,0,0,0,0,0,0,0,0,0,0,0,0,0,0,0,0],"id":9,"left_children":[1,3,5,7,9,11,13,15,17,19,21,23,25,27,29,-1,31,33,35,37,39,41,43,45,47,49,51,53,55,57,-1,-1,-1,-1,-1,-1,-1,-1,-1,-1,-1,-1,-1,-1,-1,-1,-1,-1,-1,-1,-1,-1,-1,-1,-1,-1,-1,-1,-1],"loss_changes":[1.1956276E3,1.8009094E2,1.6479755E2,2.6504822E1,2.8689148E1,4.1838593E1,3.705664E1,8.222717E0,9.284836E0,1.3114075E1,1.4218849E1,2.2461384E1,1.2774597E1,1.2967194E1,2.4900665E0,0E0,5.8635254E0,5.4795074E0,4.6452203E0,4.86821E0,6.90427E0,1.9419379E0,1.3966789E1,1.1507536E1,1.0879717E1,1.2924057E1,4.7993927E0,7.998657E-1,1.1272415E1,3.1231384E0,0E0,0E0,0E0,0E0,0E0,0E0,0E0,0E0,0E0,0E0,0E0,0E0,0E0,0E0,0E0,0E0,0E0,0E0,0E0,0E0,0E0,0E0,0E0,0E0,0E0,0E0,0E0,0E0,0E0],"parents":[2147483647,0,0,1,1,2,2,3,3,4,4,5,5,6,6,7,7,8,8,9,9,10,10,11,11,12,12,13,13,14,14,16,16,17,17,18,18,19,19,20,20,21,21,22,22,23,23,24,24,25,25,26,26,27,27,28,28,29,29],"right_children":[2,4,6,8,10,12,14,16,18,20,22,24,26,28,30,-1,32,34,36,38,40,42,44,46,48,50,52,54,56,58,-1,-1,-1,-1,-1,-1,-1,-1,-1,-1,-1,-1,-1,-1,-1,-1,-1,-1,-1,-1,-1,-1,-1,-1,-1,-1,-1,-1,-1],"split_conditions":[2.5181503E0,1.6407027E0,3.882955E0,1.6759777E0,2.073325E0,2.7470589E0,5.7456098E0,-4.8156896E0,3.1806169E0,3.283582E0,-2.553562E0,-2.5186567E0,4.9957676E0,-1.3301789E1,8.615385E0,1.9905377E-2,1.099986E0,-8.333333E0,-1.0464147E-2,-2.626777E-1,3.4146342E0,2.3438436E-1,1.1308563E0,1.0271734E0,9.090909E0,-2.641008E0,3.4632036E-1,5.141388E-1,5.571983E0,4.5584378E-1,-3.3163264E-2,5.9399422E-2,4.7479264E-2,2.5814295E-2,4.097451E-2,-2.6229776E-3,2.6381275E-2,1.7919304E-2,3.204911E-2,2.0070335E-2,4.8276127E-4,-2.189867E-2,-1.4741721E-3,1.4703003E-2,-1.6596437E-2,1.8412492E-3,-1.2511285E-2,1.1497014E-2,1.3856059E-6,-1.9720754E-2,-4.2143273E-3,-1.1091229E-2,-2.4789436E-2,-1.6427694E-2,-2.8572192E-2,-1.2494042E-2,-1.9372607E-2,-6.87207E-3,-2.6863148E-2],"split_indices":[26,26,26,43,26,11,11,22,11,43,21,16,11,22,11,0,26,10,12,23,11,27,39,29,8,21,39,43,26,15,0,0,0,0,0,0,0,0,0,0,0,0,0,0,0,0,0,0,0,0,0,0,0,0,0,0,0,0,0],"split_type":[0,0,0,0,0,0,0,0,0,0,0,0,0,0,0,0,0,0,0,0,0,0,0,0,0,0,0,0,0,0,0,0,0,0,0,0,0,0,0,0,0,0,0,0,0,0,0,0,0,0,0,0,0,0,0,0,0,0,0],"sum_hessian":[9.402204E3,2.7552285E3,6.6469756E3,1.0300685E3,1.72516E3,2.9268962E3,3.7200793E3,6.0204767E2,4.280208E2,7.736414E2,9.5151855E2,1.5164653E3,1.4104308E3,2.949816E3,7.7026355E2,2.371354E1,5.783341E2,3.746089E2,5.34119E1,5.0497226E2,2.686692E2,4.9662426E1,9.0185614E2,5.586422E2,9.578232E2,1.1382372E3,2.7219357E2,2.2873888E2,2.721077E3,5.4949927E2,2.207643E2,2.3052927E2,3.4780484E2,9.505092E1,2.7955798E2,2.2723795E1,3.0688105E1,8.321469E1,4.2175757E2,2.100989E2,5.8570286E1,2.8420292E1,2.1242134E1,8.6618524E2,3.5670895E1,3.0358862E2,2.5505357E2,6.5559015E2,3.0223303E2,1.5515869E2,9.830785E2,1.2873604E2,1.4345753E2,2.6706713E1,2.0203217E2,1.8039723E3,9.171046E2,2.296416E1,5.265351E2],"tree_param":{"num_deleted":"0","num_feature":"44","num_nodes":"59","size_leaf_vector":"1"}},{"base_weights":[4.1913716E-4,-3.8961405E-1,2.9496131E-2,-6.0912615E-1,-2.756933E-1,1.064305E-1,-1.4467311E-1,-6.5006673E-1,-1.8168895E-2,-3.1734163E-1,1.4743403E-2,1.9662029E-1,6.816226E-2,-9.87387E-2,-4.1389838E-1,-3.380058E-2,-1.9715734E-2,-3.5971558E-1,-6.0473695E-2,2.8036225E-1,1.472695E-1,7.677485E-2,-3.0001113E-1,-5.31529E-2,-2.1784824E-1,-3.4820867E-1,-6.0852873E-1,-2.1575363E-2,-8.623208E-3,-1.3677931E-2,1.4738892E-2,3.4746785E-2,1.09016895E-2,-1.1761678E-2,8.118556E-3,4.6495022E-4,6.6497237E-3,-7.0997807E-3,-2.5093818E-2,-2.0314177E-2,-2.0952327E-3,-1.9943077E-2,-8.656875E-3,-5.109533E-3,-1.8960822E-2,-1.9531708E-2,-3.2778375E-2],"categories":[],"categories_nodes":[],"categories_segments":[],"categories_sizes":[],"default_left":[0,0,0,0,0,0,0,0,0,0,0,0,0,0,0,0,0,0,0,0,0,0,0,0,0,0,0,0,0,0,0,0,0,0,0,0,0,0,0,0,0,0,0,0,0,0,0],"id":10,"left_children":[1,3,5,7,9,11,13,15,-1,17,-1,19,21,23,25,-1,-1,27,29,31,33,35,37,39,41,43,45,-1,-1,-1,-1,-1,-1,-1,-1,-1,-1,-1,-1,-1,-1,-1,-1,-1,-1,-1,-1],"loss_changes":[1.0806538E2,1.6101952E1,1.1892383E2,1.6968002E0,1.0565712E1,2.1176598E1,3.3457615E1,6.430054E-1,0E0,4.343258E0,0E0,7.422844E0,1.3709003E1,1.255282E1,4.5428314E0,0E0,0E0,4.4828224E0,4.6960263E0,1.7059479E1,6.727335E0,1.6013605E1,2.9117136E0,6.5766573E0,4.976675E0,2.1319084E0,4.0018463E-1,0E0,0E0,0E0,0E0,0E0,0E0,0E0,0E0,0E0,0E0,0E0,0E0,0E0,0E0,0E0,0E0,0E0,0E0,0E0,0E0],"parents":[2147483647,0,0,1,1,2,2,3,3,4,4,5,5,6,6,7,7,9,9,11,11,12,12,13,13,14,14,17,17,18,18,19,19,20,20,21,21,22,22,23,23,24,24,25,25,26,26],"right_children":[2,4,6,8,10,12,14,16,-1,18,-1,20,22,24,26,-1,-1,28,30,32,34,36,38,40,42,44,46,-1,-1,-1,-1,-1,-1,-1,-1,-1,-1,-1,-1,-1,-1,-1,-1,-1,-1,-1,-1],"split_conditions":[1.4411027E0,1.0011551E0,4.587641E0,3.160271E0,2.9292307E0,-6.2695923E0,7.0165744E0,1.4814814E0,-1.8168895E-2,1.668681E-1,1.4743403E-2,2.9684815E0,7.0165744E0,6.5682583E0,1.1116923E1,-3.380058E-2,-1.9715734E-2,2.3896766E-1,8.229175E-1,-2.9383507E0,2.296087E-1,2.446764E0,3.9237397E0,-6.1452513E0,2.1708279E0,6.487632E-1,5.6868964E-1,-2.1575363E-2,-8.623208E-3,-1.3677931E-2,1.4738892E-2,3.4746785E-2,1.09016895E-2,-1.1761678E-2,8.118556E-3,4.6495022E-4,6.6497237E-3,-7.0997807E-3,-2.5093818E-2,-2.0314177E-2,-2.0952327E-3,-1.9943077E-2,-8.656875E-3,-5.109533E-3,-1.8960822E-2,-1.9531708E-2,-3.2778375E-2],"split_indices":[26,26,26,8,11,41,11,10,0,27,0,26,11,26,11,0,0,41,30,21,27,11,26,21,11,31,27,0,0,0,0,0,0,0,0,0,0,0,0,0,0,0,0,0,0,0,0],"split_type":[0,0,0,0,0,0,0,0,0,0,0,0,0,0,0,0,0,0,0,0,0,0,0,0,0,0,0,0,0,0,0,0,0,0,0,0,0,0,0,0,0,0,0,0,0,0,0],"sum_hessian":[9.532072E3,6.5954785E2,8.872524E3,2.2251367E2,4.3703415E2,6.1553174E3,2.717207E3,1.8792455E2,3.458913E1,4.0825006E2,2.878411E1,1.8302916E3,4.325026E3,2.323561E3,3.93646E2,1.6766852E2,2.0256025E1,3.4925616E2,5.899388E1,6.745658E2,1.1557258E3,4.227855E3,9.717077E1,1.683209E3,6.40352E2,2.9820874E2,9.543725E1,2.5027621E2,9.897996E1,3.7442974E1,2.1550907E1,8.5752914E1,5.8881287E2,4.2562687E1,1.1131631E3,1.9239728E3,2.3038826E3,5.6494244E1,4.067652E1,4.978498E1,1.633424E3,1.2359954E2,5.1675244E2,3.4821995E1,2.6338675E2,2.0177736E1,7.5259514E1],"tree_param":{"num_deleted":"0","num_feature":"44","num_nodes":"47","size_leaf_vector":"1"}},{"base_weights":[-1.371563E-3,-3.6905533E-1,3.718386E-1,-5.932999E-1,-1.9085433E-1,1.9393985E-1,5.74258E-1,-6.4587307E-1,-4.40937E-1,-2.0873004E-1,4.915895E-1,1.695185E-1,7.827063E-1,4.9176636E-1,7.307436E-1,-6.6706634E-1,-5.861335E-1,-4.690505E-1,-1.924996E-1,-3.215965E-1,-1.2116745E-1,1.2017763E-2,3.3004444E-2,9.40469E-2,3.072615E-1,2.4293657E-2,4.6603207E-2,4.0013465E-1,6.2591165E-1,6.706757E-1,9.446243E-1,-3.3852074E-2,-2.8734265E-2,-3.1443454E-2,-2.087566E-2,-1.6199665E-2,-2.483589E-2,-2.1147288E-2,1.536527E-4,-2.311999E-2,-1.3683274E-2,-8.420504E-3,3.9893375E-3,-1.1870445E-3,7.3363553E-3,-0E0,1.7151808E-2,7.981105E-3,2.2550112E-2,1.2904695E-2,3.219558E-2,2.8542895E-2,4.3221936E-2,2.8093904E-2,5.1162522E-2],"categories":[],"categories_nodes":[],"categories_segments":[],"categories_sizes":[],"default_left":[0,0,0,0,0,0,0,0,0,0,0,0,0,0,0,0,0,0,0,0,0,0,0,0,0,0,0,0,0,0,0,0,0,0,0,0,0,0,0,0,0,0,0,0,0,0,0,0,0,0,0,0,0,0,0],"id":11,"left_children":[1,3,5,7,9,11,13,15,17,19,21,23,25,27,29,31,33,35,37,39,41,-1,-1,43,45,-1,-1,47,49,51,53,-1,-1,-1,-1,-1,-1,-1,-1,-1,-1,-1,-1,-1,-1,-1,-1,-1,-1,-1,-1,-1,-1,-1,-1],"loss_changes":[1.2862145E3,1.8835938E2,1.6717523E2,1.6093384E1,3.2226524E1,3.52463E1,2.7285767E1,1.1244507E0,3.516098E0,2.5230553E1,2.4346256E0,2.4638344E1,3.380394E0,1.6987732E1,8.319275E0,2.0758057E-1,2.4273834E0,1.5405731E0,2.7152755E0,7.221138E0,1.3798019E1,0E0,0E0,9.597492E0,9.294128E0,0E0,0E0,1.0221024E1,3.387329E0,1.0361572E1,3.6149902E0,0E0,0E0,0E0,0E0,0E0,0E0,0E0,0E0,0E0,0E0,0E0,0E0,0E0,0E0,0E0,0E0,0E0,0E0,0E0,0E0,0E0,0E0,0E0,0E0],"parents":[2147483647,0,0,1,1,2,2,3,3,4,4,5,5,6,6,7,7,8,8,9,9,10,10,11,11,12,12,13,13,14,14,15,15,16,16,17,17,18,18,19,19,20,20,23,23,24,24,27,27,28,28,29,29,30,30],"right_children":[2,4,6,8,10,12,14,16,18,20,22,24,26,28,30,32,34,36,38,40,42,-1,-1,44,46,-1,-1,48,50,52,54,-1,-1,-1,-1,-1,-1,-1,-1,-1,-1,-1,-1,-1,-1,-1,-1,-1,-1,-1,-1,-1,-1,-1,-1],"split_conditions":[3.5164835E0,2.3085234E0,5.0605907E0,2.033027E0,1.4458402E0,1.584132E0,8.831381E-1,1.7786281E0,2.6326287E0,2.8366475E0,6.329114E0,4.4158554E0,4.0067897E0,6.5682583E0,3.7248904E-1,2.580528E0,1.0997646E0,3.316804E-1,8.638787E-1,-5.780347E0,1.191076E0,1.2017763E-2,3.3004444E-2,-3.8204272E0,4.5434272E-1,2.4293657E-2,4.6603207E-2,1.8064516E0,3.4590164E-1,7.095865E0,1.0083963E0,-3.3852074E-2,-2.8734265E-2,-3.1443454E-2,-2.087566E-2,-1.6199665E-2,-2.483589E-2,-2.1147288E-2,1.536527E-4,-2.311999E-2,-1.3683274E-2,-8.420504E-3,3.9893375E-3,-1.1870445E-3,7.3363553E-3,-0E0,1.7151808E-2,7.981105E-3,2.2550112E-2,1.2904695E-2,3.219558E-2,2.8542895E-2,4.3221936E-2,2.8093904E-2,5.1162522E-2],"split_indices":[26,26,26,26,16,16,30,26,40,26,43,26,26,26,16,41,30,15,30,40,29,0,0,17,30,0,0,43,30,26,29,0,0,0,0,0,0,0,0,0,0,0,0,0,0,0,0,0,0,0,0,0,0,0,0],"split_type":[0,0,0,0,0,0,0,0,0,0,0,0,0,0,0,0,0,0,0,0,0,0,0,0,0,0,0,0,0,0,0,0,0,0,0,0,0,0,0,0,0,0,0,0,0,0,0,0,0,0,0,0,0,0,0],"sum_hessian":[9.370151E3,4.7203003E3,4.649851E3,2.0880828E3,2.6322178E3,2.4769124E3,2.172939E3,1.5478295E3,5.402533E2,2.5663303E3,6.588735E1,2.3804458E3,9.646653E1,1.4277761E3,7.451628E2,1.1287836E3,4.1904596E2,4.8341266E2,5.684062E1,1.1184182E3,1.4479121E3,2.8387676E1,3.7499676E1,1.5404077E3,8.4003815E2,3.487492E1,6.1591614E1,8.5274786E2,5.750282E2,5.873466E2,1.5781616E2,1.0082563E3,1.2052724E2,3.3010333E2,8.894263E1,8.164564E1,4.0176703E2,2.5762737E1,3.107788E1,2.7968008E2,8.387381E2,1.1733142E3,2.7459796E2,4.7511792E2,1.0652898E3,8.739051E1,7.5264764E2,1.5063805E2,7.021098E2,2.8419115E1,5.466091E2,3.9223605E2,1.9511058E2,2.9410568E1,1.284056E2],"tree_param":{"num_deleted":"0","num_feature":"44","num_nodes":"55","size_leaf_vector":"1"}},{"base_weights":[-1.6075419E-3,5.2978164E-1,-2.169253E-1,8.8864154E-1,3.673694E-1,-7.8475416E-2,-3.968147E-1,1.0863519E0,7.8640157E-1,5.090093E-1,2.2303493E-1,5.839347E-2,-1.712514E-1,-3.4189665E-1,-5.4103905E-1,1.1108948E0,3.796408E-2,8.1591743E-1,1.0034452E-2,5.519685E-1,1.061591E-1,2.5150615E-1,-3.1297582E-1,1.8553743E-1,-5.2635647E-2,-4.0789542E-1,-1.446033E-1,-5.7591822E-2,-3.5597438E-1,-4.031269E-1,-5.7129484E-1,3.934931E-2,5.6795757E-2,2.349488E-2,4.2616166E-2,2.3344127E-2,3.6336284E-2,2.0506987E-2,-8.435597E-3,5.295646E-3,1.8480793E-2,-6.8720602E-3,-2.2386901E-2,2.942673E-3,1.6234597E-2,1.1033271E-3,-1.4452862E-2,-9.26065E-3,-2.3477856E-2,-1.7581255E-3,-1.14798825E-2,9.718755E-3,-1.123426E-2,-2.0666968E-3,-1.8208051E-2,5.4970646E-4,-2.3507474E-2,-3.33013E-2,-2.7022064E-2],"categories":[],"categories_nodes":[],"categories_segments":[],"categories_sizes":[],"default_left":[0,0,0,0,0,0,0,0,0,0,0,0,0,0,0,0,0,0,0,0,0,0,0,0,0,0,0,0,0,0,0,0,0,0,0,0,0,0,0,0,0,0,0,0,0,0,0,0,0,0,0,0,0,0,0,0,0,0,0],"id":12,"left_children":[1,3,5,7,9,11,13,15,17,19,21,23,25,27,29,31,-1,33,-1,35,37,39,41,43,45,47,49,51,53,55,57,-1,-1,-1,-1,-1,-1,-1,-1,-1,-1,-1,-1,-1,-1,-1,-1,-1,-1,-1,-1,-1,-1,-1,-1,-1,-1,-1,-1],"loss_changes":[1.0768046E3,1.5742035E2,1.6667776E2,1.5405579E1,3.7935425E1,4.813159E1,2.2611145E1,6.3327026E-1,9.274628E0,1.6091553E1,1.4300083E1,2.1645145E1,1.4044022E1,8.347855E0,2.7956543E0,3.7783813E-1,0E0,5.869934E0,0E0,1.1904297E1,7.9333935E0,1.5054005E1,9.078264E-1,1.2491867E1,1.4497346E1,2.8556976E0,1.8846428E1,4.374504E0,5.0825043E0,4.266365E0,1.1211243E0,0E0,0E0,0E0,0E0,0E0,0E0,0E0,0E0,0E0,0E0,0E0,0E0,0E0,0E0,0E0,0E0,0E0,0E0,0E0,0E0,0E0,0E0,0E0,0E0,0E0,0E0,0E0,0E0],"parents":[2147483647,0,0,1,1,2,2,3,3,4,4,5,5,6,6,7,7,8,8,9,9,10,10,11,11,12,12,13,13,14,14,15,15,17,17,19,19,20,20,21,21,22,22,23,23,24,24,25,25,26,26,27,27,28,28,29,29,30,30],"right_children":[2,4,6,8,10,12,14,16,18,20,22,24,26,28,30,32,-1,34,-1,36,38,40,42,44,46,48,50,52,54,56,58,-1,-1,-1,-1,-1,-1,-1,-1,-1,-1,-1,-1,-1,-1,-1,-1,-1,-1,-1,-1,-1,-1,-1,-1,-1,-1,-1,-1],"split_conditions":[2.5181503E0,1.520079E0,4.385965E0,1.0506145E0,2.073325E0,2.4305298E0,5.453287E0,1.866252E0,7.36377E-1,3.4146342E0,9.647372E-1,3.1801176E0,-3.0100415E0,3.542415E-1,1.3610705E0,-1.5895443E-1,3.796408E-2,-3.237352E-1,1.0034452E-2,2.928952E-1,9.9911433E-1,-5.1557237E-1,4.2136335E0,-3.3912528E-1,9.380083E-1,-4.49361E0,3.9122138E0,2.2692108E0,4.9217615E-1,-1.7321905E-1,-2.8759153E0,3.934931E-2,5.6795757E-2,2.349488E-2,4.2616166E-2,2.3344127E-2,3.6336284E-2,2.0506987E-2,-8.435597E-3,5.295646E-3,1.8480793E-2,-6.8720602E-3,-2.2386901E-2,2.942673E-3,1.6234597E-2,1.1033271E-3,-1.4452862E-2,-9.26065E-3,-2.3477856E-2,-1.7581255E-3,-1.14798825E-2,9.718755E-3,-1.123426E-2,-2.0666968E-3,-1.8208051E-2,5.4970646E-4,-2.3507474E-2,-3.33013E-2,-2.7022064E-2],"split_indices":[26,26,26,26,26,11,11,10,18,11,39,26,21,30,15,23,0,23,0,23,30,21,11,21,30,18,43,43,29,13,21,0,0,0,0,0,0,0,0,0,0,0,0,0,0,0,0,0,0,0,0,0,0,0,0,0,0,0,0],"split_type":[0,0,0,0,0,0,0,0,0,0,0,0,0,0,0,0,0,0,0,0,0,0,0,0,0,0,0,0,0,0,0,0,0,0,0,0,0,0,0,0,0,0,0,0,0,0,0,0,0,0,0,0,0,0,0,0,0,0,0],"sum_hessian":[9.408725E3,2.7121667E3,6.696558E3,8.4255365E2,1.8696132E3,3.785984E3,2.9105742E3,2.8160165E2,5.6095197E2,9.410027E2,9.2861053E2,1.5288822E3,2.2571016E3,2.112583E3,7.9799115E2,2.58033E2,2.3568676E1,5.331537E2,2.7798283E1,8.493752E2,9.162752E1,8.828838E2,4.5726727E1,7.1308936E2,8.1579285E2,2.2551233E2,2.0315894E3,1.0070255E2,2.0118805E3,1.4862477E2,6.4936633E2,2.2566437E1,2.3546655E2,5.3263588E1,4.7989008E2,5.7572E2,2.736552E2,4.3504837E1,4.812268E1,3.9746686E2,4.8541693E2,2.181956E1,2.3907167E1,3.7513986E2,3.3794946E2,6.20308E2,1.9548483E2,5.090939E1,1.7460294E2,8.900339E2,1.1415554E3,3.957857E1,6.112398E1,5.18693E1,1.9600111E3,2.04622E1,1.2816257E2,1.5035674E2,4.990096E2],"tree_param":{"num_deleted":"0","num_feature":"44","num_nodes":"59","size_leaf_vector":"1"}},{"base_weights":[-4.36631E-3,-4.02441E-1,2.4567382E-2,-5.6233734E-1,-2.7277413E-1,9.508583E-2,-1.3665149E-1,-6.160691E-1,-3.2925943E-1,-1.2579139E-1,-4.0360394E-1,2.6652798E-1,6.418756E-2,-9.518619E-2,-4.0789056E-1,-1.6664738E-2,-6.4266086E-1,-2.2860697E-2,-3.8031754E-3,-2.7737722E-1,4.7936376E-2,-1.5652171E-1,-5.0480807E-1,2.431609E-1,6.7064786E-1,-6.673915E-2,8.3557464E-2,-6.0611643E-2,-2.0329823E-1,-3.3569875E-1,-3.029853E-2,-3.4637745E-2,-2.2704115E-2,-2.2435194E-2,-5.0874627E-3,-7.5216196E-3,1.6631158E-2,-1.6633736E-2,3.5256695E-3,-2.8261373E-2,-9.392796E-3,1.4686159E-2,1.3372971E-3,1.28740845E-2,4.946466E-2,-5.6523546E-3,1.5508858E-2,4.460825E-3,-2.3007512E-2,-1.7319124E-2,-2.2727184E-3,1.6762126E-3,-1.1791076E-2,-1.999647E-2,-9.440397E-3],"categories":[],"categories_nodes":[],"categories_segments":[],"categories_sizes":[],"default_left":[0,0,0,0,0,0,0,0,0,0,0,0,0,0,0,0,0,0,0,0,0,0,0,0,0,0,0,0,0,0,0,0,0,0,0,0,0,0,0,0,0,0,0,0,0,0,0,0,0,0,0,0,0,0,0],"id":13,"left_children":[1,3,5,7,9,11,13,15,17,19,21,23,25,27,29,-1,31,-1,-1,33,35,37,39,41,43,45,47,49,51,53,-1,-1,-1,-1,-1,-1,-1,-1,-1,-1,-1,-1,-1,-1,-1,-1,-1,-1,-1,-1,-1,-1,-1,-1,-1],"loss_changes":[1.10403E2,1.3069641E1,1.0153067E2,3.1229324E0,6.784315E0,3.2825542E1,3.0399853E1,1.2298279E0,1.7207355E0,4.6349554E0,4.506996E0,8.51944E0,1.337178E1,8.74785E0,4.642872E0,0E0,1.2827072E0,0E0,0E0,2.634563E0,4.714646E0,2.4086404E0,2.2510834E0,9.755638E0,6.012804E0,1.1854849E1,1.4113682E1,7.656618E0,4.4399853E0,2.291418E0,0E0,0E0,0E0,0E0,0E0,0E0,0E0,0E0,0E0,0E0,0E0,0E0,0E0,0E0,0E0,0E0,0E0,0E0,0E0,0E0,0E0,0E0,0E0,0E0,0E0],"parents":[2147483647,0,0,1,1,2,2,3,3,4,4,5,5,6,6,7,7,8,8,9,9,10,10,11,11,12,12,13,13,14,14,16,16,19,19,20,20,21,21,22,22,23,23,24,24,25,25,26,26,27,27,28,28,29,29],"right_children":[2,4,6,8,10,12,14,16,18,20,22,24,26,28,30,-1,32,-1,-1,34,36,38,40,42,44,46,48,50,52,54,-1,-1,-1,-1,-1,-1,-1,-1,-1,-1,-1,-1,-1,-1,-1,-1,-1,-1,-1,-1,-1,-1,-1,-1,-1],"split_conditions":[1.4411027E0,1.099986E0,4.587641E0,3.7313578E-1,4.042158E0,-7.8573346E0,7.1875E0,-1.5895443E-1,8.3E-1,2.7027028E0,-1.3335736E0,-1.9953597E0,1.8655227E0,6.782438E0,1.1116923E1,-1.6664738E-2,1.6298438E0,-2.2860697E-2,-3.8031754E-3,5.5813953E1,8.3042943E-1,-1.7736259E0,-2.441312E-1,-5.0387597E0,-3.2786884E0,3.2054455E0,2.624785E0,-2.3165138E1,2.6168224E1,1.0651911E0,-3.029853E-2,-3.4637745E-2,-2.2704115E-2,-2.2435194E-2,-5.0874627E-3,-7.5216196E-3,1.6631158E-2,-1.6633736E-2,3.5256695E-3,-2.8261373E-2,-9.392796E-3,1.4686159E-2,1.3372971E-3,1.28740845E-2,4.946466E-2,-5.6523546E-3,1.5508858E-2,4.460825E-3,-2.3007512E-2,-1.7319124E-2,-2.2727184E-3,1.6762126E-3,-1.1791076E-2,-1.999647E-2,-9.440397E-3],"split_indices":[26,26,26,40,42,40,11,23,6,42,16,18,26,26,11,0,11,0,0,28,6,16,16,41,41,11,16,41,28,31,0,0,0,0,0,0,0,0,0,0,0,0,0,0,0,0,0,0,0,0,0,0,0,0,0],"split_type":[0,0,0,0,0,0,0,0,0,0,0,0,0,0,0,0,0,0,0,0,0,0,0,0,0,0,0,0,0,0,0,0,0,0,0,0,0,0,0,0,0,0,0,0,0,0,0,0,0,0,0,0,0,0,0],"sum_hessian":[9.5761E3,6.48024E2,8.928076E3,2.8725415E2,3.607698E2,6.2125234E3,2.7155525E3,2.3073877E2,5.6515377E1,1.720022E2,1.8876761E2,9.4594446E2,5.2665786E3,2.3578616E3,3.5769104E2,2.2224709E1,2.0851405E2,3.621519E1,2.0300184E1,9.199149E1,8.001071E1,5.6535805E1,1.3223181E2,8.9697675E2,4.8967693E1,6.7694214E2,4.5896367E3,1.7897008E3,5.681607E2,2.658513E2,9.183974E1,1.6074324E2,4.777082E1,4.480893E1,4.718256E1,4.715684E1,3.285387E1,3.1938326E1,2.459748E1,1.0954388E2,2.2687935E1,7.2591675E2,1.7106004E2,2.2775698E1,2.6191994E1,6.0428094E2,7.266124E1,4.543964E3,4.5672916E1,8.782882E1,1.701872E3,6.785684E1,5.0030383E2,1.8222476E2,8.362653E1],"tree_param":{"num_deleted":"0","num_feature":"44","num_nodes":"55","size_leaf_vector":"1"}},{"base_weights":[5.8698747E-3,-3.5396966E-1,3.6060148E-1,-5.8226436E-1,-1.779944E-1,1.8239485E-1,5.5909795E-1,-6.354626E-1,-4.210507E-1,-2.0269719E-1,3.1240943E-1,1.5644172E-1,7.74832E-1,4.7449055E-1,7.019077E-1,-6.445678E-1,-5.053851E-1,-4.4369793E-1,-0E0,-3.073218E-1,-1.2342343E-1,1.2703668E-1,6.437826E-1,6.223676E-1,1.3529497E-1,2.3645958E-2,4.6209708E-2,4.3268308E-1,7.5180465E-1,5.5750483E-1,8.151045E-1,-3.312712E-2,-2.9464174E-2,-1.7695569E-2,-3.0434404E-2,-2.3818528E-2,-1.1360365E-2,-2.2300808E-2,-1.3055384E-2,-8.332745E-3,3.9452263E-3,-2.5193617E-3,2.0089354E-2,1.5527315E-2,4.61109E-2,3.6452737E-2,1.09999245E-2,-3.8563719E-3,8.969517E-3,-8.096916E-3,2.2479355E-2,5.170725E-2,3.1217298E-2,1.0762221E-2,2.9060096E-2,3.8542222E-2,5.5222567E-2],"categories":[],"categories_nodes":[],"categories_segments":[],"categories_sizes":[],"default_left":[0,0,0,0,0,0,0,0,0,0,0,0,0,0,0,0,0,0,0,0,0,0,0,0,0,0,0,0,0,0,0,0,0,0,0,0,0,0,0,0,0,0,0,0,0,0,0,0,0,0,0,0,0,0,0,0,0],"id":14,"left_children":[1,3,5,7,9,11,13,15,17,19,21,23,25,27,29,31,33,35,-1,37,39,41,43,45,47,-1,-1,49,51,53,55,-1,-1,-1,-1,-1,-1,-1,-1,-1,-1,-1,-1,-1,-1,-1,-1,-1,-1,-1,-1,-1,-1,-1,-1,-1,-1],"loss_changes":[1.2035796E3,1.8772925E2,1.6766809E2,1.6850647E1,3.212506E1,3.814582E1,2.639215E1,1.0901489E0,4.783844E0,2.0759514E1,7.5296993E0,2.3388092E1,3.773899E0,1.5684418E1,1.2631378E1,5.7543945E-1,1.1788044E0,3.121132E0,0E0,6.6338577E0,1.2610168E1,4.1833143E0,3.483738E0,4.010704E0,2.1584866E1,0E0,0E0,1.2571182E1,5.2767944E0,2.6604385E0,4.263855E0,0E0,0E0,0E0,0E0,0E0,0E0,0E0,0E0,0E0,0E0,0E0,0E0,0E0,0E0,0E0,0E0,0E0,0E0,0E0,0E0,0E0,0E0,0E0,0E0,0E0,0E0],"parents":[2147483647,0,0,1,1,2,2,3,3,4,4,5,5,6,6,7,7,8,8,9,9,10,10,11,11,12,12,13,13,14,14,15,15,16,16,17,17,19,19,20,20,21,21,22,22,23,23,24,24,27,27,28,28,29,29,30,30],"right_children":[2,4,6,8,10,12,14,16,18,20,22,24,26,28,30,32,34,36,-1,38,40,42,44,46,48,-1,-1,50,52,54,56,-1,-1,-1,-1,-1,-1,-1,-1,-1,-1,-1,-1,-1,-1,-1,-1,-1,-1,-1,-1,-1,-1,-1,-1,-1,-1],"split_conditions":[3.5164835E0,2.3085234E0,5.0605907E0,2.0533152E0,9.5176494E-1,1.584132E0,6.7158384E0,1.4538751E0,6.1827955E0,2.8366475E0,2.2727273E0,-4.6849556E0,4.0286703E0,3.0864197E-1,6.803182E-1,1.7994819E0,6.691729E1,2.0175486E0,-0E0,-5.780347E0,1.191076E0,-3.957038E-1,1.4905736E0,-7.9459004E0,5.0755733E-1,2.3645958E-2,4.6209708E-2,3.2182914E-1,-1.544516E0,3.4590164E-1,1.1406286E1,-3.312712E-2,-2.9464174E-2,-1.7695569E-2,-3.0434404E-2,-2.3818528E-2,-1.1360365E-2,-2.2300808E-2,-1.3055384E-2,-8.332745E-3,3.9452263E-3,-2.5193617E-3,2.0089354E-2,1.5527315E-2,4.61109E-2,3.6452737E-2,1.09999245E-2,-3.8563719E-3,8.969517E-3,-8.096916E-3,2.2479355E-2,5.170725E-2,3.1217298E-2,1.0762221E-2,2.9060096E-2,3.8542222E-2,5.5222567E-2],"split_indices":[26,26,26,26,16,16,26,20,41,26,39,21,26,16,30,26,28,40,0,40,29,17,30,40,30,0,0,30,21,30,26,0,0,0,0,0,0,0,0,0,0,0,0,0,0,0,0,0,0,0,0,0,0,0,0,0,0],"split_type":[0,0,0,0,0,0,0,0,0,0,0,0,0,0,0,0,0,0,0,0,0,0,0,0,0,0,0,0,0,0,0,0,0,0,0,0,0,0,0,0,0,0,0,0,0,0,0,0,0,0,0,0,0,0,0,0,0],"sum_hessian":[9.425999E3,4.6790312E3,4.7469673E3,2.0347401E3,2.6442913E3,2.5033708E3,2.2435967E3,1.5256459E3,5.090942E2,2.518706E3,1.255853E2,2.400447E3,1.0292366E2,1.4138488E3,8.2974786E2,1.4188578E3,1.0678809E2,4.826008E2,2.6493425E1,1.0828004E3,1.4359055E3,8.225166E1,4.333363E1,1.0195563E2,2.2984915E3,3.6577076E1,6.634658E1,1.2325873E3,1.8126146E2,3.6929733E2,4.6045053E2,1.055567E3,3.6329083E2,4.677567E1,6.0012424E1,4.1695038E2,6.565043E1,2.6629913E2,8.165013E2,1.1841425E3,2.5176314E2,5.0279778E1,3.197189E1,2.149697E1,2.183666E1,7.923243E1,2.2723194E1,3.9413748E2,1.904354E3,3.338886E1,1.1991984E3,5.2570423E1,1.2869104E2,2.5439219E1,3.4385812E2,4.047284E2,5.5722122E1],"tree_param":{"num_deleted":"0","num_feature":"44","num_nodes":"57","size_leaf_vector":"1"}},{"base_weights":[-5.118015E-3,5.041009E-1,-2.208935E-1,7.5356007E-1,2.9272056E-1,-8.48868E-2,-3.9384043E-1,5.2154638E-2,6.6946954E-1,3.1342575E-1,-2.5424534E-1,2.7484767E-2,-1.9608219E-1,-3.1371462E-1,-4.9453038E-1,7.064311E-1,1.4565596E-1,-1.377295E-1,3.3821282E-1,4.921264E-4,-2.3650734E-2,-1.148359E-1,1.2615381E-1,-1.4421387E-1,-3.604768E-1,-3.426997E-1,-2.1432394E-1,-4.6244654E-1,-3.264412E-2,3.4341548E-2,5.433032E-2,2.7385468E-2,-3.2786862E-3,-1.3741747E-2,6.9918307E-3,2.4315733E-2,1.3178586E-2,-7.041102E-3,2.1520503E-2,-4.1505285E-3,9.019661E-3,-2.1591617E-2,-5.3530335E-3,-1.2847542E-2,-2.3898568E-2,-2.4081161E-3,-1.794551E-2,-4.9599055E-3,-1.5614638E-2,-2.9262407E-2,-2.1093221E-2],"categories":[],"categories_nodes":[],"categories_segments":[],"categories_sizes":[],"default_left":[0,0,0,0,0,0,0,0,0,0,0,0,0,0,0,0,0,0,0,0,0,0,0,0,0,0,0,0,0,0,0,0,0,0,0,0,0,0,0,0,0,0,0,0,0,0,0,0,0,0,0],"id":15,"left_children":[1,3,5,7,9,11,13,-1,15,17,19,21,23,25,27,29,31,33,35,-1,-1,37,39,41,43,45,47,49,-1,-1,-1,-1,-1,-1,-1,-1,-1,-1,-1,-1,-1,-1,-1,-1,-1,-1,-1,-1,-1,-1,-1],"loss_changes":[1.0297277E3,1.4653156E2,1.546998E2,2.9723877E1,1.7262405E1,4.611946E1,2.2977478E1,0E0,1.8940063E1,1.6420319E1,3.3146935E0,2.5785717E1,1.5634964E1,4.44075E0,5.827179E0,5.4460754E0,5.910856E0,2.9999318E0,1.4950714E1,0E0,0E0,1.0674837E1,1.2350769E1,1.4924402E1,5.055855E0,5.855774E0,4.0552883E0,4.7634125E0,0E0,0E0,0E0,0E0,0E0,0E0,0E0,0E0,0E0,0E0,0E0,0E0,0E0,0E0,0E0,0E0,0E0,0E0,0E0,0E0,0E0,0E0,0E0],"parents":[2147483647,0,0,1,1,2,2,3,3,4,4,5,5,6,6,8,8,9,9,10,10,11,11,12,12,13,13,14,14,15,15,16,16,17,17,18,18,21,21,22,22,23,23,24,24,25,25,26,26,27,27],"right_children":[2,4,6,8,10,12,14,-1,16,18,20,22,24,26,28,30,32,34,36,-1,-1,38,40,42,44,46,48,50,-1,-1,-1,-1,-1,-1,-1,-1,-1,-1,-1,-1,-1,-1,-1,-1,-1,-1,-1,-1,-1,-1,-1],"split_conditions":[2.5181503E0,1.7786281E0,4.3638034E0,1.0506145E0,1.1308563E0,2.7631345E0,4.2755556E0,5.2154638E-2,3.2684124E0,-2.293465E0,5.050505E-1,-2.5186567E0,4.9078946E0,-1.9718086E0,8.615385E0,1.0532631E0,-4.415011E-1,2.3995883E0,6.92946E-1,4.921264E-4,-2.3650734E-2,2.0861988E0,-5.165271E0,-3.083443E0,3.4632036E-1,5.1609147E-1,8.0553484E-1,-7.1951785E0,-3.264412E-2,3.4341548E-2,5.433032E-2,2.7385468E-2,-3.2786862E-3,-1.3741747E-2,6.9918307E-3,2.4315733E-2,1.3178586E-2,-7.041102E-3,2.1520503E-2,-4.1505285E-3,9.019661E-3,-2.1591617E-2,-5.3530335E-3,-1.2847542E-2,-2.3898568E-2,-2.4081161E-3,-1.794551E-2,-4.9599055E-3,-1.5614638E-2,-2.9262407E-2,-2.1093221E-2],"split_indices":[26,26,26,26,39,11,11,0,11,21,40,16,11,16,11,23,39,26,30,0,0,23,22,21,39,29,29,22,0,0,0,0,0,0,0,0,0,0,0,0,0,0,0,0,0,0,0,0,0,0,0],"split_type":[0,0,0,0,0,0,0,0,0,0,0,0,0,0,0,0,0,0,0,0,0,0,0,0,0,0,0,0,0,0,0,0,0,0,0,0,0,0,0,0,0,0,0,0,0,0,0,0,0,0,0],"sum_hessian":[9.369138E3,2.7876047E3,6.581533E3,1.2764348E3,1.5111698E3,3.6861284E3,2.895405E3,2.8289896E2,9.935358E2,1.457021E3,5.4148865E1,1.8330349E3,1.8530934E3,1.6168932E3,1.2785118E3,9.2720526E2,6.633061E1,7.510547E1,1.3819155E3,2.4768196E1,2.938067E1,7.4957367E2,1.0834612E3,1.4117144E3,4.4137906E2,1.2474252E3,3.6946808E2,1.0690537E3,2.0945816E2,8.862501E2,4.095511E1,2.234902E1,4.398159E1,5.0765068E1,2.43404E1,4.594094E2,9.225061E2,7.1688666E2,3.2687035E1,2.2218031E2,8.6128094E2,1.590585E2,1.2526559E3,2.3808336E2,2.032957E2,6.602753E1,1.1813976E3,1.7218687E2,1.972812E2,2.593127E2,8.097409E2],"tree_param":{"num_deleted":"0","num_feature":"44","num_nodes":"51","size_leaf_vector":"1"}},{"base_weights":[1.8004676E-3,-3.7498412E-1,2.8757142E-2,-5.065522E-1,-2.2384743E-1,8.418773E-2,-1.4499037E-1,-3.258396E-2,-4.121563E-1,-2.7947652E-1,8.384122E-3,9.269022E-2,-3.1108478E-1,-9.8765746E-2,-4.0200162E-1,-5.081841E-1,-1.7154427E-1,-4.334855E-1,-1.6504955E-1,-5.2344702E-2,1.0703997E-1,-2.9892448E-2,-4.3724123E-1,-5.0088067E-2,-2.0264862E-1,-3.208926E-1,-6.0442454E-1,-2.2225786E-2,-3.292904E-2,1.1711027E-3,-1.4326857E-2,-2.6082216E-2,-1.1462332E-2,-1.6485803E-2,-2.7000105E-3,-5.1012235E-3,2.0052373E-2,7.7609457E-3,3.529203E-3,1.2713349E-2,-1.4686805E-2,-2.5749588E-2,-9.653649E-3,-2.4441365E-2,-1.7195548E-3,-8.767328E-3,-2.1104293E-2,-2.1837922E-2,-1.126594E-2,-2.2639621E-2,-3.412827E-2],"categories":[],"categories_nodes":[],"categories_segments":[],"categories_sizes":[],"default_left":[0,0,0,0,0,0,0,0,0,0,0,0,0,0,0,0,0,0,0,0,0,0,0,0,0,0,0,0,0,0,0,0,0,0,0,0,0,0,0,0,0,0,0,0,0,0,0,0,0,0,0],"id":16,"left_children":[1,3,5,7,9,11,13,-1,15,17,-1,19,21,23,25,27,29,31,33,35,37,39,41,43,45,47,49,-1,-1,-1,-1,-1,-1,-1,-1,-1,-1,-1,-1,-1,-1,-1,-1,-1,-1,-1,-1,-1,-1,-1,-1],"loss_changes":[9.6834885E1,1.2340782E1,8.576135E1,4.0201035E0,6.618579E0,2.2692894E1,2.5421997E1,0E0,4.5842247E0,4.414076E0,0E0,1.3779953E1,4.9256115E0,9.176506E0,4.894371E0,7.641411E-1,1.4694569E0,1.6617584E0,2.71742E0,1.3404243E1,1.0508965E1,3.575462E0,1.5591908E0,8.463845E0,3.2524948E0,2.3491821E0,3.8955307E-1,0E0,0E0,0E0,0E0,0E0,0E0,0E0,0E0,0E0,0E0,0E0,0E0,0E0,0E0,0E0,0E0,0E0,0E0,0E0,0E0,0E0,0E0,0E0,0E0],"parents":[2147483647,0,0,1,1,2,2,3,3,4,4,5,5,6,6,8,8,9,9,11,11,12,12,13,13,14,14,15,15,16,16,17,17,18,18,19,19,20,20,21,21,22,22,23,23,24,24,25,25,26,26],"right_children":[2,4,6,8,10,12,14,-1,16,18,-1,20,22,24,26,28,30,32,34,36,38,40,42,44,46,48,50,-1,-1,-1,-1,-1,-1,-1,-1,-1,-1,-1,-1,-1,-1,-1,-1,-1,-1,-1,-1,-1,-1,-1,-1],"split_conditions":[1.4411027E0,1.3015184E0,4.9923186E0,9.342698E-1,2.9292307E0,7.1875E0,7.1875E0,-3.258396E-2,1.0131497E0,7.6253605E-1,8.384122E-3,1.819995E0,-4.415011E-1,6.7158384E0,1.1116923E1,-8.2346267E-1,-1.9345238E0,6.159136E-1,2.532617E0,3.2916667E0,-6.328224E-1,4.1736994E0,7.7934084E0,-6.1452513E0,1E0,1.8221359E0,1.0685484E1,-2.2225786E-2,-3.292904E-2,1.1711027E-3,-1.4326857E-2,-2.6082216E-2,-1.1462332E-2,-1.6485803E-2,-2.7000105E-3,-5.1012235E-3,2.0052373E-2,7.7609457E-3,3.529203E-3,1.2713349E-2,-1.4686805E-2,-2.5749588E-2,-9.653649E-3,-2.4441365E-2,-1.7195548E-3,-8.767328E-3,-2.1104293E-2,-2.1837922E-2,-1.126594E-2,-2.2639621E-2,-3.412827E-2],"split_indices":[26,43,26,26,11,11,11,0,30,6,0,26,39,26,11,18,39,22,8,11,21,26,22,21,24,22,10,0,0,0,0,0,0,0,0,0,0,0,0,0,0,0,0,0,0,0,0,0,0,0,0],"split_type":[0,0,0,0,0,0,0,0,0,0,0,0,0,0,0,0,0,0,0,0,0,0,0,0,0,0,0,0,0,0,0,0,0,0,0,0,0,0,0,0,0,0,0,0,0,0,0,0,0,0,0],"sum_hessian":[9.537665E3,6.3501483E2,8.902649E3,3.368917E2,2.981231E2,6.7508525E3,2.151797E3,1.2844403E2,2.0844766E2,2.618581E2,3.6265038E1,6.610316E3,1.4053673E2,1.8262012E3,3.2559586E2,1.4720085E2,6.124682E1,1.0909507E2,1.5276302E2,5.935287E2,6.016787E3,4.4590015E1,9.594671E1,1.2463378E3,5.798634E2,2.3592769E2,8.966816E1,1.0852258E2,3.867827E1,2.2520073E1,3.8726746E1,7.389028E1,3.5204796E1,5.9612938E1,9.315007E1,5.363613E2,5.71674E1,2.5872239E3,3.4295632E3,2.112973E1,2.3460285E1,7.089025E1,2.5056456E1,4.104874E1,1.2052891E3,5.1891125E2,6.0952156E1,1.0327641E2,1.3265128E2,3.4830673E1,5.483749E1],"tree_param":{"num_deleted":"0","num_feature":"44","num_nodes":"51","size_leaf_vector":"1"}},{"base_weights":[3.0934154E-3,-3.447613E-1,3.4113967E-1,-5.796851E-1,-1.6992395E-1,2.5740427E-1,7.4892676E-1,-6.227894E-1,-4.3524244E-1,-2.2525913E-1,4.1573297E-2,1.05451025E-1,3.962006E-1,6.196016E-1,8.960408E-1,-6.4771116E-1,-5.613427E-1,-4.9212104E-1,-2.869332E-1,-2.8108668E-1,-1.2110164E-1,-1.5457352E-2,5.879791E-1,3.451218E-1,7.457331E-2,3.25962E-1,5.172427E-1,4.2843458E-1,7.2578084E-1,2.0101836E-2,9.21887E-1,-3.2647938E-2,-2.186135E-2,-3.0220276E-2,-2.1668358E-2,-1.2120881E-2,-2.5526706E-2,-2.3598231E-2,-7.231427E-3,-1.7651897E-2,-1.08201355E-2,-9.907665E-3,9.726856E-4,-7.6044276E-3,5.277814E-3,1.6884323E-2,3.9218087E-2,4.056334E-3,2.6431173E-2,-1.9555527E-3,7.022032E-3,2.5919944E-3,1.8143231E-2,1.6870087E-2,2.8228903E-2,1.4681771E-2,3.5669725E-2,4.295786E-2,2.8825661E-2,4.2004775E-2,5.330477E-2],"categories":[],"categories_nodes":[],"categories_segments":[],"categories_sizes":[],"default_left":[0,0,0,0,0,0,0,0,0,0,0,0,0,0,0,0,0,0,0,0,0,0,0,0,0,0,0,0,0,0,0,0,0,0,0,0,0,0,0,0,0,0,0,0,0,0,0,0,0,0,0,0,0,0,0,0,0,0,0,0,0],"id":17,"left_children":[1,3,5,7,9,11,13,15,17,19,21,23,25,27,29,31,33,35,37,39,41,43,45,47,49,51,53,55,57,-1,59,-1,-1,-1,-1,-1,-1,-1,-1,-1,-1,-1,-1,-1,-1,-1,-1,-1,-1,-1,-1,-1,-1,-1,-1,-1,-1,-1,-1,-1,-1],"loss_changes":[1.1012407E3,1.8926703E2,1.6169568E2,1.163562E1,3.1048294E1,8.300296E1,1.4236206E1,1.5270386E0,3.4991684E0,1.2081696E1,1.7260433E1,1.3828499E1,1.708905E1,8.143875E0,3.953308E0,5.279846E-1,1.8775024E0,1.1729889E0,3.240446E0,6.1245117E0,8.021192E0,8.28321E0,1.9504623E0,1.0180634E1,1.2553472E1,1.3124695E1,5.941437E0,5.625389E0,4.4885406E0,0E0,2.4480286E0,0E0,0E0,0E0,0E0,0E0,0E0,0E0,0E0,0E0,0E0,0E0,0E0,0E0,0E0,0E0,0E0,0E0,0E0,0E0,0E0,0E0,0E0,0E0,0E0,0E0,0E0,0E0,0E0,0E0,0E0],"parents":[2147483647,0,0,1,1,2,2,3,3,4,4,5,5,6,6,7,7,8,8,9,9,10,10,11,11,12,12,13,13,14,14,15,15,16,16,17,17,18,18,19,19,20,20,21,21,22,22,23,23,24,24,25,25,26,26,27,27,28,28,30,30],"right_children":[2,4,6,8,10,12,14,16,18,20,22,24,26,28,30,32,34,36,38,40,42,44,46,48,50,52,54,56,58,-1,60,-1,-1,-1,-1,-1,-1,-1,-1,-1,-1,-1,-1,-1,-1,-1,-1,-1,-1,-1,-1,-1,-1,-1,-1,-1,-1,-1,-1,-1,-1],"split_conditions":[3.5164835E0,2.2900763E0,6.0456944E0,2.0533152E0,3.85E0,4.716042E0,7.7791486E0,1.7786281E0,6.288984E-1,3.048956E0,2.2727273E0,-1.0235216E1,6.341233E-1,5.0911856E0,4.0286703E0,5.460624E0,1.0292455E0,-2.593965E0,2.1061451E0,2.1708279E0,9.9045175E-1,4.4642857E1,1.2955486E0,-4.469005E0,6.3136214E-1,4.5434272E-1,6.305516E-1,9.637672E-1,1.5322444E0,2.0101836E-2,1.1116923E1,-3.2647938E-2,-2.186135E-2,-3.0220276E-2,-2.1668358E-2,-1.2120881E-2,-2.5526706E-2,-2.3598231E-2,-7.231427E-3,-1.7651897E-2,-1.08201355E-2,-9.907665E-3,9.726856E-4,-7.6044276E-3,5.277814E-3,1.6884323E-2,3.9218087E-2,4.056334E-3,2.6431173E-2,-1.9555527E-3,7.022032E-3,2.5919944E-3,1.8143231E-2,1.6870087E-2,2.8228903E-2,1.4681771E-2,3.5669725E-2,4.295786E-2,2.8825661E-2,4.2004775E-2,5.330477E-2],"split_indices":[26,26,11,26,11,26,11,26,19,26,39,22,27,26,26,41,30,16,11,11,29,28,30,39,30,30,29,6,22,0,11,0,0,0,0,0,0,0,0,0,0,0,0,0,0,0,0,0,0,0,0,0,0,0,0,0,0,0,0,0,0],"split_type":[0,0,0,0,0,0,0,0,0,0,0,0,0,0,0,0,0,0,0,0,0,0,0,0,0,0,0,0,0,0,0,0,0,0,0,0,0,0,0,0,0,0,0,0,0,0,0,0,0,0,0,0,0,0,0,0,0,0,0,0,0],"sum_hessian":[9.362015E3,4.613762E3,4.748253E3,1.9666353E3,2.6471272E3,3.9417808E3,8.06472E2,1.5097474E3,4.5688788E2,2.0988433E3,5.4828375E2,1.8836523E3,2.0581284E3,4.3406805E2,3.724039E2,1.0616094E3,4.4813806E2,3.267493E2,1.3013858E2,1.363533E3,7.3531036E2,4.9745398E2,5.0829803E1,2.1249988E2,1.6711525E3,1.3069313E3,7.511972E2,1.583707E2,2.7569736E2,2.0134697E1,3.5226923E2,1.0317825E3,2.9826876E1,3.2996146E2,1.18176605E2,2.4644882E1,3.021044E2,5.4454235E1,7.568434E1,6.408757E2,7.226572E2,4.7546915E2,2.5984122E2,2.3424533E2,2.6320865E2,2.4588764E1,2.624104E1,8.8472206E1,1.2402767E2,6.121607E2,1.0589917E3,1.5613637E2,1.1507949E3,1.5994312E2,5.912541E2,1.1005645E2,4.8314243E1,1.4112401E2,1.3457335E2,2.3219771E2,1.2007151E2],"tree_param":{"num_deleted":"0","num_feature":"44","num_nodes":"61","size_leaf_vector":"1"}},{"base_weights":[3.5491168E-5,4.740378E-1,-2.1103379E-1,7.532072E-1,3.1440604E-1,-8.050426E-2,-3.7401137E-1,7.817318E-1,1.6503093E-1,3.6383176E-1,1.7767346E-2,2.8258046E-2,-1.8651123E-1,-3.2610998E-1,-5.405698E-1,9.986354E-1,7.117978E-1,2.4279205E-2,-9.149989E-3,-2.2171368E-1,3.8853556E-1,7.4315816E-2,-1.5591194E-2,-1.15654275E-1,1.1642673E-1,-1.3761172E-1,-3.4653562E-1,-4.8907048E-1,-3.0782092E-1,-5.071523E-1,-3.2494728E-2,5.1308382E-2,3.6654796E-2,3.656344E-2,-0E0,-1.8048523E-2,3.5481786E-3,2.4651924E-2,1.5038083E-2,8.037347E-3,-6.7710816E-3,-4.3836687E-4,-1.0170113E-2,9.972168E-3,-1.4161355E-3,-1.988804E-2,-4.739422E-3,-1.1484582E-2,-2.3671167E-2,-1.4287536E-2,-2.7642956E-2,-1.2527411E-2,-1.8704027E-2,-3.1727176E-2,-2.339053E-2],"categories":[],"categories_nodes":[],"categories_segments":[],"categories_sizes":[],"default_left":[0,0,0,0,0,0,0,0,0,0,0,0,0,0,0,0,0,0,0,0,0,0,0,0,0,0,0,0,0,0,0,0,0,0,0,0,0,0,0,0,0,0,0,0,0,0,0,0,0,0,0,0,0,0,0],"id":18,"left_children":[1,3,5,7,9,11,13,15,17,19,21,23,25,27,29,31,33,-1,-1,35,37,39,-1,41,43,45,47,49,51,53,-1,-1,-1,-1,-1,-1,-1,-1,-1,-1,-1,-1,-1,-1,-1,-1,-1,-1,-1,-1,-1,-1,-1,-1,-1],"loss_changes":[9.413519E2,1.2862524E2,1.3834296E2,1.7285767E1,2.7000244E1,4.174385E1,2.26503E1,1.3816406E1,5.8763447E0,2.3059845E1,4.945108E0,2.2678944E1,1.4174393E1,6.327194E0,1.6238556E0,2.7644348E-1,1.0527893E1,0E0,0E0,2.7336776E0,1.35585785E1,4.1850553E0,0E0,6.3167973E0,1.3368446E1,1.5523506E1,6.027813E0,2.4953766E0,7.4383698E0,1.8442078E0,0E0,0E0,0E0,0E0,0E0,0E0,0E0,0E0,0E0,0E0,0E0,0E0,0E0,0E0,0E0,0E0,0E0,0E0,0E0,0E0,0E0,0E0,0E0,0E0,0E0],"parents":[2147483647,0,0,1,1,2,2,3,3,4,4,5,5,6,6,7,7,8,8,9,9,10,10,11,11,12,12,13,13,14,14,15,15,16,16,19,19,20,20,21,21,23,23,24,24,25,25,26,26,27,27,28,28,29,29],"right_children":[2,4,6,8,10,12,14,16,18,20,22,24,26,28,30,32,34,-1,-1,36,38,40,-1,42,44,46,48,50,52,54,-1,-1,-1,-1,-1,-1,-1,-1,-1,-1,-1,-1,-1,-1,-1,-1,-1,-1,-1,-1,-1,-1,-1,-1,-1],"split_conditions":[2.566919E0,1.6407027E0,4.3638034E0,3.2054455E0,3.457522E0,2.7631345E0,5.8103447E0,1.0011551E0,9.945851E-1,-2.5024862E0,5.225271E0,-6.6140547E0,4.9078946E0,-1.2519632E1,9.572156E0,5.792904E-1,5.460624E0,2.4279205E-2,-9.149989E-3,-4.693585E0,2.073325E0,1.1826344E0,-1.5591194E-2,3.2653062E0,3.4652753E0,-1.1606144E1,3.4632036E-1,2.2110093E0,7.1553844E-1,-1.1438947E1,-3.2494728E-2,5.1308382E-2,3.6654796E-2,3.656344E-2,-0E0,-1.8048523E-2,3.5481786E-3,2.4651924E-2,1.5038083E-2,8.037347E-3,-6.7710816E-3,-4.3836687E-4,-1.0170113E-2,9.972168E-3,-1.4161355E-3,-1.988804E-2,-4.739422E-3,-1.1484582E-2,-2.3671167E-2,-1.4287536E-2,-2.7642956E-2,-1.2527411E-2,-1.8704027E-2,-3.1727176E-2,-2.339053E-2],"split_indices":[26,26,26,11,11,11,11,26,30,21,10,41,11,22,11,40,41,0,0,20,26,30,0,26,26,41,39,11,30,41,0,0,0,0,0,0,0,0,0,0,0,0,0,0,0,0,0,0,0,0,0,0,0,0,0],"split_type":[0,0,0,0,0,0,0,0,0,0,0,0,0,0,0,0,0,0,0,0,0,0,0,0,0,0,0,0,0,0,0,0,0,0,0,0,0,0,0,0,0,0,0,0,0,0,0,0,0,0,0,0,0,0,0],"sum_hessian":[9.405541E3,2.8975457E3,6.507995E3,1.0516152E3,1.8459305E3,3.615662E3,2.892333E3,1.00217926E3,4.9435955E1,1.5814213E3,2.645093E2,1.7842496E3,1.8314125E3,2.2506848E3,6.416483E2,2.3878789E2,7.6339136E2,2.5724371E1,2.3711586E1,6.3206284E1,1.518215E3,2.2728267E2,3.7226643E1,6.768056E2,1.1074441E3,1.4058569E3,4.2555548E2,2.2210689E2,2.0285779E3,4.993111E2,1.423372E2,2.1177983E2,2.700806E1,7.4288855E2,2.0502861E1,4.3054264E1,2.015202E1,6.8885956E2,8.2935535E2,1.6187798E2,6.5404686E1,3.0689816E2,3.699074E2,7.043186E2,4.0312552E2,1.9629185E2,1.2095651E3,2.2456097E2,2.009945E2,5.5753418E1,1.6635347E2,1.0935441E3,9.350338E2,1.1126158E2,3.880495E2],"tree_param":{"num_deleted":"0","num_feature":"44","num_nodes":"55","size_leaf_vector":"1"}},{"base_weights":[3.1381224E-3,-3.3890674E-1,2.6865793E-2,-6.023825E-1,-2.4124175E-1,6.663636E-2,-1.7697948E-1,-3.2160025E-2,-1.3802464E-2,-3.0108622E-1,1.2832052E-1,7.430158E-2,-2.2813682E-1,-1.4645782E-1,-3.686182E-1,1.2767106E-2,-3.330808E-1,-9.8730184E-2,2.7897323E-2,1.4722078E-1,5.0392825E-2,-2.6620204E-2,-1.2946117E-1,-1.340502E-1,-2.2823066E-2,-2.6552793E-1,-5.473091E-1,3.9657764E-3,-1.8297652E-2,-1.34849055E-2,3.5615296E-3,6.3192346E-3,4.1525535E-2,3.6279724E-3,-8.7882293E-4,4.3820306E-3,-1.3833304E-2,-2.5033222E-3,-9.143396E-3,-1.78322E-2,2.0125753E-4,-3.2031234E-2,-2.0304285E-2],"categories":[],"categories_nodes":[],"categories_segments":[],"categories_sizes":[],"default_left":[0,0,0,0,0,0,0,0,0,0,0,0,0,0,0,0,0,0,0,0,0,0,0,0,0,0,0,0,0,0,0,0,0,0,0,0,0,0,0,0,0,0,0],"id":19,"left_children":[1,3,5,7,9,11,13,-1,-1,15,17,19,21,23,25,-1,27,29,-1,31,33,-1,35,37,-1,39,41,-1,-1,-1,-1,-1,-1,-1,-1,-1,-1,-1,-1,-1,-1,-1,-1],"loss_changes":[7.749791E1,1.5551613E1,7.244815E1,1.7602959E0,1.0154072E1,1.6895542E1,8.347328E0,0E0,0E0,7.1298103E0,6.4163895E0,1.2662514E1,5.4472485E0,4.642603E0,3.2760048E0,0E0,5.145237E0,1.3131785E0,0E0,2.5245598E1,8.293321E0,0E0,4.7212152E0,4.9241695E0,0E0,3.2532635E0,3.294716E-1,0E0,0E0,0E0,0E0,0E0,0E0,0E0,0E0,0E0,0E0,0E0,0E0,0E0,0E0,0E0,0E0],"parents":[2147483647,0,0,1,1,2,2,3,3,4,4,5,5,6,6,9,9,10,10,11,11,12,12,13,13,14,14,16,16,17,17,19,19,20,20,22,22,23,23,25,25,26,26],"right_children":[2,4,6,8,10,12,14,-1,-1,16,18,20,22,24,26,-1,28,30,-1,32,34,-1,36,38,-1,40,42,-1,-1,-1,-1,-1,-1,-1,-1,-1,-1,-1,-1,-1,-1,-1,-1],"split_conditions":[1.4155437E-1,8.972371E-2,5.7660437E-1,1.5503876E0,7.9931486E-1,1.584132E0,1.6220556E1,-3.2160025E-2,-1.3802464E-2,-4.5028095E0,-2.2494026E-1,-2.8079107E0,-1.5174344E0,1.584132E0,-1.3470075E0,1.2767106E-2,-3.237352E-1,5.8064518E1,2.7897323E-2,8.046796E0,3.975669E-1,-2.6620204E-2,1.7509335E0,6.535205E-1,-2.2823066E-2,-2.7974505E0,-1.8267123E-1,3.9657764E-3,-1.8297652E-2,-1.34849055E-2,3.5615296E-3,6.3192346E-3,4.1525535E-2,3.6279724E-3,-8.7882293E-4,4.3820306E-3,-1.3833304E-2,-2.5033222E-3,-9.143396E-3,-1.78322E-2,2.0125753E-4,-3.2031234E-2,-2.0304285E-2],"split_indices":[27,27,27,10,17,16,10,0,0,22,39,19,21,16,16,0,23,28,0,22,27,0,18,27,0,16,12,0,0,0,0,0,0,0,0,0,0,0,0,0,0,0,0],"split_type":[0,0,0,0,0,0,0,0,0,0,0,0,0,0,0,0,0,0,0,0,0,0,0,0,0,0,0,0,0,0,0,0,0,0,0,0,0,0,0,0,0,0,0],"sum_hessian":[9.553373E3,6.178882E2,8.935485E3,1.6444824E2,4.5343994E2,7.4784224E3,1.4570626E3,1.4432645E2,2.01218E1,3.9095105E2,6.24889E1,7.2906387E3,1.877837E2,1.260066E3,1.9699657E2,2.0348124E1,3.7060294E2,4.1334187E1,2.115471E1,1.7962283E3,5.4944106E3,4.3874916E1,1.4390878E2,1.2142601E3,4.5805885E1,1.2799943E2,6.899714E1,2.6754354E1,3.4384857E2,2.0753853E1,2.0580334E1,1.7450842E3,5.114407E1,4.1453433E3,1.3490673E3,5.7845287E1,8.60635E1,4.4898383E2,7.652763E2,9.585518E1,3.214425E1,3.7498722E1,3.1498413E1],"tree_param":{"num_deleted":"0","num_feature":"44","num_nodes":"43","size_leaf_vector":"1"}},{"base_weights":[2.8476145E-3,-3.3950183E-1,3.3051267E-1,-5.72199E-1,-1.700109E-1,2.542228E-1,6.904515E-1,-6.1844975E-1,-4.3300045E-1,-1.8687883E-1,6.299022E-1,1.7904235E-1,4.6951592E-1,6.181212E-1,4.9702104E-2,-6.309941E-1,-5.251332E-1,-5.2316993E-1,-3.382306E-1,-2.907966E-1,-1.0399113E-1,1.6634205E-2,4.255206E-2,5.137452E-1,1.519332E-1,3.6914223E-1,5.962739E-1,7.587329E-1,4.977233E-1,-2.662797E-2,-3.2036103E-2,-2.9010842E-2,-1.8955668E-2,-1.6445743E-2,-2.7877191E-2,-2.798425E-2,-1.2781887E-2,-2.1139136E-2,-1.1046056E-2,-7.669271E-3,5.1218146E-3,7.594717E-3,3.1313874E-2,2.9876267E-3,1.1493984E-2,2.1736605E-2,1.1519156E-2,2.1598333E-2,3.3698715E-2,2.8922556E-2,4.1659202E-2,6.582472E-3,2.7254006E-2],"categories":[],"categories_nodes":[],"categories_segments":[],"categories_sizes":[],"default_left":[0,0,0,0,0,0,0,0,0,0,0,0,0,0,0,0,0,0,0,0,0,0,0,0,0,0,0,0,0,0,0,0,0,0,0,0,0,0,0,0,0,0,0,0,0,0,0,0,0,0,0,0,0],"id":20,"left_children":[1,3,5,7,9,11,13,15,17,19,21,23,25,27,-1,29,31,33,35,37,39,-1,-1,41,43,45,47,49,51,-1,-1,-1,-1,-1,-1,-1,-1,-1,-1,-1,-1,-1,-1,-1,-1,-1,-1,-1,-1,-1,-1,-1,-1],"loss_changes":[1.0454906E3,1.7945892E2,1.3032397E2,1.1746155E1,3.5703484E1,6.3393814E1,1.7015808E1,9.529419E-1,3.7051926E0,2.215422E1,2.9279003E0,2.6223991E1,1.2405762E1,1.0627411E1,0E0,4.569397E-1,9.342003E-1,1.1809845E0,4.04319E0,1.0297836E1,1.4739193E1,0E0,0E0,8.555504E0,1.9334435E1,4.921974E0,5.0328827E0,3.1317596E0,6.15979E0,0E0,0E0,0E0,0E0,0E0,0E0,0E0,0E0,0E0,0E0,0E0,0E0,0E0,0E0,0E0,0E0,0E0,0E0,0E0,0E0,0E0,0E0,0E0,0E0],"parents":[2147483647,0,0,1,1,2,2,3,3,4,4,5,5,6,6,7,7,8,8,9,9,10,10,11,11,12,12,13,13,15,15,16,16,17,17,18,18,19,19,20,20,23,23,24,24,25,25,26,26,27,27,28,28],"right_children":[2,4,6,8,10,12,14,16,18,20,22,24,26,28,-1,30,32,34,36,38,40,-1,-1,42,44,46,48,50,52,-1,-1,-1,-1,-1,-1,-1,-1,-1,-1,-1,-1,-1,-1,-1,-1,-1,-1,-1,-1,-1,-1,-1,-1],"split_conditions":[3.5164835E0,2.2900763E0,6.0456944E0,2.033027E0,2.2727273E0,5.842479E0,1.0220584E1,8.6317134E-1,-4.7965426E-2,2.8366475E0,5.684732E0,-1.2519632E1,8.7084967E-1,1.4120667E0,4.9702104E-2,-2.9646523E0,8.78E-1,1.4439462E0,8.0553484E-1,2.0293005E0,1.191076E0,1.6634205E-2,4.255206E-2,1.2389381E0,4.320116E0,-8.959215E0,6.457026E-1,5.0911856E0,5.982906E0,-2.662797E-2,-3.2036103E-2,-2.9010842E-2,-1.8955668E-2,-1.6445743E-2,-2.7877191E-2,-2.798425E-2,-1.2781887E-2,-2.1139136E-2,-1.1046056E-2,-7.669271E-3,5.1218146E-3,7.594717E-3,3.1313874E-2,2.9876267E-3,1.1493984E-2,2.1736605E-2,1.1519156E-2,2.1598333E-2,3.3698715E-2,2.8922556E-2,4.1659202E-2,6.582472E-3,2.7254006E-2],"split_indices":[26,26,11,26,39,26,11,20,13,26,11,22,31,22,0,39,6,11,29,11,29,0,0,43,26,40,29,26,43,0,0,0,0,0,0,0,0,0,0,0,0,0,0,0,0,0,0,0,0,0,0,0,0],"split_type":[0,0,0,0,0,0,0,0,0,0,0,0,0,0,0,0,0,0,0,0,0,0,0,0,0,0,0,0,0,0,0,0,0,0,0,0,0,0,0,0,0,0,0,0,0,0,0,0,0,0,0,0,0],"sum_hessian":[9.317111E3,4.5561313E3,4.76098E3,1.918055E3,2.6380762E3,3.9309265E3,8.300535E2,1.4347404E3,4.8331467E2,2.584966E3,5.3110157E1,2.9162476E3,1.01467896E3,6.745541E2,1.5549944E2,1.2552181E3,1.795223E2,2.4311244E2,2.4020222E2,1.1442386E3,1.4407274E3,2.4646065E1,2.8464092E1,2.1593272E2,2.700315E3,5.7042896E2,4.4424997E2,3.0672195E2,3.6783215E2,1.2226146E2,1.1329567E3,1.26116776E2,5.340552E1,3.980973E1,2.0330272E2,6.2238194E1,1.7796404E2,3.9247125E2,7.517674E2,1.1636432E3,2.7708417E2,5.248086E1,1.6345186E2,1.2395822E3,1.4607328E3,3.8418713E2,1.8624185E2,1.4661893E2,2.9763104E2,9.427582E1,2.1244614E2,4.3266895E1,3.2456525E2],"tree_param":{"num_deleted":"0","num_feature":"44","num_nodes":"53","size_leaf_vector":"1"}},{"base_weights":[-1.2309334E-3,4.593394E-1,-1.991255E-1,6.7708236E-1,2.4712747E-1,-7.288385E-2,-3.6389408E-1,9.473051E-1,6.028833E-1,2.7006507E-1,-1.9255581E-1,3.8423896E-2,-1.6728605E-1,-3.0384198E-1,-4.4356373E-1,4.9488794E-2,7.4405724E-1,6.2569743E-1,7.8330934E-2,1.259415E-1,3.379653E-1,-1.8365657E-2,-1.0981187E-3,8.911345E-2,-5.8722436E-2,-1.1413979E-1,-2.5422454E-1,5.3646337E-2,-3.1728208E-1,-3.8967076E-1,-5.3329754E-1,4.3000106E-2,2.6394352E-2,3.5267662E-2,2.6664529E-2,-6.9517256E-3,1.3740624E-2,1.5251494E-2,1.793487E-3,2.0371227E-2,8.273627E-3,1.0896592E-2,1.5898492E-3,-1.5200402E-4,-1.20695215E-2,-1.6513713E-2,-4.169213E-3,-1.0489935E-2,-2.0075927E-2,-6.1771534E-3,1.294775E-2,-2.2508176E-2,-1.4472854E-2,-2.3911502E-2,-1.5178697E-2,-1.9762244E-2,-2.9018318E-2],"categories":[],"categories_nodes":[],"categories_segments":[],"categories_sizes":[],"default_left":[0,0,0,0,0,0,0,0,0,0,0,0,0,0,0,0,0,0,0,0,0,0,0,0,0,0,0,0,0,0,0,0,0,0,0,0,0,0,0,0,0,0,0,0,0,0,0,0,0,0,0,0,0,0,0,0,0],"id":21,"left_children":[1,3,5,7,9,11,13,15,17,19,21,23,25,27,29,-1,31,33,35,37,39,-1,-1,41,43,45,47,49,51,53,55,-1,-1,-1,-1,-1,-1,-1,-1,-1,-1,-1,-1,-1,-1,-1,-1,-1,-1,-1,-1,-1,-1,-1,-1,-1,-1],"loss_changes":[8.500992E2,1.290835E2,1.3558746E2,2.6545471E1,1.4438278E1,3.8879456E1,1.3184692E1,1.0911255E0,1.2819092E1,1.3082718E1,2.0257125E0,8.369034E0,9.130711E0,7.859314E0,5.3617706E0,0E0,4.893055E-1,6.866089E0,2.111962E0,6.9579973E0,1.0780533E1,0E0,0E0,8.186154E0,5.862778E0,8.160639E0,4.7029533E0,2.2368042E0,5.4303436E0,5.4493713E0,2.3788452E0,0E0,0E0,0E0,0E0,0E0,0E0,0E0,0E0,0E0,0E0,0E0,0E0,0E0,0E0,0E0,0E0,0E0,0E0,0E0,0E0,0E0,0E0,0E0,0E0,0E0,0E0],"parents":[2147483647,0,0,1,1,2,2,3,3,4,4,5,5,6,6,7,7,8,8,9,9,10,10,11,11,12,12,13,13,14,14,16,16,17,17,18,18,19,19,20,20,23,23,24,24,25,25,26,26,27,27,28,28,29,29,30,30],"right_children":[2,4,6,8,10,12,14,16,18,20,22,24,26,28,30,-1,32,34,36,38,40,-1,-1,42,44,46,48,50,52,54,56,-1,-1,-1,-1,-1,-1,-1,-1,-1,-1,-1,-1,-1,-1,-1,-1,-1,-1,-1,-1,-1,-1,-1,-1,-1,-1],"split_conditions":[2.5181503E0,1.819995E0,4.3638034E0,1.0506145E0,1.1271516E0,3.2653062E0,5.842479E0,2.0408163E0,8.4770536E-1,-9.0194845E-1,3.78198E0,1.051199E0,1.0083963E0,3.542415E-1,8.3935624E-1,4.9488794E-2,8.09E-1,1.8064516E0,1.5398091E-1,2.112462E0,1.7303532E0,-1.8365657E-2,-1.0981187E-3,1.7321801E0,-3.3898306E-1,-2.8035064E0,-6.422648E-1,6.9082385E-1,-3.0100415E0,-1.1013216E1,5E0,4.3000106E-2,2.6394352E-2,3.5267662E-2,2.6664529E-2,-6.9517256E-3,1.3740624E-2,1.5251494E-2,1.793487E-3,2.0371227E-2,8.273627E-3,1.0896592E-2,1.5898492E-3,-1.5200402E-4,-1.20695215E-2,-1.6513713E-2,-4.169213E-3,-1.0489935E-2,-2.0075927E-2,-6.1771534E-3,1.294775E-2,-2.2508176E-2,-1.4472854E-2,-2.3911502E-2,-1.5178697E-2,-1.9762244E-2,-2.9018318E-2],"split_indices":[26,26,26,26,18,26,26,43,18,21,40,29,29,30,30,0,6,43,27,26,41,0,0,43,18,21,18,29,21,40,43,0,0,0,0,0,0,0,0,0,0,0,0,0,0,0,0,0,0,0,0,0,0,0,0,0,0],"split_type":[0,0,0,0,0,0,0,0,0,0,0,0,0,0,0,0,0,0,0,0,0,0,0,0,0,0,0,0,0,0,0,0,0,0,0,0,0,0,0,0,0,0,0,0,0,0,0,0,0,0,0,0,0,0,0,0,0],"sum_hessian":[9.324519E3,2.8014846E3,6.5230337E3,1.380636E3,1.4208486E3,3.6952224E3,2.8278113E3,2.9304837E2,1.0875876E3,1.3513826E3,6.946596E1,1.6952078E3,2.0000146E3,1.6179731E3,1.2098383E3,2.3678163E2,5.6266747E1,1.0416145E3,4.5973064E1,4.350926E2,9.1629004E2,3.2880653E1,3.6585308E1,1.115394E3,5.798138E2,1.2448168E3,7.551979E2,5.792335E1,1.5600498E3,7.6227075E2,4.4756744E2,3.311336E1,2.3153385E1,5.5289716E2,4.8871744E2,2.1551514E1,2.4421549E1,1.4365843E2,2.9143417E2,6.509598E2,2.6533026E2,3.4109418E2,7.742998E2,4.4636804E2,1.3344572E2,1.5243921E2,1.0923776E3,5.840384E2,1.7115947E2,3.0888561E1,2.7034792E1,2.6492334E2,1.2951265E3,3.71249E2,3.910218E2,1.1846239E2,3.2910504E2],"tree_param":{"num_deleted":"0","num_feature":"44","num_nodes":"57","size_leaf_vector":"1"}},{"base_weights":[4.8263054E-3,-4.24199E-1,2.2608887E-2,-5.9498656E-1,-2.83816E-1,4.2641863E-2,-3.284169E-1,-3.2308932E-2,-4.2742932E-1,-3.2728207E-1,3.4193483E-3,7.796548E-2,-9.178142E-2,-2.8725478E-3,-3.669848E-1,-2.760684E-2,-1.3587721E-2,-3.6658576E-1,-5.4178173E-3,-6.220968E-2,1.0006013E-1,-5.700334E-2,-2.3553883E-1,7.583329E-3,-1.278832E-2,-3.1293234E-1,-5.6170744E-1,-2.677126E-2,-1.5112785E-2,-7.840701E-3,7.5005353E-3,5.5388124E-3,-6.1061425E-4,-1.8661704E-3,-1.1446283E-2,-9.800452E-3,-2.3910083E-2,-2.2109479E-2,-1.2629299E-2,-1.9573918E-2,-3.2574203E-2],"categories":[],"categories_nodes":[],"categories_segments":[],"categories_sizes":[],"default_left":[0,0,0,0,0,0,0,0,0,0,0,0,0,0,0,0,0,0,0,0,0,0,0,0,0,0,0,0,0,0,0,0,0,0,0,0,0,0,0,0,0],"id":22,"left_children":[1,3,5,7,9,11,13,-1,15,17,-1,19,21,23,25,-1,-1,27,-1,29,31,33,35,-1,-1,37,39,-1,-1,-1,-1,-1,-1,-1,-1,-1,-1,-1,-1,-1,-1],"loss_changes":[7.281232E1,8.677193E0,6.447805E1,8.2351685E-1,3.3304214E0,4.1227245E1,6.138695E0,0E0,4.8327827E-1,1.4755802E0,0E0,2.1313839E1,8.950403E0,2.2084537E0,4.213066E0,0E0,0E0,1.318985E0,0E0,1.8828243E1,7.1705627E0,4.86445E0,3.083765E0,0E0,0E0,2.4245033E0,8.352318E-1,0E0,0E0,0E0,0E0,0E0,0E0,0E0,0E0,0E0,0E0,0E0,0E0,0E0,0E0],"parents":[2147483647,0,0,1,1,2,2,3,3,4,4,5,5,6,6,8,8,9,9,11,11,12,12,13,13,14,14,17,17,19,19,20,20,21,21,22,22,25,25,26,26],"right_children":[2,4,6,8,10,12,14,-1,16,18,-1,20,22,24,26,-1,-1,28,-1,30,32,34,36,-1,-1,38,40,-1,-1,-1,-1,-1,-1,-1,-1,-1,-1,-1,-1,-1,-1],"split_conditions":[1.1959391E-1,8.972371E-2,7.0165744E0,1.6298438E0,2.9292307E0,5.097077E-1,3.600043E-1,-3.2308932E-2,8.9979696E-1,1.7892644E0,3.4193483E-3,1.8182674E-1,7.9034114E-1,8.7577033E-1,1.1116923E1,-2.760684E-2,-1.3587721E-2,7.304857E-1,-5.4178173E-3,2.4042554E0,8.898305E0,5.885341E0,-1.2745508E0,7.583329E-3,-1.278832E-2,5.097077E-1,6.7594433E0,-2.677126E-2,-1.5112785E-2,-7.840701E-3,7.5005353E-3,5.5388124E-3,-6.1061425E-4,-1.8661704E-3,-1.1446283E-2,-9.800452E-3,-2.3910083E-2,-2.2109479E-2,-1.2629299E-2,-1.9573918E-2,-3.2574203E-2],"split_indices":[27,27,11,11,11,27,27,0,31,10,0,27,27,16,11,0,0,31,0,11,10,11,16,0,0,27,10,0,0,0,0,0,0,0,0,0,0,0,0,0,0],"split_type":[0,0,0,0,0,0,0,0,0,0,0,0,0,0,0,0,0,0,0,0,0,0,0,0,0,0,0,0,0,0,0,0,0,0,0,0,0,0,0,0,0],"sum_hessian":[9.551069E3,3.783126E2,9.172757E3,1.6783958E2,2.1047302E2,8.679317E3,4.9343942E2,1.24365204E2,4.347438E1,1.8795154E2,2.2521479E1,6.8748647E3,1.8044524E3,5.298665E1,4.4045276E2,2.130368E1,2.2170702E1,1.5771225E2,3.0239292E1,9.344777E2,5.9403867E3,1.4557584E3,3.48694E2,3.2770634E1,2.0216011E1,3.486185E2,9.1834274E1,3.962352E1,1.1808873E2,6.4726965E2,2.8720807E2,5.4244395E3,5.159475E2,1.3089159E3,1.4684254E2,3.0288913E2,4.580485E1,1.06881386E2,2.417371E2,3.5254814E1,5.6579456E1],"tree_param":{"num_deleted":"0","num_feature":"44","num_nodes":"41","size_leaf_vector":"1"}},{"base_weights":[-1.703632E-3,-3.3238536E-1,3.0981204E-1,-5.198854E-1,-1.3122113E-1,2.3190598E-1,6.4797735E-1,-6.071564E-1,-3.7617034E-1,-1.4847447E-1,5.4344344E-1,5.757024E-2,3.343215E-1,5.823185E-1,9.37945E-1,-6.221601E-1,-5.212637E-1,-4.8081025E-1,-3.0686525E-1,-2.1690206E-1,-4.3102752E-2,1.3179155E-2,3.777597E-2,3.193292E-1,2.5522972E-2,2.611906E-1,4.3934956E-1,5.1061463E-1,7.0150787E-1,3.77016E-2,4.992027E-2,-2.568633E-2,-3.1817216E-2,-1.2143399E-2,-2.754639E-2,-2.5269313E-2,-6.901146E-3,-2.1499515E-2,-1.1378063E-2,-7.142432E-3,-1.526995E-2,-6.2262104E-3,3.6904768E-3,5.065812E-3,2.5153873E-2,-6.034424E-3,4.589547E-3,3.0874286E-2,1.1776316E-2,-3.0599458E-3,2.2722444E-2,1.266035E-2,2.8767606E-2,2.0074805E-2,3.9267927E-2],"categories":[],"categories_nodes":[],"categories_segments":[],"categories_sizes":[],"default_left":[0,0,0,0,0,0,0,0,0,0,0,0,0,0,0,0,0,0,0,0,0,0,0,0,0,0,0,0,0,0,0,0,0,0,0,0,0,0,0,0,0,0,0,0,0,0,0,0,0,0,0,0,0,0,0],"id":23,"left_children":[1,3,5,7,9,11,13,15,17,19,21,23,25,27,29,31,33,35,37,39,41,-1,-1,43,45,47,49,51,53,-1,-1,-1,-1,-1,-1,-1,-1,-1,-1,-1,-1,-1,-1,-1,-1,-1,-1,-1,-1,-1,-1,-1,-1,-1,-1],"loss_changes":[9.626621E2,1.707591E2,1.2636264E2,2.8876587E1,2.5528572E1,6.976778E1,1.600467E1,1.1611328E0,6.08226E0,1.5338085E1,2.7398338E0,1.2089008E1,1.8615112E1,5.5279083E0,3.336029E-1,1.1708984E0,1.5212479E0,2.7251358E0,5.006668E0,8.323429E0,8.059588E0,0E0,0E0,6.1094685E0,1.2556877E1,1.2939079E1,7.740341E0,7.40419E0,6.1363983E0,0E0,0E0,0E0,0E0,0E0,0E0,0E0,0E0,0E0,0E0,0E0,0E0,0E0,0E0,0E0,0E0,0E0,0E0,0E0,0E0,0E0,0E0,0E0,0E0,0E0,0E0],"parents":[2147483647,0,0,1,1,2,2,3,3,4,4,5,5,6,6,7,7,8,8,9,9,10,10,11,11,12,12,13,13,14,14,15,15,16,16,17,17,18,18,19,19,20,20,23,23,24,24,25,25,26,26,27,27,28,28],"right_children":[2,4,6,8,10,12,14,16,18,20,22,24,26,28,30,32,34,36,38,40,42,-1,-1,44,46,48,50,52,54,-1,-1,-1,-1,-1,-1,-1,-1,-1,-1,-1,-1,-1,-1,-1,-1,-1,-1,-1,-1,-1,-1,-1,-1,-1,-1],"split_conditions":[3.5164835E0,2.5181503E0,5.885341E0,2.0533152E0,2.2727273E0,4.4158554E0,1.0220584E1,6.8093383E-1,-1.0005672E-1,2.9859579E0,3.048956E0,-1.0032578E1,5.842479E0,2.0032707E1,5.5149275E-1,-1.6986301E1,5.502339E1,4.0688863E0,2.0932515E0,-1.6802708E0,4.736842E1,1.3179155E-2,3.777597E-2,-4.5832925E0,-7.019233E0,-1.4315326E1,3.2182914E-1,-6.25543E0,6.487632E-1,3.77016E-2,4.992027E-2,-2.568633E-2,-3.1817216E-2,-1.2143399E-2,-2.754639E-2,-2.5269313E-2,-6.901146E-3,-2.1499515E-2,-1.1378063E-2,-7.142432E-3,-1.526995E-2,-6.2262104E-3,3.6904768E-3,5.065812E-3,2.5153873E-2,-6.034424E-3,4.589547E-3,3.0874286E-2,1.1776316E-2,-3.0599458E-3,2.2722444E-2,1.266035E-2,2.8767606E-2,2.0074805E-2,3.9267927E-2],"split_indices":[26,26,11,26,39,26,11,20,13,11,26,22,26,42,27,10,28,11,11,22,28,0,0,17,40,22,30,40,31,0,0,0,0,0,0,0,0,0,0,0,0,0,0,0,0,0,0,0,0,0,0,0,0,0,0],"split_type":[0,0,0,0,0,0,0,0,0,0,0,0,0,0,0,0,0,0,0,0,0,0,0,0,0,0,0,0,0,0,0,0,0,0,0,0,0,0,0,0,0,0,0,0,0,0,0,0,0,0,0,0,0,0,0],"sum_hessian":[9.342053E3,4.531885E3,4.8101685E3,2.3438606E3,2.188024E3,3.9120386E3,8.9812976E2,1.4544298E3,8.8943085E2,2.134894E3,5.3129757E1,1.4492922E3,2.4627463E3,7.3655084E2,1.6157892E2,1.2281954E3,2.2623438E2,3.496786E2,5.3975226E2,1.2922385E3,8.4265564E2,2.47614E1,2.8368355E1,1.5593588E2,1.2933563E3,1.456041E3,1.0067053E3,4.6588205E2,2.706688E2,4.5794064E1,1.1578486E2,1.5016458E2,1.0780309E3,2.376108E1,2.024733E2,3.2507736E2,2.4601229E1,2.078678E2,3.3188446E2,7.068959E2,5.8534265E2,4.976732E2,3.4498248E2,7.2880455E1,8.3055435E1,4.020458E2,8.913105E2,9.4985214E1,1.3610558E3,2.8956621E1,9.777487E2,9.5723785E1,3.7015826E2,6.1542328E1,2.0912645E2],"tree_param":{"num_deleted":"0","num_feature":"44","num_nodes":"55","size_leaf_vector":"1"}},{"base_weights":[7.8814867E-4,4.5176697E-1,-1.963756E-1,6.497685E-1,2.4724455E-1,-7.853725E-2,-3.610168E-1,7.83589E-1,5.188373E-1,2.6787916E-1,-2.842092E-1,-1.7199876E-2,-2.4761625E-1,-3.1162214E-1,-5.3332204E-1,8.726979E-1,6.315355E-1,5.509737E-1,7.793948E-2,-2.1734014E-2,3.0320385E-1,-0E0,-2.3588931E-2,-1.477958E-1,5.54087E-2,-2.0482862E-1,-3.7396252E-1,-4.8037723E-1,-2.9021505E-1,-3.0635027E-2,-4.9545807E-1,4.494865E-2,1.5428389E-2,8.471874E-3,3.3465665E-2,2.4306271E-2,3.8932078E-2,2.1901697E-2,-1.7792484E-2,1.4782438E-2,-7.384062E-3,2.0530118E-2,1.0511191E-2,-1.1065359E-2,-3.0824584E-3,2.3006286E-2,1.5916827E-3,-2.0370228E-2,-8.339333E-3,-7.0542516E-3,-2.2009598E-2,-1.1857892E-2,-2.5376031E-2,-1.2249312E-2,-1.8821618E-2,-2.3075474E-2,-3.196126E-2],"categories":[],"categories_nodes":[],"categories_segments":[],"categories_sizes":[],"default_left":[0,0,0,0,0,0,0,0,0,0,0,0,0,0,0,0,0,0,0,0,0,0,0,0,0,0,0,0,0,0,0,0,0,0,0,0,0,0,0,0,0,0,0,0,0,0,0,0,0,0,0,0,0,0,0,0,0],"id":24,"left_children":[1,3,5,7,9,11,13,15,17,19,21,23,25,27,29,31,33,35,37,39,41,-1,-1,43,45,47,49,51,53,-1,55,-1,-1,-1,-1,-1,-1,-1,-1,-1,-1,-1,-1,-1,-1,-1,-1,-1,-1,-1,-1,-1,-1,-1,-1,-1,-1],"loss_changes":[8.286663E2,1.1439044E2,1.25663666E2,2.4344849E1,1.5436615E1,3.9160225E1,2.259253E1,8.465485E0,1.0189987E1,1.3840736E1,2.7519355E0,2.6367977E1,5.2063255E0,7.244095E0,1.124466E0,5.888733E0,4.3382645E0,9.250641E0,8.363653E0,5.9182587E0,1.1737099E1,0E0,0E0,6.216688E0,1.691215E1,5.6076527E0,3.6684608E0,1.2134628E0,7.043457E0,0E0,1.3645096E0,0E0,0E0,0E0,0E0,0E0,0E0,0E0,0E0,0E0,0E0,0E0,0E0,0E0,0E0,0E0,0E0,0E0,0E0,0E0,0E0,0E0,0E0,0E0,0E0,0E0,0E0],"parents":[2147483647,0,0,1,1,2,2,3,3,4,4,5,5,6,6,7,7,8,8,9,9,10,10,11,11,12,12,13,13,14,14,15,15,16,16,17,17,18,18,19,19,20,20,23,23,24,24,25,25,26,26,27,27,28,28,30,30],"right_children":[2,4,6,8,10,12,14,16,18,20,22,24,26,28,30,32,34,36,38,40,42,-1,-1,44,46,48,50,52,54,-1,56,-1,-1,-1,-1,-1,-1,-1,-1,-1,-1,-1,-1,-1,-1,-1,-1,-1,-1,-1,-1,-1,-1,-1,-1,-1,-1],"split_conditions":[2.5181503E0,1.8419081E0,4.4158554E0,1.4134429E0,1.1308563E0,3.85E0,5.8103447E0,1.6759777E0,3.4146342E0,-5.3409557E0,2.1472392E0,-6.7064085E0,1.0387157E0,-1.2145566E1,-3.5818973E0,5.726847E-1,-6.535948E-1,4.1727644E-1,2.2377393E-1,2.092634E0,7.7322817E-1,-0E0,-2.3588931E-2,-5.4343376E0,-1.2227395E1,-1.0220995E1,4.5738826E0,-1.470944E0,-4.263051E-2,-3.0635027E-2,1.0220584E1,4.494865E-2,1.5428389E-2,8.471874E-3,3.3465665E-2,2.4306271E-2,3.8932078E-2,2.1901697E-2,-1.7792484E-2,1.4782438E-2,-7.384062E-3,2.0530118E-2,1.0511191E-2,-1.1065359E-2,-3.0824584E-3,2.3006286E-2,1.5916827E-3,-2.0370228E-2,-8.339333E-3,-7.0542516E-3,-2.2009598E-2,-1.1857892E-2,-2.5376031E-2,-1.2249312E-2,-1.8821618E-2,-2.3075474E-2,-3.196126E-2],"split_indices":[26,26,26,26,39,11,11,43,11,22,26,41,39,22,22,23,19,23,23,26,30,0,0,22,12,41,11,13,13,0,11,0,0,0,0,0,0,0,0,0,0,0,0,0,0,0,0,0,0,0,0,0,0,0,0,0,0],"split_type":[0,0,0,0,0,0,0,0,0,0,0,0,0,0,0,0,0,0,0,0,0,0,0,0,0,0,0,0,0,0,0,0,0,0,0,0,0,0,0,0,0,0,0,0,0,0,0,0,0,0,0,0,0,0,0,0,0],"sum_hessian":[9.316013E3,2.8336328E3,6.48238E3,1.4376128E3,1.3960201E3,3.7802085E3,2.7021711E3,7.0650854E2,7.311042E2,1.3449215E3,5.1098644E1,2.7759888E3,1.0042196E3,2.1043044E3,5.978667E2,4.4014392E2,2.6636462E2,6.8066345E2,5.0440727E1,1.4565656E2,1.1992649E3,2.1145954E1,2.995269E1,9.9233936E2,1.7836494E3,7.542909E2,2.4992868E2,2.3221548E2,1.8720891E3,1.8402327E2,4.138434E2,4.1936646E2,2.0777443E1,2.115224E1,2.4521239E2,5.3411017E2,1.465533E2,2.780543E1,2.26353E1,4.0354786E1,1.05301765E2,5.531096E2,6.461553E2,5.3291376E2,4.5942563E2,9.61839E1,1.6874656E3,1.16120415E2,6.381705E2,5.7048504E1,1.9288017E2,2.5519644E1,2.0669585E2,1.23323E3,6.3885913E2,3.4102213E2,7.282127E1],"tree_param":{"num_deleted":"0","num_feature":"44","num_nodes":"57","size_leaf_vector":"1"}},{"base_weights":[-5.4013347E-3,-3.5481247E-1,1.7369408E-2,-4.6696204E-1,-1.851804E-1,6.918331E-2,-1.5570223E-1,-5.047919E-1,1.2805306E-3,5.086286E-3,-2.4213126E-1,7.7547394E-2,-2.7774885E-1,-1.1303392E-1,-4.0271872E-1,-2.1736872E-1,-5.527769E-1,-3.0070936E-2,-1.8549149E-1,-6.335731E-2,9.204364E-2,-1.1868912E-2,-3.7882262E-1,-6.423485E-2,-2.1406624E-1,-3.1857088E-1,-3.040639E-2,-2.1400364E-2,7.521315E-4,-3.3104025E-2,-2.511235E-2,-1.6107978E-2,-3.087673E-3,-1.0212234E-2,3.109879E-3,7.1472637E-3,3.4208235E-3,8.987365E-3,-9.176402E-3,-2.3247767E-2,-1.4634937E-3,-5.6072194E-3,3.4205397E-3,4.44596E-4,-1.2279124E-2,-4.3805214E-3,-1.86069E-2],"categories":[],"categories_nodes":[],"categories_segments":[],"categories_sizes":[],"default_left":[0,0,0,0,0,0,0,0,0,0,0,0,0,0,0,0,0,0,0,0,0,0,0,0,0,0,0,0,0,0,0,0,0,0,0,0,0,0,0,0,0,0,0,0,0,0,0],"id":25,"left_children":[1,3,5,7,9,11,13,15,-1,-1,17,19,21,23,25,27,29,-1,31,33,35,37,39,41,43,45,-1,-1,-1,-1,-1,-1,-1,-1,-1,-1,-1,-1,-1,-1,-1,-1,-1,-1,-1,-1,-1],"loss_changes":[7.576706E1,1.0824127E1,8.009719E1,6.619484E0,3.9062576E0,1.9944916E1,2.1514458E1,4.1427155E0,0E0,0E0,3.6878262E0,1.3732281E1,4.258789E0,8.587435E0,4.740288E0,2.5159125E0,7.9603577E-1,0E0,2.8185773E0,1.1122236E1,7.268852E0,1.5835001E0,3.388918E0,7.5725317E0,4.058319E0,2.555256E0,0E0,0E0,0E0,0E0,0E0,0E0,0E0,0E0,0E0,0E0,0E0,0E0,0E0,0E0,0E0,0E0,0E0,0E0,0E0,0E0,0E0],"parents":[2147483647,0,0,1,1,2,2,3,3,4,4,5,5,6,6,7,7,10,10,11,11,12,12,13,13,14,14,15,15,16,16,18,18,19,19,20,20,21,21,22,22,23,23,24,24,25,25],"right_children":[2,4,6,8,10,12,14,16,-1,-1,18,20,22,24,26,28,30,-1,32,34,36,38,40,42,44,46,-1,-1,-1,-1,-1,-1,-1,-1,-1,-1,-1,-1,-1,-1,-1,-1,-1,-1,-1,-1,-1],"split_conditions":[1.4134429E0,1.5920398E0,5.0605907E0,9.2327285E-1,4.35225E1,7.0165744E0,7.1875E0,-3.5330262E0,1.2805306E-3,5.086286E-3,8.972371E-2,1.819995E0,1.0146629E0,6.7158384E0,1.1116923E1,1.381961E-1,1.1029106E0,-3.0070936E-2,5.5576923E1,1.8064516E0,-6.6140547E0,4.0286703E0,7.7934084E0,4.3910522E0,2.6168224E1,-2.5070423E1,-3.040639E-2,-2.1400364E-2,7.521315E-4,-3.3104025E-2,-2.511235E-2,-1.6107978E-2,-3.087673E-3,-1.0212234E-2,3.109879E-3,7.1472637E-3,3.4208235E-3,8.987365E-3,-9.176402E-3,-2.3247767E-2,-1.4634937E-3,-5.6072194E-3,3.4205397E-3,4.44596E-4,-1.2279124E-2,-4.3805214E-3,-1.86069E-2],"split_indices":[26,43,26,22,28,11,11,40,0,0,27,26,29,26,11,27,11,0,28,43,41,26,22,22,28,10,0,0,0,0,0,0,0,0,0,0,0,0,0,0,0,0,0,0,0,0,0],"split_type":[0,0,0,0,0,0,0,0,0,0,0,0,0,0,0,0,0,0,0,0,0,0,0,0,0,0,0,0,0,0,0,0,0,0,0,0,0,0,0,0,0,0,0,0,0,0,0],"sum_hessian":[9.511695E3,5.811414E2,8.930554E3,3.4755362E2,2.3358777E2,6.874526E3,2.0560283E3,3.2310757E2,2.4446043E1,3.791072E1,1.9567705E2,6.7143916E3,1.601341E2,1.7557461E3,3.0028217E2,4.800817E1,2.7509943E2,2.4201197E1,1.7147586E2,6.2457886E2,6.089813E3,4.511406E1,1.1502004E2,1.1869009E3,5.688452E2,2.1642258E2,8.385958E1,2.4972921E1,2.303525E1,7.997963E1,1.9511978E2,7.956976E1,9.190609E1,2.9462628E2,3.2995255E2,1.9255114E3,4.1643013E3,2.0733881E1,2.4380178E1,9.142483E1,2.3595215E1,8.7323987E2,3.1366098E2,6.979799E1,4.9904724E2,4.2192375E1,1.7423021E2],"tree_param":{"num_deleted":"0","num_feature":"44","num_nodes":"47","size_leaf_vector":"1"}},{"base_weights":[-6.9280136E-3,-3.2717407E-1,2.9103443E-1,-5.356386E-1,-1.657186E-1,2.2033754E-1,6.2925416E-1,-5.952152E-1,-3.7742814E-1,-1.9228494E-1,3.1465343E-1,5.300354E-2,3.199285E-1,5.6540453E-1,8.848613E-1,-4.887458E-1,-6.1076283E-1,-4.0925202E-1,-5.9583683E-2,-2.8476343E-1,-1.2566096E-1,-1.2364661E-2,4.281933E-1,-7.836329E-2,1.0622323E-1,2.7057752E-1,4.6703422E-1,7.6580863E-3,5.8300304E-1,2.9912516E-2,4.6249922E-2,-7.753577E-3,-2.6296461E-2,-3.204232E-2,-2.8545324E-2,-2.4602816E-2,-1.7225742E-2,9.39043E-3,-1.4828414E-2,-2.0695006E-2,-1.1622093E-2,-8.662299E-3,4.4395328E-3,4.848241E-3,2.9996067E-2,1.0573036E-2,-5.92765E-3,3.1105435E-2,4.499613E-3,2.6196127E-3,1.5170658E-2,-3.0140071E-3,2.4838312E-2,3.9297536E-2,2.730625E-2],"categories":[],"categories_nodes":[],"categories_segments":[],"categories_sizes":[],"default_left":[0,0,0,0,0,0,0,0,0,0,0,0,0,0,0,0,0,0,0,0,0,0,0,0,0,0,0,0,0,0,0,0,0,0,0,0,0,0,0,0,0,0,0,0,0,0,0,0,0,0,0,0,0,0,0],"id":26,"left_children":[1,3,5,7,9,11,13,15,17,19,21,23,25,27,29,31,33,35,37,39,41,-1,43,45,47,49,51,-1,53,-1,-1,-1,-1,-1,-1,-1,-1,-1,-1,-1,-1,-1,-1,-1,-1,-1,-1,-1,-1,-1,-1,-1,-1,-1,-1],"loss_changes":[8.8703217E2,1.5053711E2,1.1475809E2,1.789032E1,3.2324974E1,6.6317856E1,1.2524841E1,1.6767578E0,5.3283844E0,1.4630554E1,8.658107E0,1.0431948E1,1.7793762E1,4.5784454E0,7.3864746E-1,2.0940056E0,6.814575E-1,2.2035599E0,3.1213229E0,6.4907684E0,1.4295742E1,0E0,6.0981655E0,5.018833E0,8.664443E0,1.3335449E1,9.91983E0,0E0,3.8903046E0,0E0,0E0,0E0,0E0,0E0,0E0,0E0,0E0,0E0,0E0,0E0,0E0,0E0,0E0,0E0,0E0,0E0,0E0,0E0,0E0,0E0,0E0,0E0,0E0,0E0,0E0],"parents":[2147483647,0,0,1,1,2,2,3,3,4,4,5,5,6,6,7,7,8,8,9,9,10,10,11,11,12,12,13,13,14,14,15,15,16,16,17,17,18,18,19,19,20,20,22,22,23,23,24,24,25,25,26,26,28,28],"right_children":[2,4,6,8,10,12,14,16,18,20,22,24,26,28,30,32,34,36,38,40,42,-1,44,46,48,50,52,-1,54,-1,-1,-1,-1,-1,-1,-1,-1,-1,-1,-1,-1,-1,-1,-1,-1,-1,-1,-1,-1,-1,-1,-1,-1,-1,-1],"split_conditions":[3.5164835E0,2.3485785E0,6.0456944E0,2.0533152E0,9.5176494E-1,4.4158554E0,1.0220584E1,-1.6986301E1,4.7619047E0,2.8366475E0,4.3370786E0,-4.1301336E0,6.705805E-1,3.3795664E-1,-2.2373394E1,2.3345535E0,1.5896608E0,-1.0471186E-1,-4.6572077E-1,-5.4505005E0,1.191076E0,-1.2364661E-2,-2.4875621E-1,-3.9094915E0,-4.3846717E0,4.632258E-1,3.3407176E-1,7.6580863E-3,-1.3951848E1,2.9912516E-2,4.6249922E-2,-7.753577E-3,-2.6296461E-2,-3.204232E-2,-2.8545324E-2,-2.4602816E-2,-1.7225742E-2,9.39043E-3,-1.4828414E-2,-2.0695006E-2,-1.1622093E-2,-8.662299E-3,4.4395328E-3,4.848241E-3,2.9996067E-2,1.0573036E-2,-5.92765E-3,3.1105435E-2,4.499613E-3,2.6196127E-3,1.5170658E-2,-3.0140071E-3,2.4838312E-2,3.9297536E-2,2.730625E-2],"split_indices":[26,26,11,26,16,26,11,10,41,26,11,17,27,27,10,8,26,12,16,40,29,0,40,21,21,30,30,0,41,0,0,0,0,0,0,0,0,0,0,0,0,0,0,0,0,0,0,0,0,0,0,0,0,0,0],"split_type":[0,0,0,0,0,0,0,0,0,0,0,0,0,0,0,0,0,0,0,0,0,0,0,0,0,0,0,0,0,0,0,0,0,0,0,0,0,0,0,0,0,0,0,0,0,0,0,0,0,0,0,0,0,0,0],"sum_hessian":[9.292883E3,4.4792104E3,4.813672E3,1.9529409E3,2.5262698E3,3.9839822E3,8.296895E2,1.4147767E3,5.381642E2,2.3951265E3,1.3114339E2,1.4880492E3,2.4959329E3,6.6834106E2,1.6134845E2,1.8811194E2,1.2266648E3,4.8822092E2,4.9943264E1,9.996429E2,1.3954835E3,2.1450277E1,1.0969311E2,4.2774417E2,1.060305E3,1.8731486E3,6.227844E2,2.842437E1,6.399167E2,2.3362492E1,1.3798596E2,2.0177616E1,1.6793433E2,6.83286E2,5.433788E2,2.0851807E2,2.7970285E2,2.4174458E1,2.5768805E1,2.8414542E2,7.154975E2,1.1430673E3,2.5241628E2,3.865229E1,7.104082E1,5.0707E1,3.7703717E2,3.0258364E1,1.0300466E3,2.463295E2,1.6268191E3,3.279943E1,5.89985E2,9.28811E1,5.470356E2],"tree_param":{"num_deleted":"0","num_feature":"44","num_nodes":"55","size_leaf_vector":"1"}},{"base_weights":[-6.10772E-3,4.1569695E-1,-1.9307946E-1,6.0559833E-1,2.3047958E-1,-7.435121E-2,-3.561793E-1,8.500565E-1,5.4017484E-1,3.678724E-1,1.6286038E-1,1.59652E-2,-1.5074429E-1,-2.9125693E-1,-4.188817E-1,8.7605894E-1,2.6471531E-2,2.3667485E-1,5.7031244E-1,4.0458713E-2,4.3446526E-1,2.730905E-1,8.048581E-2,-1.0887765E-1,7.391694E-2,-4.0297386E-1,-1.2707016E-1,-4.3268412E-1,-2.4899668E-1,-3.4134117E-1,-4.8978788E-1,4.5484345E-2,3.416353E-2,1.9672468E-2,-1.4733645E-2,3.048241E-2,1.4703219E-2,-5.444051E-3,2.2508662E-2,2.348805E-2,-0E0,2.475197E-2,8.727424E-3,-1.2915205E-3,1.4128323E-2,-4.6334844E-3,-2.3457237E-2,1.42308315E-2,1.2559815E-3,-1.2404061E-2,-2.5879148E-2,2.3609798E-3,-7.917523E-3,-7.415884E-3,-2.291058E-2,